1.018635304085711 
-0.8587713668067217 
-1.1067841397704812 
-2.065636421762767 
-0.4760560029913857 
0.4038126061331045 
-0.31876289570405203 
-0.08548755036562826 
-0.2248284354046453 
1.0757127437857124 
0.3923860829147987 
0.9573804570686583 
0.03652609960677768 

-0.371368218394709 -0.9473198055150044 -0.09296628168857247 -0.3340620549186954 -0.3630652256668089 
1.1206895620150226 0.1199647052069429 0.4525178215485149 -0.0381652329731745 -1.056451360547191 
0.7171595302790839 2.9952516759781416 -0.6110115274042662 0.6526489317083621 1.4840797438156956 
-0.3183468430767572 -0.2621166616788314 -1.8902638250478696 
1.9426839954535264 0.9696788485010972 0.2095550147016259 
-0.11742345860728275 -2.4664586314066437 -0.9987946780131028 
0.7576488889669345 -0.28995851150590535 0.35026258812288164 
-0.8801275199291447 1.9104251313914273 0.2718473872513797 
-1.1523446323540425 0.07716716083634458 1.4456735607438655 
2.6592809721157735 -1.626609853106769 0.7725709887569339 
1.2418160977760202 0.6272048218586316 -2.7701424722096184 
0.2160874230483907 0.5134064277660138 -1.2569992026304855 
-0.5728003688839314 -0.7663966627926969 -1.1405879874063936 
