0.9207394567205731 -0.6699130239812867 -0.9253182892420393 0.1383559619155239 -0.12878437944750587 -0.493954270071866 -0.37842372594723583 0.4531162164561022 -0.35469356009711484 -0.6132061222981882 0.11907111349506883 -0.04688973398156393 0.407375137095278 0.3540680010920701 -0.011856584742188314 0.13164061013260042 0.11574263432635967 -0.507840177845287 0.4603225106944604 0.6152927429602861 0.1581607495065629 -0.45373075493016923 0.06791047775198988 -0.023149089173745363 0.14760113318127277 -0.9722576372523377 -0.6258966090841713 0.8832836590992232 -0.3213482009442472 0.40947793469651583 0.15840617912644905 0.6013209853411108 0.06561561106234981 -0.47116698007915336 0.5246873320164824 -0.6617767864505801 0.8665559375843996 -0.448512180823526 -0.7867558735263928 0.4123858712324252 0.3425527579945743 0.14895436778588556 -0.22109072264256394 -0.1679386981429978 -0.08578883975848602 0.9027651856171788 0.22191551420202413 0.4938107340704448 0.1370442475693945 -0.6224879738320608 0.1962806267567247 -0.07268767777604279 -0.240443379650783 0.7694241046507553 -0.07558887560763039 0.2832850581701343 0.03558056901703277 -0.3636590261683963 0.6466063784442739 -0.9286506118749404 -0.4169487624405884 0.7568551280214123 -0.44057757162221073 -0.9289386684471402 0.8426865795143852 -0.10040399226632377 0.990335767010933 -0.21115224970536367 -0.5377091565929913 -0.006864708022438596 -0.14952071312223916 0.8112962300797223 0.714290865222121 -0.053758317232451364 -0.7317371366328949 -0.3847872061389203 0.6955207376873819 0.4560005176370342 -0.11427463632188126 0.28096111332287316 -0.4877681879730984 0.4671778593739426 0.8986619668798399 0.09074536991755577 0.958727235501107 -0.07751128294226883 0.17677910897358995 -0.9896328620337254 -0.47424528045153663 -0.5857185012029703 0.1573995587789058 -0.5486374110913249 -0.2802035969385688 -0.7579435715748897 0.47665529079348073 0.17687157028316072 0.7290214064494628 0.1587411469569076 -0.8014790655041114 0.46468950934215775 0.141836284211087 -0.5719180146457369 -0.4380486071927275 -0.36368195074005105 0.35006181660222946 0.4581624113812988 -0.43853659571057735 0.8876953716796373 -0.07349795586915046 0.5428944608906533 0.9345941140280635 -0.3361795402452905 0.3735223096670268 -0.6906567671810458 0.944678322292142 -0.727603164878651 0.27404114594090384 0.5047641546859468 0.13556579489256046 -0.8131988268939432 -0.6590381536117147 -0.8693477317515436 0.5915208788029083 0.28985136251216875 0.45541739805418974 1.004290171928679 0.9059825021880062 0.10251571730160385 0.9176929166639632 -0.7835174702500549 0.8759576169771772 0.9013030020241037 -0.36872951285201305 -0.8160099641838234 0.6607255746144534 0.7302702865698253 -0.5467194270085477 0.2557667311918998 -0.8403640329835406 0.38238571895552287 0.19341800423738298 0.9905154636171767 0.5979985604660835 -0.5646507199363413 -0.49145166625030584 -0.5953031461421625 0.3391703695668639 0.2187177272272918 0.9520048462672595 -0.7199447679704998 0.02803812217187073 1.0164098439100953 -0.1859172195260081 0.5975967098781197 -0.47476454299840093 0.19962591385887524 -0.2627359285272333 0.2093753127307232 -0.4626955408800242 0.31164855820808945 0.21177618471807028 -0.30132740123586954 0.0029556333390433126 0.17318093179968758 -0.23226003176802526 -0.7056196328140405 0.9184231634869643 -0.5635762097523194 0.9981510128182309 0.5068410301735091 -0.5571238025698773 0.11275933712916068 0.5717643295073832 -0.9257944004669336 0.7602594949610562 -0.24034842604162449 0.5758587445231746 -0.03264157378867361 0.08607668989434929 -0.7475881507482709 -0.3180957107458908 -0.11017250892448249 -0.26031185997445055 -0.9044013481546425 0.8346298075374574 0.6658861753142108 -0.4962201887541807 -0.8352294047482905 -0.9540493868932398 -0.05117203290329715 -0.3405781566679947 0.7007056563278339 -0.4648510009487472 -0.9313600872098662 0.5736616582324717 0.5383567014308164 -0.914976662458477 -0.9651421615227044 -0.7075060722127327 0.5472142958449079 -0.8988935767583847 0.9839979519583929 0.4507763238732167 0.02127076822351578 0.19733366891394985 1.049893641807722 -0.49442100930362237 0.7851492552066817 -0.003259650314548278 0.37563754688538625 -0.4344164593340078 0.09440764857670618 -0.8882811036313683 -0.9802070326939107 0.445134929939461 0.23356572400339215 -0.38971533190070634 -0.34990712667223256 -0.4437128130958942 0.7876532552344232 0.6925499103534664 -0.0557977457552322 -0.7177759124549828 0.9758713223848662 0.7135675133530713 0.7386804521693904 0.43016934584971495 -0.8776161120083015 0.5312596259652568 -0.12275464498033858 0.12125721595574147 0.8606147191843396 -0.045160814365012875 0.37488591933361864 0.6805037204648365 0.452344928305459 -0.2105714433106474 0.12296293123158092 -0.1267667261837318 -0.4638870388622584 -0.11162688682459769 -0.07406997675842346 0.6542718453162981 0.8205593946072958 -0.5557582143893358 0.07616139780643184 -0.8575901499749753 0.22283819658490653 0.5942127973599429 0.011626993738435454 0.18655793639069074 0.12631567453537343 0.3962486778075338 0.6444848350763213 -0.8017643090260443 0.20781122573969216 -0.3873920887533822 0.12949042095012928 0.07965355361546148 0.483419263862591 -0.169852751102797 0.7208081658445683 -0.5024257495111227 -0.04326358554721678 -0.5136012471340445 0.13142365463860617 -0.7176113558572638 -0.2609853958200673 0.042575787428492745 0.2836849827974029 0.8580799932921569 0.857574710014194 -0.6565609771399826 -0.8248325566302336 0.16948639382539904 -0.9565677647154771 -0.9784887489973448 -0.024557403383876693 0.8482076180842328 0.6988119230765508 0.0617674682626419 -0.5843138948676868 -0.2670441475394067 0.893666196952637 -0.3049788049134439 0.2743701367139526 0.4529260023027305 -0.5221446166375432 0.10283193843159813 -1.0096657038846293 -0.22129005088313516 -0.14950675054364906 -0.7560010859487091 -0.6539194296912662 0.08242320017732405 -0.8028774917714717 -0.26658167244573355 -0.7846397944424008 -0.6598194865306595 -0.8859042435914716 -0.5109699381194789 -1.0410486708120186 -0.5097672577108805 0.28752740825617357 0.18891096218544337 0.9070076528352088 -0.8180178699374843 0.5422557064977878 -0.18068604305224034 0.7607189315025333 -0.6742781857354022 -0.08349511391814687 -0.09068328283310044 0.8760467852505193 0.40581966684512694 0.287517025107071 -0.46780208085020414 0.2665883354290291 0.07346163247036193 -0.6561031465932261 -0.577121350270052 -0.43030308789636595 0.07172328213791451 0.6008181531797492 -0.4657882272392764 0.11365646782291162 -0.42129032426348745 0.4414524258870634 -0.5109512437583237 -0.06336377798725867 0.7875246747359695 0.12230744715139756 -0.7031962084050786 -0.5743270228805073 0.43547689188674366 -0.10871439833241425 0.9058473171940775 0.03898770832781211 -0.23856425290597785 0.08501852071171521 0.8687415627240741 0.7762916701016793 -0.41747035102689617 -0.4042799454216109 0.6820431108587365 -0.8814431129408716 0.5324710942257457 0.344161089260313 0.8130943261793926 -0.3179109176171122 -1.026751099429008 -0.07516995310772519 0.5800244232679255 -0.9385470262187405 -0.7358741507078482 0.8256440142355661 0.6466907680269649 -0.49544792454005737 0.29545006596054396 0.6741753665822838 0.3556114857978523 0.029221849820661307 0.9969803868363757 0.3563858029441928 -0.8247380901340196 0.8163215956897949 0.7740942324430333 -0.9312197050963379 -0.10128282500167196 -0.06227599381505667 0.10405846398694804 0.21930325307490062 0.7202798412343137 -0.02758284520816859 0.4580634557431474 0.03225255591072277 -0.9248281885173095 -0.802991456137341 -0.07286670077280466 -0.6089539711454205 0.3687032271994518 -0.22658219766501256 -0.09627888157668918 -0.015000280196455707 0.4647433355791535 -0.9703706544511617 -0.2688508221726809 0.659812314263283 -0.909641248543528 0.8967751924672249 0.03511723516131337 -0.12586222965689464 -0.7877879767602836 -0.1691895878688024 0.5158631481103387 -0.708317891888492 0.8582988235536606 -0.05809521705848123 -0.12281388051160913 -0.6175598531421976 -0.704977023347375 0.6191865878020522 -0.6685173665490943 -0.06992818284161903 -0.1398120973192222 -1.1048598783511632 0.0899571117868715 -0.2952291874532623 0.5181219369528189 -0.2144662937956422 0.6836544443617738 0.7828933376121838 1.0549097904496432 -0.5112012876895392 0.06890862549389724 -0.8797705286746454 0.03413078251390552 -0.4575420112649734 0.07951227847683266 0.1548577760216197 0.8106541508629551 -0.061326480695431895 -0.32083615345479966 0.21278204691648528 0.14774823055760997 -0.8142696230550601 -0.7849333569394918 0.618544908763367 -0.9036393522839401 0.13252752337931106 0.342388045927451 0.7563764389341362 0.39186988019113783 0.40716073062131086 -0.2389215352229174 -0.7950237756959132 0.14025218765975483 0.5541805018746435 0.44583736061581475 0.06556735769099342 -0.7033460597926249 -0.5852788077251069 0.9450153284294941 0.15506522795785405 -0.32368417727462906 0.17376695971776335 0.733353594042487 -0.06508989344624372 -0.8470168648490527 -0.8677548938743439 0.45553598890086694 0.9464366599863004 0.40051410535266446 -0.20838926754684495 1.052899702209625 -0.38898007509591614 0.31645407156505884 1.0158579908498946 -0.48596922482252747 0.21936757047259736 0.3401205102728174 0.03956616831532238 -0.6554235082259033 -0.9836741271146329 -0.24387219460898554 -0.3695070384117754 -0.4836203980645731 0.1649863013873966 0.3057690432307036 -0.7633328168983127 -0.5086620195860111 0.0022391160558683804 0.7237833842003192 -0.46094262526775387 -0.3166472869428589 0.5453145907371507 -0.44115735027071423 -0.2555347278893889 -0.8522474262481732 0.5399769238982893 -0.4093223157973538 -0.11475635033053339 0.07882785847854575 -0.6734918017746685 0.2710222665007175 -0.22621467808111795 0.707730441074114 -0.31788878917992713 0.20013715326489354 -0.6241630398521996 0.8159421311130532 0.46732067370495295 -1.0020373472662059 0.07616020206920454 0.584485305552691 -0.6045234263174999 0.40011418654507375 1.0379549310450393 -0.6932313808031331 -0.8660190986093794 -0.6491545516181464 0.43313136743225383 0.15922224153126394 -0.04510229561518347 -0.8566105513913005 -0.6471435007715126 -0.27514149059209714 0.9153728135367722 -0.690239333897323 -0.3309059661464096 0.06906050284257775 -0.2093247188251275 0.21049500489168108 -0.6584692122264784 -0.39891540479420434 0.21901869673333826 0.49989936219842246 0.566917590466704 -0.7303661795920784 0.59792119286738 -0.564538422877172 0.3615854506523889 0.8610755761754543 0.4601977659011771 0.9712627586163222 -0.04943391746930265 0.8564378666437793 0.14897089438560857 0.1988212842532939 -0.21164850801542853 -0.208245246624519 -0.4853345757928562 -0.8669966217170009 -0.23273357033175895 -0.9727102188340772 -0.4058520610871884 -0.12430427750718694 -0.486739476836956 -0.01634502738559668 -0.04070752167925778 0.03778058966026743 0.10586476882850998 0.6977572363869379 -0.7171939875577382 0.31311087654028474 0.9114744998883503 -0.6810169772822763 0.2498747049339768 0.011591082469806661 -0.27839830799388143 0.3240829797227265 0.1527992950489568 -0.5812004764803324 1.0738452787067698 -0.18310692668041373 0.6712188033919957 0.6011710039441178 -0.43553981956905613 0.737108350755367 0.1647620518554016 0.9321255626957903 0.7800130195158731 0.7688896369633796 -0.048566180285308534 -0.1182333980102648 -0.24747560541240715 1.0664927184130015 -0.17169755274544385 -0.039808423889140576 0.36973551226517676 0.9492293347316263 0.09780258801374392 0.288470005810339 -0.3974176611191909 -0.4164066795835712 0.20000930189643265 -0.07997657153017156 -0.3681344712976209 -0.4756491953501047 0.045227860714267966 0.5338335315919768 -0.2663664913643897 -0.2085715367861591 -0.6017396765525866 0.26904015290736055 -0.7779118236266387 0.5979410624246762 -0.1898283337031865 0.31812080146755206 -0.9040818623621626 0.7244509338911078 -0.3155107435691204 -0.3399625240217366 0.43797348781410333 0.21954228111583032 0.08927860495616859 0.39975316225334967 1.0300921815194195 -0.23897234447058802 0.860172072243686 0.6203164657631856 0.5200133508477957 -0.2693178398761099 -0.30725498488729863 0.9292391279173237 0.7044319098333781 0.5784625497499899 -0.4572034941859277 -0.4354981158860074 5.521380263383494E-4 -0.5786036841593137 0.7229747563926121 -0.6302886668868952 0.8343496149432315 0.40813356106246074 0.9546166040957893 -0.6382415557405574 0.04837585936438792 -0.20503402274631616 -0.2483055585716152 -0.11665910967294069 -0.07903746368924948 0.638682681000961 -0.20566794999385743 0.2480152548143095 0.9740859102892889 -1.0012442722611616 0.6543078427452041 0.0010267797429041891 -0.2818899054723 0.0152074484700741 -0.22332680707998132 -0.7309488860835737 -0.7077801271002456 0.8814446470417894 0.34113640875946855 -0.09597104964291701 0.4562938233750839 -0.4394481848843135 -0.8775075647274071 0.4697283414440699 -0.6903711365675066 -0.4374102428345849 -0.4613868742927889 0.8291096066482699 0.2714651179800489 0.817002413531019 -0.16644564998507622 0.27658252225071245 0.34807428555244063 -0.5175473868704915 0.9017992231048498 -0.7849054589275837 -0.2905277888241784 0.7282749232595763 0.4486908275296995 0.747219574811642 0.48379253303486863 0.05107426489034653 -1.1150614284809437 -0.027726182208304098 -0.7572775656846216 0.6789806046720911 -1.030467666408862 0.4391424675114982 0.650631105288348 -0.5912131135092954 0.781007726234384 0.39115296183556075 -0.7790612783507644 0.13526226006636854 0.16812159076942068 0.9163627022727656 -0.38979687057985646 -0.904299532914552 0.7234965343714234 0.9945875208781287 -0.257556255196721 0.1630589332543321 0.9274262615553733 -0.9926879690174956 0.4390413590144935 0.7692749520848197 0.3712352602609375 -0.54761838842187 -0.30897806070442485 -0.5224550314873283 0.1438083436414812 0.5201509671535062 0.3052005564572935 -0.15434214176429337 -0.7004281544274032 0.03265638038976935 0.6447778108660377 0.4156985300561649 0.508510285548707 0.4175345564254275 0.19579292724568143 0.5356632926601477 -0.35923013892817757 -0.7977382405127151 -0.004728067232635302 -0.28420266869718797 0.8279674850935241 -0.9960643932752502 0.5237807771618571 -0.7705381576736365 -0.9442770438830088 -0.7090497782969605 0.18462890757277048 0.013998390196583372 -0.8567574492923988 0.653306989274396 0.5480622744794951 0.07439733232594062 -0.88161142551852 -1.0685438132576637 0.4368417534306856 -0.9110991584862123 -0.08548417201100755 -0.46817580698297423 -0.9461491226466365 -0.4567305043504154 -0.9975053472537603 -0.19319064391089555 0.6369893331213177 0.8925447287754773 -0.18571243077444155 -0.3264246934071262 -0.05836078485672913 0.7124594954780152 -0.8042282609136551 -0.9643507061748392 0.40193675049407523 -0.47470771438464887 -0.5403561796642685 -0.5381732873305766 0.8181250074579159 -0.5063423919736011 -0.08739090631060742 0.577059906748274 -0.9521762293658289 0.9018783009469937 0.1437447769137828 0.2516428592036598 0.9201165308713164 0.606118435544719 0.13943095915144113 0.4162351557894536 -0.7108684524531675 -0.5754839597176147 -0.7408149658860763 -0.1262885346728053 0.870251796648601 -0.0730801652445412 0.44262073674739644 -0.4127937124065073 -0.30311758895734053 0.06709139744667647 -0.9190258993487406 0.4900616337814905 -0.8533531712213165 -0.1498161881683153 0.3946864422830156 0.6326656366338544 -0.9867563265899099 -0.8057386073880388 0.6007376575038343 -0.8981700421680173 0.4368671767820145 0.4337714535590171 -0.3005213331767407 -0.6925565256778523 -0.7703682370247885 0.3611763329480742 0.8832394184227937 0.1721359159476939 -0.9581643477616758 -0.4174097353516337 0.6165109087261269 0.11618853935092344 -0.465431767248891 -0.6052861279363342 0.6227164036630628 
-0.22174249289732129 -0.1396407219581275 0.42409412535097357 0.1512060569089131 0.8324389789633613 -0.5347143225162443 0.7325572966785154 0.2067760951264268 0.45358147745159916 -0.4829427746259358 0.35311220860040926 0.7573759571333281 -0.39999756174481005 0.24165103034314167 -0.18051863642413046 -0.690612230762891 0.5099963256812143 0.6721849129637003 0.5362403895599912 0.7048157723924191 0.5832063683216542 -0.48129384180668455 0.6463657876541893 -0.48943489236712456 0.18712183290443019 -0.7802026805757301 -0.5700572320893103 -0.04993463623178407 0.8065692798522359 -0.4687651724970596 0.2072392377411696 -0.029926688981425142 -0.5507534511790961 0.4843597301111555 0.2213039956131282 -0.2594317537566291 -0.7587052174955049 -0.9940542998257018 0.03849728572035063 0.6522509980785745 0.7446953218859702 -0.9527103756920932 0.6415087781389114 0.7150925532739669 -0.3023932634007462 -0.3008966218639433 -0.451627243462684 0.11835117724833245 0.559719154659826 -0.6371505585254733 0.10040745904599885 0.7510616920955318 -0.3956591144686732 0.95711070394279 0.30877694572190606 -0.6263358918124666 0.05494985350835346 0.7172369964662264 -0.42148408520429115 0.33810578991670814 -0.7631944485895319 0.18097039865582062 -0.9591225456134197 -0.18986198319959244 -0.3454284783474879 0.7860245804859719 0.22977311776839096 -0.30941363479177325 0.45150956532748343 -0.45000459919242636 -0.5660600523323017 -0.287973614234712 0.8503067011568854 0.3208136352002256 -0.8489888099269487 0.44713410211256976 0.6403605673762282 0.08714944146779227 -0.3313948030151055 0.4319061579812401 -0.788799958001243 0.2205798217645993 -0.7180944859908176 -0.9288647666709811 -0.44947846527127 -0.15265805353856998 0.36929389216306774 -0.533448455377634 0.38784815284214524 0.21475342578662265 0.6606871046462899 -0.17974291992640912 0.17699354050685842 -0.9272073892569447 -0.5837470737927276 0.894776923539142 0.8494929639432284 0.0924369045132847 -0.5339471980391006 -0.4468393233507556 0.2390897733933126 -0.1928117369867482 -0.8383012465658918 -0.6737180925840665 -0.08049441501646123 -0.5566317323972251 0.9486755750969827 -0.7155555031044796 0.4279383956727612 -0.41623000703211527 -0.8129472647414377 0.4323249112491112 0.8763092578290654 0.7803841801339696 0.7404309232571855 0.7886334882620949 0.00448923038854219 -0.7576788347271118 -0.97475905667616 -0.5264133580579622 0.1427303901938184 0.878358611170086 -0.7229402392273234 -0.11806876647392034 -1.0047307185279586 -0.8204360801879166 0.0842894356539989 0.4166734646876968 0.8483079880704215 -0.7427254549708631 0.04408606965560548 0.8462033982284864 -0.6005947771578888 -0.13699162067160303 -0.6825682238018471 -0.582384920293105 0.3050858747401451 -0.9013491876548505 0.5554723948797622 -0.5552275331192569 0.07340129828983644 0.6881821478064627 -0.10744681510704171 -0.516299655638939 0.2810212704677091 0.8353826517373558 0.7710824868041815 -0.13801899020880357 -0.15073963046171218 0.9198272489814572 0.8192379083012328 -0.6941909326520453 0.6878178767327588 0.07084965077451529 -0.5577756665244529 -0.3184272776851341 0.7372010269116342 -0.09259791200695364 0.33474228125432604 0.7695592834765167 -0.9186817358111616 -0.5508869443666734 0.513474515642279 -0.03132172958632845 0.29907071000192437 0.825740283735046 0.8655577882685196 -0.5829728455625154 -0.09528554373589926 0.6146640927714777 -0.35040444272246096 0.4833775987673826 0.9700856490305994 -0.37787607373343063 -0.06389112916496392 -0.9879893920750776 0.7935450339106824 -0.6391618790461627 -1.055144055136883 0.6240654392217051 0.8096347530581844 0.07744789322195486 0.6132075586974816 -0.6934870310816796 0.24051585757450855 -0.8789051340775602 -0.04784432587242238 0.38237211109660135 -0.3295105600344435 0.8164876680288504 -0.2696134021672938 0.2652455858190629 0.525773306167686 0.7494792798183297 -0.5299611093698448 0.05565430116121891 -0.7404001022327669 0.3756773453506176 0.17883953510860426 0.8954619326049732 0.9367771482788869 0.16287039122249028 -1.0106453917529377 0.06924875971000714 0.6404017382924447 0.17686141112715079 -0.07510857844619934 0.0020359011988719286 -0.589536166739188 0.10991172321752546 0.4441933497152101 -0.2141543152078677 -0.7461354418167142 -0.013633029837639775 -0.7662733532773185 0.3932087801987792 0.8218130688182244 0.23078035534006416 -0.8831651665545229 0.46705108818727026 -0.8866888509354559 -0.46100673318273006 0.5650310934104221 -0.5694309777802398 -0.1757693010030009 0.7606461680646015 0.4854654546599812 -0.6709945268731912 0.35694103389303505 -0.48564268493413587 -0.8700902295745807 0.12719211444021186 -0.9007550278207883 -0.4307120375329609 -1.0642487044074131 -0.6463804657506739 -0.9249045210162781 0.2191437650838014 -0.35394981517908186 0.9240720693371314 0.028174778633429064 -0.7013988349163388 0.30374044592255367 0.7386570847015889 0.6889230551250757 -0.16306946635681377 0.8070474877373635 -0.5146798132988362 -0.2659011279540767 -0.7193658691793923 -0.7591647000578857 -0.6839338877812305 0.42589757729613065 0.7354927346166253 0.6378512977770895 0.6515616551715909 0.10837650612367418 0.10222312117570291 0.6125084086365716 -0.32687533787077794 0.149737677112257 0.4188876807768167 0.07836963143593784 -0.6634469933390382 -0.7206567361105497 -0.2865126080434962 0.6817236269747791 -0.9156048132045495 -0.30194783366151035 0.4234210540262478 0.7575819526905476 -0.1687178420923936 -0.8527155591039655 0.13831217890407205 0.899263106173598 0.6134850129789295 0.5000570466011692 0.42753135682970067 -0.5360768993683247 0.7875881575442005 -0.3198952373996182 -0.4810841462255035 -0.07253890683429301 -0.8585492453334251 -0.4000808272199736 0.9156501816074148 0.599475809452109 -0.8987518899916811 -0.5486140312444484 -0.7186484620804283 -0.2537092085516119 -0.2798220203085604 0.8061820441428992 0.8526069552826723 -0.2639198087621284 -0.8919372652752031 0.2570953617355126 0.33652298922482565 -0.8032315368700824 -0.9531994343260288 0.030451898112434626 -0.4430274142062563 0.796868676843388 -0.25034467108018965 0.5457852149103204 -0.14673724950826456 -0.6149293907973647 -0.20878690051422377 -0.2725632692950233 -0.9841646919097489 -0.639105533049611 -0.08554429981011012 -0.9893613666490985 -0.43885498356530006 -0.06652277807700624 -0.2305626855404862 -0.9260967357820564 0.09129960118449021 -0.4325332507633119 -0.3631550069534713 -0.6107774235750216 0.23164151054890852 -0.7180761532900534 -0.5041233911857107 0.2937823508898019 0.69203535499123 -0.004438499941536903 -0.9718529734790864 0.31592114081258066 0.13010183269125783 0.023956511337210648 0.2891406272869251 0.4009665809877274 0.6100216950256633 0.9211667448509486 -0.3419405248683988 -0.05697541899128411 -0.8575929818917097 0.00536241074474968 -0.19902418330742344 0.6035054912980777 -0.02698517169409269 0.7472285849764765 0.4465992739565147 0.8880628697035238 -0.13653674937121965 -0.8382893962003827 -0.5123777168108029 -0.24549645323958103 0.5007403804711519 0.46127825223103885 -0.6327395147752075 0.3154685704691165 -0.8011525773197749 0.6071531064764568 0.5098107096469858 -0.5751943425128995 -0.5903865640460111 0.1827641428699518 0.8228362659636377 -0.2103330294955364 -0.23362142777078132 -0.897511772038655 -0.7484915426405899 -0.46547940205047733 -0.9431187408810825 0.7728200677786542 0.6555164308187444 0.3561011714091695 -0.07670401826696144 0.613998967657161 -0.13333355057086013 -0.8204607864074422 0.34451366805780176 0.4934008538165194 -1.2118476288792606 -1.1390276936579673 0.48673823770961705 0.4938423014301563 -0.5002282863068027 -0.36197003268404176 -0.07884129342473824 0.5398978521651298 -0.16763423564153992 0.5629611491482626 0.15655262889597205 0.9073910163805113 -0.7034375165877271 -0.3391365810767298 -0.6050873291196186 0.1604091714844046 -0.42747404491734714 -0.08474626464797508 -0.7547618222642559 0.2338087195722486 0.25991187417834366 -0.31423371503766756 -0.2984136629992886 -0.620061011270842 0.27160232122860894 -0.04517732285234695 -0.2573668342252421 -0.3609619813514788 -0.31528717224752445 0.40071473365190896 0.6242420927553561 0.3905454976059955 0.5478068610598288 0.7748312404639901 -0.816321107565936 0.776727324309094 0.28093229630833805 0.7865888194380137 0.6988991915869562 0.024007444701378295 0.20833887630467532 0.7841451195393057 -0.06593010598002083 -0.4411817350665663 0.23042733827757256 -0.3525752146432858 0.7614577454323055 0.9905666914502621 0.6265347216424179 -0.515491406839565 -0.38842280916222177 0.41675524179314954 -0.344761871885742 -0.26422857915569703 -0.12581335793189038 0.540086235776356 -0.7366719876016601 0.7323511863783134 -0.2889358889419308 0.974165230605993 -0.1089430410139534 -0.5064424877695216 -0.36831969517105123 0.5370413343783571 0.8109298747912729 -0.8445444558989003 -0.56788885217889 -0.396622576107998 0.15168307038110837 0.4222421021971719 -0.8657231986656014 0.6411454687959982 0.20304721381597116 0.5959054964202333 0.7267067363429424 0.011157204277810117 0.5964013254699361 -0.823735600480894 -0.20508008899377347 0.45826767011534625 -0.49669118783786315 -0.6649643476089556 -0.9084211593848389 -0.31307064964605846 0.6256586785351275 -0.5687484457740661 0.3503172288230962 0.2311351802565144 -0.0390322804507408 -0.9558369795618791 -0.18413350966876035 -0.6816651439756714 -0.24417462209448684 -0.7165899521897986 -0.6984244365051024 0.3207289190561246 0.5764352680751272 -0.02704888703155764 0.8757644258215057 0.7457033017589686 0.7650080116706179 -0.2835915701653626 -0.5730733668490846 0.14619428912965957 -0.849491690970424 -0.26137197863219125 -0.7613491334892581 -0.5543854603299998 0.34375094955354385 -0.8216841932527813 0.08398810362827476 -0.565292309280265 0.7679983910010529 -0.002427102909408838 0.8120119894779962 0.7139335378774797 -0.8775597984694902 -1.0364469225471422 -0.5504305820717083 0.17578142675898425 -0.13932841926016282 0.7232425403661582 -0.7834115124170764 0.27193562191522874 0.36324636691314616 -0.5827148119537424 0.7026564644032617 0.8223191299405935 0.358157659356439 0.6224975313353092 0.021623802052847155 0.7982466458579411 -0.2233962142299092 0.0021686300866899178 -0.46929091264903083 0.3154350816548093 -0.4174810544860325 -0.4714901982935695 0.7591423406233045 -0.30823540291977647 -1.0619508639064028 0.670312504961347 0.951248755452999 -0.4952072084310146 -0.5942829275715172 0.5574671304675034 0.07538415156206807 -0.6930136037655583 0.16321942084685406 0.48065843972489614 0.844519392730766 0.7971248793241339 -0.9221555001753885 -0.3131583420105334 -0.9603842212893668 0.7520337944145599 -0.4975028913438205 0.7341136613577279 0.988555794287316 -0.5925108963927942 0.6663310003392984 -0.2700873903116596 -0.8435756047003111 -0.29416197782655806 0.42789426787255663 -0.22330587947791342 0.2572002917070134 0.3673458550866401 0.08693744719015356 -0.792491141310596 0.42624174356577504 -1.0260731324120407 0.4516699103803555 -0.7309317216850735 0.2574694618087457 -1.0847539755249325 0.21299475797926667 0.3755440406597374 -0.826313829624406 -0.5436529049001798 0.4366507866084489 -1.0019543095737165 0.504681952103628 -0.40411581420845794 0.6208936944792192 -0.5940097122461876 -0.022999511441879703 0.0419823731769901 0.32123238155833117 -0.8669235932121432 -0.39270431984896687 0.9272503406848362 -0.42876524952132355 -0.4486121934674592 0.4073901653591357 0.6728896976795119 0.3489889879156451 0.44844448787770097 -0.6780539786155378 -0.9563943188795611 0.3304069542927218 0.1342173812791924 -0.5248470042416812 -0.9066219159798219 -0.4192024377876387 0.2874549481749482 -0.5818491372230655 0.7989331022075429 0.884461199433989 0.15616001830177528 0.67610996598077 0.027465491390565856 0.8500982556954666 -0.0324599291853902 -0.268722499294399 0.9385373868825041 -0.5742698004863775 0.5675301348817017 -0.2353497211821851 -0.43356207734995644 0.8458581756837291 -0.7929749310245215 -0.7152318315104659 0.08257564631648238 -0.5811054254134437 -0.9778664204255758 0.5265984086135335 0.5421168123913381 0.6149931849893159 0.22488000101964484 -0.944393660251856 0.5523214488328678 -1.0401863802288844 -0.27750535979793167 0.1570030262738187 0.848231476852406 -0.5715315013386083 0.8406903130160036 0.005865811535068366 -0.8720891120902964 -0.4442112285820848 0.07649427849166646 0.16340291321410852 -0.6424839711188691 -0.46265041559355524 0.2317122379760831 -0.5640640916192279 0.16487433423761066 -0.36468271697719534 -0.005551981100715594 -1.0542052665628836 -0.40362256083932074 0.6149606504461836 0.7449478510248415 -0.4567097007482429 0.013724690805081577 -0.057325834758847914 -0.4106753085148079 0.012070587283538122 0.39841036384003814 -0.7725754897433242 0.6319693982879286 -0.9804464680356028 -0.4909380779436219 -0.8623008723909146 -0.35155303065663746 0.40620024004277433 -0.39131414432951456 0.34898716477956393 0.19678156040827388 -0.47494850245111886 -0.45786226820971077 -0.6935239566443616 -0.3872202204010727 0.9477966453763801 -0.4667440399068979 -1.0103405440150286 0.3620175981827519 0.8588392903619502 0.7133179777012114 -0.8246702710212782 0.7112701167788146 -0.529408813313734 0.3152817106186621 -0.4189234897206397 -0.0737560750064169 0.876684703574911 -0.5643748701352197 -0.8397518472298859 -0.004370551112699739 -0.32199752388577496 0.48858474732780394 -0.9430928004665059 -0.5746056529859276 -0.7421485441215798 0.33579903852284765 -0.08117010965333904 -0.643166020959137 -0.08020544122587459 -0.05244139349642576 -0.5005899678219665 0.3519895065904643 0.8449956694466372 0.007219836389155054 -0.6778243960696023 -0.5077872149418458 -0.05638937780117867 0.029598846599768632 0.5357658348281467 0.13396243359204926 -0.9395064913117148 -0.33583162394506233 0.4756439451718556 0.029277299619355837 -0.7136213879742418 -0.7378556189787172 -0.832460500927407 -0.30593461565441493 0.5071675754756625 0.41432455800144874 0.28761862989463016 0.3009034486888062 0.24525935277610725 0.7889221584360673 0.9514194515001089 0.6277138377970961 0.13450194940330662 -0.7665042368247255 -0.8654576598246104 0.02672483844343423 0.6628565045169146 0.88819890896507 0.24783303272319662 -0.2880939284819807 -0.9361205205855326 0.9073161498319324 -0.7209985738815293 0.4550068504362766 -0.09192013918726132 -0.2939287605674149 -0.8206329397832883 0.10836797176580189 0.5203439482008027 -0.2979000931368677 0.009557112565187074 0.6004535190154063 0.15611391797024396 -0.02100027356433651 -0.8400325777209952 -0.740508499355895 0.5523882234291764 0.7598675645441368 -0.2025375209086966 -0.01884471064779447 -0.0543697683821891 0.755878146938763 0.4738520224409519 0.18102138377561894 0.1773620982829428 0.29377152329793954 -0.998542029795474 -0.24763194591191254 0.6785054572366077 0.44119845051595696 0.49226791154200944 -0.6870251945875946 0.7940586269853303 -0.43498961495295596 0.2524549321238071 0.6303625868241256 0.3224931147377383 -0.7319181885062932 0.9046265273605705 0.2121190592804783 -0.07890882839479088 0.007260039251844468 0.29490778983891663 -0.11765576519656616 -0.4942147284672245 0.24884236839014706 -0.6187503638608607 -0.6541805693326459 0.6645570046078069 0.4770354265076817 0.5171635727793598 -0.38790488327920225 -0.1761466179195765 0.1802909410273957 -0.4502234085827844 0.601606094831353 0.802183080796206 0.40837316428722004 0.3204844119323557 -0.816400408626561 0.29230958282221886 0.47720890705193414 -0.6605777450739299 -0.5671854050110502 -0.1967615695080758 0.9803667894260752 -0.3046731497344621 -0.9673632371539131 0.6608704842159585 0.3648646835975877 0.5651445481912885 0.31630925364256046 0.7261256447197049 -0.9401106967740778 0.11117854485407941 
-0.22423506883800526 0.7359916356941003 -0.6431105700989876 0.9842453516795175 -0.4425702312754076 0.347263574789866 -0.9174135807575614 -0.8188893979400829 0.8565156838243297 -0.7068593850449911 0.4706886615242931 0.5809668267411183 0.016438304067546792 -0.5842390770364262 0.580956733420186 -0.8711864142220698 -0.3885553281032361 0.7604299475038261 0.11576190078986959 0.3386485545723559 0.8269108862451524 -0.5893322924877662 -0.45125047876420066 -0.44303987566393954 0.04109881362881995 0.27806235337744556 -0.8928269913304567 0.2570906266814914 -0.32166224948844446 0.6897057622094316 0.3389155772964567 -0.47238336837900974 -0.8820791961477377 0.27584643589863567 -0.2528285371202825 -0.12702788330904413 -0.27060067653242625 -0.5962872912424843 -0.7097791525039242 0.46212871846151904 0.9499162704238099 0.20016923224164432 0.4204889742066912 -0.9589970167250299 -0.2737950672861796 -0.9317586751366961 -0.2222467927415672 -0.13179297474044946 -0.3807801969357467 -0.4762020425843358 -0.35054745780308466 -0.7654649770289019 0.3933689703583818 -0.83002365656435 0.8828325260357137 0.4022712506864412 0.019388457503312084 0.6696425510235122 0.05174265342708284 0.12070353333952731 0.6691681184834075 -0.30758608399185466 0.37716024847533774 -0.7255996714368925 0.5058149341146965 0.9832947104832687 -0.8512552681408961 0.6709882291793814 -0.14631864347482035 0.9424542813856508 -0.7812415468886866 -0.4954237499805875 -0.315075192944557 -0.611512963402801 0.47497105373073845 0.5680222065020529 0.24283288460477195 0.5641549615973636 -0.7548467830496811 -0.963979572718369 0.1641446311754967 -0.146674218056382 0.9132999691087207 0.1580402223977846 -0.6680720183666882 0.1257935022596186 0.2859016501768257 0.21750087514351016 0.5670648522267622 0.2987875695743542 0.7305124309949182 -0.29954142338420076 -0.909367215777678 0.12289693146006639 -0.6627960428618719 0.6495777824458843 -0.3422893575259193 0.08534435371354103 -0.7797553856581912 -0.8079533479762994 0.49650822409001777 0.8703315547744681 -0.9227945804778294 0.9442961253213494 0.8963139542567922 -0.2355709683122746 -0.49817447036582174 0.5739631235508741 -0.13530619307588823 -0.8920995048745098 -0.6543788117023152 -0.6535621267139415 0.20003481806069523 -0.9469407910496869 0.1821846985545128 0.35523164685079034 -0.175089703632046 0.5712110886146455 -0.28559946861225427 -0.2987504711869859 0.26130822453162056 -0.08968237191368882 0.65889025413814 -0.2248564119101384 0.9510560243093287 -0.24800100301122943 0.08780436186799447 -0.07636280938286136 -0.7188620447979029 -0.3558302275550329 0.7049365947042723 -0.5761575822773481 -0.23979456241208214 -0.05481853127634704 0.4545713348280609 0.5059075219903839 0.47377452986152085 -0.1283813182738734 0.05730564018389002 0.3115910093101155 -0.3269676893708413 -0.602362632392043 0.8825304990531269 0.387563615388611 0.7869433113100199 -0.8519852712022451 -0.43485287751707097 -0.5896236877988649 0.212662426697389 0.3018317734594056 -0.779298813630162 0.03616908414584308 0.8722684962325908 0.3082117499345359 0.8211377816501975 0.7023690900309643 -0.15446324529833821 -0.8223020413458481 -0.08623140028043257 -0.6261920622614443 -0.5224907602531088 -0.5460883465188473 -0.9365778692312225 0.9881104040757807 0.6528668478342431 0.19194321108977427 -0.12748413582855883 0.9129188115250793 0.7856547758264838 -0.07468646819794089 0.14717825524931152 -0.4985705361677309 -0.8640844422504951 -0.7137499512769454 0.9321358854300247 -0.2226891955334005 -0.2935486599423033 0.07383685568649911 0.8828253235478408 0.9324525225950978 0.6096248694098887 -0.7003720806379011 0.8657894631360853 -0.8651743777354084 0.1579032871481354 0.8493014183615594 -0.06492496795440991 -0.5712829907304496 0.6306446837607044 -0.505366007101117 0.22153909310684367 0.34060174778774 0.4573470672369889 0.49658883844577656 0.5924391228083827 -0.9168583079636528 -0.9818733683818761 -0.042650568566673 -0.8752888409736008 0.536824762288091 -0.2698106751752728 0.41092934025958056 -0.5033587431593995 -0.600956435986139 0.1180739363077366 -0.13312699115931767 -0.8481348660739779 0.7900043230793066 0.4967894822298979 -0.6907447827350747 0.041924635860193016 0.8208088207962524 -0.7510800392096565 -0.7822203289673667 -0.5831104672905666 0.6290865406465537 -0.9735008689593714 -0.14209428501498908 0.3700023356636115 0.36054017044761644 -0.23869663845566338 0.9540642086529079 -0.37429876923359695 -0.3971343916221381 0.12578781056029822 0.9284576609263582 -0.8906195599178359 -0.9951483642620026 0.0052504295162151 -0.587606178779421 -0.0812124516437616 0.37232163277213737 0.17361928030968582 -0.9085550522923816 0.29694873206704314 0.3682503381846331 -0.6091279462512894 0.10573727641282633 0.6011145727547147 0.5584279418685167 0.2498039108837493 0.24458947149439866 0.08964818664786295 0.05793325871419544 -1.0412957688255393 0.7720666224588906 0.8759497035138641 0.7908782324173637 -0.6912600242142456 0.467596818929505 -0.027131024479212965 -0.0513643321160649 0.30104643618454374 -0.29214388464122126 0.6482670440046946 -0.5844233505181459 -0.29628775572094374 0.404151792187496 -0.9349525895626818 -0.9090370785431906 0.9430963635374162 0.5188848604563316 -0.922371478551844 -0.47426276213459523 -0.08214588968003018 0.6216234452974546 0.4933213350765447 0.0787467029194435 -0.12826998235600123 0.16729681171187538 -0.6225325449145809 -1.031821402272597 -0.27293335312397277 0.8251932956100099 0.5077676492890506 -0.13897525786007295 0.47338156119760727 0.30686728704802335 0.3011988254960431 0.7023556191539059 0.10133662050673098 0.04813440276012689 0.9025158206881725 0.2614332416715685 0.7667462636382073 -0.9520186149794762 -0.5369726753776507 0.6231334245309645 0.288710013320693 -0.8508499408837823 -0.8168408308789025 0.14386466117233682 0.7683711292118307 -0.42121985801072365 0.2762906795267985 -0.5691998811793808 0.40807928238017627 0.8169528954032109 -0.15263846615509316 0.25763278752741503 0.18195421463926878 0.8678633648409085 -0.021943554739156795 -0.7135339187796206 -0.4880359133535511 0.2663362446862035 0.686094476550683 -0.8751498802850971 -0.015424365747466862 0.38753284264935434 -0.42628914936568313 0.14466186988104443 0.15729658540415178 0.5886923910312492 0.03226460887561075 0.4108089047938754 -0.5895637134450382 -0.4575722317078887 -0.10401286977540661 -0.06778685056823197 -0.43581166042853975 -0.7121883895709525 0.6256525488447292 -0.4403148953734437 0.09585851571990345 0.3768337074271349 0.5044050202215755 0.42189168183043047 -0.44562360684418967 0.870223203748668 -0.419867158762458 -0.849606011071067 0.00506312836253127 -0.7278646482951844 -0.5444866504598368 -0.039519699750212134 -0.3601988333033266 -0.46975086169121805 -0.8930484428144686 -0.8907754174915377 -0.6416171175817345 -0.927966546842361 -0.01638036854835091 0.7972953391868592 -0.4137186930415584 -0.39067520289109914 -0.7864440897644438 -0.5163500572828763 0.09699670308683454 -0.8427679873410363 0.08477656948277482 -0.026504654255898562 -0.6459027663426868 -0.9932521022061866 -0.1525555888648428 -0.20128574535047386 -0.5336516359725646 -0.6884894759040237 0.05776982746035384 0.1330553625903579 0.7495718752882734 0.15523233585296778 -0.7486815274527946 -0.454896993481553 -0.4165147152992845 0.46764712044261886 -0.8130064050965213 -0.7430903835757389 -0.9445317628580241 0.9946269202931497 -0.2580906050798136 -8.043033953369153E-4 0.9298626165989361 -0.376968208512526 0.8856192125532671 -0.9619768586714751 -0.847108167646873 -0.6087927753355897 0.5800784299035642 0.775627185652706 -0.44117550923293264 0.49004777472618194 -0.2957515535723879 -0.2654707477126981 -0.6761135186174343 0.6125557366071469 -0.8877376796097026 0.8727399217184346 0.06603903916396416 -0.5333922238707819 0.20152307857962942 -0.3478740297195605 -0.287080783580145 0.7736224321010372 0.7898652348814126 -0.8125631409908948 0.3493658481265659 -0.13844077109606936 -0.547954320551183 -0.5075038463116074 -0.35320517499992216 -0.8844864204441351 -0.7645224689905126 -0.22363410596904157 0.4263650577582286 -1.102777381658238 -0.3319198614229989 0.2988541571580768 -1.0553086338277602 -0.9793527868706452 0.08895519641425771 0.08744284141679641 0.41874815741037247 -0.23506047180913828 -0.9386322275809237 -0.9482841193874784 -0.8297738318177973 -0.3936465724198593 0.6438598290380126 0.3521752589561194 -0.3337898546419856 -0.37937900422840176 -0.7483471757524157 -0.31943396145569247 0.5563370069498204 0.8307019462452945 -0.48876917619704857 0.8720856437921688 0.34862132083190167 0.7649388588026045 -0.8954505978082034 0.043018162320874284 -1.0851226597022452 0.05506072830870603 -0.4213046505152438 0.6683562521758774 -0.9681640744035617 0.2523819049826742 -0.36464602219696607 -0.7190907328842085 1.00454861952857 0.35951561671435767 0.9274304918872329 -0.08603991899700371 0.6718174945743647 0.664694711964496 -0.5353136251765511 0.4282892469175086 -0.0658585877237964 0.5121638912014199 0.9371240130967595 -0.6133964116735243 0.2818699460830519 0.7429614356875054 0.18183379429514 0.5779213820101675 0.6017724937460154 0.9349058035545306 0.305712827700206 -0.4276342187999044 0.5422800624468348 -0.7754892505603592 -1.2073474928887442 -0.4052560944613109 -0.7948518690923666 -0.7909199131157425 0.13528040859230672 -0.9058800728197279 -0.5890448974611853 0.20055534653371282 -0.49383283572159714 -0.3340119297476349 -0.16963534314693354 0.7504994956994453 0.5762215743890633 -0.40654715073904174 0.7023506653716676 -0.687012883784077 0.16064871500323244 -0.9525910105358706 -0.9059974363372182 0.3411007936442005 0.9340770516311229 0.766654984357741 0.42586259725162356 -0.6078689216139085 -0.6718308396910693 -0.4559550415154437 0.20477760749024118 -0.08177727632129943 -0.9262898791144212 0.3684107977704089 -0.6625424079772272 0.2096276181839357 -0.6517604692267417 0.16173214788652698 -0.7559746754842004 0.7859773462285293 -0.4751860395518879 -0.7361690422330149 -0.4181900943629518 0.41901368643232345 -0.46664064287139634 0.8973863048925342 -0.6270158932931278 -0.9178536606585214 0.01206521894430813 0.9875381682668866 -0.3857807091122769 0.5263205271122917 0.8283748074181378 0.762929797537575 0.2777650190357734 -0.9975992787181585 -0.779655374407631 0.03517913657086219 0.2793955042856064 0.20845567476004678 0.01749196673336785 0.363233326848658 0.7171299661150341 0.22130626170747905 -0.014035199638484163 0.682225402741204 -0.5641140321872344 0.11568990101114712 0.009409685572833093 0.5184475184506591 -0.3783384488885346 -0.8630604358232179 0.6310623371293663 0.29520300783416503 -0.37681294681793287 0.5757043370431374 0.6715612002010818 -0.7763013403295608 0.3850700338214027 0.8472736889451927 0.6875222954862914 0.4756569843853657 0.4522608810952292 -0.7467259639874961 -0.664570550386235 -0.7917410056408822 -0.10507099238857556 0.6259641887533254 0.028063850035109857 -0.7126270063416487 -0.611625939880953 0.6396714468812675 0.6082111767209358 -0.45814014800772757 0.547360258184646 0.8878581995809457 -0.3169889899750307 -0.4590219561709538 -0.8054634668627952 -0.5582558861718007 0.16453473646083444 -0.6372736281623983 0.7034953900719951 0.08454004366878423 -0.31920565558452946 0.7032514871242015 0.14731764634067807 0.3226548787255888 0.1943394043090274 -0.0927759162019148 -0.7197904247405502 0.5663457219222066 0.7294025761526595 0.07926096378724852 0.3652675390374877 -1.0796341291111018 0.1582658654144528 -0.45245018310117135 0.339753298387514 -0.6890368514183707 -0.5082151324638275 0.7668346789113045 -0.39495632995791996 0.3418624447068584 0.8719053813243288 -0.18819077135079812 0.4762354924746478 -0.3283775180032444 -0.226822089778726 0.5974678954180977 -0.5376057063775357 0.5088993903316348 0.47241982155766893 -0.43541756826975697 0.6547549543131334 0.1036395735744689 0.627141796401345 0.8831268352370556 0.8123568838006613 0.7292329513830779 0.30700772647549157 0.2797397045843783 -0.2339883676371119 -0.7652947577126985 -0.058613730924910894 -0.8677631994923403 0.9744691071453939 -0.39694833915177824 0.6402836767010917 -0.3829825779272293 0.03182258249418666 -0.5666208991902565 -0.9538615209764587 -0.8597339401842274 0.5108102070930635 0.6819627580896751 0.9864888038288482 0.6478150598894832 -0.6959847327144881 -0.7544130566868164 0.1656442178933928 0.3956505012648114 -0.6396200740296911 -0.05794045102313588 0.008665112928049497 0.8008909944296639 -0.5586964955395903 0.6761843644340431 0.127057763510936 -0.023898931836037123 -0.6827651974105182 0.6238407803521662 -0.4228562526598599 -0.8489513979525106 0.3088253184662276 0.8305967619126656 -0.10755474494314474 -0.9745545815713178 0.17545324902608866 0.17539997488724468 -0.24432547973551036 0.9182849080751546 0.8035437790698408 0.05520083962363675 0.20543989020370584 -0.8746033911446436 -0.055855781027750684 -0.4254888738322282 -0.6475660843983373 0.809695547873915 -0.4861395600382423 0.9316950695336086 0.8215233181784365 0.9492499956740097 -0.342799162705138 -0.09323057648232506 -0.4645890079609559 0.18406055562150248 -0.9456035711833957 -0.6866303854350623 -0.8141513449276665 -0.9507892136558034 0.04507394080932187 -0.20421871328075183 -0.7229118761295251 -0.26886375892012115 -0.03443779987795365 0.3737898789984785 0.13277636226890885 0.7823868871564208 0.7310297465502874 0.8075032700040867 0.43572787571916477 -0.5610307162969859 -0.5745829015660366 0.780425958553628 -0.744786067989372 0.46234571295466403 -0.5815295709894672 0.325573628360619 0.7375219191848531 0.6958160996760436 -0.10029001438846943 0.7773927728330413 -0.5902100655380244 0.269565352397002 0.29350508444229184 -0.16847956209458786 -0.5246966855117371 -0.6016687085125331 -0.16803228250624533 0.14925296825595954 0.4523647949016841 0.4983585686056998 0.06927568372399223 0.6461091723606013 0.4901278281007002 -0.9548185219187495 -0.13548289614474507 0.4944309250581102 0.06982817292331989 -0.715284227285746 -0.6142168123077896 0.2320480264428646 -0.8619800195336358 0.9537955274704442 0.6807933727847371 -0.5507517301245853 -0.3603879754601827 0.04118347841892809 0.07605094311914692 0.5705456001623507 0.41659062124522667 0.8967643734395072 0.6238778207258041 0.17552942880125388 -0.31315564272164487 -0.5400385105836145 0.3870159356521205 0.3431349248719338 0.02072675012379272 0.301671646654912 -0.18673004738515067 0.14465572637210433 -0.785338274379481 0.7333694504026375 -0.7995235302114214 0.9848687378906895 -0.028243784817759687 0.07302192811928498 0.0450180004092422 0.06440599418210957 -0.5965955075711744 0.7141514222744045 -0.7305377697381312 0.21797276725378592 0.5749125637608496 0.9740921087049418 0.6977387477405821 0.07367554913255753 0.6129898858917303 0.4091325599866971 -0.7900815621265284 -0.11510477276042265 0.9374356338235877 -0.8691574995239334 0.5109252656937939 0.7580177480983075 0.05369410016082257 0.26438694120854866 0.800044803023065 0.06399323417728643 0.13786814372395725 -0.8689670890122737 0.18344518508791188 0.9833411858958969 -0.01406141405527861 0.6515357520409464 0.7822723089648513 -0.028285116472108518 -0.7711818588661372 -0.8500658991250378 -0.779019272563193 -0.49475496603529695 -0.8240816186345032 0.4213676979347192 0.7217574484070682 0.4601821810557845 0.7904884458676825 -0.7988725277034083 0.8660175038126184 -0.7001627461663575 0.3366882392792742 0.6147143356801483 0.9377445150354988 -0.4906215398994834 -0.885419387787757 -0.20611586861364684 -0.790880878263999 0.17124883191989781 -0.9672496798347039 -0.8097538760278629 -0.8501378810545743 0.6024363096837255 0.8089866281381701 -0.7981111212716383 
-0.4766542240287819 -0.08313649330575368 -0.02457057568692811 0.8923753554114935 0.7573672939454268 0.2808836254631659 -0.025451069765769274 -0.22386269497427258 -0.9506473736435166 0.625098134376497 -0.7106085839244973 -0.7352034990539451 0.5885241848944338 -0.03372686181728596 0.6984675361369626 0.31899739216487766 0.064885839662435 -0.7698239827580218 -0.4837315843431824 -0.20079906710106776 -0.09003659304550671 -0.8054470962446256 -0.008165596552295318 0.026242956816515894 -0.4401181640832019 -0.029738162820930114 0.9147536892605048 0.14253843608794958 -0.5604222712194553 0.2999341122256194 0.9174211678991524 0.007390979314696011 0.3376377213228392 0.8773414319200685 0.9643418053402955 -0.4350547834268934 -0.6255388560362118 0.8769894510590893 0.08373176935457363 0.8908950625651315 0.8621018187630937 0.93228318631127 0.5233195522202643 0.45391820500671853 0.01296746602227003 0.9119684907173841 0.20356456852067722 -0.47774949362776614 -0.3280239309184928 -0.9823083374100963 -0.41250102281489515 -0.9057519802454046 -0.9605182053855637 -0.03494617298404079 0.9124999251718959 0.26276642223567426 0.680949787709956 0.3020010382650551 0.09146720364153871 -0.5135753769881782 0.04736714944879578 0.2897267620735042 -0.457165930402456 0.8970177487083384 0.18634981921575813 0.18675896886316137 -0.2963193953045824 0.4698889755568486 -0.6379479034545593 0.26690073269732356 0.04763222590350478 -0.3435639886386913 0.908536190260437 0.45985977233544983 -0.9371677505621484 0.9054348583418971 0.7450445024658374 -0.9594953424113308 0.7708822775875331 0.3659262172088648 0.8477812195763116 0.7191831625358872 -0.6550606964129742 0.14295103268007048 0.024199036712314825 -0.26821450728288543 0.25559008977678466 -0.7733796035792428 -0.6088501209959079 0.9080316149555812 -0.21340191582923404 -0.3572616175511305 0.2889593669225237 -0.8601525999365535 0.801454994597441 -0.7656500386743257 -0.703335122777282 0.7482458673640388 0.8095935593775105 -0.17457227219223898 0.6177664627814656 0.2835192243494623 -0.03866345501904293 0.7599247406937754 0.07366864834088377 -0.9658711270062619 -0.5297808413914578 -0.9438456405645822 -0.08090851529973773 0.519105108703643 0.4972090608998191 -0.8161972603620091 0.4124431990256705 -0.24843130054242082 0.07354516605884376 0.03980338472650319 0.2306192820365663 -0.745377798552093 0.6331246422640322 -0.5247279237056335 0.21213578279950268 0.7033912412887917 -0.669202597307185 -0.809306304915778 -0.5185829032644576 -0.009799007036064985 -0.794221374241046 -0.9094722340356305 0.7074703428250975 0.7663865712535836 0.16590158288749887 -0.5442835626548754 -0.7185052800514665 0.14546921540213573 0.7921370931611296 0.0814639859135949 0.10221385849273217 0.1601084261894584 0.2911971756382423 -0.7276632369420324 -0.6039777493527869 -0.6549034972803869 -0.29466472027563506 -0.001792775772613245 -0.7927364092753835 -0.16819780248764574 -0.8038969931356911 0.807625309902308 0.12111118070727724 0.6377607715898009 0.5841243378591785 -0.5686451142907889 -0.1285164291973875 -0.13043915588504637 -0.017495598818306365 -0.4958563469604611 0.44752543382790544 0.10993508527899958 -0.6966975941821746 0.14392205130203117 0.6253597601019718 0.6682330415323903 0.6617173776930387 0.5428943676167806 -0.3522023182452745 -0.3352420513552819 0.7736876703857657 -0.745069918238727 0.4549641905090851 -0.6859648510597423 -0.013596897312701152 0.6269243147088649 -0.4912956375669178 -0.8146848630653513 -0.9911558345352518 -0.07697196359936707 0.9447946118845187 0.40529985744379154 0.4097825073232796 -0.6212726606348238 -0.7718716968138596 0.4018888305180279 0.8539602825898613 -0.06156531987314981 0.17953306753467302 0.20238133439768632 0.8490948857778333 -0.5390407944890294 -0.5680362957894673 -0.9348044811681834 0.40018128269433556 -0.006375169990430438 0.24523392128103513 -0.4414882686357369 -0.906620859674408 -0.0322217942524579 0.09168598996003863 -0.04913407593160689 -0.6824404871038191 0.10045537122949483 -0.6650020348804284 0.6967035153727935 -0.5143707850266476 0.278898826886835 -0.6105259037204251 -0.21770876535995373 -0.08411461840981077 -0.9025514602637879 -0.37768971818436375 0.6176728934589323 0.34517078467042905 0.029337277468582716 0.35656287097599104 0.7398762989194386 0.7963337242746359 -0.9290129966059868 -0.3049695122607433 0.7507754825777829 0.6108405249240311 0.1772512327038006 -0.6087845936241456 -0.2989477829417863 -0.8198737852601277 -0.4064972670950964 0.42823794995710746 0.33493754113693863 0.26469049078623547 0.6769304552307159 -0.20024311383875645 -0.5068989058086468 0.33707452391522624 0.1527299250994992 -0.39552061384806864 0.6446717939305558 -0.7746796801631071 -0.6796195640445545 -0.2492233807178928 -0.212184452952826 -0.12041736364817188 -0.9163630506128793 -0.7229745487691903 -0.316116139226854 -0.38434570123315426 -0.6888894903406806 -1.0309354681686136 0.12738331980495843 0.4077173368859142 0.46361294921210555 -0.17573251618655336 0.7591557531933133 -0.4667277323680279 -0.43527916808415446 -0.17435218406199082 0.43471518394201847 0.680723185314094 0.12179638414761731 0.36045254924183756 -0.8442256068228615 -0.9681422104010924 -0.7005791963760772 0.06373102968762684 0.3772139512352725 -0.426215688005531 0.28400229799044524 0.8362412542282811 -0.7098041113751491 0.6470721266852542 -0.7592195373210247 0.3321172652952009 0.22156898232503355 -0.2868584159742639 -0.5257597154897312 0.3870609421897728 -0.0055558510508408425 0.8339855589260248 -0.056371408983673 0.2090894493305541 -0.9763444839103964 0.8542067602549185 0.13403188571642774 0.7634667692170196 -0.12691305943405773 -0.08284547364009338 -0.1728261554198266 -0.8419701392380519 -0.38520309750073023 0.7385612090883841 0.4126214212267623 0.1534173686494342 0.37318953415029427 -0.14772108279975638 -0.5113420280512208 -0.3334932804331477 0.8298889709184629 0.6655650966641471 -0.5588145831926792 0.5317411269012842 -0.8634323436847946 -0.06003025015519856 0.13192561324845561 -0.7497220910441769 0.35200041121397024 0.4029758780789975 0.3106297658030766 -0.9552403037797295 0.42105206769254955 0.20046884731863265 0.05402812537983413 0.8761379045295028 -0.6759960597214927 -0.6208359353461573 -0.2612741970251538 0.8752288246854181 0.8944617643384416 0.44163384992114507 0.5632033768905566 0.6823105197390251 -0.6410244229878668 -0.190470540335013 0.14081861954711802 -0.3501349888813676 0.2315727725574328 -0.3565808479414629 1.03745653402475 -0.1624700447451561 -1.076140586608 -0.8657035974079963 0.26811234155762564 0.47574894591335265 -0.26506286373831073 -0.4562030121235572 -0.5438691005360956 0.0755685415937172 -0.04248972749486707 0.5660885091802279 0.5756965533212453 -0.36188381737866115 0.05733658113633242 0.3037706368563624 -0.010649586731648444 -0.16036904285631465 -0.17171161681171787 0.06907284819751883 -0.3095950548645081 0.26323137489118625 0.6863198223751299 0.49651421273002416 -0.1112279323509585 -1.1516666228460033 0.41291286403433036 0.6642487856266338 -0.8868079235693267 0.8652239645823894 -0.8669808710401165 -0.38233539565973423 0.7261472520361202 -0.43317913102054234 -0.10209530593613934 0.3850672021256689 0.09758094640513877 -0.6178397195179279 0.7666610214627475 -0.3197370010258483 0.1961291613089836 -0.27681182238511615 0.1354666552218335 0.21130337556999068 -0.5184918621588642 -0.7478479159428068 -0.9432892553643628 -0.3831860059348049 -0.44781042730586135 -0.8225045405521659 0.14497597005715057 0.600896995497285 0.225678086537223 0.5188520912616174 0.1627381083877038 0.5978060573207403 -0.19410721312202117 -0.9588354978946738 0.8934158996586519 -0.03112764667173527 -0.39155921373748354 0.594339598140163 0.23359296107073596 0.1780150290237627 -0.17965478453211406 0.07543187251683696 0.3989495611127585 -0.1440806503361356 -0.7957654890221519 0.5339839605939876 0.18862329186211102 0.9737588123640231 0.2865648536743716 0.42052392756311674 0.9910205331851116 0.3537142977483987 -0.6997210740975526 -0.08492112185298045 -0.6988215965211405 -0.3493123577583969 -0.9921244362847422 -0.5741931799518865 -0.31557248845470626 -0.8623970642674903 0.5858618960815709 -0.26050052020282066 -0.559067946157437 -0.23843782532783417 0.16619414636928048 -0.30987559912555174 0.20513548570223195 0.24462467715276293 0.30599546654978077 0.5221578742849537 0.5607662583370953 -0.5190276201741187 0.17031118098593187 -0.19407444423240755 -0.44231492975454745 -0.10543408032894004 -0.08581816952286658 0.8229632123548204 0.46289371469047513 0.13385827833336805 -0.8392412691199244 -0.7513737982199834 -0.7464364776830741 0.7851160145621393 0.5270498144996414 -0.5486234410559097 0.2750687038630783 0.03644080478735619 -0.05082937196685706 -0.27604824430510944 -0.5086069854985736 0.07290224489057806 -0.8149740438356763 0.3387642711859047 -0.6588112964534373 0.6143953510236805 0.865344104654262 -0.19786299809830932 -0.9781560778600499 0.6680985009409158 0.04009435712275529 -0.4644526255148682 0.8917362421424628 0.5554530814482661 -0.9134830112232887 0.8092632463408406 0.03328541155668271 -0.13631080321323227 -0.8624530026145012 -0.14154017339456598 -0.6572668008379383 0.4610507412768325 -0.9199025486525175 0.5127264773709059 0.9589009734955143 -0.6868038126052682 0.3350970742706307 0.8109553657048413 -0.04523536254027058 -0.815125320371166 -0.025401497553101053 -0.32147736340329985 -0.8844550632291108 -0.380363528914187 -0.6489976872723544 -0.21888940355444 -0.10726569501678962 0.266584294373466 -0.5575553340527272 0.766307331065976 0.023701060621389866 0.518394455492444 0.6553454942403764 -0.46377243883913444 -0.16905106505075784 -0.07289474004101691 -0.09754540549246372 -0.6375444418591611 -0.12499351430349423 -0.7158249985828191 -0.21477257217802923 -0.18573844258755134 -0.7574379918669274 1.0249870714612166 -0.9365692307672816 0.31770895601959953 -0.5432740689061158 -0.7179262671502475 -0.14733537737287591 -0.04103769141138643 0.7050046008850027 -0.09146647248293595 -0.29019132203503245 0.865144885941135 -0.33119652541976974 -0.851527202009925 -0.7786417959519443 -0.014155847086823714 0.12215677358060707 0.20389793183773428 -0.24629800351527076 -0.4947140061339506 0.9335754415367264 0.32922470586116986 -0.5002659601799235 -0.4803094871225618 0.6205578691408463 -0.6642512386877555 -0.5587328357753892 -0.734115166980796 0.6135522276886141 0.9579002401108573 0.166646563984859 -0.8346586878990038 0.4861573538943517 -0.5013203804301839 -0.9511811574298148 0.5260086833011184 0.37256197591663087 -0.6226824681626312 0.39871788418511034 0.03990552886512837 0.9530626635316237 -0.6897383461308004 -0.9743646974877168 0.046513868459284735 0.7277238327154296 -0.5252626504220773 0.18408061687639554 -0.15605538342672878 0.036621643806944784 -0.06230840431696581 0.4867278784393726 0.019511010338047377 0.2972512860118244 0.154018735026342 -0.9535406877427078 0.4250227888934853 0.15119581030356855 0.9590465089481859 -0.9923569936644601 0.924180166223788 -0.14455001032692721 -0.8241970985732212 -0.9667843735995659 0.7398834296513426 -0.8953252669684458 -0.5317095003427266 0.9147012599735986 -0.5457451821112796 -0.2218751579133839 -0.10604531847343106 0.06160874569792063 0.6171908963833495 -0.6685282107903948 -0.42888016483759006 -0.6508593483026098 -0.9336360488475001 -0.7592937199218163 -1.039857894303209 -0.6580390201593956 0.18960587630860734 -0.7204811759962327 -0.27937584466772986 0.8434514764268177 -0.15135961200626058 -0.5307550651081144 0.9755386237160847 -0.5949465353350646 -0.5010922657705386 0.6000365652300385 0.5686301498091333 -0.1406552961139319 0.8718006362435868 -0.5943829162126426 0.2967825528345688 -0.5657853103940719 -0.8848000247630275 -0.16039069245691653 -0.28516003565780496 -0.1824591024354331 -0.79285954006393 -0.3590662052701325 0.1031613597713431 -0.16469436867459403 0.7450627827621177 0.38563963036314997 0.44354449547698643 0.030195100329987828 -0.7991970213845387 -0.9705150860184747 0.6062865815590214 -0.8579672925374187 -0.20683090263632395 0.2823756301004036 0.47076881129759046 0.8492245686420186 -0.32453025028306554 -0.8705664068123488 0.4907497446376734 -0.03292968279286088 -0.9411736553763967 0.011966012800411886 -0.0770213023057231 0.5683271313792464 0.7937884144677406 -0.13476792888560185 -0.6177497005007814 0.7112133551362362 -0.22632878765416842 0.5980776424620367 -0.17807429058483842 -0.08220859159042625 -0.05123384506818773 0.3455501990821525 -0.8445961533151342 -0.05580000967398056 0.8434485035031669 -0.9809990129440299 0.6833601422412565 -0.17641361260515778 0.6361127020899235 -0.9007161220357616 0.6417555788484077 -0.23463087213533626 0.3287058775424331 -0.6756662174241663 -0.3938801690187682 0.6312434411768676 -0.7506345769214703 0.6087169432323304 -0.12784796299031992 0.8837881362599572 -0.4230280125654452 0.5877691642424343 0.3734452944004564 -0.8074449161603152 -0.1665785740111465 -0.4177550558698959 -0.18436428546462916 -0.060805969873431336 0.7706409895933073 -0.06609128227629013 -0.43376338655217184 0.7732085519643421 -0.7157473720963818 0.10527156580032283 -0.16593785596625887 -0.8462712435536426 -0.4286361236087769 -0.14413575735474787 -0.5661221703343423 -0.3893882769672021 0.957293884893264 -0.6662331770821591 0.40861944550941326 -0.06539404427099685 -0.40414853492913505 -0.9156274818978517 0.81240445916365 0.6189672710437845 0.6927228645853054 -0.4381735868302035 -0.15219472341231277 0.8505179771773572 0.8428423503447171 0.024227372303296635 0.6676897368793419 0.5767159057759321 -0.1505488958487389 -0.7723883017558514 -0.7381199363271109 0.3088725108902022 -0.4420874146157864 -0.5951303435355505 -0.9693144943201902 0.3913558087336545 0.3741875306704258 -0.8854753655094009 0.5486426002486429 -0.3947397845009333 -0.33024569481619004 -0.41530832509553284 -0.03397091852609799 0.4656875877541774 -0.515226071869796 0.21891236942351816 0.9351285236766859 -0.4330116623118333 0.5740768512356901 -0.7653750790239223 0.16597118180998804 0.5284718092834397 0.3966465918462616 -0.10488009777304996 0.916463529702811 0.5214394273476716 0.8938981443847435 -0.7845101287031846 -0.603715547317079 0.6970484052504949 -0.33684153247380016 -0.9436179640835415 0.09822869746131707 -0.08361426561651591 0.28803229032636407 0.4268682427826702 -0.9436056740169674 0.2556018159063631 -0.43825800629958095 -0.8477162587073257 -0.49464129513543376 0.8281079450268054 0.08999418630039857 0.05450824004841878 -0.7642872834509502 0.8436460894577518 0.18280173488356602 0.2743893867277716 -0.7091277987992242 0.3450935495202556 0.5136908032950462 -0.790687686067802 0.915148255560031 -0.9305633559977539 -0.3172633436578317 0.5137036529988512 0.22816373662448883 0.7480226536889527 -0.3276668828349891 0.42008129981986686 -0.15076516548893668 -0.6585619162825211 -0.260823438909861 0.6649131715523713 0.42638635183122553 -0.9417607756571088 -0.6142964515904488 -0.622374111437107 0.08429701052569348 -0.7767382839906053 -0.2534832163564419 -0.6657952864841916 0.46026825850416203 0.5563599010055674 -0.18440592755701685 0.22720359365062315 0.3787838429743662 0.8477166716771574 -0.06203317976432654 -0.20949308138447575 -0.1220969718133822 -0.4996378247208815 -0.8659603921156287 -0.06265847392949668 0.7793385003719537 0.02417696253415969 -0.15574029779386764 0.419460060756072 0.8886878619530405 -0.7969206641736922 -0.8828865917852216 -0.052995856783845 -0.5725778521445254 -0.6461631465964354 -0.695053420737525 -0.8031917210304753 -0.6286372735264525 -0.12631042442497784 -0.06853183282531457 -0.3187819142131021 -0.033028647060496574 0.08281324065531481 -0.4760046392238251 -0.950566801862883 -0.07330861986526882 -0.7072880931203427 
-0.021922939748997727 -0.9008817377643734 0.5249748084982426 -0.04357027343074704 0.25227998590150436 -0.5222355638457741 0.14562608640017372 -0.2089367684841188 -0.9327206322721395 -0.1278312436617104 -0.29544449611838663 0.8375576936859401 -0.3182071693948015 0.34047228197425966 -0.1882205493918827 -0.4336560050719602 -0.21253485432523145 -0.6406117301766168 -0.4615664383772633 0.3423368603938419 0.10795919727578052 0.1677238895394595 -0.7809644440265759 0.8304103487285979 0.363024128442909 -0.008118255667223684 -0.15381231902711523 0.25254513830833014 0.9417744690201186 -0.09433226780111137 -0.6956379147879845 -0.19958181547606868 0.8299099696392382 -0.7936899505847061 0.9413646663748338 0.962286437337774 -0.8709008333243122 -0.5523376098265538 0.7918713716357828 0.04200660116125054 0.8494721459440076 -0.4380680666456075 0.13410043165391317 -0.2844688688282319 -0.44059017853574306 0.858969324712902 0.034252915351546245 -0.8374539793986754 -0.02862356334396487 -0.8452616988893774 -0.028611109845002806 0.9011517815685104 0.5259782375290722 0.6697736717956688 -0.22652631261535272 -0.6082631439657331 -0.30715098906008387 -0.9813916898609136 0.6694497078207327 -0.8632227675625019 -0.18214164538385644 0.11619395798343206 -0.5257985686865326 -0.9900927029115608 -0.9034078834287254 0.5572251626671402 -0.32266539231559965 0.45794837981149056 -0.4790375418314485 0.7443839732323247 0.49313641725347773 0.19580953118262065 0.43064318423179027 0.7262867262762018 -0.20624388042140215 -0.7538238296546552 -0.03544451487078495 -0.953272494850774 -0.4438611307528633 -0.8709063821104868 -0.7102678449941943 0.9525874046507619 -0.19809300345942082 -0.6659747058056185 0.2658470265673121 -0.8636578334724276 -0.668500899002761 -0.6775650205891733 -0.747105379444776 0.8479151564694248 0.22229745820956326 -0.013277837116711416 0.5453567744439302 -0.6183629578726908 -0.1089723883481714 0.4562146680662872 -0.13199891657899201 -0.8938423251718933 0.7278607867385808 -0.19723550339903054 0.20925179475581004 -0.7383139437727266 1.048695714563279 0.8143014416365343 -0.9132102130541127 -0.2471539406653931 0.8784620283961869 0.38280637179644894 0.4827782063123848 -0.45155565410212706 0.6379430685970776 -0.9393863023559197 0.8198121245348071 0.19205181828023682 0.7828309377337916 0.8741804774039313 -0.46472551984987326 -0.40266190622410003 0.14355341632972254 0.48115509700304043 0.9327681684010918 0.7585086202721265 0.6486151241975843 0.23864579067752428 -0.6230726478767012 0.22398832200898347 0.09066024109090338 -0.9507466098138261 0.7761288043911876 -0.5137613367168289 -0.5090762026964155 0.4416952629983411 -0.8641575950742462 0.22477790756112973 0.9933000738893889 0.9592492529165813 -0.12651032911740268 -0.18360263473801777 -0.06622244104832906 -0.7655401105640409 -0.5045596923870173 0.29606296843221 -0.29900869733901503 0.19617363770458 -0.3029709089178305 -0.6805531510725872 -0.751075106312734 -0.5830683449538714 0.7128426279539144 0.39850133094430973 0.30992264955892845 -1.0250995124338567 -0.24924455499087694 -0.6762255569491825 0.21483709168789472 0.16562418454824523 0.098383195135152 -0.144582602917675 -0.19454033275008506 0.6446006704394445 -0.8153365702450323 0.8073185272565214 -0.7480640478444832 0.1869626195571941 -0.38263926285945166 -0.5262232144203746 0.23797379685233946 -0.7618546884724122 0.960743370298192 -0.4449110298537762 0.09709281553027309 0.008052698285693131 0.09335048172970781 0.5579432132079857 -0.39812533335947764 -0.9448900429291542 0.20889066916592905 -0.5848839660478855 0.37749009583192467 -0.4075041822603222 0.41055091448429665 -0.5518849337349473 0.3493771500436078 0.36772203553275035 -0.2150856857907692 0.10801155522146903 0.7901928815957041 -1.016015741519704 -1.0516703168114425 -1.0351357187703163 -0.07733421007518829 0.15086489868345443 -0.6160890828884614 0.4020745958334463 -0.3672316482198266 -0.4579295107286641 0.5885201926332786 0.6574296129899915 0.25509346496441215 0.24551354736795059 0.6370484017973792 -0.07850831468828746 -0.19204879429733449 0.6222556817419461 0.6138481890900261 -0.4909554152928018 0.39859260233906985 -0.40373090761499564 -0.4444828345019645 0.7101449638611275 -0.32426012626373796 0.16499371357617001 0.7501016602943728 0.28593194779845044 0.11487693418985159 0.31489144578739586 0.6955860443082523 -0.4897820539285604 -0.5373195024176645 -0.34201565397307765 0.4286081591858229 -0.2477721010714025 0.6990335580867522 -0.7059327298944615 0.30443958728023834 0.16413850247106468 -0.34828824769341654 0.5268059578419729 -0.5837995151628929 -0.6889424807568527 -0.47805046054809247 0.32915256846458846 -0.5111430071368146 -0.20167832356477197 0.08911439740211931 1.0041838934156426 0.08139761749102248 -0.16611585997154288 1.081062660278162 -0.006204939634899514 -0.4101529468168543 0.33830857687973886 0.7416008186441061 -0.516058817581285 -0.9552867555387418 -0.4754733426915812 0.295220540426361 -0.9305359399108863 -0.7847484694543136 -0.09471722382782954 0.9352330649771521 -0.29682097972828314 -0.8206814962731355 -0.06872080295479858 0.08526409747018614 0.08298257768586485 0.07292787973243159 -0.3774560710236526 -0.5375502449810036 0.25439180131592976 -0.5719856648038969 -0.646376596791723 -0.7539417752192311 -0.09740547968667618 -0.7722030079251692 0.3341010882653088 0.3607657237241279 -0.8277704379240789 0.7073754746327247 -0.03836861628161087 0.11296473631560705 -0.9870948675373232 -0.4023515509027212 -0.9758299978058076 -0.03871349354129947 0.09468926913952141 -0.22447715260415652 0.8502210583288308 0.19496280587382672 0.9793725746188948 0.8043666743364597 -0.9922311982153984 -0.7291336611318663 0.18114530919430827 -0.16327798619260148 0.5260437106570665 -0.4570115349677493 0.010205657811282944 0.7723742712102465 -0.6465054906359421 0.5889645026064906 -0.8575249505561048 0.019091957177226244 0.23141304119027076 -0.5836774599619992 -0.7232877363335606 0.7861613390031611 0.8032080626018928 0.4407510218781085 0.7280560066991691 -0.7476793110318315 0.5347473722455942 0.29557451578723837 -0.404123977649702 0.23284681734837653 -0.27590845779359113 0.13496881178416034 0.11646145125391452 0.4074025811667801 0.7302723811008828 0.08614833941057527 -0.19678204331494098 -0.28435239942920004 -0.5817182759417556 0.6363848935370311 0.9058184082892948 -0.8276273562184157 0.19391468824290511 0.7545991517008428 0.1591961590230952 -0.06673895524963676 0.8790821530487493 0.31577988311889427 0.8337797615810676 0.703137082136097 0.20497214386981624 -0.2338915502268043 0.40135194338838237 0.8462916213885794 0.8179973901163902 0.1553868759808602 0.8445645675727713 -0.9355836232672631 0.9741536116238563 0.9032271083585643 0.8526049545573967 -0.5000391021517221 -0.4839398554211425 0.5142740281339007 -0.6583679985864666 -0.45698877883812666 -0.47781704313841095 0.7089688007351292 -0.01751412523657409 0.4247253052079093 -0.337558392463038 0.21641294925242416 0.3242153970980928 0.7208395101773979 -0.15634269505935366 0.3828896254940364 -0.6893190002576409 0.5028531622385943 -0.4384113166639695 -0.5842756057388161 -0.09788244316337558 0.35489554316495736 0.47520148984100896 0.572361958051429 -0.003844016196592358 -0.7243425741690475 0.8934046393616684 -0.42040082039281473 -0.3878377355384184 0.6394444963493833 -0.9063094010626461 0.17316031131501664 -0.34588851652700536 0.0857318761416225 -0.6990579393185883 0.5282018341985324 0.496488716802678 -0.24486205379907486 -0.8070913465458806 0.37871034760473965 0.18459813302087139 -0.5997269164512788 -0.5840373855220352 -0.6451225784325735 -0.03277712155319495 -0.843631642078437 -0.7261546039835436 0.6384558153108779 -0.7360686700297426 0.4358483662776415 0.14083776813709287 0.29799172638607857 0.19068552125040134 0.3818587489450909 -0.20825674105475656 -0.8769234784667949 0.08685040697612657 -0.3943369902151188 0.6041512221671907 -0.9342374209980605 0.7312517766198902 -0.3033356202953895 -0.6459339107375474 -0.5366711456867258 0.060268235446717736 -0.2492939814285234 0.5234244572305874 -0.7352623685446266 0.4882547085041052 0.6294686211654247 -0.6263602372416873 0.47605163845074283 0.01548057151565506 -0.39978488062044704 -0.10168766223861352 0.9442366411681544 1.0457763459356169 -0.3091638050632201 0.06147776703276067 0.8394180738164587 -0.9272451060578707 0.5364475252939075 0.17916300773146174 -0.38712912062639826 0.4728207552535534 0.9508783301155338 -0.9030893539236642 0.8473206887843967 -0.3566020814356166 0.09160653184070584 -0.30116890627727994 -0.033747153213275455 -0.8975209497149339 -0.7615481929004975 0.589188724555955 -0.8743853148822998 0.3886740558833845 -0.26892588400723494 0.07417054111962211 -0.5306572945642503 -0.7910847399208017 0.7726053091857464 0.9883668597897223 -0.45272771390918043 0.169132730501682 0.47521727367443506 0.8156266242677067 0.898079195186856 -0.688232223754539 0.9675252360886428 -0.26592036904457306 -0.2993795673369703 -0.8646995655163732 -0.522017429672782 0.4986959834042995 0.5722309808329604 -0.7374156472880344 -0.8841700344300808 -0.6233112371435481 0.8414093970026834 0.4035054388157913 -0.6978489987932549 0.8823174830367712 -0.9389312270514031 -0.14303254692967557 -0.5277673641451358 0.1059269898991238 -0.8582175711525619 0.0925038167661675 0.20122765438729656 0.907450179542819 -0.060997591821878736 -0.3668637744538235 -0.3168195094365749 0.14899912853387123 -0.6549347361772763 -0.30061921810616327 0.8886538109683911 -0.12461724065090897 -0.8062997863728215 0.6926463474908908 0.7346304279666849 0.12297827801216721 -0.5774912359195801 -0.4826637485719548 -0.597327006861631 0.11470458182332627 -0.7687782985343707 0.6707949921743295 -0.06957971211490648 -0.32854952602726584 0.8787643550156891 -0.04659620724559939 -0.2757042137004424 -1.0211454948686078 -0.25540899772223763 -0.7349274560544276 0.5171072352949969 0.4987733295188961 -0.5446271897812953 -0.3460517114028171 -0.1791538671223726 -0.7733135652723221 0.46302411656891157 -0.9947756294417357 -0.926903673764117 0.017326532378084344 -0.43131368159411704 -0.8717635194017749 0.08189657199946176 0.20975978702119932 0.4251392689728107 -0.3652694656454963 0.8842872859161228 -0.6265921165965552 0.42640764505780265 -0.18910064763489157 0.5796283380546277 -0.6488266391062547 0.012527491346175446 -0.36866032394280285 -0.3649060453482144 -0.8465974004485043 -0.958367543993818 0.560373421003378 -0.5684885601741471 0.07582837487847943 0.1946645390445219 0.11426498036994875 -0.5644366955697382 0.9357209237517398 0.23429281654637593 -0.06599171237590871 -0.02894806832251996 0.4286199041123331 0.16459747283122472 -0.35578794238353934 0.3041186813158363 -0.1536576218522265 -0.3852194716892365 1.0065158989578757 0.024480747049512072 -0.9438894948181811 0.801298942822543 0.8816137554805095 -0.3248098462816433 0.10487561908106115 -0.4972768212423967 0.5011867152882 0.1362614700412156 0.9744637700833885 -0.009771856551085105 0.5252675490048531 0.41642631697476024 0.82456550838897 -0.2714460103997316 0.047002382337697685 0.9285196977781208 0.6910713147415529 -0.9829137677041647 -0.1662474447702241 0.1834433927920433 0.8679966132577539 -0.4048080076444092 0.4752432015034531 0.07244745946726106 -0.08234914510449187 0.46282308663241073 -0.16457984985056628 -0.3293299994158516 0.301358458227543 -0.3216066750744814 -0.4929475009987147 -0.8822508883709653 0.8800439628844772 0.8411583094787525 -1.0192640704512113 0.11253048648690929 -0.28701335066933803 0.4379867227761758 1.0281375264070105 -0.3843185723117198 0.04119501036474876 0.3352473861724104 -0.2615038455177582 -1.0213221679462245 0.17384830400577456 0.781825186376488 0.6491327348061693 0.6512291683189007 -0.2234222595750781 0.6252674988894511 -0.16329780029120694 -0.14230682928333582 0.4765339990926964 -0.27479107272658637 0.7885090384514535 0.17106178568223143 -1.0113625839482676 0.2750185604450744 -0.8815478161935212 -0.40385241043857767 -0.5528978996542788 -0.12574959617787523 -0.07640870614922532 0.2624068565408488 0.9469212706178177 0.36123738508046366 -0.39544117353420494 0.052098828516421725 0.06500777352470033 -0.40621399214394316 -1.0372108537905012 0.0918429257127974 0.8476563703686171 -0.449358513980285 -0.8324589949894118 -0.2353982079015607 0.02161392824042883 0.5255725311616603 -0.42081013152222785 0.1088324989126237 0.0889176992145073 0.09602389880905184 -0.6849167885369031 -0.8137705850379329 -0.6283866721141986 0.36161768169637687 -0.5986892436299469 -0.44463478861582173 -0.24173443563820557 -0.479340604076078 -0.3099992970191869 0.18385271131197975 -0.5545763905355166 -0.2676314040039493 -0.08385841628379785 -0.1803042034216574 -0.6559410380595019 0.6955035667887195 -0.056551749270979675 0.45657314508927893 -0.5152493463368252 0.5601795466388256 -0.8088753134131167 0.07055213092320846 -0.3520352827469861 -0.517018779591948 -0.05424837918514134 0.6717211711021338 0.3270599233736706 -0.772166553665081 -0.8369656530499257 0.366549714216873 0.17681593145248953 -0.833183259502599 0.09705294778226996 0.4029568868860093 0.38205444404174815 0.6586799638938187 -0.8530942793341578 -0.30851603776637093 0.8144821474489061 -0.69397563602135 -0.07931215164208243 -0.10716034198972782 -0.1609213754135641 -0.5928910835155417 0.19176356534601233 0.4109444398481709 0.8426171470030678 -0.3567638685132344 0.4857521422349689 0.8125050143775918 0.09143242504472625 -0.762079708612704 -0.9004598665699148 0.518263617959217 -0.3676876367377764 -0.12376184460740704 0.9958455584212154 -0.20838186394253533 -0.33159252240233134 -0.34247084979956094 -0.4736042426237109 -0.8492179302874988 0.9858597018286637 0.46302112949177304 -0.17391480705235032 -0.4884096019660214 0.06141919252127497 -0.3195052448341932 0.7248985651679816 0.8014943831880126 0.08700975452620578 -0.34746743220989773 0.7136504764680092 -0.8056163574697282 -0.8675041775376975 -0.6132114156151465 -0.9334817322634876 -0.0012382166843838338 -0.22292919086757437 0.6147430904914828 0.7931306456915648 0.8894947627859715 -0.7471797748608371 -0.09899808455258391 -0.2422742496662765 -0.464373679076574 -0.47844821218588746 -0.7355629145756827 -0.5176408946848523 -0.402723281184782 0.5680862130506515 -0.3053164810932008 -0.3715959039390716 0.31958879128071066 0.8160287139131622 0.03471732283014138 -0.8721693144890029 0.3134591182221148 0.661346819558629 0.8819951863211049 0.6771801799614646 -0.4076325619063007 -0.6336511686896698 0.4872962938896022 -0.5595930436207722 -0.8225407088805218 -0.14581783671431525 0.05412693345566866 -0.30662618944533726 0.9267309310661422 -0.11379538300369196 -0.08069267613593589 0.6483653099863914 0.3477394707365066 0.5086196672893625 0.04328181268621565 -0.061135207936938045 -0.2966315141143615 -0.31798243754842126 -0.0748309366033219 -0.2854296983506737 -0.2140619971306765 -0.7587583828664324 -0.9414375375599467 0.266272868886452 -0.42495077089192507 0.9706574715514075 0.91968883217739 0.12441344240353262 -0.22613947117021005 -0.5246971372758579 -0.6538939087485897 -0.07527949548406014 -0.6486771690624342 -0.87850786067393 -0.37036084373549283 0.4563071323838288 0.7731515620859186 -0.980707829127395 0.324633134391904 0.19373089927581932 -0.12091949073908626 -0.6833049341893004 -0.5504720628537598 -0.16193241813221218 -0.3883458359798952 0.7410206600972766 -0.14449518667089464 -0.9675592115949033 0.467573393124148 -0.960881345207676 -0.5748625188221522 0.5575601240568333 0.898911150310384 0.6857224937384904 0.0164031053414971 -0.7367669691395901 -0.3145814635422167 0.032172235916859325 0.9648632125293986 -0.8973227317488366 -0.21249960991225203 0.9322786136920158 0.3441739275476554 -0.33635788176629977 
0.9738749523202341 -0.2447371107650953 0.26044560497030855 -7.491944092405944E-4 -0.6846554016699267 -0.21008252415574846 0.9797587897062592 -0.3608103160223981 0.50667862365476 0.9805327620971991 0.8099263992299726 -0.9080450559183406 -0.24899078234089758 0.11207852370061512 0.36589541196969155 0.5146446294137619 -0.8686665786859356 0.7161286855972699 -0.9092043825425145 -0.3162367886777655 0.17851156466897167 -0.794503491907492 0.7206861057362175 0.9184658148794305 0.69334760413029 0.049238439534719625 0.7580002003866586 -0.8122505683396988 0.7857955381728727 0.15500613093135684 0.9581465150038526 0.27567531444508986 -0.4327649395732551 -0.9456402231272425 -0.6643274025643386 0.5837847226838286 0.9638649809548056 0.9707026621171629 -0.73904622209548 0.9175305571624298 0.7155085927859177 -0.6020588759230227 -0.1544421076853762 -0.5652693121623775 0.781320143082714 0.4335926077678633 -0.0015756516341939625 -0.18514614621246211 0.0940721668736024 -0.227166914481355 0.31024446369581987 -0.29235280059079183 -0.10064802268881201 0.02557974505480054 0.18712131131712795 -0.555460897270547 -0.27084711788387095 -0.20669364310273264 0.5981336113990412 0.19470642874188196 0.5154732654779477 -0.17429285735525937 -0.814083063316073 -0.20581298899935058 0.2781438536589838 0.4871145593023923 0.5192014104657796 -0.2703627433701181 -0.6246402678710782 0.7540209973989971 -0.17398222436375937 0.018673557907179446 0.4031463746949841 0.011907302556238217 -0.34589589849950403 0.022414129407288097 0.4574584597639562 0.043609813647923046 -0.3434793805974585 0.7331811427113817 0.7668321052033362 -0.26113162306254634 -0.1619015342715353 -0.6762732793534589 0.3710055878585148 -0.6581892628151069 -0.45755352398630955 0.5153723018100442 0.9926786778109644 0.3182451299117778 -0.24696611280496997 0.7036250006613904 -0.9359681042882929 -0.7113639841994567 -0.75757752384124 0.5246783955019663 0.38120499578272765 -0.11314140103775111 -0.42365340852765176 -0.8136944072107373 0.8767358110669345 0.9660079061100169 0.1939794459179359 -0.19835284851098411 -0.3101076171958837 -0.9986368820675424 0.11421535773082947 0.5069128519454774 -0.4172862680518803 -0.8100335803863401 0.3099436357722227 0.3535521967634432 -0.07351343134381927 -0.4604439349235711 -0.5854786079480627 0.7555770753356232 -0.6457597635442283 0.8070960271512378 -0.29727999040717196 -0.7275711268108624 0.22683646649052863 -0.9752506456552652 0.22751389647341935 0.6504220215607619 0.39994044501014925 0.16242736175786543 -0.6135475099958644 0.20170245726834202 -0.12017112224775633 0.630302601214709 0.25117475769602815 0.6404128175633249 0.14784856590108697 -0.15871599650740073 0.7299423244026534 0.31756001398938455 -0.3261259562503485 -0.3946906853654056 -0.10436267149527907 -0.13790182963032604 -0.2030805121200423 -0.10183734952300161 -0.9339671256841898 0.4498944479124447 0.5787037493329257 0.9407424586028729 -0.0811660521375651 -0.253760632467959 0.007500769345007359 0.5548449583181473 -0.4101299304766109 0.8539272263754397 -0.3323496308044769 0.16796916103574203 0.9905681825264 0.412549119454512 0.4316059833915431 0.47255729468722873 0.1687866413002933 -0.4462740225499886 0.586268183381121 -0.6565033880320751 0.703989544383597 -0.032151508275851046 0.37553318267277824 -0.7627949707729506 -0.944752115140466 -0.46006853285335403 -0.36542105200981156 0.912630243141487 0.9729657385619815 -0.2589351268137292 -0.1147097682212144 0.36623295579521997 -0.21499618330250878 -0.5678588309069597 -0.6563591392616029 0.4779084547909582 -0.03899246531139653 -0.07020379028275833 -0.808215126226407 0.6120983375597554 0.8108691665463303 -0.5275681683231948 -0.3458637522943852 0.02342683416696101 0.7243433070066023 0.2959815148542222 -0.5457418803616447 -0.7216380448862926 -0.5166059431992612 0.7100595718669053 -0.16529135486263596 0.05765700487671301 0.31047400826951244 -0.11109044564019273 -0.06791983376288102 0.40997621687334224 -0.9589635089344768 0.691912915610106 0.8066280513782489 -0.7847776606177439 -0.3241627500599772 0.33668364451405436 0.5719572999348854 -0.21291284237317712 0.02704021643427787 0.5731783192654348 0.20486981457142578 -0.06563051438446227 -0.8049048718619309 0.07397005033059936 0.6622500147218091 0.9805561278686635 0.724443570650882 -0.39515864250607086 0.21098282225594106 0.2760508371228651 -0.7711253462915663 0.9196284575172774 -0.5669569910400777 -0.20617293255091526 -0.3793308491938276 -0.44053589649423186 0.48008729543366946 0.9660277120709041 -0.818634923965778 -0.7081561180241881 -0.4110274628604061 0.28242984665727255 0.2534506515945814 -0.004035777009624163 0.5626115803209684 -0.26153098480181136 0.0661126344471602 0.6264081575923264 -0.1668702700572714 -0.08995600220734731 0.9856387740991115 -0.6079583838068978 1.1031017822290643 -0.946560569686484 -0.6089884760919372 0.8203740408363448 -0.10146760940045488 0.12783139287762318 0.5918949332671998 0.8264661131867177 0.30520046675352414 0.383169759367569 -0.9416063282270292 -0.4667446558122676 -0.6797674769110416 -0.9369775934883192 -0.671066408063683 -0.8619210475700445 -0.4071544170301252 -0.44474101469300764 -0.04786131662931803 0.8310282219747972 0.09634057737499879 0.12082962274502738 -0.13931680630320895 1.029234160662174 -0.6724023176197812 -0.7593920050886607 0.39747319774134615 -0.42723066285090855 0.6646926641636743 0.4539880737911616 0.7980321303340809 0.07552496856183931 0.2983198946642862 -0.5867326467430836 -0.3444418515013269 -0.03538352235506703 -0.9107777795963922 0.09842251767909943 -0.7014427573573945 -0.49617044584644804 0.04084048216771374 -0.18356884251098443 -0.17859503970028945 -0.7714754612126269 -0.76638857715194 0.025892293234260812 -0.009790089715853878 -0.8829808078221101 -0.5218060017078521 0.29229569417901735 0.24509997743253104 -0.6517485066192131 0.5778758843649607 1.037984094080788 -0.6597472228769247 -0.5570266240243692 -0.5900808715444622 0.14601280864481084 0.6528256429888217 0.5424367252863912 -0.805931007585296 0.12190477398042426 0.27626198540723446 0.8619547419177034 0.66700738520136 0.09026504764163922 0.02727177935836517 -0.3694768837227266 0.42125775766544793 -0.26277474346586854 0.26333051098467825 0.24575159004717376 0.5939550108124596 -0.6710478923417034 0.9493780614641415 0.49807691116923863 0.9195966914409506 0.15887271123169025 0.571038888424861 0.16287002159161248 -0.576806697236652 0.8915455771461529 -0.44934807278923994 0.2747339330432502 0.7626224623144099 -0.871618973241789 0.6646538053880399 -0.10571164898467823 -0.9211058431738711 0.7627461989660049 0.9447272151950494 0.6598817368320633 0.17237886995452403 -0.906983785420012 0.9960531409525276 -0.881680812683027 0.5262871296392806 0.029450972197657986 -0.8864363437393212 -0.10165794260990997 -0.33608524888290425 0.9417171526203899 0.6451786670198383 -0.6476949702952625 0.05019677341837186 0.45227858651656705 1.0079640339765665 -0.6196408492892004 0.8358816593034859 0.5794296671897917 0.8088087781423628 0.3338790572429656 -0.36556606540999037 0.7777559960811193 0.2921160211610919 0.9252191470922302 0.6060967050494168 0.5825686466486224 -0.956652334974107 0.8761843050623279 0.985084638764172 0.4975068148039665 -0.10126981724759283 -0.2265377051665967 -0.6145671494438723 0.39941691704766574 -0.7025876061539212 0.8727921589109726 0.5932290023106824 -0.8645786113159325 -0.35356597769277825 0.13483180803390032 -0.5837659846804119 -0.9121849533740024 1.0503820256190515 0.8388493923056238 -0.15638305841927405 -0.5072590206929998 -0.639200643134108 0.008887604678520835 -0.18725351241609295 -0.270121075347697 0.9789286575329053 0.27076197269993735 -0.07674311256845713 0.6246350319653995 0.5293278575062851 0.788120314435066 -0.09075753577508776 -0.19059562443018238 -0.2785599490047887 -0.16889132967752848 0.36236334139145465 0.3007740091127265 -0.8480681040186983 -0.05891941683547138 -0.030344071575399086 -0.09818267809046888 0.3082129298168244 0.11759762569040716 0.7081163553686436 -0.31502705255498403 0.6450970774640664 0.9347409455248266 0.9321445080396396 -0.08584249627918064 -0.34846432469945604 0.9880514387982743 -0.021485010919677645 0.20627190194284384 0.37747429816535844 -0.45205555897180644 0.7911000006704336 -0.5899549050613508 0.7092525064634486 -0.6764538537594784 0.9994799060474288 -0.16388416025534636 -0.4276501564513913 0.93037096793811 0.22820220203562191 0.8811007596675156 0.9510671611697359 0.52773356945359 0.6113886711561393 -0.47972649157543484 -0.20851188923820593 0.6610073170175227 0.5862901154044391 0.6427082238277458 0.5470824660041393 0.6995515765651612 -0.8900505737890493 0.14191563672192264 -0.0406283820708988 0.6537434110900091 0.7730782852087715 -0.8141974773057283 0.9010132249246493 -0.6774990016690353 0.18233448602325902 0.8214982494201336 0.5848222842942615 0.2989875847297767 -0.17087271957237646 -0.3247863899700537 -0.6749379560202553 -0.8702592392863084 -0.20203792481024754 0.7053353884286538 -0.8543981761709037 -0.8613412910314181 -0.2620536001115279 -0.7089974106233419 0.8663849168950779 0.23380455971006375 0.9510912966760602 -0.8021124486653721 -0.615084517412281 0.7309096407183515 0.19154358578144062 -0.3429097153664679 0.885933967623118 0.7210093645952405 0.4362641388034597 -0.2548401449541916 -0.46926505351300324 0.3426951923844738 -0.39493446224920903 0.7069823204812047 0.9531873299507347 0.28643104426902216 0.21214280149572123 -0.2495262816292118 -0.349342467631177 -0.6889377683098353 0.7726539817688243 -0.43783507147397105 -0.7566408252516705 0.47529729673959364 -0.2767665845809963 -0.8201472756052001 0.8222747471705605 -0.9009644686459894 0.37603119233995913 0.19261620553851916 0.923955302081729 -0.514244792089132 0.6624464410448974 -0.11152152801415416 -0.531778296317806 0.5843605414287004 -0.5718315706767457 -0.5329264933781955 0.3035289708515477 -0.49224497352779245 0.11756443999298088 -0.4922603213474658 -0.9841349472335779 -0.8079122322676814 -0.4717213993409482 0.7572470073773789 -0.7815749252368198 -0.7883568424473824 0.15022382928132272 -0.6640940318963169 0.014893951927787063 -0.9297150144590496 0.9352683786798295 0.9720335107792126 -0.0609381233993189 0.5120082942906459 -0.7335185382958554 0.03889704479467896 -0.14335578361410264 0.05348337075656851 -0.49360856211685356 -0.8078452908972075 -0.06689108960538072 0.47071392579940063 -0.11218936664150989 -0.058338182422915 -0.47054187370600287 -0.9137390701474062 0.36749593479086456 -0.06056703863493794 -0.13955826398938118 0.8827779021706397 0.9292898101680885 -0.5680552125745465 -0.04698016473063433 0.6585891452807426 0.2268722512153245 -0.9631016746929372 0.42618428126298363 0.7144407348684592 -0.5992106829939372 0.6405153799350723 -0.6054828489292404 0.7057786095715972 -0.8271983853182198 0.7553646240273875 0.21657774570074345 0.3324978859443925 -0.9294683962795838 0.5882588022511432 -0.33467604482778784 -0.8258010179933181 0.12319042291011939 -0.5932175158691501 0.2090974219626021 -0.4882614208606875 0.662717262993929 0.41752170665780897 -0.2978454953171356 0.9560193214163591 0.6751031627613061 0.5124729018923815 -0.6837396603697409 -0.6616280467548703 0.8057400834808017 0.633165704052283 0.2863551757753618 0.6856448284716785 -0.8358207360446862 0.23218997025091898 -0.4818416183348149 -0.10677294211325032 0.24782163820037117 0.4958715288959051 -0.518931333260959 -0.5054664819899425 0.3481664467360894 -0.7097484245334269 1.046106669159324 -0.7299251364329898 -0.3755020322942565 0.6951659275195363 0.41636632442277116 -0.09383026835866119 -0.6204750364726994 -0.3820705747651585 -0.8653441775680013 0.7957736614030374 0.9122024598159498 0.24052860002954607 -0.42870961896393367 0.6498541560529557 0.7633803609621403 -0.6902610487756808 0.18846002843091053 0.12142852606544433 0.31695213962911495 -0.3351485265411702 -0.3997655244208349 0.855014739631992 0.6559267268984234 0.04844532339788661 0.8207923865277682 -0.2118095847705739 -0.2604995217167902 0.9497865555763167 -0.8245996365189112 1.0804899018669791 0.5227776565842265 -0.44167244854635646 0.7500810441951922 -0.797352120215851 -0.8173483243432076 -0.10821537147706037 -0.9605283036621369 -0.24170957575308927 0.03980319263233248 0.06670318243684302 -0.058970219127598575 -0.17561828203251778 0.5950175084026921 0.21049908022420571 -0.18399401238471144 0.5578166363488695 0.713320808245989 0.31111283979372306 -0.6728561473361045 0.354441197501835 -0.7613380033891889 -0.46101180442912415 0.7482122335407368 -0.2039460313446443 -0.789734996070777 -0.39399753576445057 -0.3388011101078447 -0.527886402606071 0.332159712071182 -0.5809802101023398 0.27942828652664575 -0.26707914097585816 0.27243225858727715 -0.9078748433629518 -0.7366792551092675 0.26688506616666263 0.679900638483462 0.05068892766265532 0.43521152366188925 -0.4206418313553323 -0.03216502010684752 -0.4256528671720088 0.12695220309549646 -0.19309256588606658 0.3437700500001245 -0.8645825917921289 0.16316937503469306 -0.03926607493448423 0.2784238526639554 -0.6595124269025487 1.009209891902612 0.3649769394083616 -0.6760752734737323 -0.9037788096456324 -0.05204239733841919 -0.8934333554735928 -0.5463816330082886 0.47901692029350285 0.5805075562360247 0.319158493164602 0.6335675003863238 -0.5896530131417358 0.13665385533627022 0.05047978481536035 -0.9502467643768525 -0.36200211815409433 -0.06209375873503078 0.08905905011836546 0.657229675149396 -0.5219969013120849 0.3074235791119008 -0.07328095284462982 0.2643221831032738 0.5358653886005286 -0.32001271410219784 0.420184416229604 0.7925268958844319 0.7377357023377615 -0.05319988502744963 0.33776016270950215 -0.9131062890723756 0.34950549170319295 -0.5450281493523867 -0.4718454896309623 -0.3742540691262999 0.9005343958464296 -0.582841624406102 -0.11999353698330502 0.6759693171609047 0.4631290449119464 0.3585638006835333 -0.32510110963780003 -0.7568843187948882 -0.7601731402240329 -0.09005800739605774 0.011435771556906227 -0.47582473073113407 0.1349167733217287 0.6960043278516368 0.04357622081044596 0.8113948179808116 0.8438459142155598 -0.13716655912712547 -0.23305021586682997 0.02533706553281328 0.7994930541215263 0.13143925533259304 -0.8865190260619472 0.2733939725341687 0.923081463139207 -0.9367292567567319 -0.8044068270272516 -0.46273441468881227 0.4266446094402949 0.033840222675453134 0.870216490824196 0.5890428946311008 0.022643679060269324 0.8106931191289533 -0.12661584659193595 -0.3605232340488677 -0.9025064593008765 0.7367074031456156 -0.29790463300305814 0.41254029964390626 -0.12773312038369755 0.1343969846607933 -0.7452244857688126 0.614625524216001 -0.34636751249225545 -0.7583227173964662 -0.05526208609585975 0.22280867383596956 -0.0014196066256731315 -0.7240106993848224 -0.27953054144576406 -0.49967636670175847 -0.10260757043018073 -0.04040641639147359 0.8705030055248973 -0.8786731037737747 -0.3192965003536397 -0.4250492829039308 0.4375156670622819 0.009235933765283345 -0.877247818541552 0.8428536766860963 -0.10574215504436477 0.16914136152809442 0.4799495931480957 0.3863989665891736 0.5768632884132425 0.0034084922322896727 0.5200036285502421 0.3938821542456412 -0.27087783781878394 0.6578402006937745 0.8574937361942755 0.4017773623436978 -0.30439315730597494 -0.8753046228670875 -0.8961785385939529 0.9313501726412413 -0.7979995518292481 -0.06371204202561231 -0.8655327783881229 -0.4462753973723585 -0.24766317925668607 -0.24984531617272723 -0.2295265006502523 0.5864776163065161 0.5167409887936102 0.30917537990422056 -0.6885097302792067 -0.26396093134586907 -0.6702640415286811 0.7665175370999506 0.2506988896280393 0.6054591648706129 -0.14813470049058397 
