-0.6449620330126664 
-1.2197527373602124 
-1.3462881413851746 
0.09968736534513375 
0.16996999413278507 
-0.46321080999769587 
0.34204157431295307 
1.3358328330403069 
0.5816982619514671 
0.4221049883490186 
-0.44025657007194463 
0.19842197361621022 
1.5095975439521192 
0.4148324889922203 
-1.1348623028328872 
-0.7010019172761753 
-1.4489247869427229 
-1.5490490482424832 
-1.622315077053892 
0.8606922732104142 
-1.0633374778253444 
0.2844460935660074 
1.1663477376668965 
-0.34536191601152694 
1.4847543172425757 
-0.47713122626168203 
-0.9020798784884667 
0.12081293364943793 
-0.23902267711759048 
0.31450570738043393 
0.6554540638504087 
-0.27306347159159533 
0.5357594789019764 
0.3484006417480864 
0.7343225748878325 
0.9555712379362094 
-0.42406522464579144 
1.1989414761986807 
-0.3078818438532425 
-1.3688227235625916 

0.23653348463592133 -0.4102460085410656 0.8550049949770013 2.13845069253597 0.33162660807979605 -0.4681449483947629 -0.6236241357422709 -1.3001195901991587 -0.7672102340232417 -1.5824125946233605 0.28333828748155654 -2.212937866018823 -1.1917227908007861 0.9642920173261289 0.6002945581492857 0.677073512637985 -1.7006135015084536 1.097203306786243 0.2896888942352137 -0.5070055860851653 0.4701673202920374 0.407738664162492 -0.4393729975885699 -0.7974980654977364 1.5083580798030947 -0.18008500675162345 0.23715572520804873 1.0159292392566768 -0.3967334692336404 -0.6122317729140664 1.4466282587182742 -0.11305752587987362 -0.45673639586527687 -0.24268629786520834 -0.17252868038368638 -1.7707422230375194 -0.7605739560704531 0.009335252642014754 -0.47914004229006724 -1.3715248715885344 -0.9676623634512048 -0.13412807661107212 -0.09615543429688958 -0.8258498080839058 -0.5753101811843253 1.1253602498776614 0.7411354889051318 0.04953953788720341 0.7588479012839071 0.3625698346393573 -0.37117674619641633 -0.9174660636076605 0.3709113231890064 -0.2503560664431399 -0.9401603034590921 -0.2579219981971777 1.5211161186786704 2.3884344291024373 -0.3369241033563302 -0.21693285958091615 -0.08944476626534104 -0.2791187990210613 0.281104627632001 -0.013242257163195065 -1.3315248175409267 -0.48186514526124996 1.078427390063141 -1.6605924504989085 0.3175132689158438 0.3116323910987029 -0.9529048248675537 0.23128592599459222 1.8480040767806003 1.292001807107051 0.210189535659457 0.7891879621902796 1.9871593059972328 1.5578814902470137 1.0635136881552059 -0.9162302914291685 -0.5229167932678974 0.9057552950235552 0.1264619667407612 -3.0489611138452752 -0.8144597910333741 -0.2100299305684175 -0.39808676936988063 -0.6187201117352032 2.296606040682517 -0.07714516935536721 -1.565477985952246 0.680382473216468 -0.696286552823197 1.1389494434395613 0.9236654895012084 1.151396414901962 1.1710893417400217 0.6353787722498981 0.25056278998221554 0.06644148604246806 -0.13269131849773746 -0.6869212554794966 -0.8933525913154629 0.8104005989682305 1.1458045003703141 -0.27883124930328906 0.5743839069138339 0.6322340147304499 1.9999212775562976 -1.285711597661913 -0.8774548841266167 0.3748639825106517 0.8814687935689267 -1.9628857311522627 -1.4335379931564447 -1.6321249218622997 0.6311934934255534 1.011888378923062 -0.1548616098257463 -0.48589712997969314 -0.8744622473543067 1.2598979505754722 0.4069061000180094 0.8138475583806781 1.125470091409156 -0.31787097939581055 0.56665723001019 0.31911539906767245 0.44011512163447586 0.2789253980465729 0.34648787613355014 -0.8177523965851555 -0.8859101769176533 -0.0050737853883760075 1.2183406259926841 -1.1618776990654252 -0.08716854709842707 -0.299803921383445 0.16193137042588937 0.43735579519574963 -1.396589142097887 0.502858131572862 0.6967864935590333 -1.3352351675318042 -0.7964935729589845 1.7578901990916906 -0.6377395793940167 0.30459727284849114 -1.0439816113601361 1.7594183411124014 0.10988668979414563 -0.839456277565767 -0.6461376599843689 1.50369162042167 0.7358273658860941 -0.6746152918479109 0.9276737824766965 0.7095476992480344 0.8790251766532601 -0.27397921180893725 -0.20486431055954873 -0.18364042370357575 -0.6498391410611952 -0.2877543496736537 -2.03073993867621 -0.45152196333041905 -0.6639624061917145 0.3296662334916402 0.6529890776498417 -0.5175953890056635 0.3287473250558078 0.5162686687342922 0.006696759420682865 -0.9383441640675059 0.45427781738671796 -0.5920185446136392 1.3704245802048998 -0.9665049182155587 -0.7549965321967426 -1.425401194287093 0.5998963576805268 0.4095761375844953 0.3266345299354138 -2.6267131295546244 -0.2646295594272507 -0.35829174399413255 1.2605499797567774 1.48766809787264 -0.35927655579600687 1.024343379902595 1.2917720559994552 0.565674292438601 -0.5624296249589565 1.1439451398894571 -1.0213597488609822 0.7323306130774688 -0.7543650417792175 1.4853208993906086 0.9300400701047278 1.868042325032502 0.8006364431625975 1.1280684588306098 1.435412684195944 1.371937669701773 0.020095587463355498 1.508375350998404 0.39210504550460906 -1.51148733050634 -0.06202908844571193 1.0814186543866362 -0.09120960366301593 -0.49592976556549856 0.387417607115743 -0.7847440033382105 -0.2911247912583031 -0.4101771804695433 0.29451609647360427 -0.5610709951204754 -0.9403054919532805 -0.16656148962309128 -1.558703341779174 2.78381034967572 1.0420713536099016 0.9773332371346415 -1.6986255571318851 0.10076889454219014 0.7504501293369538 0.5097535310428456 1.3950378740267153 -0.6845901070490751 0.4079343622693091 0.8267043167261244 1.6593265284075183 1.3045085337811058 0.5203407971367112 1.7015444819608152 -2.163211906177561 -0.40036712511223466 0.19792395336660296 -0.7962910359394542 0.27778988684430667 -1.3215183866046747 -0.784983144503006 0.2237197490762645 -0.6736823400552052 0.23326738028805152 -0.08342871650316373 -1.0969766205522078 1.5778820247081655 0.6871101289309921 0.28228378715318764 -0.3561851162932291 -0.5126199266914323 -0.07616520249117788 -0.06090621404640311 -0.32118416741649153 1.372156379892635 1.9316550756338422 0.00798951065422677 -2.3044110066582935 -0.43310703701488257 -0.28629794683374354 -0.8990469316949373 -0.6199759740876654 1.3018137547613755 1.449705766593068 1.7653409368627273 -0.7522520009797614 0.514581744721722 -0.06766140851026482 0.6443640333022435 0.25299702641014027 -0.3927135326539546 -0.9633855960935488 -0.5896630135976829 0.1907798676486153 -0.4283411794967565 1.4531166635951673 -0.14650383387965854 -1.1338619293651788 -0.3400382877349058 1.0833947707775275 0.1627282338267039 0.2548691757705011 0.40254307538047557 1.6045260393604475 -0.06701756003626116 0.747891005944243 0.5602701458703951 -0.5743971088286736 -0.5126169320191086 0.36026944388214616 0.18434501683543772 0.03165637380072355 -0.7818569949259895 0.5662609728404404 0.045559934530097 2.149279635798185 1.5157793506816133 -1.1955006347955928 -0.025347908364446708 0.26314517924565767 -0.20089146491935406 -1.3063105270359632 -0.8100605900009037 -0.24331804281601677 0.2647173934521428 1.2492992075272533 0.2371968868401194 -0.35041718667286315 -1.1327799347991139 -0.683367823105335 0.32679830140293087 0.7483582971006293 0.509288011932593 -0.2740365519989432 0.6036512095534615 -1.5166143168772928 1.1071471100784032 2.710675427040198 1.2098612358311847 -0.623826053762703 -0.22042807681849702 0.5336614693231463 -2.0779448212437686 0.3719424659886625 0.253538062804332 -0.6101947974330131 -0.34179038869787937 -0.6569605657888866 0.5765923891008565 0.18407056722511 -0.17525854381475678 3.2039565024499724E-4 -0.3925082038802284 -0.1404354268758294 -0.3223547225057482 0.5179530179865253 0.16029471394779476 1.457587080485572 0.4046681229439459 -0.9578555782248188 0.908175672918452 1.2308253628219366 -2.270908678171781 -0.7515110142527872 -1.3194745431540533 1.7589792551856716 -0.2545981812478513 -0.3374626152902639 -0.009427280041914884 -0.7491618991183511 1.699863326693204 -0.06415872344944279 0.8097310066004823 -0.1273241711165189 -0.4774447374424918 -0.8755880647728516 -1.4879837800855666 1.563689771696548 -0.7963037186188628 -0.998269701960528 -0.12538069321146073 1.0643842547463664 0.011336377606721548 0.23544089726854583 -0.7549366689915127 -0.8622173220947174 0.7748762738805866 0.02659052271447528 0.19283869197956818 0.8524412885614908 -1.2577544404594676 0.2341879467713629 0.10393097554161308 -1.0397874324308911 -0.7349137942301918 -1.612989067261358 0.1701841027610503 -1.1253855276440357 0.5836317924220052 -1.664061639784633 -1.1442471715554994 -0.18663223657832675 0.5690240235649624 0.5150465738325983 -0.6517657067115238 0.40878968078916206 -1.9238785085653036 0.9257325783818785 -0.7686176808423584 0.09161242677390666 -1.3267813679428138 0.2494857471728372 0.7309637232432576 1.1163010898811931 -0.3159316179625687 0.846266335517957 1.8662166842199097 0.595966682820368 0.6219840857194927 0.18312509294090526 -1.2958800451388672 -1.6504683989877418 0.31959929782049945 1.0169910303252612 0.7336905849189798 1.695161012242309 0.1606319453453976 0.5184315803808455 1.4383393687044765 1.8718524603043654 -0.890754125988806 -1.8627024929096199 0.22879250557175065 -2.4965295317076204 -0.20295881672052765 -1.6917127893156878 -0.10933750373736054 -1.1435127429353733 0.010662694157993188 -0.919970825174839 0.4188187706352581 -0.05937192995734582 -0.9759968049926528 0.20012669107233574 -0.8815751330893851 -0.2655061313896363 1.138095166150177 0.3923147946529726 -1.0380139005615363 -0.3967875468829188 0.26358488884055237 -1.4332897895567143 -0.09301818470396936 -0.13426302847401933 0.536944099017283 -0.29818556034971583 0.05877866552535521 0.390607978141847 1.0151004455181623 -1.2459986060623853 -0.4997930881428228 -0.9825628056374849 -0.4065506569260567 -0.667043283870415 0.3283854924108325 0.33880183870623004 0.10664082738001607 0.3894511891927167 -1.2348052321964076 -0.46090270633984187 0.7514570089118053 -0.616952164915773 0.7918690875621468 -1.25209326895168 -0.913577279649418 1.0164358299237246 -2.0047612039016656 -1.051705050051667 1.133656868976265 0.603298164513956 0.5237091045662797 0.6252417981659008 0.07233031381832349 -0.18098608903178123 0.3572765121060956 -1.406421447935885 1.172608303521362 -0.7560687925180178 -0.010391049591949114 1.0527532836028168 0.7176169409736587 0.9527458791098853 0.20537265779058644 0.8580504205184011 -1.5031423470614278 -0.16501203834966285 0.16170936128168248 0.05616555545201793 -0.9804015481075137 0.6001371081176788 0.7049306074140341 -1.2266579581962085 -0.18540908942833811 1.0602238165346927 1.385394096823273 0.1048058232029241 0.704689982200849 0.32319363722236605 -0.09389844850841064 1.1993033969584204 2.0706657665087818 -0.22367869538622398 0.18061234830827858 -1.2154930278651424 -0.5914311091837448 0.17383961835106515 -0.32405495191514444 -0.1664945235722359 0.6065848943633717 1.4588797629342551 -0.7060300054127975 0.6623052654070442 -1.3364736032662046 0.3371550182697737 0.4653077736416216 0.8202458517945375 -0.8080969898802719 -1.9666385027202666 0.7427050662895766 -0.8215669143244082 -0.18568471018496713 -0.1683297589508727 1.9941612794414862 -0.9950814851804 1.980582889309127 -1.0793450851309598 -0.14160831167146715 0.1714449691142665 -0.41232753718888093 0.5633370581400917 -0.3472104156705354 -0.03646979372275174 0.03808428203336808 -0.8563060420910694 -1.0368026414912066 0.7083384640313448 -0.7767963603386693 0.048984404794841466 -1.7900669995076295 -0.6170760657166848 0.34804941065475803 0.8498838873483652 -0.32396672715514974 -0.7857965613074684 -0.6888489421982058 0.6250328684173605 1.494665443664588 0.16743108828535044 -1.2863121184583495 -0.006618646257314756 -0.830348932568246 1.1584861774731272 1.5864819772964454 -0.20791218538062245 0.0435795896554672 3.3808422845098707 0.759647665964904 0.6764728162224126 0.3655918314742778 1.1296264164427279 0.21233176852690913 1.2160749225774663 2.649312447525423 -0.13643880115294438 -0.5391478555852235 -0.35653596314514113 -0.6359765775403622 2.523301079576554 2.0240654517486933 0.39822961163682935 1.1019274847836737 -1.254540482951968 -0.5283557527216584 0.49702112931151976 -0.10566207396654162 -0.8221739539903382 0.010207299338939439 -1.3807041877730335 0.118152507665011 -0.6920936271618385 -1.45898514754475 0.8725140994489174 0.28851371546335103 -0.10648688257959059 -1.4814228757307095 1.266947860068897 1.233088326218595 -1.291878551928957 -0.07797499869569004 -1.8725102273044 -0.9062753726624458 0.3113446893857765 -0.1033780417912497 0.1635376058711555 1.3792616035978205 1.2450245267490605 0.8647152750859741 0.7319055798536815 0.25977972032258384 0.7328176941643664 -1.2528771971068366 -0.4092611617061138 0.9563555180017035 1.2724714908650665 -0.3913092653268626 -0.15041576672184043 -1.3603518104526235 1.3607150266498078 -1.8642419752893715 -0.00676708923643357 -0.48031587773025064 0.36543415143953895 0.11333857122559143 -0.8839080749099752 -0.6240317519762906 0.46041420919116394 -1.5222448860987954 -0.19817831365145597 -1.9427585689832916 2.120453755158547 0.08936449118869956 -0.1746939935643577 0.813064546899 1.7958589648162866 0.24946888536669684 -0.37005936593158 -0.5235332488646129 0.3914049014884299 -1.1584505857649745 -1.33631866427513 0.8654208069520717 0.870218324324171 0.7337342835465773 0.40882217557661665 2.8461793445251726 1.873214577689669 -0.3831791224271261 0.7245145811835415 -0.5825228660474819 -0.4781222834657202 -0.5482593394430739 -0.01899213998492726 -0.04862172050254937 2.1019296827754843 0.08265132049650929 0.03698420632548052 0.8003450902412907 -0.11926427773065187 0.5539372729439247 -0.6308629546604815 0.11267823181816435 3.0920504821048005 1.1245285507491762 -0.3869341463740614 0.3884092258757062 -0.06110468743019831 -1.1175203951442134 -0.8145536698446036 -0.6998356676073769 0.2871037880048659 -2.260294102006474 -1.2850151774024652 0.5001995631809649 0.3515007883725391 -0.6464564336751712 0.26354321874804854 -1.4218825463314737 0.17253849536462265 -0.01595982784234813 -0.49121788466560706 -0.20357381839105076 0.9993188025222275 1.4164965164300058 1.0051713276599183 0.06243065032062582 -0.34122112184197617 -0.18400322925031526 -0.5361659532147094 -0.07682908966886094 -1.8119564045136218 -1.9549294972812186 1.2162065548558945 0.6452438949461395 -0.9354206291916111 0.5363304181724704 -1.77498043635907 1.9108286061121538 -0.4938723034789934 0.1288841012077539 0.4758176267945751 -0.7918032068444202 0.0334299046134424 -1.7339826246233148 -0.6171793362514781 0.125983647064446 0.7065027078070419 -0.16155065599491486 1.0056850144317167 -0.7282497740745852 0.1274325689935055 1.2860806775091018 0.030727295860385445 0.9462146734038136 -0.04419632033070359 1.4623624454587707 -0.7171677978026926 -0.06466943579368727 0.10941599408845425 0.6525854092212303 -1.4797513007952456 0.18832022452222702 -0.12299971588737839 0.7777761726609211 -0.9484643818748427 1.0103922017833495 0.34584521139356855 -1.8395352438885226 -1.6062115953997806 0.3875203323673318 1.0703105031069287 0.3968946198458381 -3.198607095715265 0.5244338788015717 -0.41774057683786225 -1.4219876095866062 -0.014378219550824368 0.8800488308511476 -0.23731360577887542 -0.8815873259194035 -0.5449498292361286 1.0807000091323795 1.3975721930675284 0.22730370358606006 1.2746129015862295 0.31930352734666284 1.3487264498416784 -0.8317115273973921 -1.521213483499635 0.7399875295357774 -1.2852891030288436 -0.29857574666574105 0.14635349951452603 0.7465317041042294 0.4151423247318749 0.13144625900614584 -1.954411536229287 1.0874187096678376 1.4009381707427762 -0.9453482793850542 -2.5482668436186757 -0.49033178531125776 0.4263888602814415 -0.8154861290408694 0.003252983631297635 -0.9631932686313055 -0.9691564922653325 -0.8040286981231927 -0.49838529412209803 0.10580218340550307 -0.704058300454771 -0.6966502172850415 0.12655278628083008 0.8114893067051296 0.2305800703085864 0.10026171190150693 -0.1029967208108477 -0.21278662978418628 -0.3485487072462831 1.190316428840204 1.6894829309831518 1.245192127833928 -1.4905041747637386 -0.9642170558423686 -0.86839697672201 -0.9103554908651007 -0.754802938190973 -0.4925537925425069 1.4707917935373964 0.25658904286370937 -0.23341009423640824 1.0822768164418268 -1.063220314338771 0.5029519901676671 -0.844914466211763 -1.4661624392903856 -0.24499012374139345 -0.8266338054946232 -0.024102455501870502 0.7895016906044349 -2.382838388946699 -0.738103280938412 -0.7952959134202872 
0.262944998819954 -0.6063390632751015 1.9893793176986057 0.33237271107351346 0.1834596483908379 -1.7953987565595821 0.9499118903504287 1.170500734733857 1.9238540932756665 0.7265357112830501 0.8592028599795697 0.40690334921370014 -0.2849452657526256 0.6676999547001895 -0.535911938689778 0.3360134581785078 -1.1945538406072578 -1.29772407117452 0.7672198033144628 -0.7070178991972668 2.5076003820726327 1.3190847424894514 1.1823438705770415 0.9440396856090714 1.4509580724623057 0.19003594865744702 -1.7551399852706846 0.022807643305562734 0.37009477340604313 -1.9318380472083951 -0.9037081844629392 0.5321422800392619 -0.5433877309476225 0.6181780207727213 -0.6575412749635143 0.30315188938967663 -0.7495129323354875 0.05182892182532943 0.7457475710611473 -1.9718077250513364 -0.627134644396594 0.7316481205574523 -1.8678272398945315 -1.175280943788255 0.490155835457475 0.27792158055474675 -0.8217288653943217 -1.1300054183675554 -0.044742227687274566 0.4643169640215984 -0.6096564291091008 2.126095631923102 -0.14619843740890584 0.6185937940923886 1.5185426695752398 0.8237004437005456 -0.42428089819615084 -0.3496836034164047 1.5152037900311075 0.26829230100421375 0.7385374711042363 -0.10039185288822322 -0.03580287052956449 -0.1095316069818164 0.7424898926838485 -2.36895921032897 0.8246268482914233 -0.6431530284682128 0.9455673505318694 2.0861367490816636 0.5248373531993523 -1.6781786996799741 -0.7596489438875903 -0.9856167575247865 0.8645909896802143 0.9546411753626767 -1.6794556116623467 1.9367430491558832 0.21703115114299798 2.309873196116545 0.9184850189731464 -1.0069510923175613 0.11803863903358316 -0.8506323730234785 0.13105831907745902 -0.18313708919647284 0.30457276289879076 0.8552812643220232 -0.6818686672361931 -0.6002226297266906 -0.0518786742501619 0.12255358874242846 -1.1006014951617888 1.327017914193198 -0.11403445624208451 -0.8263781618039263 -0.8696708234468044 0.14605120889079334 -1.2670720649860812 -0.20801360900476892 -0.012166295400535238 0.5760322645781357 -1.096861338141642 0.10585746554834448 0.461050177585193 -0.012291835608920318 -0.6037889337925194 0.7810902131877506 -0.5913801826927105 0.5271006839621271 1.3977844984054986 0.43793448883157193 1.057836697546077 0.1858484233342089 0.5978791499285614 -1.1005821589728304 0.27076295539648554 0.16965386761749898 0.6204913089569097 0.4214093794349978 -1.1071057058153913 0.27539696453243856 0.47143912655282866 -0.7345855751653085 -0.7385892141898146 2.1077606267123876 -0.12377863058715126 0.6790961547995022 2.2638554806453217 -2.2720969980868477 0.751300236105165 -0.5460832430928211 0.2249028500502742 1.6228613579702516 0.2668591224153543 0.49177874126080645 -0.5711378315889529 0.9515713583439996 -0.08124157763024659 -0.7445221667859515 -0.7810274435804231 1.9042602846442644 2.405775502404444 -0.5062528640360764 -1.2036742481297134 1.8894831803463252 -1.0005603935649316 -0.6404874979265749 -0.5295783779567548 0.5227310746283096 -0.021379095586207916 0.4795127417854483 -0.5750514926024336 -1.3462896379361793 0.31391752294979486 1.0652037781865513 -0.1494160300637435 -1.3285837782917302 0.2859408061168124 -0.7458081293626491 0.8657168949821747 -1.2044007186566268 -0.04479017218258167 -0.7190471340790008 -0.02268859098107442 0.16730630887950643 -2.555856722714961 -0.22024664506997216 0.4173073779784359 -0.20739169305796604 -0.04126253033729303 0.08557221624770173 0.6161390526840524 -0.6404420574720634 0.6928022295381159 1.544847530939677 -1.1114872952766714 0.3205929872670235 -1.493126460595973 0.01996977247324598 -1.6885430076423193 -0.056743496456969876 -0.03422561131585461 -0.10300794834068513 -0.38412905338474557 -0.8353679517187138 0.6209524472234611 -0.8143062646285604 -0.745606718928583 -0.765315012512404 -0.4632882660445528 -0.6417106315581256 -1.043893407319686 1.0681644019318501 0.010259372665067672 0.7425816293861215 -0.7423601819052639 -1.269813256415542 -1.1650388428007339 -1.3507031896876833 0.6931048073279851 -0.05316552843203807 -0.5161061001099907 0.12844406890500984 0.5096902308326495 0.8069029920428515 -1.2046824259268316 0.12223768573641595 1.7065618641077847 -0.25589218562357824 1.1692918945964645 -0.9564107673056691 1.4761814054404123 0.12306088432940945 -0.6715682399728978 2.3344169559931105 -1.7434407738578648 -1.7325241506503688 1.057444766966963 0.6313517002617289 -0.7305722468159784 -1.1031994813503119 0.7513629489593541 0.015398032455861651 -0.43921682878717533 1.0208443365168944 -0.8022494762056416 1.468945547518121 -0.14352113730620494 3.1476845257658397 -1.3890232988968323 -1.0699136903481525 -0.705314812358404 0.23460372908293745 -1.0769784856988405 -0.07861024318603466 -1.5598576124542778 -0.2914431946276365 1.2559649550244563 -1.0017105232608927 0.39985924717250126 -0.7480367269169187 0.0015033472245802077 1.1383192812431682 -0.9001098975498041 0.9130912878339984 1.7582623991731576 -0.902294973503177 0.5547949559822749 -1.0153191903108258 -0.17183756353131713 0.8205221324184351 -0.590593740875679 1.0281436479386372 -0.07341808678910848 0.02184964411339504 1.426365392291387 -0.8195649395548984 0.022892559867003073 2.068889755610819 0.7857437860868108 0.5889848234759222 -0.25163149853949845 0.43756356991635925 -0.1130843998448987 -1.1736067003400557 -0.7407775634970493 -1.3551603425734224 1.0774881013117399 0.26360671523331136 1.3013844375936432 0.48498959691092636 2.5369139533841705 2.0756085961342916 0.0799424048292548 -0.22107011939738597 1.0164727198331898 0.2557647377817159 -2.001264416063366 1.0129812390620998 0.8037872395687518 0.7117364634456443 -0.6873043935530131 -1.4716584914061335 1.161037397181129 0.8458246009666572 0.8778738067495989 1.2543206853989475 -0.4253098123049953 1.5318983315212253 -0.1848076511252378 0.32442121425026876 -1.267322746597968 -0.5475342901153581 1.7463382570476118 -0.21840931661769566 0.6695256472431799 -0.9194026501370167 -1.0758977794057096 1.3215733692299758 -0.9819975568385688 1.0736976104001552 0.9144540896756528 1.0398971430270174 1.1211196561787284 -0.29873767996043893 -0.450598068304405 -1.51886025420547 0.6221138946753475 1.291439781407245 0.6456334670325933 -0.20530341929757995 1.3158588895100893 -1.2613920405873327 -0.40169530997060066 1.6095728495219204 -1.7572876790422005 0.9363776230725114 -0.3767424944004327 -0.9682994016461237 0.8027972838544155 0.5024010473866036 0.35249547238275863 -0.13934031717788758 1.0295658864437842 0.308358389018428 -0.9809712262769565 -0.8502034469027534 -0.5381924847719396 -0.42619496919764666 -0.5213664739517017 -0.0063322992574147115 2.570775452967748 0.5407210529412056 -1.2719613303532946 0.3091891349663854 0.3912657603609229 0.4681897868752199 -1.4664293646394044 -1.2614314909614712 -0.2478528777627373 -0.37398589919932945 1.6363515370225115 1.0242659499467344 -0.39814359564789403 -0.041156869632575165 0.3391610041231705 1.4798911925336027 -1.4708275777109714 -0.1687096406542719 -1.525921781007966 0.6846859851974325 1.426629533809404 -0.563586210884673 2.256195673428085 1.1555965252277636 -1.0720117318044127 0.7673076526861531 -1.6755710926467067 1.129082222591056 -0.7348590684468977 1.4357226829520486 0.24672519414397792 0.2521864366712149 0.5693948390618704 -0.44178220047828787 -0.5971375892874085 -0.09734065218228194 -0.23007036688692886 -0.46520474316846794 -0.2236179118878803 1.109805666420025 0.006178261385293059 -0.04211895394247913 0.7406943709846069 0.1844022884059016 -1.1813139524509197 -0.06545109140766149 0.2710882634095966 -0.6676629632741472 0.7189292277556223 -0.32222599616860254 0.441696904044543 0.5648930486394554 -0.1605679958514932 0.1765908852550934 2.156949358289427 0.4046497351624442 0.3302379026682833 -0.274480996137311 -1.847211809707975 -0.6962220403109047 1.5995374634813593 -0.03890649575515933 -0.20384578846929519 -0.27357364460319605 0.01726524549271549 -0.13691455583175435 -0.21247532249680376 0.6207713068443076 -0.2662678299683937 -0.1317406743154169 0.039990984628878436 -0.8285761637423075 -0.05090525716988929 -1.4277843526833853 -0.536743301375128 -0.10597922539455401 -0.6427423045006411 1.0604908781446003 0.6129354580284121 0.8837118242347944 0.25113785624038204 0.3252608656057083 -0.8736391765973495 -0.7504963211782893 -0.5167730936490497 -0.9149853302780663 -1.2536360899268482 -0.7938493384322689 0.27342662814958646 0.4358125678261232 -1.2497766477483863 0.010574908734379936 -0.37939348611775253 0.7727234245399555 -1.9402676917560617 0.5689333806440704 -0.008954169397161696 -0.8465518857461478 -1.4290466575838685 1.7090538901058496 0.7810747958409197 -2.2600705210136973 -0.8950735385801379 -0.08154269898473401 0.2406453078124509 -0.376237259993996 -1.0810140168842206 -0.5803883784233655 0.7937584130249706 0.062126079814414384 -1.634884508897502 -1.515719778546556 0.2432861680924078 1.3512572944616796 1.0266057077567328 -1.377811751250501 1.9429350920292394 0.2379049948200018 -1.497717143020559 -0.8306835408104557 -0.8292264902800982 0.6292412633323008 0.20977317208936383 -0.654562677501676 1.717255849300719 0.4305248477038685 1.4875375782201627 -0.08992822500569618 0.7312015790247319 0.09977229144479072 -0.4729811973347396 0.9799726406080952 -0.15204650397654298 -0.284444676521992 -1.0459343991628054 -0.4859090796561758 -1.0070409507532734 1.6366630829336943 -0.29436908522841393 0.006020061338338235 0.7286671941530568 -0.5706822481090563 -0.21231652813504387 -0.9759376317190644 -0.7225201001620235 -0.8997509155260348 -2.128265061322954 -0.7233393995885496 -0.9332345408691192 -0.21884427832050637 -0.21200697080335842 -0.9954486522903354 1.6658869523045843 -1.4370602888696733 0.16947028962925542 -0.6493414530003494 -0.5110620118089566 0.916500855050181 -0.06278836737996579 -0.6759277617013494 -0.668338259747683 -0.4392862227146503 -0.12880162988729407 1.2602344837681057 -1.1869760249770156 0.900912429408594 1.278403550053118 -0.10117860642463626 0.7804366784816475 -0.23429108302619128 -0.10642420508260546 1.4706061273990172 1.0415031812575792 1.0741451877989798 -0.9981686010728098 0.7981531858507858 -0.2111932498655697 1.0871123113457652 0.11586060056132065 -0.04321409475237284 0.6458004452819652 1.0370675111323653 -0.33897005399899105 -1.1342440315929325 0.5722182998144781 2.02441575509042 -0.6152055951640959 -0.37985379179092466 -0.09207938040241409 -0.15956047052189662 0.18547762468288823 -0.31441600679750603 -0.6564853812274203 -0.230455357204301 1.254218276888264 0.13208564676014586 0.9798427668535453 -0.31162533742632026 -0.4058618672421896 1.1405005243798771 0.9660543149685674 -0.865107201052217 -0.42438325365420126 -0.3672781256395101 -2.0124752140393194 1.2355009787223659 0.6516295993637619 -0.6054630907950428 -0.002246578827023869 0.26332912685541776 1.3950593975628267 -0.09050267609316484 0.30147909673235745 -0.12199541585533112 0.6241006645563533 0.5219302662184396 -1.21367268167888 1.1173543081593187 0.9342771284142628 -1.272809887108472 0.34183443875858205 0.7746933768021681 -0.9481170205219636 -0.008827655649112481 1.0149254804336956 0.010528238066030964 1.1706140129782143 -1.6467530268274113 0.2820366086146639 -0.6512496307937697 -0.3460275875109162 -1.1252199688360782 -0.4736607630018764 0.16142249457116206 1.3317300735720874 -0.494800141228754 0.5176934528753478 -0.028265653810669415 0.7534990891449654 0.9424252677717739 -1.629899514738576 0.479266884729926 -0.7287901408622938 -0.1751084255549883 -0.799675824280883 -0.7692118730558513 -0.6694199210647356 -0.44953668505162236 1.8537485868214068 -0.6468581586577608 0.9334337753910957 0.8013694778728475 -0.3539249404193959 2.220239886082103 -0.7907009715147669 -0.37958158566968236 0.34819794770036694 -0.5501270311449212 -1.0123680841948814 -0.1340398839610236 0.9452863754700954 -0.6315315659755577 -0.29481944921037484 1.1127991481485746 -0.18606575979636553 -0.7553134216781193 0.6705097804203229 -0.7418571297310694 -0.5917633008221687 -1.5441864139406374 -1.1948671925675536 0.44235971193487733 1.3589770802949597 1.5978408028280162 -0.5192602392201219 -1.2473536278055117 0.029175606727689353 0.7448099902156631 -1.182624985064058 -0.07310457742840415 -0.487314022606252 0.6314322768843016 0.3170633419322212 -0.7517730328204071 -1.1595885874090914 0.4592133206224049 0.1988841285136433 2.2067063484214855 0.07860150620155772 0.829031727132979 -0.3604456878984096 -0.4392658071239448 -1.1915057428704172 0.10274546234660974 1.7212914178039729 -1.123168751573661 -0.8021565990690362 -0.29735869369948653 -0.055013500149109336 -1.565986580546227 0.6055184505409728 0.47832083860057983 -1.0078800988998127 -0.07460107460147718 -1.6836641075201522 0.5971777897889274 -0.3855334337375156 0.7174743173871432 0.23322384599993332 -0.1047219776895641 -0.21715505728123746 0.23615685571274 0.16168844001898258 0.5088511587806729 0.27708965601903957 -0.9825705563433558 0.06844078136731162 2.2327695570385395 0.3204806490092838 -0.964629896903388 0.7083780234210836 -1.4712392520417188 0.3190013489397939 0.6975212866022239 0.12901582675769696 -2.3543037668602964 -0.6326027213186339 0.6726672661155741 -0.7065704599534824 0.6483462635682411 -1.785411029108877 0.2007977026694714 0.25822396972929523 -0.644030993152106 0.4409787430839564 0.5020621738503421 -1.362373222604852 -0.7710730579948144 -2.0010788553259267 -1.3627645092503582 1.4489561752430848 0.08471274824690976 0.590609755202653 -0.37583863749549196 -0.6009827765634922 -0.5218705980440251 -2.0654239845187736 1.6085978141463637 -0.5156071878779347 -1.5002727600489687 1.7312602657877407 -1.8993806971359826 -0.36164717714720457 1.1738809129996353 -1.1408707215088894 1.313449300033463 -1.0925463129694732 -0.9258427422186972 0.10784596536923276 -0.23867840680257302 -0.998109719868077 -0.3886846684893276 -0.1955016829866305 0.7790521728675454 -2.0505691804687203 1.6360807265420367 -0.9961385519939708 0.1341556276791103 2.077533062875467 -0.6828573320452185 -0.35046959231975533 0.1567074213961005 1.2228719979092788 0.07179638178243009 0.4631621998730643 1.441031473808863 -0.8094142968836109 0.305980093317535 -0.7411548882610527 0.30473149002417627 0.13383238778686535 1.4123473515693594 -0.09350836269602603 0.9234061130195582 -0.32079555161154705 0.5892113232145679 0.7034548080160627 -1.4603461390952606 0.6991790793928915 -0.24609104861010994 -0.09688510271295941 1.3395583602372498 0.452987921711787 -0.8800299145564744 -0.5696664621981669 -0.2708520420218407 -0.9020997006707466 -1.8569257030555002 0.5659067732901212 1.4586732531458841 -0.33130582867585806 1.2471514994103072 -0.9346231020956635 -0.02303034814555045 -0.33398354719507173 1.4631139345398376 2.0084364209310097 -1.234527737174594 -0.7454287249974801 0.08459182362827994 1.586938897773832 0.3092479485206087 0.2643718773358409 2.062800362490198 0.828202731982129 -1.0026101906868596 1.9289427602817126 0.9322989696767093 1.9763133176498402 0.6491306317319999 0.16773196320360614 -0.01701707964108403 -0.9278167303200152 -0.7648712967244569 1.8524559673197747 -1.5507728890889378 -1.4293510718198588 -0.8326815882841068 1.4625979242666547 0.983547772754539 0.43447291420429857 -0.019227883008563238 -1.7659865963718908 -0.8246043446414473 -0.12808445990001208 0.13605249267127772 0.3631399682407691 0.6047425107209727 1.1850943314314424 -0.7085041596487199 -0.7512795260999721 2.0060350457727543 -0.0863932435054762 1.6250614474097724 -0.6141934277417453 -1.7009833570964417 -1.459334077140404 -1.0475928150736644 1.5230537300747686 -1.0452027656696048 -0.7412658753393793 -0.556688553715637 
0.3175332296103845 -1.735055850720296 0.12483907047569276 -0.5383387433951012 1.4356055239648553 -1.0858218884818243 -0.7582044819770126 -1.4031069413273316 -1.2737181867074374 2.6335008916345397 0.19306217540823237 0.5820322252752573 -0.7475432459327456 -0.5969179410489674 0.1428231556508599 -1.2662727434573195 -0.5187183712028597 0.2234205264640835 -0.22570824341477927 -0.11749047293584135 0.8268446428942537 -0.3274589083236462 1.5295623574787036 0.2920031512517138 -1.0301876751953103 0.4220940024513377 0.14321073029492867 -1.9287306266290405 0.3938218627835622 -0.035827867187001 0.3484684712393429 -0.46329414836890265 0.8285445566170276 0.8425970164139774 0.5073314080156476 0.23767921067187656 -0.637078965623745 0.47239751379291206 0.7850038832491586 -0.16560412791289292 -0.8934470503728273 1.0635238755283132 -0.8946513062178231 -1.5070368679913142 1.1911133714946693 0.4008999925796853 -1.0601205684817907 -0.8661611974583193 -0.5130846377544959 -0.06893801710794308 -0.3570373502533459 1.5056344209826398 1.0213933715785342 -0.8517004865878164 -0.1873181234617373 0.5064790675496914 1.049680783014906 1.2548292107846049 -1.4010317372465269 0.6958356662586499 -0.5222680132191685 -0.29471121774175946 -1.0985382640027832 0.10286652121938888 0.05132199349865166 2.576189666820958 -0.16499500779466514 1.4113312753468255 0.4623139103995697 -1.2018534609614175 -1.1265745593127348 -0.7562966556154181 1.7046893638311258 0.1881496532011572 -1.0743509121058235 0.6563134229499838 0.4302606914487921 -0.7890464397223949 -0.2954072769453597 0.8570518054272862 0.18485049631167386 0.28151045096700916 0.6413234896887396 1.0517991828632096 -0.7423031286828666 -0.9310522291999498 -0.7965506637911512 1.258249720222164 -0.14251449477455994 -0.34576384271771887 0.39727643438692006 0.96128557684826 0.07017113251760564 -0.2902648031917087 -2.1692989757144705 0.6324233342794539 -1.769730535185545 -0.6840183269877449 -0.20392931515974275 -0.9402799739809679 0.34341526652967164 0.6915176151099741 -2.0911707205036953 0.16886098831715202 -1.0758934180235 -0.6957837402427582 -1.2954541320011665 1.980675526796756 -0.05548288145935952 0.09006853597549035 -1.0627973449170514 1.0488732362802482 0.671774444085553 -0.3261736774345389 1.0193926523135484 0.9379221324423832 -0.3090605402034957 1.1566845726823525 -1.3120565703838725 -0.7518301121153472 -0.45557472439838254 -2.508386344526229 1.4537238740505045 -2.343648347835623 1.450446287291335 -1.831035044824759 2.03866338936166 1.2609785684719954 0.5414037265695123 1.6905255256848721 -0.03694841080916291 0.23190448972327277 0.9023305619410501 0.5024859877722689 -0.031391658081088375 0.8468945010251792 -0.4447399233809097 -0.2604597718373099 -1.279822332425273 0.5211543190346979 -0.5469172947911297 1.121760017623649 0.01007239754202184 -1.1907625222933746 0.5658959940423407 1.819418638814957 1.0084972316617224 -0.8945257264368126 -0.49539142278294634 -0.7696526859249615 0.7579126840435639 0.652670478198429 0.1695220594356094 0.28597082760165915 -1.6276951024446438 9.345548720774763E-4 -0.7510508432467398 -0.601941742513343 -0.958047480435427 1.4124408307670777 0.17630156853544648 -0.9724719254924764 0.31287941799768626 -0.3239529566837406 -1.1465927219111336 1.1746218950597722 1.2789858597282495 -0.16419651522288986 0.6778874563329712 -1.039519010627515 1.2813354433125532 -1.0244553203376745 1.4088196114396394 0.3747489200272198 0.29612950317840026 -0.7863115902297596 -1.0135463572530283 0.03252753768582511 0.5708467295242329 1.0445200257657143 -1.421709433346015 0.9645318198387616 -0.9304194978752885 0.36237002178819405 -1.8252221365402421 1.4550064527094013 -1.7400665990043835 0.5004998862818141 0.07926344855783402 0.01924678033119536 0.3918017846536251 0.34967047820387637 -1.4675971718123575 1.6352603894340438 1.494908241331692 -0.19064002693069038 -0.5110809890319866 -1.3056071762274704 -1.2190847074747797 -1.4402349467642612 1.1463212132867315 0.43461783789820035 -1.0912859426736865 -0.6570825731364993 1.9685384916945585 -1.2879780395464688 -0.09253959660368069 -1.459437998796283 -0.6962258006601971 0.021230385448438575 0.10110980926680589 0.8728586775665919 0.298787886217289 -1.1128137246743568 0.4250295725162957 -1.6499834504535569 -0.5415653744416716 -0.23045261194566113 -0.37208571155174874 0.584499464719977 0.8627248487918725 0.21680506014229298 -1.1959660996748154 -0.3607585829622791 -0.43307974134448896 -0.21849488250715957 -0.9896025327860711 -0.4194708300382144 -1.5277335544146622 -0.3562673427284025 0.671850244555853 -0.21034412487182108 0.13473736694661925 0.39203350377144397 0.011014386711130109 -1.3377305798769266 1.4392692224479495 0.3437183808693225 0.4684427005412586 0.20964349620048042 0.020492572949770336 -0.7247739686204898 -1.6717509485142226 -1.1922785380995957 -1.0909059631814528 0.20957051811143315 -1.731193738738478 -0.7447705617554508 0.8789997276013176 1.4899080339116868 0.6182611936232418 -0.1788268073965634 -0.6021224804601109 0.24932691947030666 -1.3865626549755057 0.09531500738846692 -0.897162157519254 -0.45232906613025925 0.2966824415743871 0.11895719563689253 -0.07046110076938976 0.6264098737049817 -1.0677949445708854 -1.5048319995423944 1.0532838466083394 0.5409639991937455 0.8095842918312184 -0.2521662296961345 -1.9772901478065312 -0.22136305060705175 0.7005526403079324 -0.8823945120274953 0.4292244542170708 0.9159492956647323 -0.29678996819938824 -0.910694599552521 -2.8560977102702205 0.020744613284007042 0.4101402081721415 0.4832266640081648 0.4903746453361366 0.46033035249689447 -0.5078592383591131 -0.7335908492152603 0.7345732132412802 1.9455239149092436 -0.14141346143097297 -1.380981850076005 -0.3162978197592924 1.0938208240472937 -1.7006543564095375 0.129524874076122 -0.25259170023589855 -0.7697079477126212 2.1262740624543404 0.6344526195669881 1.143798440163244 1.0047583530038047 -0.7154559892122685 0.058102167933431655 -1.5824565082367275 1.1949089438327352 -0.5252952817142925 0.06257022626265873 -0.048519933567262016 0.20230872581148157 0.6407527294381451 -0.9557999265142944 0.052054853124631525 -1.0016801203889996 0.740631308018224 1.1443519758404095 0.9979189053105222 1.6383472714440817 -1.1119726869170454 -0.9949457507320534 1.1645806695747352 0.11519719561161954 0.974179329668806 0.28574052916548515 -1.2136287321825 -2.0013707709434447 0.480170730971537 -0.7157630750748191 -0.38024910059498257 -0.8104277728371156 1.2560063322772732 -0.5277088308217965 0.8818585134264608 -0.6285581171247698 0.8199878801427635 1.1313210220595684 0.5741638808112262 1.7990748856518217 -2.0204686489936026 0.43059804594265355 0.7201562077614585 -0.011072114397290968 -0.34215226866500636 -0.8663412422956875 1.6322680785540302 -2.091152373459338 -1.4504824177892577 0.4251509062957218 -0.20815940636531663 -0.0541140717380799 -1.3915761280129062 -0.10465812099204908 -1.171311259333759 -2.0138746107670107 0.13160694223897842 0.48425713345848737 0.37031209045738006 1.9851989113525137 -0.19305705146821375 1.30461875912816 -2.8138318713437496 -0.6410050146678783 0.059072878051162035 1.0325514426361255 -0.677148660010489 0.5452547592622556 -1.266366050849645 -0.24734162192395534 -0.7281021077067457 -0.2219503090606176 0.097913866482216 1.5784824954229875 0.09451311341319085 -0.03651696802242594 -0.635268824477755 0.4983668931147446 -0.10523297333058516 -0.18126871836045225 1.1237459974276087 0.8330173315583819 0.6316701717534752 -1.255413122011941 -0.2405284407346951 0.9370547925208629 -0.4845504787203349 -0.0868541709881791 0.7901297082188404 0.14671272059025112 0.5913593969567913 -1.2314767675173877 0.6553008794636527 0.26480668281501785 1.0538304419115903 -0.5554622602988504 -2.0617584005858176 -0.054849053977950916 -0.5737277363690555 -0.6750645103440011 0.5648192385910632 0.2997367031188486 -1.0323487150706496 1.4682762056404994 -0.45089931796275773 -2.0088938261111786 -0.26820649214594455 -1.063150217515272 0.47115912378701247 -2.5205427595670074 -1.79701425686683 0.9738091624808853 -0.3933926163142224 0.6742022019314456 -1.4589463491048553 -0.57120210211599 0.446982054302254 -1.2163835015562494 -0.6341780655127944 -0.7323390759335877 -1.4765993044920678 -0.5479956538112724 0.08429704699941741 -1.4235129902754473 1.7373649880366924 0.7820392405303543 3.0287176707165187 -1.5359995002514506 0.5778341609571452 -2.124627180720473 -1.765509838979815 -1.9812782856617037 -0.22255166055220116 -0.5777973338479049 0.5646123523760712 -0.05962839500821166 2.735542992896043 -1.1224053953935123 0.6329916315411327 0.6740691772754426 0.08148298533582153 -0.6172137882856693 0.788079423074933 -1.1947641982394301 1.175897214195797 1.3198378012208956 1.5084726628542153 -1.0725167630446275 0.6586389266719523 -0.6091983206940215 -0.338796739480306 -0.1248002673685448 -0.2877031391934371 1.208762257801972 -0.13187022391957323 0.08251584504068073 -0.5283723446263937 -1.0066188263615683 0.48977301553625674 -1.1874157964644159 0.29705817353634184 1.4815083638775874 -0.21833794037218882 0.03595585276877441 1.2100577281118186 -1.003538816107513 1.4717598571911832 0.6664720602723164 1.4298351910646343 -1.8439382891508613 0.9725466474162366 -0.3359341291923123 0.7838818269058674 -0.3602867404774487 -0.5855994055477394 -0.3982565468868224 -0.25634552008596473 1.3665004965504486 0.7988372496171182 1.6607264304350304 -0.14771975276459687 0.2981597559436846 0.7767185285619459 -0.5583213632454903 0.6666426440406754 0.5034848602830315 -0.6513494648727784 -0.5137978284989047 -1.074771843568861 -2.284940330606931 -0.10288928814623861 0.8714411729009989 2.5500766848864016 1.654156696513606 0.12323218739406509 0.7331124756908104 1.265799318893377 -2.0199133804034632 0.5588311159915901 0.9266910206455485 0.8884572584433595 0.41199293725225367 0.19445110645431837 1.0235876968476934 -0.7583005720343962 -0.2292281968926658 -1.345300666374576 -1.4970869132532456 -0.28166267481231366 -0.2658045081130246 -0.07483283986806542 -0.8451386491599585 -0.7325902979753331 0.12256736189145359 -0.2247543314790175 1.3552011046478218 1.827489056068933 -0.08221911802802206 0.9365600400210384 -1.4416993793727804 -0.6274673800540641 0.8789397283080296 -0.1017413075587795 0.2679715115804346 -1.088822607551791 0.8504658421712201 0.6714382686154093 0.34294450922816694 -1.685775391079513 0.6230819145798286 -0.5962116344637471 -1.276162143530611 1.2466117104086474 -0.07360976012256226 0.1995189503329468 0.6094332127016266 -0.7361515095134092 -0.0793078799655391 0.4023755530843799 -1.4408329800180628 -0.21072390052159873 1.1878175101909363 -1.7770852829512924 0.6888834046213181 -0.7860643879256873 0.9140401636887762 -2.053058035649368 -0.7570742292995721 2.5964034754324117 1.4498714581043821 0.1249893686653233 0.3192572830880544 -0.501831587861076 -1.9235711369085833 -0.34769843576620985 0.2315147421393359 1.2828912764387745 -0.02735386103139623 -0.3531826308857432 0.6442587918170214 1.3588249821996865 0.7003945266916821 1.582015188098451 -0.9181205627414872 0.9973151895115656 0.3747359953285262 -0.3461120344284874 -2.4420813316089998 0.7754872926474266 -1.3773873914891053 0.5963374495534527 0.21867455846954592 -0.017594796001855515 -1.3083374979283358 -2.339349860227745 -2.2304004702267135 -0.3770789626942511 0.7838895738928439 0.5564477870094536 -1.1817946647845097 0.9919319344953623 0.12554746673174783 0.6058058856231949 0.04056761247905968 -0.8654309227279062 0.46871500790133414 -1.38670619332608 2.6462145031016693 -0.23672436959118173 0.2543002523518883 -1.1873542187085293 -0.8899781934250929 -1.3438232611322438 1.7084407847584946 1.4704686507291347 1.1771111721075957 -1.1749818596399826 1.02526421937055 1.727007708050463 -0.45545021786206824 0.4054284674725305 0.42022549325171554 1.197231690308227 0.7362010522631188 -0.9388847667843122 -0.5709761529545238 2.1827156868154911E-4 0.2824708208555406 -1.607511367996612 0.4347618256644305 -1.0782095505418263 0.3561194519980325 -2.0138860196595716 -0.7777165726884115 -1.279660883213942 -1.185011317218061 -0.8817509237444097 0.14762507260002203 -0.38711817606385485 1.8546896954731307 -0.8429290231384915 -0.48462105645462566 1.4305692786641444 0.13246226513802925 -0.15038181333188605 -0.6893287544963406 0.6605646029567382 -1.625673362785077 0.48309578515457813 -1.8164335938384395 1.1691847772287338 -0.12675003338396373 -0.29837086423997744 1.0417341464525198 -0.13533472067246544 -2.0419157501261607 -1.1059344944494358 -0.25295418484746984 -0.6667377725439263 0.8134283723914427 -0.522999089154936 -0.2166368588255632 2.164284736605734 -0.501855992333317 1.145919575096637 -0.909119226057307 -0.7760309440618698 1.5870457341233297 0.09589966468157637 -1.591144623122024 0.03529365055901424 -1.6718455317845504 -0.8885126555056008 1.229093125834167 -0.7035919105554757 0.9345736004262323 0.55039991467648 0.6171437228611918 -1.6037360071400237 0.1781911235590436 0.7833320475233777 -0.7317983078712175 -2.9499483590018234 0.6535491304242728 1.6849431059342208 -1.163813320672865 -0.06902224951546282 -0.41156212698355554 1.4947995926599753 -0.21438546150720061 0.7661803914385681 -0.31252737453661494 0.09116797676140158 -0.6435635305716626 -1.3240789273685794 0.16915831891154604 -1.7732183999773894 -0.2927966647852547 0.8910290820885259 -0.9029441175630605 -1.6204367904585204 -0.6065853959122276 0.16776800071698023 -1.4412181868328895 -0.9679857652829845 -0.6467458989563875 0.4190413593891941 0.5802517893196437 -0.4151587887918105 -1.1068645081162543 2.522940921794099 -0.6914283253500995 0.5332717944012234 0.03929291283671757 0.9203198370054548 -2.4866879359886447 -0.9927285271244873 0.6855665335443178 -0.7589635585058856 1.1242336104330346 -1.4256046877721948 1.7959330229753647 2.197521173815643 -0.059985625705256174 0.6504880311212162 -0.4036153431083329 0.2448499225686003 -1.030909979417139 -0.5845579434035673 -0.8980944739977489 0.13130969073971607 -0.6470078045828311 0.5198413669179522 1.9213205375632765 0.535006854167498 -0.4875986480472302 -1.3189504020579974 -0.11945810688354527 2.235851299075772 -0.7863228752283048 0.5630201446944225 -0.37470704139597005 0.008740743026813104 0.27682192889455387 1.4821988511027075 -0.3571207451812976 0.5983930174822074 -0.1547580806002596 0.02670968244579576 -0.012592982781814194 1.1149012149181177 1.033613052440359 0.43190658920029723 -0.03528476662622237 0.9671228460656134 1.5675240601878682 1.6389275833789223 -0.6776651020140771 -0.8776877821802016 -0.9068207729144082 -0.49561161199811155 0.7555447631311988 0.13823066083586374 -0.2251561414383365 1.256301984706464 -0.4608986218517175 1.6377827174506547 0.8999651133124799 -1.3877149215492401 -0.9471904925960754 -0.3783120983997174 -0.5161251844239941 -0.5865291150704719 -0.38535295274569437 0.3077867205285351 0.7846030450506802 -0.8488019538368524 -0.06490136376948098 -1.1746477331110605 0.2375542702777536 1.419990559784703 -0.21218907587981967 1.7658752796938875 -1.214231600985901 -0.7714154822455689 0.051291721918653 1.0949097300462012 -0.6707586622469939 1.619141619598442 0.5809792223326885 -0.4415292603005837 0.550875598131935 -2.064562873760912 0.4054518253565963 1.5060474535064783 1.108446370647754 -0.5775441398955018 -0.5557453455721193 0.25839654239379645 -0.6057469226152421 1.7963619262966712 -1.0690602211589857 1.5667074814483033 -1.3266477052943555 0.0855388223793868 1.9177711982041659 1.6051421741261447 -0.2629505772360629 1.030595748461783 -1.1977668082000406 
-0.8565187644799275 -1.2498273632173935 -0.24466341313085088 -0.7933183460111621 -0.25127144248523237 -0.313069666514741 0.0760537716118337 1.2654504756428804 1.0415535792758785 0.5728029144826478 -0.6529598157591078 1.1602973249038089 1.441805103472014 -1.090339688718711 1.1374704664973936 0.026945023402666392 -0.16955122731443786 -0.4529655413348326 1.605444501730579 1.86759871427787 0.6610012239828432 -1.5477564912823232 1.4012844699982356 -1.9876610710980258 -0.64517346002308 0.8505515421991788 0.35967799114276716 0.39710898479265855 -0.8501047891471488 -1.056324629496251 1.262484053291731 1.5233097457894014 -0.6238246047389824 -1.1902638037275128 -0.21039177143674279 -1.003417487703651 -0.5415112266334671 0.8631714788497972 1.8723952264803656 1.3308621838512287 -0.22547966860953778 -0.06362465738427035 1.9925406276511655 0.2122393845704417 -0.389935458657084 -1.1537549639525337 1.9924448784241244 0.17454890681269358 0.1475620281063181 0.6483233616206843 0.4511190272482385 1.1034854195433677 1.257343139165097 -0.8824778658982518 0.14056063666091537 0.7977310931219166 -0.7583642036865487 -0.2335985304992111 0.07445943621472492 -0.021723031957044274 -0.1724943771515401 -1.5354341100377038 -0.009374215743929512 0.20304846652462225 -2.0066332039891814 1.0630810548703824 0.8260819973763444 -0.0415209217131109 -0.3309009624561936 0.3663257201198532 -0.02352152639213359 -0.4387746560578584 0.22449339964527282 -0.283594201345936 -0.7476845246933957 -1.2843531416935614 1.4534113177293293 1.266294097043534 0.9996611767856299 -1.1225261943871065 0.13666371187512724 0.6993537883262188 0.49270559776172057 0.6681786030096617 -0.05388557228554973 -0.32539076263476635 -0.44265188423376034 -0.39790801045169844 -0.05261876912675515 -0.3962986745109009 -0.5585323138772522 -1.266269307721692 1.435114750460217 0.0591132941040863 2.529750944356152 -0.7291885138089877 0.8785072938529371 0.8847278007663613 -2.674790685202649 1.1903926847439996 0.12451650338662618 -0.28627102281168254 -0.9055384561669321 1.0666732542907205 -0.7895352404244832 0.8345354887362069 -0.7063292890934697 -2.0171550144675234 0.5534581328616326 -0.007827292743302934 0.05613617766235291 -0.9158273160284066 0.12695209052943204 -1.2631031903726495 -0.8164419395355879 -0.03714612388770932 -1.4304991283459507 -0.5310045580553266 -1.6681459499076825 1.1250800272343415 -1.972536768095522 -2.493421170219214 -0.9999386371359066 -1.2473910777155224 1.2681352448444019 0.35596570003878536 0.043027368896187156 -1.5363281958402573 0.8946254592018992 -0.17631563397530892 -2.0980039926665617 0.44368759394415586 -0.7168264543323204 0.46362869160250997 -0.1796501920962084 1.0852339851686659 0.21302014369701916 0.4672680599446676 -0.14334165499792592 -0.25314700269229445 -0.15189267820282087 0.5789789067865153 2.5243097074625815 0.3906659633374459 -0.9854271847081907 0.08136889212799917 -0.405765772592958 -1.3080553595093796 0.1766376579551238 2.441146810821344 -0.7273785734509742 -0.7364514964041893 0.6890254186871002 -0.6722163104346778 -0.3512759325248435 -0.3236570589401112 1.4892996144414465 0.44506694786647444 -0.4484932295895007 -1.2370739799041974 -0.8719111056849268 0.8604685438451658 -0.5573529304799828 0.046058616335277885 1.2513415010681936 -0.3927411620167277 1.9476101269110593 0.31197881163183105 0.6591106443746868 -1.3880499091381784 0.23856232534319471 0.7827561531998372 0.9039840558766895 -0.1920956782922173 0.9528992059438063 1.8745586122357438 -0.5500571660039518 0.8116814797944856 -0.6817500784899447 0.6422469507618829 -0.6596089800790921 -0.5190411274186294 0.5301489601872649 -0.8442693373078951 1.1338912895921445 0.43090602908251796 -0.6683466410087539 1.442208227679692 -2.0657336276423672 -1.2439784309763269 -1.1596257121902358 1.391587797703941 0.2753069213275841 0.41192122766023465 -0.6991297197735694 1.6490524630572019 0.2193993701885916 -0.42296063273114126 -0.27881332878400455 -1.3122807036351714 0.7111325534018188 -0.5310928079413068 0.8613722784500859 0.43158677199956325 -1.1329370114890147 0.13432342167251923 0.21471243077729338 0.6406041624153902 -0.017038022957620722 0.583477745892005 0.24267269791632418 1.6750366522919597 0.4057174643850972 -0.2680719595930666 -0.9074896369194981 0.6678660031301169 -1.697231323618164 -1.000278332593055 -0.29022090751154556 -0.6233420364696495 -0.06916447816440029 -2.481604096033185 -1.2609864865994234 0.1934938451659811 1.3044542378258615 -0.6766930662908851 -0.16995129387279215 -0.6944603445106613 0.24418790754963143 1.710774826348765 0.6683253499141122 -0.4729066294474654 -0.11081917788792078 0.79127204516528 0.247883120248383 1.2227742039048355 -0.7640558427233417 -0.396011496472864 -0.4225126363316958 -0.9885576636941822 -0.14192431567554362 0.2671011612467621 -1.5925059357441809 1.7114390926041074 -0.5650928025369824 -0.1246808637292917 -0.8462047991409407 0.8159808948938722 0.011974698570819972 0.4332803325434608 1.027498557386853 1.0253784857387853 0.03204106072441822 0.5105416339988421 0.318207644242853 1.5803903228597398 0.5721520405042677 1.9779384242433244 0.8236379029908225 -0.024645969531391827 0.8216003920421999 0.3656390061393926 0.5278586409984451 0.07846527584833153 0.8105376286422696 1.702365062451691 0.3791673546277774 -1.2395871422304758 0.4939987986608666 1.3614435082891603 -1.5695335206074266 -1.4043449743661682 -0.5214242564160527 1.0044820976805187 0.6569447547678067 0.1103231614776268 0.9632983152170838 -1.6627344657024747 0.3204498579684034 1.0803786419014203 1.0092944178610994 0.4028541665339844 -0.18409195515736979 -0.5812681556626215 0.0308721279257941 -0.31062301274159415 1.7876050249005588 -0.5798263806087883 -0.20874548549465877 0.7736804030098475 0.6940701393434264 -1.054118449922416 1.418298588501243 0.4299616987537885 0.6584206344717773 0.8929743012347829 -0.6030658353762097 -1.3347686653535418 0.8187553383351026 -0.6042025005882233 0.007824626975405983 0.839588722312813 -0.03821452784093824 -0.6534781189420658 -0.8251326804885788 0.4747062047649242 0.8390381417870658 -1.0436423411870726 0.7408933158274341 0.6831736963803321 -2.138122691004629 -1.226622214360944 -1.3225958413520877 0.27611298272181417 0.22536120548605512 0.5847517304244657 -1.507392912471176 0.2488443758825998 -1.8043453224361365 -1.3075425470464115 -0.49554837483894887 -1.2541261697895647 -1.3147256540779764 -0.25807962238316307 0.46907748061868687 0.008436212208618595 2.749939152166889 -0.014525237730757876 0.003072791232839245 -0.06784091379176531 1.0170627759871569 2.558092549163998 -1.1307208951814736 -0.18377888705928597 -0.4689678523395937 0.06528806673926936 -0.30161457644290335 -1.657551319675501 1.800226554034683 -0.5713705340841776 -1.5703190280948394 0.9321154184353475 0.005001810082727194 1.0086630706004907 -0.6557145815159386 -0.10509414946921243 0.08955057917921236 0.023319238269100134 -0.9699991282006932 -0.5918284597690989 1.3609906981991626 2.0228022140425526 -0.39921164010609295 1.1843341215518648 2.3966076592999515 0.631929076815583 0.7891743722207092 -1.7466781345209585 0.7201955701247534 0.9452241294902112 -0.4719992767690341 -0.8021766055531514 -1.2863829456859721 -0.566400497459959 -0.3699963999178211 0.8494040037859875 1.0281805969536602 0.30864704207210275 -1.182478213691939 1.6437281756010378 -0.3403673679058986 0.6603370296022676 0.10694490343259386 -1.609570849635795 -0.834735983573254 0.8521110429426938 0.8028029033942501 0.24653613146978215 0.08206767186406426 1.6056018841084088 0.3444967240175295 0.5578479219591652 0.4622066682862053 -0.2699461803304751 -0.2071980039746271 2.0725597312055104 -0.688744659108732 0.793906234446433 0.008776549829265715 0.8053940900481442 -0.21744361205319832 -0.6355320791081894 0.4536165954657923 -0.6999285496878718 -0.9408500808278671 0.23467213717886004 0.32024702419423334 0.1131913097270692 0.4897475347865716 0.12650816632071957 -0.6418660386501408 -0.7191265886132457 -1.3981383192330756 -0.6852378377515432 1.1349971502756788 1.2948667137942544 1.7552436540362575 0.10944301098971232 0.06500758255886797 -1.2578543803718047 1.3691687541050968 -2.198959503731336 0.007818492981766397 0.14254350742480662 0.8779965416225528 1.6163793961419064 1.977579396336634 -0.5570843984521675 0.4830185214511886 0.2595171621366347 0.4916953520330025 0.3168799573496566 -0.27165132841202966 -0.32515731466760356 -0.7028407887892345 -0.5527718276353704 -0.9487154231657761 0.30061191512312313 -1.2453257854699074 1.5741073172430549 0.6411752363377379 -0.7086187510667353 0.1695612154927602 -0.8206448902858032 -1.373191467785475 -0.14907218639296513 -1.127358179761661 -0.28598929407037743 -0.40761884839995316 -1.1863548699499402 -1.0821914885795063 -0.15284229529642301 -0.8057776061005737 -0.023922856563325753 -0.04862079265297207 -0.5489661943890941 0.28322915022041745 -1.0192156534666104 0.7290693576187703 -0.01527192508156485 -0.5894602845119847 0.477100054936724 -0.6059793952802184 -0.39722756035269646 0.5693456418300975 0.45291029445866265 0.07634173168958386 1.2453949342918071 2.1462861231215604 -0.6528030502810667 -0.7205315882108319 0.39044373905677526 1.0820496146335326 1.6454308129831186 -0.8967390799771399 1.1066286584589333 0.4520370266384897 0.4937399110684953 -0.3231648459722232 1.0022526693369422 0.2719251369150183 -0.47788163250879695 1.1344509521335633 -0.16469632147776364 0.41930282924600853 0.5208087571995622 -0.8674054133989479 0.6233350432929045 1.7061961809980306 0.5144559760242636 1.9916641749051396 0.1436325542016608 1.4467221051041184 -0.8780329707646274 -1.0665842279030047 -0.13254209002848 0.9226673533156043 -1.0011865602522616 -0.5889281159481959 -2.700113753714802 -0.10777179526729004 -0.22189154793547133 1.6373130532289109 0.4633128342333924 -1.2340790125972387 -0.6490082312971143 -0.6097368032561769 -2.0809231127170604 -2.584869815833635 0.10664800861979128 0.2959408480508671 1.2366839818083037 -0.3202407168954648 0.015371444712312131 1.0354461904221473 1.9915535740961332 -1.505295832305502 0.29766744039910353 -0.6994769630444483 -1.1343732088904346 -0.21785188206397751 -0.33863975755536724 1.904548128972819 -1.19644496442499 0.20728163582825518 1.6463726994795393 -0.15417805699704018 -1.2789213518509697 -0.3790255113603291 -1.2656368961879223 0.22159041728359516 0.6553214923487705 0.816218148111828 -0.754251463455203 0.9593555733482171 2.123508106411798 0.6626012565277617 0.24483303365073855 0.019023794835380803 0.08840566304281218 0.53981030017165 -0.19978138068574794 -0.36071878685247116 0.7949491779668647 1.7725604535223047 2.510354646189445 1.931032028554469 -1.6088543611158894 1.082805510334384 1.9553100466234714 0.23669032803693754 -1.1458646912027102 -0.5731434387636453 -0.2575833309833818 0.49302463835360105 0.03605185778406829 1.3655137347395996 0.3964141571452948 -1.6377526814966359 0.6987174096710747 -0.49177237003675817 0.10076131383051387 -0.8604923164779503 -1.203001007723615 0.19193271466890618 1.8537847705232895 0.910183659117768 -0.47869718111705545 -1.747899199937752 -0.8254685404455674 -0.29227132874432865 -1.4525139023993299 -0.9196728454282497 -0.3999537129403462 -0.6132867778647816 -1.1334836134259532 -1.1580290170913765 0.16939945896735037 -0.686253427163163 -0.07397972989811895 1.3047359225887913 -0.9530071082769492 0.2888325911138878 1.8860821534205854 0.9259711993702676 -0.6980387246927894 -0.2769944837099128 0.7809394926121269 0.9333745330425064 -0.7778516401200187 0.014260423903747743 -0.9269943925404663 -2.16734842286579 1.5716891735495269 -1.896374055015273 -0.3381583360574785 -1.9280514881469626 -0.5068168842203493 0.48962384758723126 -0.8619706867141821 -1.3294904028427392 0.9760469516360765 0.35861706303094076 1.1951622532062862 0.5966643877610377 2.287868897896122 -2.6732160999278043 0.42621136088637324 -1.090275698054501 -0.679052973203197 -1.1915773826895744 -1.9305578621946398 -1.0004131697220702 -1.8556031420286196 -0.16296462499368147 0.07911503454116568 0.7850871716746718 1.0044052893389914 -0.5868608045436441 0.22538007952823413 0.0920419671360586 -0.07767991089068971 1.4588704737403229 0.06904237329104146 -0.6519909507755203 -0.042397689076275134 0.7882627733914901 0.9280678620519471 1.4701541900313841 -1.0604467555734913 -0.0821403714666504 1.70877770685343 -2.327859052326876 -0.9110927538003651 -1.8221323220679477 0.0629587584749684 0.5786819651392642 -1.6216252981741375 0.6823664920323059 0.44767722440883834 0.7639906063363341 0.040075368248532334 0.09529635505934743 2.1458996012920784 0.8883393626459374 -0.9356013935512967 0.2771906915804956 -1.4142826022332178 -0.7268338891192219 -0.8657616074427127 -0.3085558384938351 -0.6789209865662068 -0.6314286379754083 0.15460190705021687 1.173430982023512 0.9176273542833209 -0.5399012727366845 -0.0032096685177245036 -0.16930811179792563 -0.977557951193679 -0.5350341618554127 0.5227623871314071 0.5044906807701964 -0.7676694135974268 -0.9593432074344778 1.1234317772073203 -0.6754546074183787 1.4293423690310303 -1.2339063603376657 -1.0702429378986023 -1.2314716312971747 0.001959133769819559 0.6369999365422346 -0.17986004294495203 -0.2256247092468098 0.5270951634040544 1.541328330288368 0.07411301743025547 1.378648443619358 0.6406677607846004 0.3933550818726777 -0.21117617323173576 -1.2125013485791052 0.07439718776332468 0.7937425470147725 0.30060896418414107 -0.4227087216807392 -0.39626329286734124 -0.5254180843971364 -0.41702582250333864 0.39460122940776715 -0.47236091063006314 -1.4654805326240257 -0.1289492575512211 1.2442254356172016 1.2645211392397426 -1.894304223237956 -0.8411687402614241 1.4849519672719655 -1.4236698297539738 0.16404197250418723 -0.5580627656171411 -1.4350411999732258 1.2784399988837067 0.21793892861167086 2.671062281712816 -1.22075384004051 0.1935490621875356 0.7149308399851755 0.8039104588017157 0.7048942489066128 0.26245816486914575 -0.16954341914090534 -0.9785269380532003 0.8345865288479779 -0.5033305388921393 1.439418858878081 1.2079554609019392 -0.18484496937319622 0.6063612407190235 -0.1913515518739415 -0.5916172716610496 0.5908073513102582 -0.1863418436516077 2.6706962371455516 -0.6653000353822736 -0.5619020792611906 0.7359994736752898 -0.8508891967694431 -0.6475321224255219 0.5255930690909641 -1.5905559207018705 -1.2729202669051782 0.5321959673069242 0.9903471301063755 -1.912255212918736 2.0080221429439042 -1.12179115226831 -1.1316214539861826 1.037991106417193 -0.5772471335876374 0.8182700688185721 0.567398188068813 0.33795463936202264 -0.5445563320013425 -0.5336293902016496 -0.8394410566903685 2.832841002526169 -0.6378370971450529 0.17958061975234757 -1.1377419963144328 0.4263204141057317 0.461607740170939 0.3769874326196042 0.3579202997842593 -0.6026163564316195 0.3513348597033792 -1.081201850073851 0.6440399953847039 -0.47312833583626096 -1.3828209418293556 -1.4079477181011761 2.1221793872424435 -0.6363782304918794 -1.3271624063019014 -0.052726532890882236 -0.020148559847699376 0.37449762849384205 -0.027374011723372785 -0.820878339949431 -1.07999663131498 -1.318947264800553 0.6649935677689692 0.013373391006075808 1.4514348404181807 0.08344208720956195 -1.163419622815823 0.38072214120314196 -0.2078674162906195 -0.07841751419499142 0.23391408520317686 0.45341159635501416 -1.6017734046358059 1.5460373439573845 0.9909899617121006 1.36333494606192 -0.10155302140411455 -0.8997497744623327 -1.521737747011526 -0.6653669849286102 0.0668266731574993 -0.7898360885121265 1.438833519073665 -0.7316661846641334 
-1.9590121191716576 0.16227568198341064 -0.9944100491068777 0.699266900657727 -1.2164857163583387 -0.3542925379513676 1.0929724164728192 -0.3162515125184136 -0.9901709035390879 1.1684079444845479 -0.3403056268252286 2.2677169572497555 0.47045156913261843 -1.165397740968658 0.5988512742068792 0.1551305173448558 -0.40394140225001884 -2.3689172709935864 0.22800131004543334 -1.1292864733583041 -0.7419647445701277 -0.05659273938063309 -1.4949652454592481 -1.1865262525479363 -0.30789582623448425 0.18494404774180048 -0.4800667720806263 1.7739897818481531 -2.03798940831394 0.5630797291184473 -1.2305198578727699 -0.15392136482201563 -0.16716627048481095 0.47061326997104413 -1.7159105509846528 0.23818782450900397 1.7344044052016796 -0.08586868095135808 -1.5144945947007495 -0.4573826028119618 0.25005645158535633 -1.2900124111802678 1.6148945167810962 -0.17577269954555344 -0.18775341779246527 -1.16569872857322 0.758156312406436 1.464760902096626 1.2235182294190527 -0.027322628769472983 -1.70423810966064 -0.16405788175385583 -0.5853266754484631 0.7300386572517346 -0.5882899553304467 -1.403907261719763 -1.8773616183422406 1.7398532157529862 1.5068027011182592 -0.6984193350812927 0.7826705024014757 2.05199746585807 2.0773791400295076 0.285220673792088 0.4965208124391795 -0.727607967546084 1.5815132184330314 0.35754996160240177 0.8003441154965747 0.3092677605956413 1.0370882477996464 1.2292248075138246 0.04452626069432477 0.46928436362020043 -1.564006820895974 1.1299701719249435 -1.1648203951191254 -0.19213209578357524 0.5185301638647817 1.152324063881501 0.5429468445008993 1.3828318927333638 -0.1609921241292413 1.8502064411495205 0.10000473579164472 2.343931681472762 0.5384273941441571 0.25706115991596645 -2.079328928248418 -0.4896554092288712 1.729015104430681 -1.1355059886101142 0.5418193211523658 0.9668417061889186 0.6783334233248894 -0.07905820357688408 -0.4006271755563956 1.0847685910357057 -0.7007779918708665 -1.9302080333074212 0.9901403073267946 -1.8448231507502098 0.2034795952110069 -1.044709941590728 1.4715688745568016 -0.5262799455156417 -2.1322732124658668 0.7261346526263015 0.7926041236609916 -0.09413447110255709 -0.13508303044058118 -2.4107597019041873 -0.4661639359584046 -0.8308240514530641 0.7533779178928653 0.6073562557129666 -2.323985714532601 0.530989060221554 0.28972193264708795 -0.34688171709830007 -0.27555799785715646 -1.1630163987223137 -2.1949505717225026 0.3819173242884611 0.13962099573286524 -1.0031508476458146 0.04122464829760829 -0.18661502454681259 -0.41439442221238265 1.3538134298079771 -0.8837966497289954 0.004499094939242565 -0.8922867287021212 -0.6913090506546454 0.03539361096657801 -0.5315011818626546 0.8303780595112621 0.7381710255392557 1.3556522972047789 -2.0587671436363078 0.5694778599112578 0.7983675323814067 0.28060823976156024 0.9177304173329253 -0.7009855904968004 0.5517904748130182 1.9301080394055052 0.126567577338641 0.41854847867208944 0.9859887199047784 -0.7806079436236683 -1.61134065572698 1.2607149124451036 0.27318069042147575 1.3153517748714596 0.470864188212355 0.4075458159518894 0.9360407650802992 0.12915500683196054 -1.4202039909932171 0.1485322387251118 -1.336777453055631 0.1747900597804682 1.4346342583367757 1.3798256126251913 1.7803949926228344 0.5506463408649245 0.1373253239157134 0.4467836499409519 -0.11827748722450311 -1.8157953862105103 -0.28048363374179947 -1.3054131175865984 -0.42132844868264013 0.21238946624476795 0.14827438588475078 0.7496240133414585 3.1607946567522536 0.700798829026696 -1.3703514278455418 1.7668888159504503 0.14849498098876948 -1.437641806889327 1.419273171053981 -0.40620460776052647 0.13863224827185527 -1.451362182670788 -0.6291453797952716 0.39156889378342064 0.2633005509633621 0.8166117656208868 0.13868991712398462 0.2613045428565023 -0.09737222762715944 1.0619412097031664 -1.4388103837447268 0.655697908779221 -0.5669814524727053 1.2508277852497771 -0.2750041006959879 -0.6360591158638829 -1.0871888437053359 0.9428568421335993 0.6077605122739396 -0.7366810965684676 -1.7874902210521186 -1.1092235493652267 1.67653359401955 -1.4190599345776969 1.3689289188729294 -1.1951566307648265 0.43933185533507824 0.3412161095108265 0.17502189578548524 1.6204502322315493 -0.22564238603185793 0.9872868547978596 1.3116787736172832 0.3612260070054524 -0.803335898980609 0.26756046881049317 -0.6025368564675562 0.06120291328586075 0.6751520954445666 1.468051877250102 0.9983939733730299 -0.6864430006029943 -0.6082407439791719 0.07050965428380576 -1.6881978596615728 -0.41454502098735596 0.3290200974754962 -0.21703877280143563 -0.5088913643277855 1.1655355149040503 -1.00881671740434 2.1265750198230338 -0.17526122244434322 -0.10522905181350375 0.25624275348129294 -0.5718688557242918 0.20235832433134443 -1.3058703095537902 2.3468280657353433 -0.04903333046745648 0.23307662866575202 -0.42171200180885854 -0.7598591660204882 0.6547127098461065 1.0068813485016959 -1.0505954203215575 0.08638150886430199 -0.7904090934880882 -0.3649322245185817 0.043134237954085004 0.24838106823835757 -1.7676979578960892 -1.0999655059556759 0.20023080326873777 -0.4734054892844119 0.8885994287922995 -1.489047463005488 -2.617944356058405 -2.1109239465863 0.6903322572763042 0.3335178158055099 0.5773426526028558 -0.04277472283207202 0.24471497917880133 1.2569070832970797 0.770209534704176 -1.010082606110576 0.042441724737652044 -0.10059669925194398 0.5408424524291247 -0.14617019421842828 -0.11939566897483152 -0.8775775712727932 0.014632093145084275 0.9557642167390231 0.5029727465529515 -1.2700254121022136 0.04157616674437488 -0.9742790896433552 -0.8218541731540204 1.1636010369006329 -1.812050437849308 -0.7096780391844861 0.05182973608013741 -0.25201751921186355 -0.08549251685838362 0.8201283452217796 0.15043604261864335 0.7261941163711069 -1.3432468719099748 1.1765322585162155 0.13511503435869843 -0.5502758156334683 -1.6628477475797676 -0.32080719387749485 1.6512778296958461 -1.5465996717584087 1.4175463883236405 -1.2640413533895334 -0.22284319637214328 -1.8536402066321047 1.207534013411872 1.1963900737539546 -0.19292353174933957 0.08202889297750998 -1.426326094625195 -0.4353740225793926 -1.2636110679965622 2.44165215343883 1.7200966810392533 0.5725325867646813 -0.403166208057989 1.2820565870887501 0.005034233305059826 0.7781952885609683 0.022145323220373315 1.120286873804271 0.2645088187767701 -0.6377815633508138 1.4134510421639235 0.36672368859677273 -0.031165926805878423 -2.334791633470756 1.0891647723172484 -0.11122018485269221 -1.8566070261986556 1.9248451062114769 0.3366373176274643 -0.43937923133369755 1.6740281663616357 -1.732007557325915 -0.08905868936882497 0.3168755030174516 -0.45964492919229866 -1.7033690949046512 0.454438535841459 -0.15017053652475204 -0.8555599181491741 -0.1818895176138156 -0.7275406159187934 0.6595079255236277 0.06970750301209946 0.19764151746265987 -0.6945320129854652 1.3001621882588192 -1.05521246797417 0.16498748445652986 1.2330436934254627 1.3747861234854173 -0.2634742448389737 0.5432988974195603 -0.31481340069888863 -0.84963881528543 1.0254901630189344 -0.19023537234680737 0.5214002355669629 1.456848630052714 -0.12739442685236296 -0.2316705626147379 -0.815714714652673 0.3811906290576042 -1.9640099117210457 -1.666594141468809 -1.4268089288107972 2.6484098745218185 -0.050738689298157086 -1.9956125722376115 1.1808052822512136 -1.006910116915132 -0.5652691224602238 -0.5687590668218269 1.3085088215238685 0.35544136520098646 -2.806560226593846 0.7862866735713229 -0.6944055982736194 -0.4174094460244193 0.43182818324202055 -0.5294725250643908 0.09230546450575704 -0.7128738275834468 -0.27746217545939905 -0.7786801155726176 0.5595810867531417 -0.6378953937128737 -0.9422135082063344 0.040862452358467485 -0.5702409185154336 -0.44914674839577534 0.4655431482622011 -0.7645075749768628 -0.22624212830399068 -0.39696769690647643 0.4907521911335142 1.4855802155946567 0.5667993923847502 -0.8596193402387192 0.7942096313651569 0.9892765178188797 0.2891856375424286 -0.08424189187060782 -0.5665877512177171 -0.7723749528932807 0.0014838155968182288 -0.7262883529985263 0.21456919597323257 0.5639088750123518 -0.1390750796005022 -0.8803606413543853 0.6299777972873014 0.74267412815318 0.7344153724178704 -0.4199743013517013 0.4718375772764345 1.0338240592374157 0.6672100512481369 0.5081949038610382 -1.4933928171709925 1.5250591996766598 0.7293704352096754 0.13575843922730466 0.058443950807631456 -2.6340468695774417 0.7484120343484585 -0.719267462044149 -0.15540165042000986 -0.12250426522882459 0.5927758444096989 0.36508848675338257 0.8490316155995475 -1.0312518204973777 -0.18622088440686674 -0.21100009286654473 -2.4498614929890272 1.4491763869018703 -2.3472943952626233 0.8111398862058417 0.3912275348369019 -0.5177035857232826 1.7096307726722457 -2.7395737115523535 -0.10398187416727295 -1.1690878000898524 -0.5306382665698807 -0.9638082660895642 0.24136647403055472 0.625709239253309 -0.16163214901284934 -0.2638136553763249 -0.42512340823393274 0.964974002838837 1.4606880050103495 0.9891710540795019 0.5477091364874255 0.2443497450312722 2.3757574812654796 0.09488391151106258 1.4519604461327908 1.3815359116870811 -0.3692880125202367 0.18917487446212553 0.5561332782869732 0.4717006108290684 -1.1549723179397262 1.3209044908965664 -0.8678015905279203 -1.8138555326976475 0.6515560934413351 0.46854982263077444 -0.20793456450936462 1.5927937146061526 0.3750234185377369 -1.2767709023571026 -0.8289189081512518 0.3632942283697209 1.1048234252903597 -1.2108287728828766 -1.0487010399140986 -0.327752947176873 -0.045070751785544115 -0.09380735891481444 0.6240158635479057 0.6474543416106977 1.5563593308682828 -3.635079147587814 2.283763584660769 -0.37273750743 -1.2977268952315215 0.49889321017781074 -0.8543060778921123 0.25695595462123183 -0.5143501666259096 -1.3732866738116676 -1.0338894798603866 -0.36137382508627536 0.5386863420548058 -0.5697917587216551 1.50380229380738 -1.3872352432335269 0.9695947261748742 0.8180022597915348 1.6552658899485835 0.5587096182332025 -1.1220447836678762 -0.531980913614055 -0.6703806368003349 1.4196746069579431 0.559360541813612 1.1924642910741097 -0.23003495200839894 -2.9188060392043005E-4 0.06945086695837319 0.949586273501585 0.055462381103125465 0.1520265725671616 0.24471537851495773 -0.6627389696057144 -1.4941804000573178 0.7569098384468606 0.4873200083822894 0.2348119788872814 -0.9830137889030254 0.07863128033568029 -0.9623631810897385 0.11294281305088424 0.25971559508022235 -0.7429335143497524 -0.2020907071264297 -0.23820357919733914 -1.0369402798530871 -0.4827701020097979 0.3029783989740704 -0.5199255066356389 0.6782761570273759 0.16324164382937706 -0.33970342594554015 -1.2073468396932163 -1.6730765741285079 -0.2956517637476955 0.3728697720366096 0.810803574213255 -1.4861404534947402 -0.04232736086898229 -0.22582346446799678 1.4202949290339486 0.5006022998409001 0.4432081046219079 1.2285992733773363 0.7697718701912569 -0.95370077687923 -2.4099879985548296 0.8889277129303387 -0.2384338526709399 -0.7936960531385469 0.28503671675373515 1.5596624110572141 -0.06497794190340235 -1.6797568548839492 0.10014861194478034 -0.8263643180324908 -0.15373848951925295 0.36320062961017646 0.8648896381033956 -0.48466435516795653 1.044928747910604 1.7553981462946646 -1.5677357106547423 -0.5602581981138136 0.7668310764431492 1.488719003881112 0.6237468799491115 -1.3784529779774124 -0.6875341594944634 -0.5243581876156935 -0.6827820486526402 -0.1026174147460852 -0.6777067294789508 1.721059695049757 -1.6703061318680115 0.9575737127043341 1.407048679184821 -0.21420064416704104 1.363278254757494 0.004796643811289355 0.4339382173608703 2.0035150868205998 -1.9043252747112651 0.9021595277394275 -1.2558998050786065 -0.742918364879642 -0.11970089588409628 -0.12280057433035621 0.30243428620891005 0.4813210193224626 0.13291462040181126 -0.940300690847563 0.8233132806821549 -0.09760383353643244 -0.09146611730237349 -1.153544024387041 0.7825045076889178 -0.41226958209265924 -0.29234591171868307 -0.77356264334561 1.6149059259876883 -2.3720003692420097 0.9938369674802896 1.5149777049640447 0.6396845288504625 0.09250046934438876 -0.12261613447153075 -0.2149052199881984 -1.0048555343370886 1.732432526536511 0.928076118105962 0.3989081047990859 -0.6067726269772844 -0.08889020720779403 0.06720908622087957 -1.6787437838227577 -0.49691592297471954 -1.5263027966421092 -0.6303493555259129 0.3966204770336664 0.04243564149665905 -0.002689255205218604 0.4508915785456192 1.213649687661493 0.03412441208103354 0.5585752162003653 0.1206065334360789 -0.9650042275705218 -0.24412931969785123 -1.0440418714502615 0.6416893372814247 -0.03419178710149466 1.7292654113211925 -1.6798062602368786 -0.5414481091393656 -0.4538879917923944 0.00133713666908682 -1.1813905603420507 0.9804948466283094 0.728697333005948 -0.44663250619886596 -0.9061687988412868 0.254721027615064 -2.718403795596066 -0.4158749745102138 -0.7636552275122028 0.15681823872739323 -0.3215302368583807 -0.3167555859290806 -2.033984263278486 0.4677723129138201 0.4072262894473072 -0.35140140859024543 0.05691427526789774 -0.19266900187224056 1.0643152500127546 0.9647868405124405 -1.2270507560422625 -1.0983208268829392 0.035857333224602876 -0.49674201519041095 -1.531339266995396 -0.30413743708118 0.9885322064486578 -0.20872460250970834 -0.6119768935956799 -2.729448748306932 0.06715161248592383 0.7668006515800828 -0.25642830813544976 -1.6597997864237075 0.7224275068338453 -0.27801294340354493 0.9033826310226795 -1.3047726679601848 -0.03252870013393008 2.2528258479653602 -1.1184784486589754 -0.7522063162288856 0.8137158273985073 0.26226117440137325 1.8542214837195914 -0.10386472167034151 0.2359982179054218 0.28776666359673825 -0.7413249521402447 0.7596677026339576 -0.8469310808005882 0.6637964547802339 -0.027457893983414007 -0.27875033049783776 0.3630235338759795 0.8745416654727615 -0.6234789320137933 1.0187095380079352 1.7159298464212696 -0.07708513011428669 -0.16532992564744795 -0.8354276707989106 -0.21759899446209674 0.1374878722638071 0.31976416235179617 -0.45557407406863537 1.1784723603245797 -0.6903510543156762 -0.30893687936260855 -0.506984007454154 -0.22175993210297604 -0.4839360685595871 0.258042803847223 0.2020270074164336 0.5781428600494003 2.7481654829735955 -0.6404100822415653 -0.8707184810316224 -0.4516749830776446 -0.7777534943530676 -0.562346555295149 -0.7218203800991525 0.6660757114545869 0.23069422357130698 -0.13357442606507997 -1.2266170759179738 1.7556296155218616 -0.27370852561553904 0.2524091165832075 0.877933316019315 1.3309981971027949 0.39535814574925915 0.0814761785716945 0.9915747983715285 -0.35663099518265107 1.9877563555663986 0.8197480310769636 0.7471057839289716 0.9071671767175898 -1.3539353162778422 0.9493076200044492 0.10622732383824693 0.749710402449122 -0.41524827344649656 -1.7650059471807886 0.0026656460687854633 0.1528550056141688 1.513028506159247 -0.9622756399432809 -1.4023139025719744 -0.25136246887640223 -1.1840800850378992 -0.8768451117785653 0.07102530404651687 1.1697291103054164 0.4793718421250208 0.9881612830474469 0.3912473826598451 1.7440346699136084 0.42358609294916527 0.752547681145659 -0.2217512157390792 -0.7376307445422071 -1.7990347880630517 -0.5062821650067095 -0.6253745989020644 -1.2308495814265812 -0.3429259420924995 0.3688623184349918 0.6857428507811405 1.176608112602758 1.280955548039061 0.7875811000732401 -0.7079640517896268 2.6800424342635694 -1.4776890727825946 0.43573086196837957 -0.4279454431849134 
0.3455902214881869 -0.3523694760650673 -0.17591899442055353 -0.29928234899363415 -0.10935587899474976 0.6829934764989177 -0.24587644020807684 -0.15035813223736244 -0.8890526517038598 0.795995160257658 -0.14147675461801684 -0.19522309568279778 0.037704440738295576 2.0557191711864857 -2.2016135776146837 1.3087542529951868 -0.1625763886951848 0.4780663072409736 -0.7807788094264907 -0.5425354378633801 -1.0138503828791634 0.43482707140809473 0.1908155289158722 0.45307493452001346 1.5930358306110661 -1.2280950234625887 -0.4324585328321661 1.3285243288941242 1.656762658165295 0.3300904642715829 -0.4532738968742053 -0.05245067919777579 0.07296594568103672 0.081662370530695 -0.4899401216712696 0.9355548435725703 -0.3692061986800362 0.011362753004546016 0.7844842870812588 -1.3037513581929647 0.26818996263751915 0.558675393386493 0.17953622115286527 -1.9492994145827307 0.30986322049853704 0.5271935555462838 0.796479572235115 2.4484555989586076 0.8274126322798461 0.2508828469759977 0.223050277589118 0.19908222635079587 -1.0528737547521125 1.2940214692049898 -0.24292667100617824 -0.7711723410404063 1.2312091470077426 0.546202968139978 2.0027020592089775 0.015856661609098373 -0.39612310514656607 1.560441089525706 0.8743136861048615 -0.33119171100170863 -1.2905030083777522 0.5770524963344299 -0.9643627040782444 2.487759199215286 -0.8016423791056648 0.12099008556128339 0.02708304961871814 -2.4368203491388987 1.5952643635419557 0.1665535827670989 -1.0695353889587762 -1.1170569377325288 -0.9988946683415931 0.6381942245539808 0.12075212661549092 1.109972580318107 0.03993173070651109 -0.6805118955553622 -1.1574332908426321 -0.1109568031600203 0.2715971961937368 0.6630548390522184 2.0930963869452603 -0.23132778853399572 1.2787754332523824 -1.682545341890636 1.0278801671331843 0.8971818472604259 1.5560552711861346 0.9649940114242589 0.2699602896120287 0.701887120872941 0.3454933924363061 -0.1334892874121021 -0.9376999680728395 -0.8923227201131431 0.4736227902120092 -0.006782399882729177 -1.0314624587259313 0.18687777214504997 -1.125647561243121 -0.23629243152345908 -1.0948420269848937 -1.4583903018534061 -0.40574491988111205 1.589907833007415 0.025792021408545016 -0.2946225794559892 1.287521916729905 -0.658767664143557 -1.398606904412404 -0.8734785675777973 2.0985877845279792 0.38354524979271976 3.8230112891523764E-5 -1.259438981483146 -1.3317583979901444 -0.7167150130103932 0.16955542865806592 0.5213323873205825 0.9126363694941212 -0.031988679219578535 0.593998150420821 -0.09212563195390408 -0.09775572904589058 0.001312552432164294 0.45445238909287594 0.4992551520122352 -0.1504365048734876 -1.126527468008016 -0.2783373918694324 2.1794104893996273 -1.1170890967385962 1.6190671760366504 0.3249893158137051 -2.9128765004062314 0.9665943105393527 1.1726449253342195 -0.7702329901800339 0.2550651080608501 -0.7018904543269783 -0.3550494001967463 0.012852027289096492 -1.3139447838700735 0.146792764343948 1.4229790903797042 -0.13097888780522401 0.017486608489932463 0.5872622792775198 1.291478328990564 0.7791992289518371 0.5207393276115743 0.12657494265184913 0.6708292393505708 -0.13900365658504693 -1.7768587307517947 0.9315426001060869 -0.1852029435979234 0.6054337009333691 0.3096460973584579 -0.3391143861161488 -1.8055601324826294 -1.709328703456995 0.5454395854280254 -0.35416186590606663 0.33651365300835157 -0.20127670685513158 -0.3799289352034992 -0.6751980865755159 1.105820763130553 0.20256801756765166 1.3813051207189544 0.31617114623444187 -0.7639099117075513 1.207490660767643 0.8311192061589953 -0.7746753382667002 0.29214413647959414 0.5262310509981132 -0.2117428382298128 -0.26838713548582704 0.32745694758339633 1.7683651626018233 -1.824232935298773 1.8051694390165764 -1.1301774339678494 0.3682034056488619 0.5154906862196225 0.42605857698085897 0.4528890282074325 -1.4792031959117924 0.05602444146149506 0.5934535803115911 -0.14633429140236395 0.8328961665085718 0.10416932204488986 0.8354002705337047 -0.6364441608817398 -0.2548521716904487 1.5861702229799415 -0.5702697731558999 1.3308628589561933 -0.4027767546159742 1.4418661322963313 -1.2863651417425341 -0.3647258703652501 -2.214730948691566 0.9134478634466033 0.35748650729979414 -1.0397112290086727 1.630235438350926 0.14920738394626393 0.37248259407929046 -0.2634128297823093 1.6142538635835937 -0.2754666713312011 -0.23464983809160417 -1.5075002168524598 1.5786037563033142 0.40761281115295456 0.08850432321056853 0.6504273320005522 0.15878405408150112 0.679912432100215 -0.23085474032338202 -1.070623872569206 0.22428905268575047 -0.3228813021151466 -1.089966269521351 -1.0349644185902174 0.9764242287031291 0.6910726454625097 -0.21262395928644878 -0.007504081155383554 -1.9652820174363586 0.06352448459624385 -0.1486441611834504 -0.8350513290468117 -0.6611861838336218 0.30103010730613705 0.1275606694188546 0.2408532127070575 -0.5513290784964923 -0.5003517988760905 -0.15382366106729892 0.9825516110232105 -0.5288930689643109 1.272153780753837 -1.6291974706525336 2.4339380776528543 -0.4164229707665331 -1.25268296920072 -1.3905442538885642 -0.16188629060084164 0.184043157615264 -0.07269063849940494 1.2062512642959045 0.11368560773233033 2.0727399589922864 -0.1323698620865478 -0.024634532590490876 -0.6352066073030377 -0.2059744990295636 0.8152158796289957 -0.4498118261699613 0.5832804785078505 -1.039474923963932 -1.2799975958577559 -0.9740980851989596 1.0237452755851972 1.137952847771434 0.6374812412746261 0.17099356989950731 -0.1280284659621534 1.8984991106628935 0.594681387583921 0.7356818335629463 0.6375644384296674 1.0692359953950963 -0.6251331829532215 -0.6264555642960055 -2.0183287396160092 0.9295615457533654 0.20436890317975487 -1.2998596542833118 2.5829402887846786 -0.3663821159399675 -0.5426885336667229 -0.7548179599099473 0.39154550872562593 0.6825418233855124 0.06782635560718767 -2.6317472982636674 -0.46526253931994516 1.060392896829612 0.9478242179942971 0.4371035349825826 1.2353143993043836 -0.14843713190094165 1.2682389525399063 0.687047181574564 1.0501057761085915 -0.8519598161899136 1.033361050824046 -0.21180225554598037 -0.04680609463147018 0.21375230978097948 1.1561936360625567 0.011772190510640448 -0.08567753486482946 -0.8205990132533362 -2.310875923417942 -0.5231183178871297 0.5051231193586433 -0.029039606108513225 0.16624929307900052 0.09193215977995496 0.5008403235870933 1.1060505160234495 0.5364833763524495 -0.3454764845537869 2.216984689728733 -0.204317677124258 0.39735105273657484 0.09495765222536914 -0.7782816109728025 1.8596140991205325 -0.23690435747473282 0.4928215918642 -1.5411324277486538 -1.3221939628069959 1.5038373805606162 -0.4154534675912617 3.0228723126462302 -1.9799554957684282 0.14218887232260496 -0.9954605234686265 0.8244729314223808 0.35478067065381574 -0.3563386667963146 0.1230615293407336 -1.1616982782346428 0.5018967970499201 0.05242335968196971 -0.19129554522651 0.5696069835076664 1.979122000583648 -1.5213246637892448 -1.3855797113673882 0.10998625653857488 0.04048797088899472 -0.3412520625538945 -1.5378876652041003 1.4429252627198703 1.7845197404762079 2.2145683839536354 0.43038477757215776 -0.8139677114716145 1.5337854679016423 -0.8006784120264899 -1.4475555742603117 0.955891845998379 -1.1746071311373167 -0.7311850922495045 0.8507561435062435 0.5914466453354599 0.250956242481179 2.1732106077863724 0.25169461596144416 0.44857460522122294 -0.9319478664501735 0.8482035585760096 0.726162472061449 0.38707575309192316 0.3062755066743933 -0.12582981202410717 -1.0625917395462847 -1.5704809733172702 0.543100938924194 -1.509609494111779 -1.068901337159498 -0.1451072236640913 -0.2881387035919942 -0.340179574577246 0.728172679574297 -1.2096497004055395 0.32587976150277903 0.3909230745454487 -0.06253175812552826 0.3453434860750515 0.42318357069679585 -0.5430031934025292 -1.5701982957686447 0.9617429847757988 0.7303779251148981 -1.2427537183858492 -0.7934468050247298 -1.203322588649117 -0.19334044255437374 0.0022266983375425287 -0.6079773933049413 1.143511023840188 2.0735098253688387 -0.8718019442333256 0.23863477625681495 -0.8196305093505855 1.5157990715632115 1.2333906282424105 -1.6977050259943178 -0.10679986606246492 0.18489160364611928 -0.7668329747225069 0.4342057188854754 1.0530949645884404 -1.1210412474667577 0.05844594370918721 0.345628820464416 -1.5484846247774564 -1.9416385695230955 0.5433526187026555 0.19234545113766835 0.18795029887645814 0.28539082344556505 -0.5254931419751752 1.060402157334831 -0.9680259599395877 0.573921244933447 -0.18522413116923195 -0.48711449436450155 -0.5019303642612312 0.8128932350652929 -1.1046560569581931 0.49380165881468213 -0.5496423232704079 -0.2568137637584569 0.6266478182802758 -2.3373373048287216 1.9403481106552067 -0.9706299241217052 -0.9527486287538 -0.16488145717790595 -0.8653488018651433 0.8772722833552696 0.913828687859169 -0.5388086133296981 -1.5668350985256054 0.5295261294608634 -0.11492122730245073 -0.5696889930881345 -0.23386875904027093 0.32822851887725885 -0.9325431785925707 0.16390884085438237 -0.7890003808596465 0.061556377797180435 0.1254955021017723 -0.4250119846633716 0.38526324219168884 -1.9311890184994676 0.7256691575642098 -0.019418888945498973 -0.11287561158835538 -0.3684483608704905 -0.16751791996202078 2.089114308671616 -0.4749035793677147 -0.4986775540787677 -2.13773251901298 0.3037390513276327 -0.9456014997685004 -0.938488277061461 2.286120908259868 -0.3741746961876414 1.1332345312787402 1.243318131460846 -0.8147216899811656 -0.3011415678914585 -0.3300267085581907 0.13250938909946877 0.06851627004781181 -1.4659580444574103 -0.060962560818851194 -0.15759705990954948 0.9356780206855845 1.648596512376013 0.9668743495062917 2.133730508994185 -0.2416950689464586 1.0403287096669989 -1.6421421665894802 -0.09589453972826581 -0.3019048744038874 0.7360818841300883 0.14411531789360327 -0.014302122991231493 1.124863576485121 -0.737874202694586 -0.6758677267886711 1.1888488257582652 0.9671772884896749 -0.17846483859129925 -0.36456505308869297 0.8019050318466499 -1.3288112458115644 -1.0132986467243954 -0.6581046451963769 1.1740692587020507 -0.16756974318049322 0.5724142273072342 1.2192646103369296 1.601589518837206 -0.29816078598021056 -0.6836972103495244 0.1493111401785578 -0.05086088047514228 -0.008767909485441417 -0.10013483796119182 1.5939545167088796 1.880511015317057 0.9409056131876199 0.5978222826422369 0.4837931334431719 -2.9667254026103382 -1.1419473584345945 0.43946878913146403 -1.1818801258992888 -0.16040134432678968 -0.09899330508372689 -0.9071182404478215 0.6046596715201866 1.015276937206952 1.153836450471637 1.0390043496677817 0.8959746338889216 1.833486384466983 0.14980657007921316 -1.1275560686156898 -1.3986758128729124 -0.257633975415868 1.9558193854265413 0.625502383640127 -0.12750593935892665 -3.0116416639862367 -0.9394574643065425 0.05741070311246745 -1.169685933002538 1.131203811287391 0.09895307201232487 -2.087938348756445 0.5431690491720269 -0.8583161380025256 -2.372177874126496 -0.19923367599178007 -0.7810361448747838 0.05838602878315567 0.6247903054993129 0.09890308219391687 0.6902614980863021 -0.506821789858344 -0.19485322368334967 -0.31035001998383027 1.6175384672967201 -0.27922568943215087 0.7633294631447894 -0.19625769491621312 -0.4462182912613741 1.134462888360885 1.322761006477383 0.6760096492072302 0.4869599033656879 0.3064594637848986 0.6985513099199704 -1.1523500638558228 0.658043945229758 -0.0022675016677334713 0.9547838423018462 0.6145672440987939 0.12397006448509429 -1.2197340515827222 -0.1923825260269934 -0.6976353005596239 1.1869600089324412 -1.3801608717713572 0.5197799077168757 0.25623672075587045 -1.587351544912173 -1.0575796604273733 -0.8098331753216748 0.008083822983490162 0.9586140449876316 -0.6307354943731102 0.972106486011128 -0.7363559513364608 0.3362454409166037 -1.4277886721200448 1.5734218772362485 0.7733335911549635 -1.1876293636815205 0.4051731995606282 0.21395942962066497 0.3277483208045547 -0.020557791779890068 0.40861190610799547 0.8317988316103547 1.0024671375287197 -0.4334829151032013 1.754561140379705 0.5128148260215944 0.5831630890231218 -0.3008646192582271 -2.0183981947004037 1.5252461405059576 0.15563493061741232 1.1475780740821224 -0.5113128759342616 -0.7457305105776915 0.9673881204353296 -0.70660595652116 0.08576003675165257 0.5234734956974838 0.0339585421375491 0.24180510840602634 -0.5705542473689932 1.7885414733592129 -0.25305490667159264 0.3838903718670611 0.007319728696613927 1.408650484071663 1.0750833423056272 0.7782893824012959 0.5782637175343351 0.6431469251097492 0.28896148819658446 -0.641385772011879 0.7615462866269788 0.8435797084588382 -1.1228654253666641 0.4695884597546315 -0.5997765325145931 0.310946675545647 -0.5074468152653949 0.5488029281826774 -1.0888372258813614 -2.2348653400742085 -0.03904733686991217 0.022747283425050672 0.027393645950346397 -1.6498281923499665 -1.432374154836272 -0.7155362612564533 0.34917053658061875 -1.013521369160565 -2.329857547115991 0.4922518540365521 -0.1293625257272881 -1.5914025158779037 0.5251938466083567 -0.23575136397089408 -0.9148850458241518 -1.5374201554418974 0.42196024089363204 0.0446167336541633 -0.03562979132464934 0.4483779106311868 1.1933055813455469 -0.7961152807457925 -0.765925511425297 1.5198254715750108 0.7684484931792934 0.1786758982032855 -0.5806781359947442 -0.5488709121009145 0.16376515833666128 -2.568704857037507 -1.3692741407952034 -0.23653072991981966 0.6186942246559457 1.4321678508019149 -0.26019970861129865 0.030138297632568343 1.431838399020445 -0.45607223922846296 -0.11873667340596304 1.8223224056006517 -1.2211484029682689 -0.5713304242066395 -1.0455255198324138 0.047801494081791095 -0.461917076503588 0.5245483194431361 1.242617023858843 -0.435239146282048 0.3419933206804403 0.08840398337586407 0.7463581786102951 1.2712843670992242 -1.66779967833627 0.564281007180625 -1.2134084531582545 -0.6121310914217101 0.03156300964493763 -2.055278169696161 0.7153156095740294 0.4885249246378144 -0.14080910500371802 -1.6453806369651147 1.1964469679986507 -0.5590971190987727 -0.06626994010377994 0.2711288587058538 -1.0447722493778222 2.008909352397028 0.3353166674323903 0.9317712714162779 -2.037440487190902 -0.4858421101282405 0.559849299245759 0.11765363078673353 0.13882966902241273 1.0611965999715482 -0.037556911874499485 0.7350929520508971 1.3226516773972141 1.5761524443203752 1.0364226174153484 0.9063248413911034 -1.8518643508621206 0.10182680512553734 0.7628147229607959 -0.4636689194752668 0.22285263890512216 2.492889450378241 -0.4530828046532918 2.208501442933468 0.7856454504569038 -0.8691573700251407 0.40866061823877764 1.1842865269600207 1.0174274275615416 -0.05834725367472419 1.0162927446361507 -0.5529976004600136 -0.8069269407422154 0.7213599501933904 1.0932053983401664 -1.165259656650773 -0.6561094774151326 0.5033527057295916 -0.8342972279461063 0.13167071173395614 -0.7048271075352355 0.8456261923856115 0.4231944036532237 -0.13745362742842288 -0.7881589490215288 -0.817361093055017 0.5307205959896865 1.4613301792177558 1.4959838260999134 -1.2785104570052563 -0.9127078356713881 0.0036872804553369754 1.1726565457768985 0.3897478234643311 0.15365630983611148 -0.4623614695845312 0.5044720471448921 -0.4072437407794059 -0.8751197035684416 1.5920410753743393 2.5914040929044067 3.066573463939526 -1.2662219296182822 -0.29669122165802525 -0.19240799963939495 -0.9220008238739746 0.5057981496828187 -0.6136821934896641 0.9700500437592667 1.1199770170542347 
