-0.3700484640115827 -0.5219054100425695 -0.3723018992591385 -0.2700240718867781 -0.6762209679428196 0.05204839078633716 -1.032536706484989 0.4813236317163594 1.6431043383766306 1.5496389860208364 0.2081502170208263 -0.38823359829303106 -1.7224234587814657 0.47348802136732915 -0.9983323491588134 -0.925160118193821 -2.6197310732282912 -0.9471060873001105 2.5321974136367102 -0.36590984001033483 -0.5897904546863366 1.677075258936021 2.4933879997572936 0.34407246395142527 1.8235741070683793 -1.2754722351897898 0.22831695709673103 0.309714510193259 -0.16177451812524635 -1.8286959185424674 -0.056162920198344415 -0.2572637691656524 0.5508016507365597 0.9431224867817348 1.1311658601432506 0.7400927210750016 1.6391939065957077 1.6511861951126638 -0.07954643690593904 0.3834166113868343 -0.14210905065940957 -1.9013793690084067 -0.5369728589416463 -1.245505702247041 -0.9566349046405964 -0.2322068117962959 0.8203152482906954 0.6898720249384256 -1.0279391274430465 1.986656065266778 -1.406967652552153 -0.2915470980038729 -1.5526776933680326 0.21282793784812767 1.1703827302542522 -0.9944268953589036 0.5874104216196916 -0.591080439994418 -1.3760901232868745 -1.8126986309772422 0.3915374623467185 1.841061744581072 -0.5067600731118247 -0.9309285133956875 -1.2063314826597478 0.09930083370722624 -1.1861629822590782 -0.5608833374756612 2.6733719870333594 1.3137276744260475 2.575857371505616 -0.3997982843572136 0.8518104770678486 0.5249560385960038 -1.2040013361839164 -0.1461265790554488 -0.6118612598189033 -1.1806968211846947 1.2618526610854799 0.24340144691574514 -0.959353014626488 -1.5884894900831061 0.39576858618846344 -1.6130602624942796 -0.2951689450991233 1.7898201645169962 -0.43403422907939254 0.52949084745797 -0.7894980053448596 -0.4445566970066446 -1.980247383118072 1.7408082493894432 0.7934271581333892 1.3781755204268467 -1.2727252180030455 1.606812529826337 -0.42630846922513216 -0.9622844330339047 1.1082880804399915 -0.9271958869708766 0.35766118498648636 1.210220989550774 0.9894626888907849 0.7008249326564423 0.14500274085995632 -1.1881462841178707 -1.6940634696606405 0.4822768451065166 0.05029081796241608 -0.8992624703976934 1.0641916306826935 -0.09937017488169109 2.5723496423649506 0.4844172920898832 -2.8999166931159883 -2.2651220757213237 1.4247961999060954 -0.11189892755906782 1.0115057447536733 1.0179093731477336 -0.4566624652461327 0.21445256257028747 -0.257753427929988 -0.3147683617541773 -0.4381267759267194 -2.2176484080408927 -0.0059788985123672735 1.9935845143903208 0.24893804408275186 -0.4749405127096844 0.500040251839794 -0.7686979372031353 -0.6950972597616584 0.3866544115894764 -1.4089271514848654 -0.4578097571840301 1.8731417226539764 0.036615881774455405 0.931629786968859 -1.3846751858926858 1.3853159940871718 -0.3817586618407301 0.5979756315374521 -1.7760951273272019 -0.3581297655203026 -0.6873761356968888 -1.5619951206478329 -0.7343698741224636 -1.7882974898486605 0.16925983601719533 0.1557861898640994 0.7534784192766794 1.0522608150723352 1.0321346272490508 1.6234697707650207 -0.5442710756595369 1.829141863401096 -0.15083148677869385 -0.29855613473411996 -0.2501762512653135 0.25217373972111645 0.4352801558706977 -1.082122239929788 0.5189673837183562 -0.2136524760740779 0.6551646882999783 0.6802611603256378 -0.33987572226911245 -0.3034488347235773 -1.0959381372101895 -0.3865802055411179 0.2759256663285164 -1.345168766130457 -1.9081792808720754 0.9599425691701557 1.0767779786781366 1.202333048500254 1.230704247701342 -0.12696084865425886 -1.4390756492497199 -0.4878494661342812 -0.626175501859701 -1.4527356283883657 0.20975704036972806 -0.801798166563627 2.022940774987094 -0.21322826802160535 -0.8327600416308164 0.09562517363752386 -0.35773824203605376 0.7518865180073654 0.602268080728405 -0.27885171677101267 1.0368445489496143 -0.40215630107209205 -0.16144043681521192 -2.7453642498686754 -0.21829780399356336 1.0341046953289224 -1.5847162688819199 1.7784134402626182 0.027978762676155747 2.6976625608105 0.6818558793968708 0.43135022431077324 -1.4030291902858723 0.5604613110376714 0.11293392111527019 0.8428884837321158 2.5297598395296466 -1.623387516128566 -0.01412655136683951 -0.18401152710782917 -1.6428406811743173 0.549952585968101 0.9945883529343771 0.6165293584936951 -0.5078210521404475 -0.6295955109781457 0.8778648070263295 -0.9268854902036987 0.326176927278337 -0.5688279188000488 -0.35438147098616457 0.8837929152796404 2.0223696641567157 -0.6140078999286617 -1.1333958683764618 0.4075278165930567 0.29747800724692697 0.119279454530307 -0.6408208894245015 2.098610589448024 1.2239408007823511 -0.19451908742063206 0.5909980410041349 0.3861627466980047 0.32514865324826336 -0.5147463650559023 2.0889776980757935 0.4665945589988975 -0.5077837209554527 0.39896979169217905 -0.8144409815614666 1.688476655839692 1.038850937486733 1.9464003426926533 -0.2276402079593127 0.4422548176042273 -0.1376956447245829 -0.1032477343586284 -0.9785356492856799 -1.1896827673620287 1.4660760247388318 1.6897658078160902 1.2913381678037978 -0.5300464774007445 1.0298940224899011 -1.2352328369955985 1.1231129781685656 -0.10247869849454669 1.5236733972997647 -0.033956534825964065 0.8578799116993018 -1.565969096454082 -0.45568598549540623 0.02327107069608713 -1.2927001614653884 1.5888417220032358 1.6608062033316193 0.08096388712293845 -1.0258989560678982 0.79621481759339 -0.8616513717257988 -0.42335394691195655 -0.7214097315706425 -1.4662589285361525 -0.9915854519618004 -1.532389678717322 -0.1361772467473826 0.1732884283993018 -0.14941662668322098 -1.5057830812737598 0.5840420033027341 -0.1408988056014641 1.4309822153369556 1.205281244015184 -0.05247408395840136 -1.7085872064023853 0.5752168207437806 2.452594786804684 0.2909066914084982 0.6544453370739165 -0.28497445257836257 -0.06430652626732611 -0.4286953489919761 -0.03224506597703867 0.7718753697535918 0.5323457317376235 2.232645563159254 1.667399552997092 1.8745071819597032 -0.16406086826878963 1.6527617185622265 0.3895805652097786 0.6425245422464081 0.2512397815921706 -2.193116838744001 -0.6713871111054966 -0.03229528866870626 -0.5541625454933315 -0.36775643996636626 0.9626448886428944 1.7898878707434496 1.4134797143315327 -0.15986895589542635 -1.4224450262742618 0.8691134696850251 1.044291812109835 -0.590945787202328 0.07106458646523721 -2.187184793080058 -0.3001417657051184 -0.027461503588572318 0.4791269405938747 0.04800292593761921 1.2440711592173865 -1.1221179474877598 -1.7931541886896658 1.8263254496849024 0.42945278409084536 -0.46035739755441224 0.10576973929158236 -0.28135452484966045 -0.1507987656006642 0.5040948086623258 0.5677358005528165 2.007328420469665 0.04756426116803259 -0.7481388137100092 -1.8685333073404622 0.3326753298522008 -1.231726134594421 0.07546795374393178 0.18122205423551335 1.795692187339187 0.24187665869290734 -0.3350489406829613 -0.6560308416334721 1.0006302694618796 -0.5810612773142406 1.0321078386747078 2.641050598878367 0.3874662771185225 -0.612673192435295 1.0874263946036464 -0.9945967917580739 -0.8235471366312477 -0.14143354408730166 -0.8238010063024342 0.45934321125753574 2.1668041835047482 -0.7768979073446498 -0.10733564500942022 0.38963572106737987 -0.848626252194704 -1.530163940517768 -0.30111715591984656 0.489662928510281 0.5117217594252659 -0.4435713603506323 0.6205563239135738 0.1766149668687829 -0.12967784616641664 0.3487292372554168 -0.6775349208364616 1.030271259525249 0.5698783145026337 1.94708279332936 1.0735297296376913 -0.7789243535692543 1.0216091683003152 -1.1740947898084397 -0.03442576057329782 -0.5658742543758466 0.0645131435016278 0.34354311548788846 -1.6781904092150037 1.4726050915671896 1.1251664111583106 -0.1800115678447875 0.9805826029232024 -0.825145212072032 0.782121192527112 -0.8539712447475261 -1.5383214358991497 -0.08560739932337345 1.4977947502095648 0.29672481413260443 0.6715014670618807 0.5613285095270499 -0.46091497523366515 1.686502626825418 -0.221553535348931 0.6823921481739552 0.08814541220597831 0.8476295263025935 1.2934271185146082 0.627886210189924 0.5582606860013177 0.6037814075837393 0.35420852896195043 -0.9839566531613404 -0.03816428569806758 -1.0869835034076694 1.4317668331783964 0.49681376743435945 -0.0595787560458813 0.6722540045432209 0.07993572738306828 0.7796485136022394 -0.37845145683455517 -0.9589424666090264 1.2064116534837708 -1.4262623885135328 0.717660633869877 1.4926666243667872 1.1626950100477915 -2.1064680551841115 -0.1598909705688306 0.33005949704456294 -0.0860483998631043 -0.9620070451446688 -1.164058270362087 0.7309274288763741 -0.9148208347212194 0.917677470377502 1.5706077849048137 -0.44338719077506383 0.9471954820210502 -0.48094564731342704 1.3000293624704906 0.8329681276090686 0.794899089885216 -0.7685592728795675 0.6283765684660427 1.2662925997293766 0.3748311704711967 0.31594921059424874 -1.5518577004632255 -1.494508488425152 2.917675748781209 0.3563525964460605 0.4243097421030218 0.5402162546340583 -0.568910089344501 -0.33880702780751987 1.5133428973795329 -0.6557971096343338 -0.2647604574396941 -0.26880819667800876 -1.1487435083658135 -0.6640832334268856 0.896335443480284 -0.4052015638852336 -1.1182897748518352 -1.20411370549033 -0.7507326775828478 1.1864862325845225 1.1220835810273138 0.4784679008630507 -0.4546491469144963 -1.3145912241975184 -0.3564964044454556 0.9206598148800309 1.0111744042643314 -1.4883681356636387 -0.3793871193542141 0.040435230916732255 1.1682060226902165 0.04694454854561338 0.13786788815849269 -0.06543670724445731 0.8853783604005889 0.852913583469759 -1.1124599877651506 -0.2129594381221769 0.8422096628724304 0.44492816883732134 -2.0213713895474323 -1.2635084671053427 1.0006615793246263 -0.038877738067538456 1.0526694116870081 -0.77028849318908 -0.8013654995325618 -0.003450625629965019 1.8533591914573029 -2.4578952820866964 1.470757648932761 0.2879369222047612 0.35717537255537224 -0.9644083409391758 0.5509007465172113 -0.14881292606536847 -1.6470297934785134 0.029953152632344618 -0.28983422461786823 -0.35541039500687405 1.3255268002699354 -2.483290175661536 -0.5718259682714033 0.8371442162519905 -0.3484180090110583 -0.10314394931241369 0.6066677429942093 0.7305658960045647 1.6023293882543959 -1.6508986513744335 0.4615711302191995 0.21514886286737306 -0.11913705544827549 0.9404047565187794 -0.40624111367624627 -0.7508533038191701 -0.11898305806457696 0.9022649883679038 -0.5926008012709619 -0.2602826133338589 0.5617462553895546 -1.8147377704935574 0.5089468261249712 0.4189996412791946 0.6458021354789595 0.03120351072626003 0.19181211358810654 1.0852088896424377 -0.4413678587894648 1.0508041087108355 -0.8055206456942873 0.6403475939588607 -0.21650652915309593 0.6678600933010859 -1.000860191832323 -0.389163890956784 -0.023565120821670688 -1.1020195696089239 0.879083488109267 2.0282281452124034 -0.47093680978369784 1.2635252129178478 1.02878887239548 1.4499653130363026 -1.4142905261891043 -0.9649554934025772 1.0814213689747907 1.3637540986475447 1.113366460651924 0.7010894587518051 -0.6392727188570346 1.2915346715723723 -0.3119333035317894 -1.5436738427862595 0.07014710676739666 -1.0611457916028049 0.8188893312246963 -1.1364005213260262 2.1444594377393096 -1.0824270618054534 1.4070661354908842 -0.09108395192619212 0.375646803715927 1.7625778275211232 0.10532259215088291 -1.6504461902569518 0.7268978306204643 -1.0683510847377695 -1.911514542098405 -0.3060107592004476 -2.626457263517322 0.23354628069370112 0.09181495304623052 -0.028212456707914876 -0.9727510301599475 -1.0432496399607702 -0.8445225567591688 1.0997823082189102 0.8670412501739103 0.4234874227400594 -0.6858833971890659 -0.14440370147507625 0.060735480177887866 -1.9022731881989783 0.20259760271167054 0.8701355632522443 0.5586330563997343 0.7087137891213566 -1.5612543498333873 -0.6214464487485482 -0.1716258154396381 0.707556818100541 -0.17221902115156026 -0.48035529931477927 -0.6566359967854156 -0.38176186232630943 -2.246351352151921 -1.365119157678643 0.38286890154521735 -0.23078866905720505 -0.6905045938205594 1.2599154304485785 -0.5297221643850998 1.2529775631989373 -1.3341043520208034 1.087230797843083 -0.32803436904331024 0.1100450942043227 -1.6023908056569336 -0.09598150710286453 -0.08303459494936491 -0.6807120549823986 -0.5183379867297736 0.6243050697873122 -1.2171634710213626 -0.624438471035431 -0.8425042662916828 -1.2600449418476904 0.9552037962554807 -1.1108298370640135 0.9514863901275227 0.5204470133207024 1.0840420337843393 0.41011184167066356 0.09722920168233924 -1.0145255589188165 0.7895521531849347 0.7165901703014369 0.30419411977786803 -0.3872303231686 -2.005734475874146 0.3213053659976397 -0.20173506065246893 -0.08394814490922253 0.29101991828903534 0.8727766866850274 -0.007422568527370877 -0.09621806719823307 -0.26339970154777387 -0.008624729797815017 -0.38783844954178354 -1.8616380455424035 -0.27338622567274645 -0.9150105071030146 1.4745930197720025 0.2298296367019014 1.5216895044757877 0.05850080533538761 -0.22289495856584504 -0.9071283899983329 -0.6979057949129319 -0.5672015164470265 0.7623973046211121 -0.17959310924829652 0.391043111831982 0.6537764922411295 1.857596490642969 1.471272662664948 1.0674961469625421 1.3361037021980586 0.2648717656959759 -0.10320975626118833 -1.7573471967783667 0.4398872098407873 -1.5796160070827947 0.4601967705517229 2.081993356470971 -1.0339362186320065 0.3761925286138542 0.36377454400937287 1.3651630484517316 0.2764200324844336 -0.6771528112611084 -0.9250547233393785 2.0270019589659385 0.38810323936144414 -0.8544353204953612 0.17959653298324513 -1.0825919530206574 0.13767877746644105 0.09258341351463863 -0.28813660264189994 -0.9749939011688381 -0.6052886266512107 0.3418372920584669 -2.3551795236387454 0.06367605247961784 0.6609081238732412 -0.3384263368861846 1.626926393551647 1.279164391293727 0.7747638143539763 0.9042226563056831 0.5161768588763918 -0.0935924995093553 -1.5157730874461328 -0.427294380605946 1.1222783540139072 -1.098630628503307 0.5742898247011026 -1.1679786660939262 0.20148921558369265 0.2718097271735328 0.1231300640649581 1.9091356242225512 1.1263545552966776 2.1270827672616357 -2.147618177910752 0.6186976596434716 -0.2137502475024109 1.1877972278473747 1.0593999299376793 -0.4435458198970949 0.33059986065675484 -1.54662345304605 -0.22576190576138364 -0.37637938348916133 -0.6895651926346344 0.3825257849909421 0.9780826452876533 1.4594945505872259 -0.39729300298300074 0.42313460602026404 -0.4638663049130525 0.5931217184552782 -0.08111558718047274 -0.20173431591012866 1.2935259361492546 0.4121928251391313 0.9828371857223152 0.4339707046902416 1.1861460377006114 -0.32711714853076895 -0.8679913877018264 -0.9204146015572442 0.9164168166213964 2.603110951896017 0.9187262198691734 0.7936737881343174 -2.1175162539701553 -0.38706952613705664 -0.40255406325592447 0.6490964610988369 -0.6320404998606071 -0.44997730800895486 0.9305772717745012 0.74219686885587 0.9574128360444877 -1.2191593178707691 0.7157781143032231 -0.060194826697022044 0.4926393444772859 0.4594765231049811 0.7630697937433689 -0.7651637003549231 2.0869694562812686 -0.6653594985996599 0.06798794874024236 0.151211826948076 -1.230107931278352 1.5641434144109165 -1.7046079592164105 -2.0985629264717285 1.1119430754577055 -1.4819171425646727 -0.17968325535723548 -0.27721007343974596 0.8806034497626465 -0.6918019196136682 0.08963744872638985 2.055149769809889 0.31001618682451315 -0.8373926117434197 0.6879779074931955 -0.20147234164961353 
0.7683771492342678 0.053717205826586616 0.8866348714890208 -0.4826945631283861 -1.3694730869603478 2.0358317343836547 -0.9806319884636148 0.4465386171621442 -0.7235273528293431 0.5653031551730165 -0.36661344249584576 -1.361068716291526 -0.6696285506593127 -0.2518890473702581 0.25930920980313643 -0.11851663557411804 -0.057311453644133065 0.5119798705810477 2.1768697633859464 2.4393147023522794 0.19240329398607406 1.41413598871793 -0.6271411968229654 -0.6454157426284788 -0.10986363656228379 -0.44089200502345055 -0.2889680382611645 0.3998223142430447 -0.23889336515248266 -1.3962993183831522 0.5442548746476515 1.229618085233076 -0.243768745700787 0.2776903099505264 -0.9947528370924609 0.7095723421930458 2.0743585772098103 -0.2758179344827665 0.17510245542683756 -0.558902728779104 0.8408995490050928 -0.9356544938129822 -0.7519442977576871 -1.7493228860642662 0.5631898360247232 -0.578055040426267 -0.8369482468251913 3.3663677244183767 1.2969875700658382 1.078263340495567 0.2741380841026581 0.33593370966273656 1.2151370996837418 0.43105582288054434 0.9667262650344621 -0.8017760679111204 -1.6297270289192085 -0.1976751511771879 1.5798362681491016 -1.6163392061992732 0.0833308743115523 0.8530707906160662 0.8000212180354705 -0.16053637733573284 0.18715445077362433 -0.25470692259734967 -1.58452247994856 -2.3442233989698367 -0.9041205569344293 1.1034062019108235 1.4652342088871193 1.1950736579397085 0.7798198554653878 -0.29700295294187573 -0.4133906084281736 1.2286064525757308 0.11794639263742042 -1.0398848857721528 0.4432967723028474 -0.8520970218578592 -2.1089407667258886 -0.8777827039577649 -0.13945926950316415 0.8440960333526507 0.1531165369761557 -0.11641644528504339 0.7658549163198755 0.4065878074653918 -0.7413004027908046 0.4210709700637297 1.3003120672005248 0.3995922420980402 -1.1910736655834178 -0.5290902056969938 -0.2846628721478982 1.0374771808299201 0.3667528215143251 0.7188089302177415 -1.6456989185012514 2.166179327476457 0.06710548631306201 -1.2332324340432752 0.13148720036507197 1.4761409464682342 0.8220618988959988 1.2396535324832352 0.9125278999926472 0.4745007173836121 0.8774054132972852 -0.38922167606464425 1.0373266407724984 -0.41727536765779855 0.7809957500817218 -0.9163485746226455 -1.0977929919561502 -1.3767908142803966 -0.18674422478692762 0.2007280247444534 0.7991889523430707 -0.3516890638016036 -0.5379194786126302 0.21673263681655985 -1.5164972533012528 -2.7655577347456988 0.6147773623367185 0.3713887280399184 1.1190631454142446 1.9795703720981785 -1.154625604722595 0.16124891017560325 0.7648854405451502 -1.0656271299379363 -0.2135233103832637 1.4312047465395228 -1.3135964371122706 0.7474709096017991 0.5471052590887258 -1.1962272990594607 -1.1456832140800255 0.6838508910922246 -0.7775201461852489 -0.7017039472443731 2.3544723500526326 1.1692961669018092 -3.494548861714216E-4 0.052824024284084996 0.609598348755959 1.2067203922415906 -1.5019824696188477 -0.5534741399862618 -1.0693482937819063 -1.0982235659957718 -0.7280054317606 1.5947273168479672 0.3285327038676596 -0.9698301112233556 0.6590067118178703 1.0399598766603513 1.7349709709267074 -0.8499929434033251 -0.5776153376246345 2.479211915937387 1.0091347805293327 0.8392773855831497 -3.700557220828067 -1.767151473809606 -0.894452306601766 -1.5231217789913727 -0.9608033372542704 -1.139967350531363 0.60414075109583 0.1061317972260462 -0.384867028482862 -1.82903704556499 0.3672874660440689 -0.4473690095490359 -0.3920036981949533 0.3571224240003005 0.8098575449870401 0.17454936380185887 -0.947529021753682 0.28982771578714217 -1.366161328259441 -1.3436820809706072 1.5354821956593045 -0.1337244854751191 1.8863579349072295 -1.5852158448995797 -0.07214118353526629 0.5053387471398413 0.34550185925467974 1.0836676684855533 0.7000449392636082 -1.6117481786156458 -0.3966658473552183 -1.118955377047871 -0.235283255328702 0.2720622097345321 0.17782709039412112 -0.3392452699474364 -2.0956740581659368 -1.089601300242389 0.22036991458765828 0.4580175335961572 0.350996326222901 1.7283873713035145 0.26430378181168646 -0.7486617103854681 0.11201937395709516 0.043467985847551585 0.2098207556278642 -0.6963933491734745 0.031111059832593938 -1.7024667532581113 -0.2734333520473461 -0.6069412337993628 -3.493996315470178 -0.5447618597559692 0.0622586172253632 -0.5699241837178705 0.9891082283768201 -1.3567974442701134 0.23087525104584347 -0.6647416268360229 1.5824378038835143 2.715555864935197 -1.2221411623656586 -1.6320034345955536 1.2431570551122455 -0.31035186373894136 0.11485045315743979 0.22962007287886066 0.023222558073522 -2.3247977436554983 0.3705418858857525 -1.8599063164384584 0.007981535983670997 0.3261618137694862 0.8788072323708498 0.4574798220131076 0.8377451224101873 0.909745692597822 -1.3587655552701892 -0.8936692542155751 0.9099294337005576 -1.8651354075858486 1.6407164995067547 0.08271314573465825 0.9034133135687251 -0.3036593204086129 0.3791871868473467 -0.41374984474555765 -0.7622886684548227 -0.4832332748533967 0.709826212089163 0.49720743299163955 1.7621388476939497 0.016969549428404684 -0.23284489113288498 1.4718456847853083 -1.929626804404939 0.8340537280899797 -0.0827305203479952 -0.6898884669396992 -0.07902062232279344 -2.029405032833786 1.0389703023196402 3.040218429955236 -0.8473327374843183 0.2898092582216813 -0.2783505218605744 1.222274352025643 0.6784594663367193 0.7854310048502826 -0.9498044259303781 -0.2368251301083975 -0.6915768893316263 0.41952360480106204 -1.17509135798227 0.19535179999666155 -0.3617891519744443 0.42434124385055744 -0.0037994348780908483 -0.7149799016751965 0.5380280631569273 -0.3051021774507283 -0.9982863029476138 0.3988908978063084 -1.5783870216593225 0.3842303710154428 0.4124274710951964 -0.4970792447146925 0.14758705629412108 0.1784176034688381 1.3400191339715193 0.047123273168162894 0.15465077647907974 -0.38102697352540826 -0.9776660363624887 -2.506194950028061 -1.5242381024339169 -0.3415679059028891 0.29620816005484346 1.425113544155144 -1.212549596000497 0.2525708410885817 -1.2832346063243787 2.1965542360710777 -1.207053169613325 -0.8471677080892083 -0.2202809327618082 0.7614819743292892 -0.8048605418956432 1.0718165447570702 0.9901388180585303 2.8865409808382596 -0.36076345166966717 -0.04289436275182742 -1.2357794692614468 -0.4606059640230228 -0.23913042135423151 -0.08053341593608605 -0.2302722874894854 -0.33869081641235127 -1.628569737076712 2.0663381088016957 -2.0225902567521774 -0.7549877161606984 -0.15302003413881107 1.7205953942118408 -2.247655478859992 -0.4913451519031889 0.8024595726956033 -0.5527642156279549 -0.38541372724466827 -0.02049767421346388 -1.8028615736464444 0.966149588092777 0.17873799631587925 1.053996711721063 0.03710256296264964 -1.9125823148314356 0.38080783301804455 0.992982851656855 -0.9604939782357197 1.204192198837715 0.2997289903022912 -1.2291521381541397 1.622437176313955 1.430995515224514 0.9801328466571377 -0.6116752327670951 -1.1122021714333747 -1.3608576888507793 0.535042098978615 -0.4404650618493421 0.33795998188475607 -0.6056504989586667 -1.1311339579491821 -0.5174376016752769 -1.1055652753016785 -0.6052126579102555 -1.0720989645425565 0.9280671818112121 0.10211696143741765 1.2191411463389252 0.8460334343336287 0.025425724123961248 -1.9268757564287429 0.3976413461682456 -0.10464323072543721 0.18955287250614025 -1.6656624013755488 -0.3927136961996686 -1.308305383845216 0.12805074122803625 -1.0600895955433165 0.08026295067934504 0.7846538420318895 -1.7239279018103462 -2.575324407635602 0.0395420057172375 -0.10895365490242995 -1.1175559051690798 0.7975577961472624 0.15788986469590746 0.4955306927379501 -0.7995544516319228 -2.403788946575552 0.8934498709940092 0.2393367375466248 -1.5858973061653054 -1.8650381951031947 0.5628231919783867 0.4906948399022803 1.1573536141136875 0.5703161945322263 -1.1685590310682856 -1.2665681145602226 1.559284883575478 -0.32347954939082074 0.5915257735226032 -0.606007902054549 -0.8775565979636535 0.2590266018848905 -0.6321872962720315 -0.6371567936279886 -0.4382926047276459 1.0164897261034467 0.10851058325883053 0.5681231038323972 -1.6250085035742676 -0.5345612928578847 -1.1024022281120278 0.48210999082453077 1.1915154974349247 1.211120447296744 0.12133053809380101 -1.5517298838179083 -0.2563616895403088 -1.0730151749802517 0.1867572444830967 -0.7326120127971775 -0.30713522814113703 0.037975897219372425 -0.2275752164071374 0.8255716092508055 0.5260665334083473 1.4244973252511015 -1.2630656389376451 -1.179695212478437 -0.42037142010421147 1.193965060836501 -1.1655877771389003 2.377705880814566 0.7285164854183223 0.7985699442166765 -2.2630717008765946 -0.6487139107789182 -0.5065089528480359 -0.1460661818385186 0.36804784831589793 -0.06872918646937927 0.6523143711889565 -0.17802987364267803 0.40085558595972826 0.3851899520445825 -0.15138105242469205 -0.23315153762287807 1.3267163872107428 0.20661925186308633 -0.9510930355610887 -1.8341380225529011 1.8063893568532419 -0.5809230778833699 -0.20357147306767273 -1.1370105956428163 0.7667724488053306 -0.07988977872131943 -1.3529817561191486 -0.753687364764041 1.5033539272956942 -0.4668022116740146 -0.05182824822306031 0.7449426154022882 0.32538956637808736 -0.08397835810287589 0.6472851938838096 0.554158435725913 -0.7209850277696026 0.2240795999756586 -1.7394910370330054 2.5413887467447775 -0.1813021203128779 -1.383197953955785 -1.4038697950016295 0.8089094782125632 -0.740172132239116 -0.2340502343211546 0.3578200080443015 0.8402414464907428 -0.7209407872402691 0.8419649437572531 0.20889802351272255 -1.0567470483186419 0.8280499988411522 -2.1908486467212644 -1.5562603301667928 0.592935673828422 0.6702850775545238 0.7391769613993309 -0.9271715215915195 -1.0711720208884294 -1.2772482089690869 -1.0089861610192115 0.9973327077848798 -0.06759433196607868 -0.5346843782089855 -1.2937432599594343 -1.2997178498784707 -0.19112310125432205 0.8468665764493104 0.6187327265848044 0.2670675916595505 -0.8344475229533168 -0.3815688019675392 -0.4249886673984425 0.818238955253279 -0.3113095129433415 0.648632163884501 -0.7614874282605257 0.0021429909100376373 0.2779841624613861 0.06955927571726772 -1.4364176557228996 0.8759499255021396 -0.3089305687227727 0.26360911355303757 0.8134969902640571 0.06730438749036098 -1.1190013202296307 -0.31698540677152465 0.08094263802953008 -0.7203120682529658 0.31147103300891854 -0.2751509239708302 0.2950502828770796 0.14582237996016972 0.4467204525848494 -0.011991253859730605 0.9001437008032396 -0.26993130609120636 0.8442307112301781 0.7316649618152498 -0.4588733511079581 -1.122094050094027 0.10880691328293224 -0.5369875632487812 1.2733315101246767 0.8073932380693051 -1.2103039885500568 0.9833444065280074 -0.8203465341664933 0.27186046092567145 -1.5358387924318262 -0.8501935038077487 0.8254971087662866 1.0962681754405887 -0.41558068401401677 -0.241643226147203 -1.0028387773481784 1.632767766471517 -0.8423187427089712 -1.842947051188499 -0.621193021669684 -0.659444554815018 1.4522889532066947 0.2890786839303333 0.09053802905840636 1.0095065577961322 -0.7694099604141343 1.5132310348584046 -0.4855136685693055 -0.36865403105902445 1.3540992220684303 -1.4890790272130605 1.596404369380218 0.03070782926672765 0.33386744537942337 -0.48629082410517505 -1.2755721929332429 -1.4512970609765319 0.5627054349511655 -0.4154550706311656 -1.1733014560648305 0.4828639938419387 0.508865904009164 -0.27627283087068416 0.8431921541220536 0.9142808479567018 -0.17841911211469386 -1.2391242123595854 -0.5206257908789668 0.3994871884313663 0.8227928314036769 -1.0975093305196835 -0.6431707100380929 1.5566146217613301 -0.3205601023684432 -1.162660935624401 1.2392518526897816 -1.0370306639969324 -0.753773091934488 2.113818373948691 -0.8889519894827023 -1.3173075905888378 -2.977420055432956 0.3715843233284888 0.4129162246060588 0.28931124550040016 0.6798053003930642 0.4314771819579767 0.1679828506631481 -0.535431763883996 -1.3440551058232524 -1.0649084499565131 0.9297126386251905 -0.6092306931965359 1.065567010832001 -0.34385802751818134 -0.7398262437336913 -0.37288523085701186 -0.43617828215788523 -0.8387435244062378 1.1601622894156873 0.5447149732863329 -1.1108082019916907 -0.5435229803293014 -0.37466328752142997 -0.5240681454651155 -0.7413133134132411 -1.0110691560796565 -0.3888769013022547 0.7920397310921052 -0.05653994009582417 0.11474976121130238 0.04161067766758166 1.1536947857958777 -1.8206181201972567 -0.5599519941755217 1.192129499420522 -1.4249788761570772 0.37622759476634376 1.1148248662948217 -0.4770220865920475 2.3500170024695004 -0.11093788690113 -0.4832851204587109 0.4797490344775718 -0.37106488346914734 -0.9986541781299272 0.789914685519258 -0.966269969437199 -0.8585803284586786 -0.29265110312996373 -0.5693378591107333 -0.1098194875393945 -0.5394228370834229 1.290188538700558 -0.7243952815155883 -0.43872181943716415 0.08598177872648091 0.5759282942133516 0.4543233241291133 0.43079193641406444 0.35947260149167665 -0.2963983970357363 -0.3243514791058767 -0.3721104944077276 0.7027124499554348 -0.4739492195013024 -1.5276064938326641 -0.9030545766391365 0.744397304847332 2.795793725580388 -0.13390137282765227 0.4098737662410247 3.260118500397879 0.3314481440026675 1.0774351559475441 -0.869438276809703 1.3373912878026384 -1.0042919097606158 -0.6047391917707944 0.6049502127118606 -0.990032280928496 -0.5464453231928623 0.8318176218037852 0.5432620728676458 -2.0261047682745534 1.9117807050708533 0.19461743549056593 -1.5300825488629788 1.179044417516402 -0.7118319736993332 -1.422022966186598 0.23359840373272706 1.8475802684892622 -0.4531340954227367 1.5299895417494394 1.5934895685769825 0.923453882806497 -1.010894885899562 0.743079761838495 -0.7600065177734444 -0.08027802882917676 -1.823653775064592 0.5457990131114863 2.302172738665318 -0.5328807519109788 -2.0074449669927708 2.5261938695361765 -0.9355517662237417 1.3665193077666975 -1.305319406671422 0.4870583186782445 -0.569993697112924 -0.2486559721935416 -1.126344097102982 0.7484651673993735 -0.7688608189578733 0.47646312755820786 -0.3251169950755401 -1.1703404771937254 -0.15161383711940726 -0.766128359234502 -0.4432949304797234 -1.2663061856522932 -0.7055110841911851 -0.1511251712195732 -1.0779829056731256 -0.47406670906507387 -0.5656958898880121 1.11015935344062 0.10367150020974779 0.6057783576850729 0.8250818715649427 -0.9097488143136169 0.061651640848161646 -1.1316442808322333 -0.322391533263187 -0.51769168968866 0.7109608061574474 0.40707796054637735 -1.9899550302134201 0.2932613872399004 0.9712137111337295 -0.17467640433708964 -0.5290171266575544 -0.5050197611486252 1.5258104720764485 0.12901137035812152 -1.048526204161137 1.4472045845312467 0.9919985789246518 1.0919357820207607 -1.874708730016818 1.0362986933682778 -1.1918696506833597 0.6552373429539224 1.9633154969060813 1.5144173289602791 -1.397410194457997 -1.0429757094229573 1.4944919532386574 -0.6289375701795301 1.6588444095164296 0.20369161258508506 -0.7500055455963013 0.493805840535957 -1.1200994612014643 -0.12683160327005913 -2.6905388659800367 -0.23759030924244345 -0.3859329392534022 0.6676620265017791 1.3020986372606802 0.9675647214647145 0.8294612479100222 1.552894194893373 1.2315523309903282 -0.9570740993363379 1.811101259751566 0.4758503109742298 0.12523084424063358 -0.8235231192183506 -1.3639206637193229 -0.8772070137069559 -2.1106947347468457 -1.1794031044614355 -0.260197165421514 0.9468550782851684 -0.4695171000222386 -1.251349865232534 
1.786458296761924 0.5209516455255727 0.12074058792355508 -0.5668940464113339 -1.60822019117988 1.3975918973088775 1.4399994176983477 -1.5093853809265774 -0.3368132098821033 -2.1985577008576045 -1.0861510174749383 -0.4402843673612536 -0.9940428226643314 0.09046790936038361 -1.6526989414482602 -0.4016082889581703 0.6298596433208142 -1.4911671010033016 0.06225031015438308 -0.5718268850624488 1.7697250920697785 1.1779486927890286 0.4425628577517674 -0.6170637029569019 1.3951054688282967 -0.02265637049756195 -1.6176392190938829 -1.0874852565419375 1.2951583070895611 -1.4032525126274074 0.6828616866738794 -1.38931424696954 -0.5236359096392279 2.4208559332872395 -0.8743263600068519 0.08680048636670473 1.441535084506357 -1.0399631021175824 0.18479174492063286 -1.1808561390835675 0.35440468933808056 0.703785509921966 -0.050190347765646764 0.1345475340579616 -0.438879392999333 0.6465030648902164 1.9459358849426514 1.0543271351948882 -3.0425440855507095 -0.9760718584640491 -0.12249692550811368 -1.7325504163705054 2.436478996188494 1.2464011317398547 -0.590655122967454 -0.4872277889364344 0.5011393939552868 2.1921113751409633 -0.720418491040011 -0.5606477200573458 0.7670004054703389 0.03397923923184776 0.2161319824973186 -2.7515851399941913 0.5238570054985716 1.3819866478607779 0.16004359392088463 0.25761037853932145 1.5275399054476948 -0.1484617346204783 -0.3164419988841363 -0.9577418907389701 -0.15237144470769096 0.3882428287045697 -1.5440095041347308 0.09667525149972794 -0.5094659705445623 -0.9099139743405597 0.09259808680354263 0.0840602299000299 0.38347744009567203 -1.889110899295013 -0.47624986035993516 0.34298500166623347 0.28886128190555677 -0.08106926609884638 -0.9584391295122906 -0.9417100572697931 -0.13382798261185264 0.7847027256084891 -1.6279883751013493 -2.0552347076340554 0.4507882841338864 0.6116799060407876 -1.2990075267651287 -1.0114659711317835 -1.270192653558101 0.20984936335983426 -0.26101797905232393 -0.03069882561133942 1.4906196370682907 1.5146105014579672 0.411049171545956 0.39971943011113725 0.42652843824212866 -0.36340989374810656 -0.0551215218278077 0.22910609537612603 -2.3453262126152037 -0.5413330416696036 -0.18459159895603003 -0.9011724247791745 1.685434278046495 -0.4570611033697055 2.274827849118663 -1.8916719671503976 0.4558600063131063 -0.5348437370908132 1.4212646302013803 -0.4642105803888265 1.4886915139623333 0.7529580210419357 -0.9426476760530947 -0.3451128427283097 0.4647500859688216 1.558371475818922 -0.047143722184769546 1.7866013718740017 -0.8358062714946891 0.6727985561376175 -1.0186517551290084 -0.43237605666731427 -0.8588306386174966 0.023347908714027407 -0.6426766053961859 -0.8478119973839897 -1.1166262070116078 -0.36393764134373735 0.6958113379494986 0.281632191123882 0.29257555559865717 0.8427748820098004 0.5454532327514773 1.0618461470858958 0.819779434188393 -0.0776351668072244 -2.4150794454893756 0.4284437198176547 -0.6139431299561068 -0.6715164459127679 -1.5027514464391603 0.3155953560737013 1.3030436370983371 -0.6134014552066241 -0.10325518581388209 0.4157723188779571 0.2616503019804888 1.1577375972875668 0.5203544418853358 2.1479222124197417 -0.48760790520761 -0.10423517490593587 1.8942191228123608 -0.6744582379317586 -0.44586348177590557 0.27931961492611024 1.9783589205683698 -1.1838587292751992 0.042210691866330405 -1.3722648832739464 1.6316503561742264 -0.6439357164200912 0.9853742636414408 0.8399548829959796 -1.4892572024557662 1.2140786647289104 -0.3086407192230366 -1.4711743834361501 -0.5514578953944766 0.14321662995795822 -0.5781475139281373 -1.33153563693417 -0.15616734192046675 -0.3357754461764195 0.5241216964094726 0.7891109508577164 -0.7872529694432342 0.6825559464487118 0.3226130805355533 -1.196100858474761 0.4489693709321987 0.9077698885336357 -0.16466311889482008 -1.397063979616074 0.6097996339680695 -0.5888482846540282 -0.4939396183562103 0.6006411749778269 0.47394742280406427 -0.41489962524386087 1.359144438791837 -1.2111588860949543 -1.886461042961226 -2.5260007860634492 -0.565503394354595 0.7381505255556315 0.2326290190684745 0.4509102564295166 -0.5919760307076306 0.0990608293666111 -0.784598007851785 -0.07865423956651557 -0.8577795359569705 0.22059122005183515 -0.6718513733408511 0.1527696322874151 0.11924617179680279 -0.879327134218771 -0.43866142291814253 0.5614699184801948 -1.0770695316075933 0.5480305397269214 0.16094518715533226 0.5044179203014193 0.27232260205384107 -1.6120598975187026 0.891419797825815 0.28185080304657417 -0.5057458218335453 0.5848464340774602 -0.27078978401903653 -0.4717484368613667 -0.7386619430468954 -1.4547465041941832 -0.45586671072739726 -0.949097280400801 -0.45441011730059605 -0.9126938991893084 -0.0020006074099408818 0.9231429091591675 -6.243550823313852E-5 0.719493753831729 0.10134853550881723 0.5886847762146259 0.48070769742908465 0.5769648434496485 -0.7674828813587887 -1.0241232314705222 0.13010822416110326 0.10795403730948391 0.17162124974376525 0.5522424453490347 0.1865006900446703 1.0008346342979024 0.5430612857606218 -1.1657871144364182 -0.3529237308049381 -0.9044804401826951 -1.1338405447870457 0.1909501138855232 -0.6520297532503074 1.2695161536654587 1.5225309360525634 -0.250598466435276 0.879419127095467 -1.9317357513946327 0.2940804606083317 -1.4383189826977676 0.7732026784425151 -0.42005409978410374 -1.459925586870497 -0.26498010463658916 0.8181467557951617 0.3060346501101854 0.09228500378852576 0.9652232547328875 -0.7840957401179879 1.1095728070465378 -1.5937932343520493 0.3086957563015698 1.9566636321097328 1.2920974469553588 0.24489237848858983 -0.3250612138624159 -0.3561448352816684 -0.627972338871127 0.25114443186239993 0.8153836438184487 1.4378056567853656 0.1375673809000492 0.07500113481708814 -0.36642270479385525 -0.40053178828355834 -0.9855834663017561 -0.06350214963937352 1.3842113036340118 1.710759948146973 -0.3674868112973683 -0.47184782145242754 0.8737749389659242 1.0355933171492981 0.07594499672778043 1.4109154353913917 -0.7507944499505742 -0.37531887738656944 0.7770505613006807 2.084745047340684 2.167589007298597 -0.19510696592475807 0.4901484111319209 -0.5855319744433564 2.486848414654796 -0.45080948734215986 1.1338418815364586 0.7739620974868988 0.04739993042257634 0.5562089169452219 0.2672459928505803 0.8672014163801501 -1.7058262124207275 0.11978690500792538 0.9311882923594342 1.4738266683632577 0.6153497438978989 -1.7741985249597212 0.5176797662799123 -1.0445947468484627 1.236102360144556 1.1316514315117618 -0.28322165975884495 0.4990802638795795 -1.5638962717232574 -1.1162089126558477 0.0017016955255298772 0.750892909367912 -1.3358856952741311 -0.05876756680350016 0.9737148658958514 0.33562057830043573 0.9660056678496955 -0.9434375761769346 -0.9317616612361531 0.06462696876585342 -0.34354949379897515 -1.276806792706931 0.6059715233923607 -0.2642346711811807 -0.3782596416928192 -1.321797484211937 -1.018278981929532 0.7111920156019025 -0.08119339020974975 0.28956478600986224 0.9495268806189225 2.975176539737764 -0.17248918857272266 1.6915578201953498 -0.10024515786025523 -0.6064493783583302 0.7344159515127929 -3.2556501016273534 0.58112589879962 0.7558245273865891 -0.33510431815443875 0.2310094339395529 0.8340791919570338 0.5772924263714214 -1.5147452725552069 -0.03545567050565157 -0.8952821852131767 -0.672301625722055 0.8242508846526042 1.8679503575374559 0.701009817307172 0.9165962728370822 0.8110257211842019 0.1428895155535607 -0.34044932196276695 1.0641374601490659 -0.09553578886992192 -0.5655238529974088 -0.16831013147687138 0.3185824680424897 1.52769234491639 -0.44643339339508814 -0.38478551485244644 1.0346987699059407 0.8473914965721698 -1.1982632968287739 -0.6371415008313349 -1.0004215340267382 0.30558449195401 -0.6817504942442407 0.8318950691975924 -0.7283208088625623 0.48552928586699867 -0.35465324926987957 1.8899334131664371 0.7687878532313271 0.8980875090778667 -0.4496872083635357 -0.09161137174774002 0.9107478756509929 0.226268722683551 0.8161031402715296 0.9447652199936296 -2.5004901078604167 -0.14719913301203677 -0.03771606689679627 0.624675568672949 0.8581494085586219 -0.34655482900913587 -0.025630236926352138 -0.04536059669305748 -0.4206369784650846 0.8350754105807705 0.34584060404873 0.04575467788868567 0.8515946965092488 -0.23441959488196207 -0.5545624796377293 -1.5903350413379915 0.02293408650641464 0.07375911719013496 0.4367338920252579 -0.646687370135975 1.6542721907930944 -0.3885990750970423 -1.0189948303740943 0.4959248199288908 -0.9148004242375373 1.1384301059138124 0.335231881961503 -0.17508063963548004 0.3361285070191065 0.44180835375164473 0.1867497829848611 -0.01925974827618028 0.37896415561711666 -0.4587485187761756 -0.37593094775528807 -0.7264778083526584 0.9912662124256761 -0.023462292496346928 -0.2094408760345984 -0.15827771778323665 -0.021183535892691993 0.044039609416783934 -0.9593740346615317 -1.8193998932258566 -0.4316537826060005 1.4684013873729111 -0.2299212221024768 0.12251251568589318 0.5121563502472487 -0.5511397286079808 0.026789669375750162 -2.2374007622704846 -0.10136661945795022 -0.274189295302729 0.30705144930979944 0.6700987717691039 -0.1637840136596243 2.490608895968774 0.563633720962385 -0.20229348586517396 -0.8899488789054377 -2.9036506255390937 -0.7429391292611368 -0.0074491239256216195 -0.6724016870157802 1.9289184904475805 -0.6753689365188258 0.8467638135227493 0.5204563955185729 -0.7972996991089989 1.5283467420228543 -1.0877613883964652 -1.0051188556000532 -0.8684095443242426 -0.4772268023605682 -2.2197504437057143 0.39683874649618395 0.2781290141001075 0.49843462519641324 0.23605194238545826 -0.41324091957555525 -1.61001142739226 -0.43949958624314633 0.14466992758118816 0.5573745927119784 -1.5831320739428703 -0.06306013736008462 0.6319654797100089 0.9045397129892336 -1.6373285450631645 -0.03195984269714475 0.9183534901752992 0.28446909017926675 -0.5151373317188332 -0.9446633234310619 0.4842405032450384 -0.5010257654137401 0.1770418656247808 0.2444000486198513 0.11260339882385366 -0.7906365220837509 -0.7253285653677043 -0.7677556214496801 -2.829049157160048 0.6703449157687351 0.07157842541577193 0.3853302561647559 -1.0938477692173856 -0.5342499748762586 0.47347747672935275 2.1382232084666564 1.4022149535624058 -0.9747837897858485 -0.560039162303266 1.1978837198540888 -0.9142578582966125 0.4167538320525102 0.9373583910765908 1.0173240777029973 -1.6859270015414474 -0.8397517727020638 -0.6707325552924905 -0.20945553083078086 -0.2783389804968881 -0.12268968504705283 -1.4254210833713494 1.1558572463718655 -0.4269833532083801 0.2017917365810605 0.41115081449110946 0.4411876895915583 -0.13374802615330958 0.7373878799972245 0.38023988853408686 -0.03363872770723663 -1.3086683665051622 0.5780343847348742 0.011329137491761123 0.5334711298647438 0.4684934850449944 -0.37785917899272475 1.2599066139015718 1.3086167868949683 -0.033037116870087764 -1.1021996655923636 0.5639100435945336 -0.10672382736951538 -0.7714950663176511 -1.1467407230780342 -0.3648946379624307 1.5146881702108144 0.7360714298867088 0.890554797411377 1.154747813033369 0.28418891666710666 -1.3461737314769064 0.33003891744931674 1.2033801513425562 0.8419712207073954 -0.08321287257127226 0.22725837341051808 -0.49468168814704305 -0.11595650098417648 -0.3616583150994995 1.5386044439405295 -0.8826383546805748 -1.3059615409073309 -0.3753083776393166 -0.5461617616951514 0.6239025950850112 -0.08550731701509984 1.0242581612885 -0.644674720272833 -0.8253728735074279 0.8493421258089936 2.1361115453691015 -1.3957126571988816 -1.0240313017029095 -0.4289077785297705 2.481245818017958 -0.0468779863508629 -0.6579362452281465 0.9925283679391953 -1.1765135635050032 -0.09799048897753912 0.9148281757119437 1.6351781610913705 0.5961689880578602 1.7507952962968705 1.1565106577754865 1.1378289270329789 2.3903268209531023 0.028267122888977373 0.06509855450773187 0.18098246236077156 0.4466726622248255 1.4890056650905494 -0.20705053661383546 -0.5197513992014836 -0.07265897182968356 0.32072992000755235 0.9004328245203748 -1.8495231023208518 1.5835541909645596 2.0266077538112883 0.382808691103268 0.0014724075060504166 1.027426751907196 0.3985446384788059 -0.8426394817196532 -0.09249911711666552 1.8359092737851317 -0.21947759977695613 1.332062113485893 0.3417586272534271 0.14735354528275418 2.750764010486278 0.8333771156381757 0.662962553869184 2.161520647633569 -1.4074128527638536 0.4958155107640827 0.12914263689668018 1.4193531013869238 1.0218328193338884 1.0981793028428235 0.2828451403385908 -0.5398105805207887 -2.6309333459194826 0.10308895864258377 -0.16695082869195765 0.5411820679999565 0.8020903015973956 -0.17172370573805204 -0.9960545544266678 2.394205974141971 -1.1099382003365326 -0.03191335604731969 -0.6972406378296072 -1.8366351476829432 0.902399266133545 0.5192530406570443 -0.24531846998544796 1.0607038429705147 -0.4321167609764734 0.7940433856795668 -0.08126672258354556 -0.8535387610566083 -0.567633581219944 0.8365113739413675 -0.699479939186946 0.6370554131716857 0.40713148182536435 -0.5100125704699587 -0.28399961039559535 -0.46703466479364025 0.06180698445552402 -0.4312486624060627 0.5286642119377379 0.044159060551380594 0.15369693394491557 0.3864735779536037 0.20302785594614542 -1.4041374638363067 -0.8596844730114962 -0.6895922927521952 -0.09307987093208293 1.1509299972826623 -1.421935398656069 -0.3941293549289404 -1.257793030621205 0.5282323546103495 0.24319588275371967 -1.4475015119981076 -1.073368271927125 0.9776490221132199 1.1861144868184066 1.1852501595195464 1.036956809400873 1.3167164611841515 0.34264036763894207 -0.3988131064751509 1.515222743208813 -0.36793721856174094 -0.8082921904526131 -0.7162006284867185 -0.5156455122578678 0.5917251902147259 1.1861187892151968 0.76913324675619 -0.6424714083142832 0.35091600744078244 -0.06058176792323085 -0.7904041387588474 0.06938416978098186 0.9198464446034023 0.8825741569979619 -0.5041874173628976 0.3539530799112877 -0.5969631305606347 -2.653167131442313 0.04116979198531221 -0.7032764474029245 -1.3352569971512442 2.302025030339432 1.4446741076008582 0.02625375953318716 -0.6706308468610648 -1.2024022785232218 -1.6540509927307752 -1.3977795269297961 1.3234342157753116 1.5184792513696534 -0.2873722521304391 0.6231184653124238 0.6480750407732917 -0.5580595464453125 -1.1807838881591983 -1.281959355454138 1.058929726722568 0.17936249922045655 -1.6512087636063044 0.054054364658374925 -1.4770456054191987 -0.32074597439401914 -1.22774328282132 -0.30856546077916064 -0.6517597840611916 1.2633569809853358 -0.8223177377500945 1.0011834769105246 -0.060320380840344835 0.9829272038227851 -1.314746166985808 -0.027847034953609063 -0.992674971596904 1.7573318692337876 -1.3411462850608165 -1.177392335480509 -2.0921810138908454 -0.26325039935750155 -0.2910089966919928 -1.4307261426072664 -0.20827046136102284 0.7587213834719164 1.6255314837030408 2.8632893373677177 -1.0673191119122234 0.5946663830438673 0.047768050896351444 -1.0029219265423726 1.9348760108232022 1.5364792923021184 1.7344910625249135 0.43769069242386105 0.10861762454069585 0.26472020400881097 0.876134783411915 -0.550888497650343 0.0938490485484993 -0.7580947970519185 -0.375461359598909 2.242971167290011 -0.6781447390748329 -0.9624967308843395 0.7521198604088698 -1.1840679298023382 1.8684684970708758 0.1262820549177578 -0.3172774590152425 1.8483281444248196 1.7819198287270943 -0.3031873702774305 0.8487204794245076 0.49712317615779733 -0.9817461785958781 -0.5421352241093379 -1.3501609633662701 
1.4726926314743503 -0.8264171644241872 -0.4547877526103104 0.29783978882622497 -0.6107803553179596 0.7160533233679178 -1.8745839585173076 -0.3453684508776679 0.35381884535828517 -0.49624980465844404 0.1351967059397013 1.1444369748149237 0.5168057745016964 -1.038680272230401 -0.32487118154609745 0.5688580732907931 -0.09152127413494009 -0.250607540682909 1.057787266474912 -1.0885326110443383 -0.1928064869437174 -1.2890237932141426 -0.7065675696772811 2.0094474038683656 -0.5485795024491656 -1.1440863253952882 2.2909193959843486 0.9588614522803057 -1.4299965136022164 -1.409579034958024 -2.42921068746567 1.6464198694871408 0.32476229964983416 0.3882067558258682 0.02408366340468346 2.0201607527381036 -0.31185900394424315 0.3935730572792351 -0.6598828386200406 0.9437431163730572 1.5531615336988989 -1.35298758357249 0.5893495500343332 -0.8773721354769914 1.1637650374006618 1.2391405066543597 -0.5449860255181004 0.467551075989261 -0.4966205797218757 -0.8827745338813245 -0.06404810284660152 0.13053624080656775 0.19350177926138573 0.4646103585315574 -0.10353284561359025 0.8346005590273569 1.3989018636017023 1.0245462312302613 2.0223980746635415 -0.3431109080426604 -0.5141652205045216 1.347218648407963 -0.11853498997621008 -0.8684760875823934 0.5688691953632433 0.9500989074286892 -0.23069224294106222 -1.2378932477680709 1.6207652978056617 0.39867357851271307 -1.601796631411458 -0.2887493744989711 -0.18776254074530493 0.2279543907987655 0.27969936074358787 0.9410627848482028 0.8020530844405395 -0.5151386379706335 -0.4972489283636497 -0.8806236033574827 1.655193386045373 -1.3751805699956718 -1.4647024376681665 0.44984338094396165 0.13083961587868198 -0.6549672384723478 -0.6582732910565077 0.8624527074268542 -1.1418462665190017 -0.30004988550359457 1.8046491861787146 -1.3432321457366498 -0.26825282167559483 0.9228940643859299 -0.7495453600792621 0.12278424008758125 -0.4622067644411134 -0.5330134263921985 -0.9373671429973374 -0.35451291221867154 -0.3496210204488612 -0.3263858989092647 -2.289202549867216 -0.9440211936151813 -0.1959535635033636 -1.2430223391490989 -0.09581743344722016 -0.9082341349437556 -0.47086004210103105 0.8310336826240478 -0.9559376302882052 -2.1998602606822057 -0.03735937528264568 1.1357645824588596 -1.6989717719707502 0.2289326781951895 0.1380285874301113 -0.012523746450639545 0.21338347098674854 -0.195393614422616 -0.2196037732334531 -0.02800961385707508 0.4357963436367066 1.7214525365507267 -0.6272125063543004 0.08860807365400045 0.6762552614554929 0.10915129957319114 2.2816694077994817 0.3479299018794846 -0.6265715842562972 0.3942831193946788 0.13815792154504752 1.364448618117421 0.04781268782886422 -9.625759119743153E-5 0.20937366151194156 0.6462688797561561 -0.7600694535354301 1.0605914955577267 0.9425187447275277 -1.451966569008279 -0.7637879589297497 0.32622843779413413 0.9056074887625349 -1.3173266277516134 -0.4843085784445149 0.04901754496627373 0.3432980998209332 0.24925634329507007 0.7124059228620746 0.8534437008888693 0.18579115877875566 1.0201708925434299 -1.9766439853926883 0.9999923733345466 0.809723155544075 0.8373171490751492 0.09972820652509709 -0.2207227603273461 -0.8521078256446991 -0.054350147092902264 -0.03163000218372343 -0.0983823018963964 -0.5493635584188212 -2.5429150960268596 -1.5716541553527266 -0.31875115736710613 -1.2372205539850543 -0.772999816789726 -0.7467617388072632 -0.5786365156648771 0.18984239875577674 1.3891211634859109 0.4234085041319582 0.42368832293173503 -0.9632902800206501 2.037611384997023 0.2817037187500911 -1.0032316458581714 0.5732483532076441 -0.8217305190366713 -2.9744038667050616 1.0303351083967174 0.6076290880216757 0.3930339723309279 -0.2358548292265062 1.7746771514875272 1.2111295712961374 -1.6130732288755887 -1.2092541063619113 -0.5388268570430313 0.13044714313083552 -1.4428578534270886 0.5195147547398697 -0.5257090770598982 0.7372201225102661 0.9031100031033265 -0.8555432950459838 -0.21036939336003266 0.3271080813704482 -0.44518560471308205 0.5030655242314287 -1.3159715583665161 -0.9817962843308198 -0.12431168999728534 -0.49209415112649196 -0.2519651018698489 -1.1993375645641375 1.3349167302936749 -1.1034593707146876 -0.5198819520968332 -0.7006309392576595 -0.7608258354827011 -0.1529751240827625 -1.9644369599087523 1.2879352132057338 -1.241881293294471 -0.11910486961015274 0.1385495453081596 -0.10378968855456196 1.010856117228586 -0.6421091223138407 -0.2200681477689998 0.5301211037416096 0.1399069512343492 -0.056281325091973824 -0.2668229484723167 -0.6337245179593997 -0.6484316110943112 -0.858657059613341 -0.5318518794662742 0.18371083328035384 1.0330904034284762 -1.6078817547010138 -0.010057625896348222 0.14948439368354322 0.5721595276538165 0.011553148468320349 -1.8822271048328358 0.0715266117243246 -1.103615845034907 1.4106690513887021 0.41658228759467336 0.323377295688373 0.39288039506007416 0.9122808912239787 0.5512508702905827 2.3035731199384966 -1.2381364841390994 -2.749552879568477 0.13120938121002923 -0.20373105055646068 0.5731059902528532 -0.8031593441683621 2.818632155631601 -0.7360041882736058 0.3467524205313185 -1.9230086891550988 0.5358265903769007 0.10677303161317664 -2.357735803040762 -2.167918688932032 -0.794748470722236 -0.772656530511685 0.5005344049608459 -1.008274906263931 -0.49267835170433516 0.6236387178182343 -0.6280230391250381 -0.1670747719724837 -0.06168888819026685 -0.9658959502642399 1.7805322540244335 0.6371250115800741 1.5657706921911543 0.388300097222163 -1.1534542246056805 -0.5553496453051376 0.991512816788887 -1.183450575245808 -0.2430719560535869 2.4219788719780166 -1.7481267129825777 -0.9400172739475454 -0.6463195469130475 0.4018776793813976 0.5619096698244057 0.6485149572677449 -0.19771875580102474 0.48834772162728274 1.1280210257854881 1.1375505020525214 0.030565442884237078 -0.3576538490551104 1.0481190228222685 -1.3660904220086607 0.9785372913758613 0.9635473085809323 0.6084523523158031 -0.05904519848175742 0.18671892812326527 0.5029781474864717 -0.2664423880872597 -0.08220098844026391 -0.4382427354188558 0.21580416407438616 -0.23366570743290418 0.42048111344909317 -1.401078591493659 0.0757416267358535 -0.026221987788136194 0.6664199765430725 0.5596417276290876 -0.6214913302566818 -1.8289373251384824 -1.9751954715387505 0.22324126120082166 1.9921266544220095 -1.0769130993393519 -0.907132944734231 -0.7665663419562739 -0.07880974532581603 -2.261572826993845 -1.101062541732199 -0.006781245220075998 -0.5660192033587853 0.9081897727601422 -1.0821566454337763 0.8857561483489964 -1.705548830682912 0.44300912875121645 0.035034268050409496 1.0443281870670795 -1.6206951747933134 1.4058918439822305 0.9658064955698764 0.524793097439803 -0.8787822358407478 1.1914790052319877 1.1323184819168772 -0.8837010898782456 -0.04790603088594572 -1.4254995146453753 -0.17000444836506987 1.583161403786209 -0.265111298695227 0.3698679707344795 -0.04772620295794602 -0.3696967419217975 0.6896470447231436 -0.2308670568168898 0.13331758280667494 -0.24897187565226792 -0.823221260400177 1.060096710796332 0.040111862945334587 -0.9274965619065091 0.5547025814019835 0.4045377664592352 -2.0564076517104835 0.30747019499490336 -0.32069951883411885 -0.030390548767516228 1.1201473384787906 0.4257072154995304 0.08570312172436766 1.8273799796692396 -0.0836340385546785 -1.1091772639310393 2.601995169701202 -0.4171398326791959 -0.6725208631776298 -0.9928499267904307 0.8449912274248842 -0.5182616218729895 -1.5712347751791358 -1.687456522507504 -2.191739426504795 -2.584916594333347 -1.6927454795921257 -0.40340418141455453 0.4876103848261153 -0.4513107210098517 -0.5206232948198889 -0.49388292170841414 -1.0628544284360881 -2.1338811855145035 1.7747697455655496 0.943327563918556 -1.5697655101084915 0.6061561191262219 -0.14534112923910528 -0.9485525059742681 0.10002905982435442 0.3361672419463531 0.7391269432910005 0.21859336371213936 0.4817263828740152 -0.9657551815910042 1.6732198827578681 -0.6864225065238062 -0.2609816031438538 1.9813304480004483 2.8556614362814785 0.4723874718999367 -0.4692639708779701 -0.11303077808301872 -2.2991383315328475 0.4581439946010167 0.753094203095828 1.5556164830814105 -1.2223183315092658 0.5927765952943083 0.045794763339204195 -0.8739310084382804 -0.21105104980836872 -1.7584469902320412 0.07632705219166915 0.41184417046929944 -0.3304692809892421 -0.6190020849770786 0.38690557391352054 -0.7280267026186916 -1.916935764869116 0.8912647703868263 0.7403836966639268 1.5300977258354316 0.7856210006389915 -1.071288184497648 0.776249203073436 -0.4754399884906926 -1.6348964118398008 -0.04561225945804691 -1.5683922508253059 -0.05014763778596617 -0.07486990248055862 0.5325570776750211 -0.6240955295173393 0.8341007292018573 0.5592546364204529 -0.5049235289610301 -0.24166149405025397 0.2932353218715823 1.1113018347540737 0.5688463260701853 -0.003769892982266301 0.17693231006398932 1.7001616372844819 -1.163776483307142 0.0619884381036624 0.3826970664812989 -1.294334613085004 0.26750261779838563 -1.4732162629461463 2.6501158982222246 1.0915519760980816 -1.0487948781423786 -2.3628665376888778 0.10140012071517611 0.17054618023195348 -1.4786988913194155 0.5313841650701193 0.09216756932594558 -0.3950461248011454 0.6858862476402019 -0.5560026793333126 1.147489106976009 -0.6054051001758319 0.5217826950062218 1.404956481798163 -0.07653657214711983 0.13778686875183907 -0.09303012290066562 -0.15742042216802093 -0.013729654334808087 -0.09392121474828521 0.9497825150948989 0.9445308399594281 -0.2265570557446516 -0.009365739103767827 0.26350832260920953 2.132493462753139 -1.566805093701837 -0.6813059438950292 -0.36655947290652907 0.4541198416234327 0.2123178849103957 -0.38538108967547113 -0.5838285953304039 -1.8385921791662132 -2.196297495974954 -0.6579956251814519 2.550246963668418 0.9501489485388236 -1.3788510900267175 -0.5073880867343064 0.7462792740110774 0.3347138293843095 -1.9506661004493697 -0.7394821336178573 -1.1542267060289246 1.2199466526603584 1.2122165365298967 -0.6820708055601155 0.0364243346787575 0.5021087975820161 0.5851440715321241 -0.2271795288868089 -0.6122261303202088 0.12173776633257789 0.6442497252697512 0.08375622384461658 -0.05045429151410291 0.17108268109251287 0.3467359492502616 -0.3108885136246324 0.3533048096429658 0.7375876621362589 0.33713691381674477 -0.8936028842865021 -0.745295772015882 -0.7770560415741345 0.8937607596143218 -0.21171924618106328 1.68825046950102 -0.2394259636263882 -0.9630662609719627 -2.643834819404662 0.4567544931691989 -0.017529521416169393 -0.34060200015079956 0.04034616115605372 -0.7492190143155629 -0.06213410828305861 -0.9867933355385339 -0.20826536363893416 0.673085675727738 -0.4406013861742346 -1.081073612608145 0.974183810621206 -1.100842261605091 0.3808855662744226 -1.9107719200245783 0.26945814899592135 -0.1736365660045305 1.5880036108759157 -0.6419989716358405 -0.33656673627215944 0.7486953867560174 0.9428142663988837 -1.802360463979117 -0.2944737523746382 -0.8552126443727784 -0.4769686286336973 -0.4149439455112004 -1.2167417749855332 0.07647702550257651 -1.2982375391080796 -0.4480859072124929 0.4305163601989245 -0.22850453686011213 -2.339014624288922 1.3760944709616116 0.7628489966231535 0.23867611276665207 -0.1289141284413498 0.45205507311515125 0.6249556997662855 -1.3560728974864649 -0.5106389996676016 -1.5738805579332373 0.9729472237477125 3.132254011964376 -1.3977818548077037 -1.4033573295425485 0.6183740999903067 0.8339289333620364 0.3422662225946727 0.232419560091937 0.576426559513792 -0.24220322300120717 0.20151687047765898 -0.14337324006793836 -0.807179762449208 0.050590488292898424 0.793917688072009 -2.3177178340094464 0.13781663563733634 -1.3265745519810586 -1.6833155094987555 -0.6454528117618006 -0.6983892039019388 0.17661732062272106 -0.32345175066239173 -2.985248900160111 -0.07930758630278253 0.5423657442391281 1.0607124029498503 0.38681212679163174 -0.8610292995251849 0.2761091380844678 -0.05278565118087718 0.7913408917575925 -0.6673232978133739 -0.1422772423099632 -0.24736243387603246 0.6106852229177919 0.9673132350354998 -0.6552519997852064 0.7772804831529228 0.4776134900933665 1.0248728436475953 0.20879227266147343 1.7625212604730562 -1.3882849929584489 0.21412716304879773 -0.5523615050073379 -1.704787756245499 -0.9754534929121743 -0.22783077187676157 0.44722144895066984 0.12065492590288178 0.5967763164054241 -0.8249876506612067 -0.1953850331838161 0.9802945234283967 -0.2549438816666088 -0.4246483959544668 -1.979041056533018 -0.3945380541621758 -0.6075018030134384 -0.4126735398977902 0.08171328613714267 -0.9793636386473037 -0.009826969699867658 -0.03164449596835451 0.03722049233759437 -1.1255497369748229 0.9356223404803068 -2.4466286253475706 -1.1899850210117975 -1.3337455590497975 2.0776485059122485 -0.41190446633601724 0.6071154377194671 -1.1369468971741743 0.636606980392754 0.7786015722928666 0.15798970056389539 -0.539387431157398 -1.175391515123486 -0.8476652577924568 -0.7945998356519911 -2.0924806832481067 0.14130382681416104 0.7404813407687834 -0.32051606693391094 1.2264028013478672 1.2519873773839798 -0.6179587526983553 -0.2096150589231513 0.06680194421758243 0.9598600553494323 1.3699407478420564 0.15500396444526077 0.5098975096783963 0.10744201981829694 0.40735207261528567 -1.1021524957836677 -1.1979433537119877 0.10628571747523265 -1.876131073066317 -2.1180409920181553 -0.046312712605110135 0.43218997555937966 2.1852425265863085 -0.8857773276340416 -1.106260428934396 0.5283779254738332 0.05739787091740819 -0.47420869638550645 -0.1917484873612682 0.512652019427075 0.5834885517412673 -0.002339793124009268 -1.3192472296524105 -1.8411090124987464 1.0864788835316421 -0.7597685623074327 1.0650246066571947 0.13060768086235355 1.4498265597632296 0.8783975525169553 -0.14195153062879173 -0.2238343824191387 1.7090209008328363 -0.4457466812851543 1.571491504829351 -0.02210613802372241 -0.6498877682489859 1.3286696012647026 -0.2830442593316337 1.3778724255083579 0.8010763642272709 0.14397319803068495 -0.5336847205487756 -0.7414442217598367 -0.02620697615765495 0.3890857986889552 0.01786127660147517 -0.9005678033880107 -0.36878916105475745 -1.732983105581034 -0.9310808899836377 0.7725408928379179 0.5824277996226233 0.12585200508727096 -1.0282165561159284 -0.39115702870853347 -1.0040542143721842 0.20562953883865806 -1.910930419816414 0.3388070044580895 -1.7250234710743477 0.3399226131200532 -0.7160690570557118 0.42723323388835677 0.02901144605813319 -1.6975367936809589 -1.2100822733907117 0.1688216717353876 -0.05251979593720301 -0.7933884281554171 -0.19079858555795254 0.8306184191074131 -1.2829734021550454 0.09959085912563673 -0.6291863194679318 0.0658604659130935 0.9724516690688929 0.3058440395660495 -0.5285438797652413 -1.4867978534903759 -2.3030298735276076 1.130147906988128 -1.3595055581843272 2.056473198105855 -0.9967959744986584 0.6036065457451114 -1.058382951268336 -1.7179624336275507 -0.12959503465199992 0.722080497574054 0.6353545116570689 -1.0073200705900276 1.2550148454430516 -0.7030917987111636 0.6494335981681392 -1.3524902478734535 -1.3761547635939604 -0.19221659750492773 -0.5605813507199393 -0.6981293940957506 -0.8188022481844431 -0.7902013137561177 0.4613994694931862 1.0858204952770876 0.03961787724534768 -0.6116873983712693 -2.195015715954093 0.8994460235400221 -1.089574715332235 -0.31615783342263626 -0.16208864426239222 0.5696159075982948 0.30151750454859394 -1.1241965286171198 -2.614194302763025 0.8718491081955706 0.0056088715227558305 0.6744147991326459 -1.5739099983191858 -1.222952751816733 
0.021408306994287814 -0.8830067450906576 0.5990697460458562 1.3221171766969224 1.2929801968535029 -0.6759374142635074 -2.9463086945121417 -1.464376328022443 -0.4990154080596402 0.6737985605367002 2.252459579442956 1.3148550457599846 1.8437337116881158 -0.7693188548441816 -0.6789999770067016 -1.9039992955641412 0.8342732368922533 1.5085064220326672 -0.7123220256029059 -1.1491676421459252 0.18407939586110042 1.1498921206965909 0.0402143685856971 -0.7519413009089183 0.15112111616083498 -0.9293953429286638 0.9821395064141925 0.20972925777369233 -0.6582106224812095 1.1883120701909855 -2.1750568537978956 -0.5086648356848054 -1.2837215519225915 1.4214353524358463 1.0644692605023216 -1.4976991678079072 -0.734036461476152 -1.0397970531676708 -0.46750311223928287 -1.4136494725574855 1.054102600982578 0.3058463970860115 -1.4570515041591239 0.6209366809415031 0.048671317842051684 -0.04671605186135168 0.962844899905308 -0.8642508065999175 -1.0042369728615697 0.04608498570097867 0.5299748638614092 0.34971806842594716 0.3891101107233004 -0.7942350836086511 -1.0030245096546235 -1.2667401675552552 0.30995321649675506 0.5610611941773083 0.06860782153881397 0.7144902078120694 -0.3686386316253948 1.763421031072456 -0.5762384882564158 0.5667464816883964 -1.002120431148215 0.7204542328101103 -0.15292212402896657 -0.9726678309285834 1.9831940449465715 0.13051149542175078 -0.1170412210139058 -0.7530583827661639 -1.0403709882668488 1.7010788211732935 1.6035771400318435 0.2671736637813875 0.5578586472715943 -0.6795409219855237 0.23784372983963395 -0.7342038524169102 0.48651935103200505 -1.3969799619214853 0.3465664205150094 1.7364442174526087 -0.4796601718026228 -1.2405594965014706 -0.8478569627700062 0.5406800091610894 0.6742672415883401 0.5372920972813122 0.6597315881168263 -0.18124038835279058 -0.9333546545194096 0.2637339061988487 -0.10169490940175174 0.4487343248275631 -0.5518014202794006 0.04314050207319947 -0.19542976823656913 0.04296066569473832 0.5871078093726613 0.8104911825544862 0.07023835153716738 0.6309896507972683 0.016869922590702444 0.10754791090496967 0.4960703244024901 0.8912089724388368 -1.0924507706146702 -0.45904020636775184 0.9311297977590091 0.9608435656632776 0.9577587706829844 -0.3068732472602598 1.7855929266924566 0.962409589333384 0.8603949000744342 -0.2031492487936061 0.2430643540465261 -0.5376157203126155 -0.7714704350094533 0.6528029307215083 -0.05648925331113828 0.2323560396138329 -0.043453855904738235 -0.8551624981792841 -0.36482016901750486 -0.03589510033230037 -0.8362631333695025 0.2710175598094322 -0.2622580450319296 0.3917865546517615 0.7809720943994947 -1.5684796772519494 -0.48139873844017816 -0.49180125266172114 0.783603597690871 0.7622372053788512 -0.6300604643171809 0.7329937493188851 0.8602521319702148 1.1034545253381594 1.1461385595103692 1.5124673567849234 -0.6558697088309764 -0.16211247835601494 -0.7966022921104807 -0.24393891546829158 -0.42061705068426136 -0.4143737976280992 1.8429033672956823 0.6144500510539136 -0.11215325260711421 1.3681062408495528 -0.7861208651287005 0.6272740227461502 0.1514849006094316 -1.0921588614490036 1.2265000366794716 -1.3062164481532856 1.20954270146022 0.39234475917694195 -1.1579620334732874 0.08215879631590783 -0.6535840620103021 -1.5385256153441016 -0.04369217329309214 -0.2662006500240713 -1.1175190784584932 0.05271379097595758 -0.7227841970728031 -0.8948499562834635 -1.0494894928920038 -0.8325155325938187 0.35573048337798224 -2.098009037207668 -2.2767877273337476 1.06662106232497 -2.0977402729780406 0.5800942989731834 -1.141711503303769 -1.1023593690762699 -1.3903400986928147 -0.6851360763290562 -1.7070942346081304 -1.4142530267558213 0.15820899687059747 -0.42828455227403567 -0.9706098144666256 -0.9244006931801693 -0.8107880439639068 -1.5668061482033149 -0.2523212586232159 -1.6981637890182146 -0.02746323776866025 -0.573964618180634 0.6634137558927407 -0.790561563844849 1.8575909055268038 -1.1773237152308837 0.9297831338744668 0.1480151021493947 0.7042627749805628 0.5378090464028764 -0.4729990956001227 -1.2077779941876532 -1.0039803379549033 0.5475742964040453 -1.689275714585981 1.4387218467470353 0.9497356465255297 0.4805484918732859 -0.9761441037136083 -1.148604456765939 -1.353103355837873 0.5766323532602777 -0.8662115645323702 -0.2576348757955227 -0.4820038512085408 0.28661740244510553 -0.9031205871998942 -1.9284957405706995 -0.038968767497640944 -0.23705040243935604 2.616240001971415 -1.4095098834289788 1.1017631954264513 0.9407945869055018 0.3713604221687262 -0.23186562712786984 -0.12130426262038507 0.041528546809089587 0.9032218456208079 -0.27046824257122165 -1.9239409314357923 0.39607115356539946 -1.6761351159478992 -1.2507055899779753 -0.7796577069412806 -0.2813749130477185 1.1675985152340274 -0.1452068955808805 0.8118534663796442 -0.9402799160159565 0.4909083872175838 -0.2324788169084596 0.08903663156796361 1.1098915415960735 -1.0302802432041582 -1.2813989404773276 -0.030028125532234187 0.8989877450912686 0.7778580042325596 -0.3598556544404646 -1.0664088616513057 1.7032079232835637 -1.0452735109846922 0.3481516846653313 -0.6892370446928998 -0.20595798571553706 -0.6263910802579075 -0.7933657636034447 0.13257490588535187 1.6290911605528393 0.8994472026779189 -0.1135505247758322 1.7017716498766309 2.5491379026641963 -0.5951035997471292 0.7910131349534966 -0.6125929594931308 -0.5488432215781327 -1.3448497978555154 1.0768238474968954 -1.828961579917749 0.6454443892728415 -0.22983203010083486 0.3517694553083309 0.4426960064314787 -0.008681875612407528 1.1705989024161143 0.9296329595398349 -1.283590351856972 1.1807717021920172 1.0381457190476353 -0.7094439242145489 -0.5303232552541506 -0.43240275671915307 -0.28940381885540184 -1.0576008612035375 0.3938352840564643 0.5116828231380499 0.08187647993624554 -1.0685107651037973 -0.9636666344038708 -0.6557453714822042 -0.5031309947248707 -1.1909585377877996 -1.944495346485648 1.2059131112240655 0.5437069047240245 0.44137451292218255 0.6240635722297012 -0.9418141904206567 0.004805017191081691 0.869752170844693 -0.44362209794874646 0.20965612975884265 -0.4785115139458322 0.9336738178048931 -1.2997412577675294 -0.3932801713286273 0.6026913110548638 -1.7642850537575852 2.2540161436309596 -0.29456871088916703 0.25826763783674606 0.0587169422347862 -0.6321186707011112 -1.2870399799804917 -0.40346786762709524 -0.4513807260468907 -0.5686252471160053 -0.674486388801986 0.8819666756795668 -1.0356155154853328 -0.5511247741584495 -1.3368663106425998 0.3547764884620207 -0.6505525866082759 -0.4869298188834988 -1.3054629501327595 -1.086985807631685 -0.8834296840210267 -0.42734910106077434 0.6495127516092277 0.6848944393764946 0.5607817836533299 0.5318492949292853 -0.5771288381045819 -0.5565151043945381 0.8781947266336895 -1.385129004441799 -0.21653103309583743 -0.052007552793592995 -0.16418694627345495 0.41646849410922215 0.21356219540842042 -0.8816344697963344 -0.32247525940552474 1.5442066349283439 0.12205593083455633 -0.7283486420578088 1.0983853240019112 2.1811481721334314 0.2915315761298632 0.45514058470869656 0.9664074107444751 -0.8831922880839804 0.19084030569477262 0.15360844091885056 0.017062806598226243 -0.7918271404293004 -1.0470451656987638 -1.444673121984326 -1.0695881998214927 -0.8716714986596851 0.13464911733114404 1.4572298967303126 -1.2832254611718892 -0.18252868170923087 -0.6545123975938227 0.8292227357007109 1.398848426283483 1.3447148702981546 0.17537486506311886 -0.9103772955229408 0.4971157478798535 2.2118488117948023 -1.7508731923157175 -1.3877122150679067 -0.668533875658248 -0.5058430482864156 0.0068153926362986405 -0.17936590674944408 1.2859163842221155 -0.7529361926217967 2.1128291411197386 -1.2617267965088357 0.22315344573878507 0.3725221743001873 -0.3630207461455591 -1.3655761644134248 -0.329902155451949 0.39715967003250296 1.3054594519284293 -0.8294885788226837 -0.6727109151891368 0.0611154352560483 0.5962715998860716 -0.49993031191062676 -0.028340468713979418 1.8551896929651626 -0.7983492173092044 0.1622155738552108 -2.6437316259871566 -1.5570503912908376 -2.148538658474318 -0.24872075823909937 -1.4558366565208867 -2.3043066495490447 -0.15271899134868452 -1.9647473099190444 -0.3996227801018011 -0.7907964512001695 1.235824158272759 0.8442746731711195 1.3387125033050602 1.445148242018127 -0.17066521799106119 0.3659055266014176 -1.284870401803843 -1.3954264308531483 -1.0362363286547376 -0.38507464531194446 0.829240640859236 -1.33343438530502 0.4240642939638809 1.191249128558512 1.536620332693026 0.7604661924385253 0.2474184603470485 -0.13971149461722293 0.1834779442010302 -0.8174952360483344 0.21663469053184406 -0.12385619734921409 1.307356721987012 0.8722983030141828 2.3310054596746683 0.4373691865336948 -1.31883413080456 -0.7280102521590271 1.3043575491038548 1.6347608418148443 1.2683194684995078 -1.1030855855133668 -0.9638922018378875 1.0173684476556553 0.09767129956827865 -1.658916829391624 2.3902389894586915 0.7886602563009907 -1.391512978621795 -0.9123141775754778 -1.199636043011694 1.468737717555467 -0.3310877544968086 0.10195602209690756 -1.739356900841837 -0.5358185901361037 0.7683290313875828 0.25122245974418106 -0.1114691932769118 0.8543774738083617 0.23283130332582694 -2.0271154627228873 0.985759645996866 -1.2933828390634146 0.9449504129559129 0.9020038375133935 -1.1138824473598943 -0.09624801795715504 0.6723258177713484 -0.6977645082536705 -0.16641396089619703 0.062445845191486715 -1.525763697505215 0.16596706523553711 0.2679680010322464 0.10847139894796681 -1.915239932740523 -0.9080190047857805 1.644299167903609 0.10485912955632683 0.7316578669146389 -3.02858732039084 0.045255065799876225 0.06024503825498023 -0.9199986253051203 0.7011012624303684 -0.9738314668078069 -0.2267440036461168 -2.025716867226095 -0.31650087615752065 0.2205315545351424 -0.5361894596847661 1.54259372517412 0.8350715185926428 0.4915851793126769 -0.8768103679209986 -0.04519441042660051 -0.6456824794614063 0.05743927414784928 -0.679272371202382 0.9566909073993565 1.3241827927475003 1.3048122111123923 0.11584282764059002 1.4655239384563457 0.6896124628964737 0.45915401291877744 -0.19670843526870044 0.3686357884243986 1.2151553301807227 -1.3406402127765076 0.48822423282424215 0.23258998424812186 -1.175112917006653 -0.13789969031113364 0.2697842252763026 -1.1437842166577876 -1.1401387974145256 0.9776660207862508 1.815907434353841 -1.225662110241425 -0.16604201972857724 0.673772141881524 -0.7323211005665381 -2.525244735953365 0.9826053159438948 -1.6531900776277835 1.2635209068112119 1.4170266932178484 -1.2634657032719492 1.538508370178299 0.04246411595468712 1.5510729794152598 0.9287434882315545 -0.00796994891255303 -0.9355832907898753 0.441920675674375 -0.7870408319801037 -0.65239629264724 0.7739154203549633 0.6350176265094674 0.4916889582958438 0.5227388969943549 0.28210446203936335 -0.16362186689097322 0.10598428975216219 -1.3373711724057145 1.625628691752451 -0.6280389691137567 -0.5320053415609224 0.5148567817278187 -2.4966025840387185 0.3472744136854067 0.1136519840108222 0.5866277414332953 0.7417466035964173 -0.7239635530772264 0.3880416342687461 -0.053731525844418954 -1.7025689901975347 0.77900520941024 -0.32853818435622156 1.8540209731249417 0.18387885153921946 -0.7579614278197999 -0.7730472549512577 -2.240703591693597 0.5107354250774485 0.6318546268781902 1.3760799207501424 -1.5478165240328456 1.2605630874462557 0.7445789289067632 0.3785248680900126 -1.0703721990247992 0.612661436061267 -0.5450082757237052 -0.24421355939795097 -0.4434704614358572 -2.3243980413929144 1.2191338671024876 0.765885007716748 -1.7577477108358048 -0.7186673877324875 1.1533704859177956 -1.6008942215250346 -0.23637782508368615 -1.0915468277786737 1.2999287089903728 -1.151423273743058 -0.4822370454781979 0.3216694843897005 0.7927944501764644 -1.2088205764642732 1.0158106172642067 1.206904921387578 1.084643694872952 0.7298387443637162 0.3678616463262247 -2.9713550824210575 -0.84307720633594 1.0857783769641678 0.05079549374712462 -0.8262853666264054 0.3247192804451389 -0.1367742208958394 -0.24119451632176364 1.3524495667627212 0.3062652530637683 -0.8229711517612635 -0.943710029652826 1.0462785510997599 -0.7736955398931064 1.3791952877110885 -2.4365222115646983 -0.3618973350399194 -0.8377053086600615 -2.330279304510607 -2.8223734726689855 -0.09691861175866494 0.5258380599935882 -1.1869220864801344 -0.9360540431389552 -0.7595511007482731 -1.1337922390211894 0.6628322778673839 1.613099150265772 -0.5952422528558564 -1.1341012677925582 -1.4213388564853946 1.2386962662385048 -0.7700946111671325 1.0012793213364022 -0.42102189393957534 0.20470458432292235 -1.1416980405357018 0.9631087361601315 2.071520388342733 1.0553511967785991 1.066370768790508 -0.4458349326349776 1.6942233396719866 -0.3419685129966533 0.8123754689134294 0.7238342364818111 -1.8630985328012861 -0.5800097471800347 1.2383808851681106 0.3842199766153182 -0.593129368431841 0.5925840594010093 1.6301625686022545 0.9770904037306601 1.5439067516492087 0.5407195400284928 1.6872170374337168 -2.7276006709057206 0.6716401613128464 -1.459411464773513 -0.3856515749853006 0.059625105951086964 -1.2150710282416026 0.7424483982725625 -1.066836581586351 -0.13823482363260678 -0.47460563425685676 -2.1953757952552597 1.9528946399120684 -1.4370112433222535 -1.4036163556459118 -1.2147214613033417 -3.068960074324088 -0.15561251737687296 2.065891219612601 0.45117007468209547 -1.3534137791096459 1.669259193900374 -1.81995387972199 2.0624962196767735 -0.44815868283255955 -0.3117420079708691 0.42703546200696973 0.19675470317870755 -1.1571916968135354 1.0217167414868993 1.032328819942331 -3.6096683865669186 0.6260656686842442 0.9763430817247347 -0.8376890547880876 -0.3316500038549523 -1.177584060791581 0.8365483421314853 -0.587012355635898 1.2037949335866795 0.33194663665751706 0.522557567547396 -0.03978167537905346 0.17252315682669245 1.9409985782894323 0.24829316665876935 -0.824471197840416 -0.3347798793528826 0.24612539102838651 -1.0906052134557425 0.10575177750729232 0.3826382036780223 0.4155574784993593 -0.9001307386132714 0.10252875603514469 -0.5266810208308135 -0.14745047007249715 0.15477942430914982 -0.45285458243516735 -0.7049272080333331 1.0180984465531135 -0.7414358507711434 -0.7208003406409824 -0.8589981156455236 -0.10424649804148765 -1.2554094412885282 0.914672393124341 1.8508075959333612 1.3823937616913364 -0.524191449450114 0.5196713651131919 -1.303511645090517 -0.4761603951458848 -1.21297038168959 -0.7745757406079792 0.9575384102149898 2.9707236876981 2.6347874706016374 -0.2691844962252579 0.8296899224354745 0.9378109197805172 -0.39365170807152333 -2.207065727403392 -1.9528280406962595 -1.1761365610590533 -1.3213806279659683 -1.1888398383747316 0.340837087790989 0.25001381632570596 -1.136560037696339 0.08392429166699035 -1.186623814264051 -0.0689620623475325 -0.6843709809273381 -1.1434967493977144 -0.24243024735446367 -0.10766820541335001 0.4405444379148494 -0.7674695682222626 -0.773123619231774 -1.5626446187590257 -0.7258192052869383 0.3396069028057424 -0.4826087118484517 1.1224116567131164 -1.8882063201723793 0.05052988500566345 -1.032421971474098 -0.9239275090299556 0.4868104786412302 0.5268918148054411 -0.3341333290945542 -1.5658149094965756 0.8510162712554944 -2.984892827068356 0.12162897697967733 1.5524565877620016 0.41653706933444773 -0.5393735027705302 1.3272644177783215 0.37868137765052506 -1.7583546708826485 -0.19154498432361586 2.072772283491404 
0.10178863561042203 -0.24623596902510064 0.5771129460731975 0.17321932253044955 -0.8463725686730766 0.31175380320923995 1.2551388699102035 1.1451231152672776 -0.4559727311123508 -0.20037444635347568 1.1683632790653222 0.42956445035550256 -0.8224617436827634 -0.22173186687092347 -0.7198140284880873 0.45705792269661855 -0.5919185994043763 0.19926068053624646 -0.3697675073685015 1.7300937529359586 -0.004377969817196568 1.0148292880390961 1.1271348941554211 -0.3530058645455872 0.3361450109243909 -1.9787775482800063 1.1741961049100498 -0.6705313053637126 0.6194951942059831 -0.010999481877369053 0.25345471708464085 0.9744433190688555 2.6430527894150924 0.9726933158914229 1.2104373903691372 0.6302550094956779 -0.12876781880677482 -0.009168675715946267 0.5826057230433308 2.0876218644465845 0.9107549824461777 -0.9456425828207085 0.1450343188901806 -1.8663079134850913 -0.632859099107379 1.28082363780691 1.0480363681905511 -0.3597318453970303 0.03200494667563106 -0.4010021090865297 0.546345850196552 1.5688874689552275 0.7281064575920398 0.9567227858679126 -0.4854471997256505 1.287982081098775 0.027027889427274847 0.6612721052083469 -0.3727438896485064 -1.0634231664960858 -1.3288897349723132 0.018662251773359468 0.418582821659731 0.3114913761171034 -0.7115885833450607 -1.003644574505453 -0.039524514097566826 1.5212294248794354 -0.5433368461404787 -0.1231919731869172 0.8440046260210377 2.3546547040662515 -0.4824282581799237 1.6872407241950047 -0.2486735546030464 -0.32278085171945475 1.2013173703905031 1.6141944363846308 -0.3810921016151834 0.8514263888601181 0.18404199952220485 -0.1550797843852573 0.7856970097024095 -0.23449921329935935 0.9410899252612712 0.4568669127431826 -1.4380682282124366 0.4949324671073862 -2.5028677709061085 -0.708542673604958 0.4719273788716836 -0.007352873770513873 -1.8916679745719125 0.5340877285448051 1.8101500259060075 -1.0475832465865351 3.546823197624448 -0.051486058176023836 -3.10043374640483 1.989663489639602 0.5245853153343434 -0.7384587023334666 -0.4591400852824555 -1.5049639544333784 -0.06747600564511697 0.7079762223242024 0.05280486935886103 0.7641589229514687 -1.1094810711495566 -0.02619819128372718 -0.6603025108317808 -0.6609057240039744 -0.304874475955857 0.39073044019606656 1.3922441905227587 -0.13856945095985762 0.49303088377788884 0.971076386419794 -0.6712095531564071 -0.6906386275094843 0.6266913344562216 0.9608519827399222 -0.20050413666128364 1.7325774837143417 0.5055770060649111 -0.6412145873347225 0.5752300377501657 -0.6271992710394992 0.35431996514128955 0.30239424292510586 0.5508133844359807 1.8496229263339956 -0.18749741013946294 1.6276944947206928 -0.14621356046293058 -0.15197287677019444 0.22192937752726338 0.6833079566781813 0.20984941914517222 -0.9015073726275821 -2.373844937923326 1.608982700963378 0.8283923495150342 0.320447455358834 -1.3159052682475172 1.588552852329327 0.0941450659209191 1.4644576078686393 -1.1083190005606147 -0.8228926696200893 -0.8868792189471806 0.6178127008877414 -1.1694561095591258 -0.3549252233007267 1.8941356700918632 -1.1859177310591902 0.5349825695688615 1.2716723956091538 0.8836093782594755 0.19910083338326873 -0.7942191841713471 -0.4954024438269475 1.2234372913735032 2.343726211691376 1.3387308351955136 -1.4405431326585596 -0.5381733490500259 -0.9562951256367859 0.01496604360652508 -1.0067863607353476 -1.2466896532658105 1.0777200846555646 0.25628523584573126 0.9903156268147861 -0.38899891016811783 0.26999540607426126 1.1933475108718732 -0.1374426299178468 0.11896123411613069 0.1173508537603311 0.23277546767533533 0.20432791760237387 0.5410742112747794 1.6538054289441213 0.4358918509549336 -0.46323620858745607 -0.119283875176392 1.0678710136973697 -0.04082975638624735 -0.5723137707052944 -1.092228013607276 -1.3928857420578051 -1.875383187776285 1.8430287689125622 0.9399375948808536 -1.6395243141494762 -1.2717603156555004 3.0715414572705346 1.4091536197543715 0.08843130255315239 -0.034469030364708664 -1.8809274745406022 -0.2514084327216284 -0.3311290239459254 -0.1856076060514888 0.6676216410019749 -0.8526753886159243 -1.1399034302429687 0.2580978859229138 -0.5991790930499192 -0.5076606557362557 -0.23093017014754724 -0.7356504842533754 -0.15910764542452463 -0.05496625344126579 -1.0681066678242037 1.669241643196235 -0.23165700618665241 -1.913631658169518 -1.044140630981161 1.1325876061971785 -1.1290949529928318 -0.46613970249385744 -2.555146734806213 1.4013193225154903 0.2714961966346877 0.8319582302446619 0.4101708113254373 -0.38646410674399106 -0.5245326338744217 1.1275339071726294 1.825921100121917 -0.8595758894146772 2.1535359647309837 -0.9942377104963489 -1.8298580021845818 -0.4164012445425773 -0.5413111838928623 -0.3909507164896866 0.38505637025093487 -1.2514400951831146 -1.3268129305527532 -3.6142191534481167 0.01286735849293587 1.4340663084559477 0.8841645318361268 -0.2567591512314254 0.6459374692568358 -0.32123718748493335 2.646594745761334 -1.4631929117098892 -1.1816762518131394 -0.14387455707596872 -0.18292054213148587 -0.16902784052581168 1.7200669177054295 -0.25512749323472855 -0.2785654257316013 -0.19874716800825182 0.0779908100985671 -2.377808265971016 0.7736265772398147 -0.41054863611133385 0.6402067975057711 2.9137932695836986 0.9627956617180436 2.851769669001376 -0.5353170583475223 -1.079454510587172 -1.2729429520090187 1.208662002571887 -1.0896886668018033 1.731982026090202 0.9145565761855156 -0.20580619815131124 1.685965002030426 0.17835646838469607 -1.4838271516657875 -0.022469573956669757 1.061274588899685 -1.9488821220988544 1.9176863212593043 -1.4681825732565799 1.0883840427958829 -0.3636655527643374 -0.9661711073370497 -0.7272714136415377 0.5260137719162913 0.20202325852654984 0.5342057125028336 0.5506254717947253 1.0092665998129215 0.010554552676768506 -1.0401356505914396 1.5717571180404633 0.9293871069286003 -2.9036613050533755 0.9949661281570362 1.219789527845418 0.8499024461988585 0.3932447174911288 0.23106311900381876 1.6726513529866456 0.41593154501958385 0.0798300141308504 -0.5520635248219283 0.7063839212826953 1.3817936784942193 0.633231757694775 0.27350967856157155 0.6731305511663949 -1.1392968280908136 0.266925995551575 -1.3920722367184708 -0.4629766804640094 0.12075138066242441 -0.12836909635361335 -0.5661384300511075 -1.5964841778139833 1.180776655218428 -1.9004550936070572 -0.9908882267471892 0.11888239055825948 -0.8394708258865355 -1.9531758439481486 -0.4396971028915153 -0.27698934424650506 -0.038284307060918746 -1.8934669249782567 0.03686591519737948 -0.9354096117261695 -0.7392159967147872 1.0895270994385724 1.0525631084239557 0.06690625644769956 0.3037535608070115 0.7589278947083726 0.26347330775911143 0.33739376604418364 -0.36759994890975534 -1.1113553947199761 0.9270097500423521 0.3325146857170881 1.1936630377599797 0.14756567752856328 0.5316756283706643 2.1691745546209766 0.045003079489634 1.4033869986018008 -0.22508236144232194 0.3824943260202984 0.9500035197569734 -1.3841609478517654 -0.26721201419722646 0.46206474066762854 -1.4440886052550743 0.49594352606079306 -0.2039509001850696 -0.31777006350265696 -1.2518561411158797 0.4012362717986079 0.1049659681120157 -0.7715921162436251 -0.3640200895839404 -0.34459244611297124 -0.5783578760315338 0.3806824820842329 1.2447784436406129 -0.20150073240394023 0.5669583948827017 0.09499334193412277 -1.2763871499197437 -0.9316089922555618 0.8079285831790719 -0.20257719874242555 -0.018189320396674827 -0.36466648492052334 0.3771974261204467 -1.706657074514816 -1.113174397074558 -0.6276544428626645 -0.28084076424993487 -2.583578693532001 0.772053959968756 1.021381256271505 0.886866690150734 -0.3610537159200386 -1.3149024630222068 -0.3942686494052636 -2.479491944051235 0.3115312352025696 -1.0176141918471655 0.09832835792857923 -0.1919641504366304 -0.8617991531088135 0.6638987823788974 -0.6660470584975818 1.0679657927622108 -1.2680207535306072 1.5376172426788606 2.7540568655917377 1.1136423977071366 1.3372738985047654 0.8124386023041892 0.5499840958598319 0.25474437126247446 1.5291053210304517 -0.40646961486092614 1.696297208777934 0.11304980148895115 -0.6563052710709081 0.907374082812534 -0.41279967900776054 -0.11206052033609051 -0.13910010007145934 -2.784356357698671 -0.48788942598479595 0.5171306357034238 0.8438440469114954 -1.5074990607012053 -0.8574125096669609 0.07704728043426783 -0.3489948704773472 1.1271553264213474 1.5619606142642488 -0.8613444982340899 -0.06337443070024146 0.3103189713609033 -0.4164685293671535 1.228718781846971 0.5539244433479449 -1.1661359863399867 0.8694657238872401 0.8563417302910676 -0.08157154596254594 1.5384301444375568 0.23418493597681153 0.08825305397084789 0.7173145018409635 3.281542898969281 0.9828378393280593 -0.44539315862367823 1.3783893250947297 -0.6428404618127451 0.89531499068051 -0.40182215389957754 1.0864435422855034 -0.42851631876053825 -0.35622382566609295 -0.5448302566090902 0.48454943701489805 1.1009075992375588 0.184294732535029 1.1243735026339314 0.8182572075401321 1.5237569465268905 0.32457757916534635 0.1941603358675218 -1.090989298939564 0.9651484083603272 -0.2234420293753642 -0.3136911141534174 0.37747412030300137 1.828067796308579 0.46990999974191544 0.5798954064924383 0.8714843788481307 -0.059923039290125976 0.26382305129444533 0.07361961426109119 -0.024269766525624945 0.20577230099690746 0.9244830242535688 0.6202098631862664 -0.4303325451185379 -0.6347392132013843 0.602079986257177 -1.9152401521972158 1.5293535569158774 1.1813462206998548 1.2131958296839571 0.99238139484236 2.158810791665891 0.6779119141226788 -0.625616835389226 1.3320064193584067 0.431422170703208 -0.9236155551715055 0.598106371822854 -0.9089800592341085 0.874299648978438 1.9913941849549441 1.2905375356319702 -0.23892922866436392 1.6141059579879526 0.19008061757437225 1.1110832611305108 0.012439093940874292 -1.9134529201248474 -1.209976501423689 -0.016589216506573523 -0.27099935748190634 -1.4304875245282915 1.779994787865443 -0.02201484340621978 0.187852135152043 -0.5941005313080328 1.3368049763275631 2.6982139855295473 -0.0824541736492692 -1.1743596122682087 1.985418357675232 -0.42750906245807957 -0.5731891602153248 -0.2792658387704457 0.5961303786531205 0.6492167635891338 -1.0235396254115758 0.018164618437597705 -0.7373844300672889 1.1307725923407306 0.1158166956028731 -1.0248132011443283 0.9563823665243542 0.13348755956125868 -0.4611667501392072 0.6067086563169208 0.9617048339554171 -1.0960964534344928 1.0394048152904665 0.45367095192652757 0.11113282270409687 0.7305519177260413 0.07503296818617891 -0.06263172364414543 -0.8202240373852183 0.23802865877550666 -0.030102719704109045 0.08038964485982353 -0.35853494868316516 -1.7348210506806057 0.6526569470590966 1.8628253464771072 0.5691395521828538 0.46034730091383835 -0.7392397564660848 1.1024392402986747 0.719890612723699 0.39039988252018887 0.636167650731219 1.071372032339667 1.0452437910099655 -0.8096268938599703 -0.3432089098583058 -1.2798430176175728 -0.3000890355750683 0.6538524069201498 -0.09124871983907619 -0.03114843877159678 0.32079289975258923 -1.1795822297816343 0.44111633348571444 0.7591329442712186 -0.12962930989006954 0.7231390898784701 -1.1944678439128102 0.5693236586683418 -0.8882285165069257 0.6902410759928377 1.1019928437641966 0.7924574313286813 -0.25558885862523695 0.18948720275385897 -0.4618025076063816 0.34901323692196456 -0.5873402117399825 -0.5757608460189017 -1.3055475867513675 0.882312488433491 -0.8131078711388955 0.018310646644000367 1.1898471201547898 0.5634928695347144 1.3856403349486952 0.9861763373773582 -1.5463611793976781 -0.5453041045469664 0.8663925167304821 0.5811492496499341 0.06436512742673492 -0.18582623583716706 0.9007046434672097 -0.38555819359274046 -1.4651833536874324 1.732339654011808 -0.3847996059099316 0.5896694966363054 0.3726432236632259 0.7143192492984631 0.446407381432851 1.328012750149073 -0.14105743345605706 -0.7179523955720571 -0.23477701938665005 -1.0067641800739207 1.1482543344852356 1.3670338761090137 0.4927245028840711 -0.10001689181387964 0.4456710321724459 -1.797161752270807 -0.40243993586114435 0.8286702371465355 -0.5105645173657463 -0.697478153527709 1.0511794505395373 0.06403095878169188 -0.7026438647726226 0.9302530752053985 0.8695528922629157 0.8727839023490473 0.14585813074479434 -0.29982701672448686 2.2471879614011514 0.014418933677875315 0.1096213577626971 1.1330800019508782 1.6805152628745936 -0.2464468483123049 -0.18146275821766625 -0.13356424297761502 0.3169482245689377 -1.2413407224182216 0.37766479666799063 0.7739659901902768 0.5588228473282847 0.052118259967276356 0.19144093313492636 0.3593101779394306 -0.2456541900761231 0.17967193985445506 -0.5976286208006452 1.2600794999110605 -0.7506866613509996 -0.6233264530958822 -0.786655101231982 -0.8011995339484075 -0.09588622276456439 1.676937786998388 1.029453817670469 2.859187009554637 1.163666321782823 -0.3714141890551276 -0.23591490304227183 1.3167777434164118 -1.1639049323788653 1.632736925676416 -0.10529341348656172 0.6774099889240772 0.37569079550259155 -0.006783169574657889 0.23785481305781248 1.149150765898379 0.1048691176469799 1.7066596820369595 -0.05392897721821645 -0.3122769303515252 1.2434715305505386 -0.3169543552518433 -0.2603125239152128 -0.6068350559337117 0.1800522654813212 0.04088712701779489 0.3395804728318338 -0.6734382180286492 -0.3796149092373359 0.7640508097208605 -0.9084536568369275 -0.755424468734953 0.5507308787859362 -0.01825759051719965 -0.5843710752615753 -1.2482436318189758 -0.22915235111370072 -0.26395799299620387 0.9983953933753007 -1.7568336393241017 1.672186152872079 0.5233136960137286 0.3509949190790837 0.09542242898585443 1.347206779923977 1.015946413620749 -1.0559825206700957 0.06385375609554055 -0.34060585762947626 -1.766637111995349 0.10728110853115405 -0.3271520393475934 -0.5248822130001651 0.6369029122035108 0.15248635033610178 1.4473329950288152 0.42957182492537455 -0.20883832146211673 -0.38960662152694203 -1.6335445998013884 0.29922801821115874 -0.5744144345622575 0.8666613896034857 -1.1127316222375971 -0.6105712825961599 0.7582842826811198 0.19358702630019586 0.6744275168581139 0.4878401110477301 -0.7859692536517613 -1.322831171419816 0.7492655656718927 -0.13900579470569 -0.4215250741305876 -0.36924938950288944 0.9411197275222931 -0.7453072984535868 1.0265131003074401 -0.14655596574223653 0.4827308522434514 0.3397490669764521 -0.1852501019969685 -1.6462768047330187 0.7179111600190584 -0.4613678265454284 -2.1261246018352216 -1.8971795525206083 -0.5085323999621316 -0.050959031647792585 0.8553867541445427 -0.48567578487170115 -1.7754861160940558 -0.16868360443717365 0.15399436534024685 0.2125883305225414 0.6152586035939449 -1.1355854130746001 1.433773236985678 -0.8096920056703525 -0.8176483374202878 0.8517436491715697 -0.06281580411088517 2.1183382740817356 0.47627152552290847 0.8922217861058547 1.1425852992654366 -0.5617592857852479 -1.2354093699260198 -0.018397400059651733 -0.3705150634658334 0.1541683845755481 0.8852649309192178 -1.1170993510752802 -1.1377897994842885 0.8713714321152431 0.5187917195749995 -0.4665163727508752 0.5740260971332127 1.0495462704830172 -0.9811068569330683 0.954271882410005 0.27644868802115163 0.3324782785708621 0.31777215566078293 1.6967461842474612 0.6482304513978686 1.0466532425631465 0.36150788060465405 0.536699463394364 0.3085158993233194 -0.5262473129037921 -0.7478732510385446 0.31530396981277137 -0.5406505298123118 -1.404628984274406 -1.105750005249398 1.0461189123537098 
