-1.2800923350806808 0.6710639278245825 -1.550568078077149 0.5097678088255143 1.9854190967764767 -0.025775837815468543 2.045053511608655 0.4422306610300683 -0.7892561781931293 -0.503139856368854 -0.18327587598032768 2.574291351077079 -1.3978296875857552 -0.2278247702360624 0.9140560060795703 1.918683377924798 -2.1121669142037955 0.4836136055041078 0.20439943023696114 -1.7330060182952731 -0.7047139477692537 -1.0181954817726697 2.7095920928585495 -0.41395664480070815 1.6482079993722 1.7165541150160277 1.2247000991539467 0.8639636626384423 -0.17540666651273684 1.0272128460467227 -0.5196724179888215 -0.37174292404243126 0.3976589989605585 0.22486910564926185 -0.19516435384245281 -0.6149350157810388 -1.8768266653631502 0.9020219208207595 -0.1618897397995337 0.27509903705628463 1.8747204982744319 -0.014298586714845735 -0.863196673999607 -1.5305918397586764 0.591768124479268 0.644178846038899 -0.09340948602519394 0.2829892492921821 0.3422942780780285 0.4112686344978923 -0.30568591378939786 1.0831354010932757 -0.5078784962725559 1.4329699934327864 -0.47716486953130727 -0.9793893057638883 0.40229343303165677 -0.29362838371529104 1.6082508253794745 -1.3734314470292357 0.2565580612933258 -0.21536911586456056 -0.2666492193152184 1.3788525270579581 0.014813345626570109 0.334159381863508 -0.8824107752919931 -0.5633415023177512 0.7691695917617678 0.42820425902561915 1.2143223044095195 1.2823756655041922 -0.3997287242415612 1.3168854611140652 -0.49042357957408195 -0.5062296629418782 -2.3105902301728385 2.159809608413319 2.5061740134321044 0.4196409229004872 2.6728304621538688 -1.0765523986927534 -0.46183421050186985 -0.9229513868626203 -2.4285644189927056 0.07375411981810139 0.6952554332999755 0.5575429502629485 -0.6533656738150466 1.566876679541607 1.1591611662917833 -0.7610414151595815 -0.8449920715087242 1.5960053023149425 0.200345639674771 0.9590216997570333 0.25273664129285045 -0.4088439580903922 -0.2239378562880307 0.834906479395746 0.1692114621892501 -0.8063003181094333 1.391707297120713 -0.09062362462311153 -1.7578887319761054 1.4774630975796914 -1.6401694879142705 -0.7478156430941242 0.3250146528270155 -0.8643365990144398 1.196365135734029 -0.6080844778803935 1.309374095362327 -0.38790603720408917 0.512086535379748 0.5896222006285937 -0.6002190951315091 1.199206879428427 0.04096172753339012 0.5931445664790913 0.843534228712416 0.727696357611285 -0.25016708995953674 -0.4474243087873997 0.21358796295917845 1.3870069815522656 0.8263149537543334 1.572882659300202 1.7467737662004679 -0.8697257355040048 2.623666224745751 0.3854737170838055 -0.6590408662615851 2.104458362245341 0.6473208915453846 -0.135411499246382 -0.5498519917469656 -0.26648618817430014 0.16932248566122904 0.11793710562794674 -0.027408350283154997 -0.7482075429969217 0.6187104121164411 0.4792164946477108 -0.5099350820587942 0.15835012729742662 0.189071600322031 2.418042947588005 -1.3505967383522808 -0.7690521206876153 -0.8699003473923476 0.4177047880763576 -1.592603322974643 0.5215893584318898 -1.4409310603827605 0.01179617661523499 -0.82126838284532 -0.7813508593965359 -0.7761616678470077 -1.2610270065655407 1.617623215367108 0.39898140455356873 -1.099499924802636 1.4685138478803215 -1.133779671022298 -0.7991600393536781 1.7697050072564893 -1.0242075896186074 0.4342787262834204 0.4051938978890587 0.16196723655202952 1.6613780833379252 0.16483920349471745 -0.41701394730746716 -1.7057049704618015 1.6969448034250558 -1.0445576343236809 -0.2142734938078855 1.7330429046696942 1.8130930175159983 -0.5665952940399559 0.2138383974308757 1.5688968485143864 -1.1454627160559556 -0.8955876407788412 -1.1301266690466374 -0.9339589116865993 1.557424393449023 1.410227304586953 -0.5487116389323667 0.8984743316414207 0.7034857885315925 -0.38585251438799884 0.4338365495970043 1.091410675432479 1.862774309817346 -1.0613086985362898 -0.13146225870763495 1.0080733549084993 1.5399535067743224 0.7539954384406361 1.1097326358210335 0.7172897610930001 0.2950764367170939 -1.9932613867747997 -1.2194938520009928 0.2961734971064228 0.34264523863911045 0.5536126266318506 -0.6766108781661199 0.5253507019938013 -0.39531644669617044 -0.2309405493149726 -0.32408931601348434 0.5302642096527143 0.36018581676613975 1.2528526563918156 -0.3546921009848113 1.2234239455084546 -1.1271565969146327 0.6653987077190796 0.46658702656951423 -0.5192237142357791 -0.7902520288575919 -2.0593862031507264 -0.9390991354943728 0.28271306413393577 -0.06887611326953631 0.7846426722837335 -0.19579937156600433 1.9255761619135918 0.5290867169768304 -0.055974296370520045 0.5428507531122669 -1.052461459735633 -0.5445060974052479 -0.6039897168142571 0.6900373075081315 -1.400577131306168 0.29725272304448475 1.480760335094812 0.8348684824387147 0.44346659761154195 0.24884421142119728 0.1577886589095058 0.5833261509767038 0.040352090243795734 0.6690246965021976 0.5584002808355706 1.77571404299169 -0.6163812859381105 0.9879393554889754 0.27517456236145954 -0.7235482474629803 -0.2798639529599599 0.7686579622934212 -0.49672556229624504 0.7774798763752746 -1.1674182512032159 -0.4737135876726555 -0.5655650552065756 -0.04251160756618495 1.1130868990069152 1.3551776463119904 2.0383297835931784 0.4795945049055691 0.5278488597512119 -0.618943337806433 0.13484833034588536 0.41228088794103157 0.3581858867006848 -0.5152798014489833 -1.1696116819391695 0.35300679416848274 0.6128021322039054 -0.094977668517612 -0.6320376515011986 1.2897357371159381 0.4787498810155761 -1.3274618131860052 -0.21819226859062502 1.4747335438024805 1.732692272715656 0.23024356732878193 1.187431104012957 0.08910275217967567 -1.0101382213012937 -1.0282843840874591 0.0329607530581277 1.1735899149772362 -2.053377173422977 0.5971269436173263 0.3263909524797868 0.5681667532211045 -0.8824337021083908 0.22696989195046477 0.5296588905676555 1.0397844867200423 3.4004425040967776 1.1435660533120666 -0.41886091812156695 -0.13893821093169173 0.7752272909373911 1.1360321392921207 -0.14547062164755853 0.4325168494593554 -0.9676030653047459 1.4463032773076436 -0.11262652048370002 0.822202905523683 0.3962997745066129 -0.1358487634253473 -0.5674410349850328 0.662185864607556 0.7276372529752599 0.09489611445299662 0.4809737312364753 0.9286964304587904 -1.5151457616667525 -1.4802007270154325 1.7394493542662972 0.2607949002322034 1.780783685946065 -0.8639731752858003 2.1988595258426256 -1.0135405020350268 0.02053741756090245 -0.06797150863000477 0.905853747023166 0.6880497088328379 -0.32282762076828053 -0.4790987536110641 -0.24698563753938096 -0.4706553476696252 1.8666753072448665 0.29133744872625866 -0.49800149412874345 0.8555572211162691 -0.7803091606244988 1.6595763119964853 -1.046853855649507 -0.4486931881052992 -1.6624717111513574 -0.1394629940559399 -0.8464281763298289 0.4881692721602966 1.500061533496816 -1.3167497006098954 0.6829796122448485 0.09137359912378112 0.6535918163216818 1.6417201360838574 -0.4764547444047716 0.5413712061689789 -1.8788680982042998 1.2477958658133463 -0.28616039950322475 1.2775431134944024 0.7590327005009543 0.5027832897683459 0.3045612442936642 1.3410719539893927 -0.2645568801690723 -1.5839245647295812 -0.12205262985419739 -0.777912227789244 0.23985364798413142 -2.0188076241959334 0.12614872770193142 -1.244695764940966 0.32959250861748346 -0.860453595636833 -0.44306861329287117 -0.23945281385836795 -0.15971671058604472 1.6812009894283098 -0.4966986796126143 -0.13096670654744585 1.6011255306498238 2.0822297699811747 1.1788821261855547 0.5302678134977418 -0.352775305269754 0.41975130672065014 -1.3211414898177343 -0.048380943624709266 -1.349547142109378 -0.33573568809158916 -0.08878425451521618 -0.24150699069001044 -0.18229710577532401 -0.3229431897292032 2.039733731302668 -0.1070741257538554 -1.171704327347291 0.5473377242354813 0.09583942771883239 -0.7798758516119741 -0.9568308017192948 -0.04669120158126676 -0.33535862014333495 -0.9541988549758679 -1.0761308844840065 -1.080243769792538 -0.40104427894547745 -1.788921678576602 0.19155493129788492 -1.3110621321012663 0.2717992473998762 -0.6402720043673327 -1.2852574091390412 1.0955112261094917 0.7612818681400383 1.055557666388508 -1.12608585913325 0.24533269668122085 -0.7292000144920344 -0.5047859496753984 1.0627763403371293 -0.8159061696226664 -0.2545350090285497 -2.4067764562717304 0.9297576846218175 -1.0091792665633363 1.8144236036516639 0.9207967007901355 -0.5712049519063855 1.7359850979450837 0.700850128055963 -0.1994068466271319 -0.21421336204045302 1.5548226776706289 0.9626944923785713 -0.8081354249968775 0.6990939789194831 -0.9713927206453316 0.685799711949881 1.082956410293148 0.5550447648330975 0.3091440984386618 0.4147553950555038 2.0549211639280274 -0.2091474101502668 1.8392753664956543 -0.5793293289106997 0.11155611786573451 1.1955857030935306 -0.7855521217507333 1.2820280238505446 -0.3828686215250226 0.7103638704496879 1.6113799603269046 -1.0589818019752364 0.03288581690092424 0.8097738567573866 0.42306826034651057 -0.7156207109760623 0.2459341225812567 0.507203997989355 -0.24193347909395144 -1.9570850606511785 0.894865300109023 0.1718252338343171 -0.6722025921056242 -0.3098162833329328 -0.1191021147658928 -1.0106131866122883 1.4019104509973224 1.3190785681876327 0.9593411590352843 1.4899403821476354 -0.7815493806576954 0.20360504114541936 0.1626753172557256 0.5345983761804182 0.8540698084929904 0.3628920762813638 0.5574738720250044 0.697838581712722 0.9854761143949979 0.13088193829790015 0.7203361213745935 0.3416312585651002 1.0952989483671556 0.2746567227960044 -0.36386398844479423 1.0917013749028572 0.6282930068997248 0.33162291790134507 0.06052749825649642 0.2038604545148943 -0.15088785392153298 -1.3503051925272616 0.8887570204937221 0.33870967669025415 -0.5684330212568204 0.6566084272318741 1.5416775332405788 0.13036072863580928 0.6342427242837496 -0.3811911972652543 -1.61825392669255 1.096601440114645 -0.5225030001936507 -0.7196328816512619 -0.5485960599533649 0.3676417777712662 1.2834281933459046 -1.5647324798538669 0.24728952516816594 -0.9637362903398633 1.501112800019538 -0.24378728105369105 0.4689274444972419 0.15017445124710171 0.2126702230620947 -0.3041691249637397 -0.7194460674843671 -0.8301675252880001 -0.29460926371816715 1.2388622796709805 0.06530748398671848 1.0389018713992981 -0.5577625792428423 -0.5792731969431839 -0.5685410924252787 -0.07977261437663097 0.6185931258861206 -1.7540399003351765 -0.021019472033177493 -0.28330973184708386 1.4242786824053735 1.1057447031603322 -0.43543453878657523 1.6481605978205855 -0.55989317382485 0.8027238458569917 1.0123369611699322 0.6329606271342464 0.36233984646599315 -0.991121899092698 -0.7948890443592485 0.006720710498642575 3.3914997523793757 -0.2671351027787364 -0.9793583083444508 0.5733484575856337 -0.1198597351769532 1.7503454210199303 1.5106394393530511 -0.09689777501858106 -1.0893916503756342 -0.2775981031209561 0.7336861473370911 -0.41812244930739206 -0.5498523673650336 0.2327716932965013 0.28233082604506904 -0.5890248344017918 0.256804989746139 0.5896795792094438 0.021162659109329046 0.407386675573898 -0.253769301038058 -0.7440185219983985 0.7043905596790376 0.0402249842875604 1.4332468843572024 -1.0438304522816708 -0.0535716766904518 2.2182002163961374 1.1066147234056194 -0.009114529222685538 1.5308913205220105 0.19068465641844623 -0.2690788486118432 -2.0456099734363473 0.5454749816655361 -0.00996727698273657 -0.6364178690255441 0.3916842743023305 -1.467981711908439 1.9685293613941353 1.4336078840715927 -0.9395041859953694 -2.9494085505448937 0.9516494052171813 0.040451296696741475 -1.280468920687961 0.7116804466803442 -0.06621374231270932 0.16639146772233154 -0.23564756720958174 0.27914216713857476 1.1634181512152224 0.019787343882399423 -1.1616031548442214 -0.5704863184882746 0.39147401151990796 -0.4508247751389341 1.0399318276964926 1.0858892519413306 0.7167258620820915 -0.8200664147542369 -0.5244186951966487 1.0792039745528197 1.1470669354200087 -0.11441857257850237 -0.7768014139114731 -0.5375223168597754 -1.2184594513679314 -0.8430961434066842 1.6473501946739786 1.1144175556148161 -2.0494730016589293 -0.33924124481229856 -1.4781566648254016 -1.156510751159364 1.3051645550760043 1.430760015745348 2.241334010940156 -1.212817653093276 0.12260247371881522 -1.0448376261453192 1.2824716897328685 0.30220214705774434 0.10374951743501912 -1.6355374388020594 0.22882628742899597 2.040802475199703 1.1729049391744144 -0.06586840738398711 0.8429139372786423 -0.9373649002107733 -0.16617848403920749 1.4337192307354676 -0.8463255782775219 0.9799407689806312 -0.4569652913245566 0.7377651590988451 0.7230001398889143 -0.1733512659152104 0.21011567987379492 -0.2599768805026983 0.17706976297695254 -0.683870385556333 0.3338380305721238 0.49068486131994726 -0.6741349559515242 -2.12913392420261 1.184127285388783 0.5263529008414034 -0.7016543378963405 -0.12785263229205734 0.7966847939497244 1.5274141488931672 -0.828553034858576 -1.391640085938737 -0.1890218042831678 0.5790586952264744 0.2285051498098477 0.8647427288248598 -1.4432660522174676 -1.840129995397223 -0.8051595991243764 -0.13585098971401224 1.2981041446796353 -0.021125834748059312 1.0352149415458243 -0.5154637356938848 0.7547024036030394 -0.8501559243044023 0.7175582944358276 -0.03605733190963118 -0.6301647147949553 1.558826843616228 0.5060379508232545 0.5732080819899027 1.15509404174923 1.010958410438615 -0.29521031437597084 -1.7906260622648185 2.605794604860456 -0.2932537561621888 0.012076451431611467 1.15210019298409 -0.47477634234283966 -1.6578536640030659 -2.1583278656592397 -0.90866497354355 0.20698110514549387 0.8612599583724376 0.7342810828920361 0.49297913034884405 0.4552682042022621 0.24247708214066996 -0.9126698867731855 -1.2674608938718535 1.0043328031552203 -0.7807318387995873 0.3319790938924647 0.20285462014322328 1.9558181260460892 0.4083036453350488 -0.29903845522685907 0.11973678824566542 -0.8315908580142409 -1.7682047227952684 0.647535634596425 -0.5462545695172152 1.0731331489519464 0.5750275221445919 -0.711726551002589 0.41099858438693204 -0.27991634882348276 0.7269094969475494 -0.658847702763662 -1.652835848844261 -0.8246966327152923 -0.1784005263632815 2.593436169463862 -0.5164243380988236 0.04544624736435596 -0.7469460896550367 0.7958305215812231 1.2853570705538728 -1.1998519873040216 -0.4380909019678993 0.5594090196416198 -0.3748774708988358 0.556480433404658 -0.07506047679106685 -0.10188756475043356 0.07184167623594778 -0.4196266236669845 1.6621987734336032 -1.3770723863312844 0.052895119804426315 1.2195373518214871 -0.484934870335657 -0.6379895936019466 -0.4674016685750527 0.0937094794759449 0.8312486048260987 -0.440869922560978 -0.029588035588629213 -0.2767759070983655 0.23605592836902237 0.3144284094247909 -0.05051297261138105 -0.6706920573518992 1.8327033070076773 -0.2849821835197255 -0.4289504092261002 -1.2808096145305277 0.2296509217150577 -0.40523816843161076 1.0472896803718557 -0.23578363433255048 -0.36395744516735606 0.6750915086406409 1.0400251534342848 -0.7383683777090736 1.040939673495145 0.3687782459113401 -0.7534813449394969 -0.6915884860373788 -0.3497948183727152 0.6633691458211536 1.0853005307114205 0.48797086587062627 -0.7482003693169462 -1.3857648748391744 -0.38613552947704266 -0.20275210956463455 0.08999042362503896 0.2947776231666483 -0.9074581785254192 0.04911574421928616 0.5639948659917863 1.6090916628041858 0.9436763786004644 0.9462974481983765 0.8975484535848117 
-0.9999319087884462 -1.8639450340404344 -0.23869536040933795 -1.5472996033165254 -0.2428884753332341 0.8139209309803082 -0.03155172192817455 -0.3918144512702014 0.5787455327571075 -0.6920844190680191 -0.31752177247155927 0.5070760810722047 1.6204092946021778 1.0620850847662338 0.042038912306220574 0.9134782706580106 -1.6927494285325557 0.425148809409331 -0.12819786794944987 2.6286610533437553 -0.5426591294564974 0.9935511525659325 0.27244794344664225 0.15669920065464907 1.7347787405334913 -0.4786891575911026 0.6569047855117928 -1.4824912170955646 -0.5731167157022611 0.7015029716540347 1.6924074765181452 0.9344817332955567 -1.8043222607522713 -0.7792827463919864 -0.2411355251810712 -0.4589120244615958 0.13100825350406606 0.05547847778958795 0.059855964087527344 -1.6782858022798424 1.3996092448897923 0.5994665808905203 0.10369454324913377 0.7359615055372625 0.01508760226632022 0.2998302726760398 0.15669004427347485 -2.260554735413063 0.3795768282589965 -0.12417602462383277 0.379588498457124 0.521329955870989 -1.1720486802086019 -0.7630681101994408 0.8290537169418996 -0.8418431842376716 -1.9242373513668345 0.223477545753746 0.2826035378408028 0.701280179692854 -0.401436771142298 0.25017570138180895 -0.8898418612163362 0.43675336203725734 -0.7487081775576467 -0.6776908775774743 -0.039591047614644825 -0.21678368620026178 0.03744947419583873 0.4099136849427039 -0.6633861680432013 -1.7789192329891392 0.7670635006238764 0.3585365078497323 0.8685718260645434 -0.7633100574097923 0.4638119950033041 0.2788540563561719 -1.2333409825596477 0.8832278280792228 0.1693027901138187 -0.3249724221427439 0.5449581373771132 1.4124299076710571 0.9474943546810396 2.280822970198137 -0.18428433047859052 -0.5759120235439084 -0.18994456032248158 -0.6612339803578701 -0.42527946159373314 -1.7491895943521578 1.3286556615765523 0.012666359281695449 0.5308511835596201 0.16677106019863747 -0.557709102120645 -0.3285222176556047 -1.2596841414037607 1.2574799358485174 0.45661096685359914 0.39518279086580466 -1.1270656192054611 0.8789932217073844 -2.2933764243119215 1.2584678635207305 0.51647168226583 1.276261334265973 -1.0616062304066285 0.04100980947017886 0.2668576583177046 0.4617662329540173 -0.29291757424887493 -0.12336128108122088 0.34477275571382204 0.541902700060191 -1.0675240141371922 -1.0905058436053545 -0.4746492399138685 -1.2721840847196166 -0.33211165699910195 0.16509879112360537 -1.1224685706230406 0.3208700869484465 -2.052237860793004 0.26034322054778475 0.3819414935801218 1.275471978171324 -1.1795779325072657 -1.7022970624586296 -0.029587471389328435 0.5297573517081543 0.9861416082356237 0.6605800329666127 -0.15655516522371943 0.5343491312172105 -1.0245695965549888 -0.2651087275545764 -0.43005538858047393 -1.6355289208743047 0.7633734690521634 0.9912114075428635 0.25378757726004864 0.36153153592357223 0.7897035288569592 -0.0807938147901189 -1.9424396600848135 0.060608483507506875 -0.13955579913036195 -0.6606086541613067 -0.5540263416003955 -1.0722121058068732 0.43357526221137255 -0.733136180157001 -0.7816869357618377 0.037538225231792 -2.1560118057068656 -0.10006547801223384 -0.6260812588846103 -1.4962661479073096 -0.37432967041038834 -0.05867056134147586 0.7202996017489989 -0.09317657731219986 0.8958995004412215 -0.3553512281107036 1.429028721246454 -0.4742731304868878 0.3413507570825392 -0.6440738795318602 -0.4267814492178917 0.36891184304397134 -1.1238402883814422 -1.293606931957887 1.2236907565428266 0.8165933044716501 0.7451071661073483 -0.7370491027130981 1.0131390487573324 -0.6187691881663872 -0.6499268136003131 0.6097116868833365 0.11187639933286579 -1.7254572222280171 -1.1666501012677726 0.3477307917056469 -1.1626483026760535 0.008262355807395903 0.29227375943206374 -0.07054073575195145 -0.12378859165392396 -0.32673937722823926 2.645273258711102 2.3898139430378684 1.7289614595434157 -0.7453252524215561 -0.1640433262910885 -0.5904954348480929 -1.3363046178416185 1.6987988697437333 0.11711664937648485 -1.2554451286668833 -0.6585093197265713 -0.36790683835287663 0.03130530305841979 -0.6352738485811219 0.8484434061811434 -0.5616751538872494 3.092260445211111 0.8580517181696145 -0.7637385460173239 -0.926531507524966 0.1311887922304319 -2.829960236439417 -0.09285811983857722 -0.4607024227865294 -1.5670194553835062 -1.3387879854873659 1.1964319675716155 -0.2462346642831886 1.002067715687356 -0.4079154633973149 -0.9352186802868815 -0.2910710439626696 0.29751250650553107 -1.381615735952626 0.25854988772100546 -0.96401606729398 0.5523717633944559 -0.6744751079233055 -0.09839013673197745 0.4306237660061099 0.8204584050544199 1.129857178252016 -0.3075794381809342 0.88010889299252 1.083301036772751 -0.031399751336732104 -1.542458177584607 -0.8271324653044805 0.706662304365479 -0.4019858797278434 1.8678776652517963 0.6565516128778256 0.3794756492256297 0.6910803055785275 -0.21041479302924093 -0.6743449787440668 -0.13786356800969143 -1.0929747971644908 0.36472317070122107 -1.4273763520648415 1.447779489826742 0.300728788512109 1.3433447379095556 0.7926343860894166 1.3613924391122008 -1.6233316668552629 0.7627127256588548 0.10097469715654164 0.23525174132781757 2.3742935325001935 0.5074851363262805 -0.6380365045186952 -0.2704095730367755 0.9814853840342547 1.457463321447468 -0.5142221586392849 -2.1463586373644272 -0.9452839161882304 0.6264424675023623 0.3692900771065506 -0.056783873789750534 -0.6934294859540905 3.088566428416983 -0.09164525782803076 0.13395400298798657 0.2573271097532908 -0.6902481925584507 -0.3881094112456891 2.8333131197819346 0.200749469530758 -1.9785672479604626 -0.45941457903044053 0.012016677577147201 1.3892768491619456 0.26631849304469113 -0.24399731083597848 0.42789078149327014 1.5412572600096084 -0.8272629347114477 1.7656644738876202 0.7161655844365794 -0.30928190199512096 -1.1322436429563718 -0.7591328407296639 0.1618152532419673 -2.8610738593534446 -0.6768982594075623 0.22845637441204752 0.5889640029219241 0.5399467205488268 -0.7320759544822403 0.11066443514367513 0.7036865911753484 0.008561139245219595 0.1367140896535742 -0.07511160348042657 -1.0995744873418498 -1.607022459819206 0.6876592036125339 0.2561280724891255 0.2009183319829904 -0.389894695209765 0.005731599353254698 0.14095715013249036 0.6584071355710938 -0.2042107596523401 0.9692155215546655 3.093595000094756 0.05317772718806395 -0.188922382082698 -0.8460210047057569 1.25108350945572 -0.7357058226589425 0.023337179845481594 0.22711927752123953 -0.8593842035324419 0.10036680808662568 -1.4641859148020355 0.4795331617770001 0.06801964947259519 0.5907914994536617 0.5716821625044616 -0.6874567755830406 2.8775998768362676 0.028004205203424195 0.4716411988689386 0.8715653161856917 0.22136377299202512 0.07889517931767674 0.854268071492935 1.1228968870062106 -1.5067636444996355 0.07468664978096638 0.43782803566605666 -0.338381997455907 1.6147543287958657 0.9404630627635039 1.8745659299581625 1.7563078220686494 1.2903261320450674 -0.031689040947127135 -0.04674020655249565 1.0086753430718025 -0.5896500706181822 -0.7576035233047521 -0.45589634463246403 1.1296463788580269 -0.758138911884541 -0.5701501831612735 0.2898215219574336 -1.412593860217989 0.7575847216984641 0.8354481223986698 1.2486854169023938 1.059534089192888 0.29912456835943985 1.4055350635167951 1.988392088115069 -0.4585299821437338 -0.07181541103929848 1.3066059072294307 -0.5395242600343323 0.3125898457298566 0.7674078471511734 -0.893995033158314 1.6520345910607652 -1.430886930195458 -1.1383931425350828 0.538845939855856 1.7517651612514549 -0.5869284095836664 1.3678054973132598 -1.0983803055400119 0.4481041899241289 -0.5506260637442366 -1.2506930715992097 -0.8403646911247785 -0.7003318028086707 -1.0412372882445344 -0.11950491728223105 1.9001427512290374 -0.42842110038623493 0.6230779494894361 0.4312806675138874 0.30877879505003714 0.3530871095302539 1.2735671361535463 0.2570967140897666 0.23996449720273896 0.500970565971855 0.31954924938802526 1.3415846948277073 -0.24737660233188014 0.5063663964798306 -0.6299730641517481 -0.41437581738092394 1.1558957599889574 0.48349858863988987 0.05177362449302174 -0.7505519673120854 -0.4503636548352746 1.357507695228832 -1.6399493135955168 -0.14768015499069145 0.7971080174293935 0.4803214404207825 1.319295676548976 0.6877000101937898 -1.4202930903696112 -1.9642364798846899 0.11849887447662699 1.5277311798503086 -0.478953237114629 0.5045109758723214 -0.9038896527305676 -0.5435626105267082 -1.1136728770628601 -1.2555674336710738 1.0087538935023959 0.3342610871620018 -1.0127678863436698 0.7435165640835862 -0.8764449764067911 0.8579428438109132 0.4068838119276123 2.1449831142170606 0.2879665017279512 -0.7677755619833485 -0.11044411987082217 0.6208877040544859 1.573404118050727 -0.6393734631174677 0.04656792188011065 -0.2981733931621896 -0.23774879026649023 -0.9793893937428324 1.537454108137645 -0.11012240705108195 -0.4732731001003279 -0.39240081480343686 -0.4346141184083151 0.7882904677112734 0.565888287450209 -1.3945272338184682 0.9968019289054313 0.6644928238197663 0.863758540269658 0.13345762359710753 -1.1274560789018613 1.5388926341712714 1.0979492235733515 1.0729799850886559 0.13032849444286837 -0.38818910149620944 -0.1796800753614428 0.44086493045118896 -0.36604563804652385 -1.191332750405259 1.0980991575930212 -0.43492194026130065 0.43204747435976304 -1.367554842880234 0.9745133695441798 0.35518879777920304 0.8257161372847441 -0.4978789195128016 -1.3739372361137243 0.8909237924202813 -0.5626136698332026 -0.08204908886262906 -1.761437204870398 -0.6891777640992186 -2.1311448132554065 -0.7919985399050051 -0.7799416439834255 2.0199536908689892 1.5191205502339769 -0.5815129317863257 0.6184851460988144 0.8783959315039463 -0.3879210889816847 -0.48542229890687283 -0.4238253426436123 -1.1010370770317708 -0.6226727315037591 0.3796220445991996 1.0316112600971137 -0.09029229141349489 -1.7589171034108513 -1.245245070284984 0.004614218043512459 0.5493906627845925 -1.7659165002632113 0.17350753202846203 0.5296159789913564 0.23042913895925493 -0.5196444140970164 0.37254455234441264 1.18498461849297 -0.02288500365076838 -2.010551939197395 0.13384996489813208 -0.08035422943503238 -1.178249912579842 0.8309739448498701 1.2700916056718512 -0.4906204816557367 -0.7390713509959913 0.1586801450490348 1.6869605365717284 -0.026946433089921652 -1.1266670660107694 -0.8612966953488589 -0.5426024609327084 0.812658636424635 1.4737380254686205 -1.1489389272170318 -0.9519190703600812 -1.1725429960317255 -0.12340558510807796 -0.886415191286044 -1.377515302046832 -0.3205793336403624 -2.243897632950355 0.4763672960223915 -1.7597264262729726 0.3184446767510106 -1.3300780578250706 -0.5089009072573275 0.5019906841256283 -0.5909494747450917 -0.2458520869017587 -0.4906609050405826 -1.0769281598911788 0.8846356698580607 -0.16756735258595062 -1.350818234932429 -0.34595647008908775 -0.6459073325749479 0.3040370376861634 1.1196193694756347 -0.27343495400364787 -0.3095474201739691 1.7099250970508604 0.9723753085224331 -1.01379231910196 1.6738688766482681 0.3081157520532184 2.0277645874878605 -1.057772306625129 2.1841299897027286 -0.5647045296129652 1.2414730685617164 -2.0437636111571846 0.3033342763294348 1.7065566794769573 -0.8796230019607267 1.3325880607513005 -1.2541493004866155 -0.013535438145365746 0.8508020175927342 -0.22210297333086226 -0.9308615492366549 -0.03508442019034232 -0.05839206792347329 -0.23799855548968601 0.5034211689685303 -1.346492683538104 -1.1474819488733434 1.4299856305146295 1.2640633461726325 0.40598980820906827 -0.04920167065927002 -0.352366628746811 0.14623899798866122 1.3905537577947107 -2.278863536958072 -0.8319266102754401 -1.4953818565825867 0.29355210486706984 -1.0578172508698431 -0.6096148773970855 -2.188271381691555 -1.7498595766358382 -0.46627726557358845 -2.0049256065216094 9.434189082039207E-4 -0.9383684354359024 0.10544528277407661 0.18573476329867766 -0.6687343326812054 0.7655970254922319 0.048690992836465385 -0.7396995191069718 0.1884958706063022 0.7220524914053923 -0.8541213517660885 1.990586287128885 -1.6222259558835674 -0.014144951436930836 0.5428953479126035 -0.6409276155376287 0.4947612031111642 -1.996715374594697 -0.10389333086304677 0.8667485027183304 -2.0325288207188583 -1.427168336700958 1.4424383435307977 -1.0369857286121942 1.1790751868077176 0.11816908819672303 -3.332968417529399 -1.8971756412275698 0.4030829411792692 -0.7417901611633294 -0.3035847099787639 0.9969193094658785 -1.1840735869447296 0.3723879713765393 0.45993658099369555 0.09576079290789656 0.3201711539105866 0.030139414823230636 0.45503439581981586 1.8531743592882712 -2.295231996997454 0.4930867560821062 0.07588499822296657 0.7096437547635824 0.3703869022625462 -1.3817943455633306 0.735844753835007 0.17322362655009196 0.06814185465889297 0.7140518781452755 -0.2536512227701574 -1.672360294489613 -0.23456287862771888 -0.08991822403780485 0.8584067354057915 1.5247156218154887 1.4887618083113374 -1.7601786422363126 0.03894058866987705 -0.4353305534965346 0.8759519503234322 -0.5051521729724031 -0.8958622251821917 -0.9092084025997279 1.4383040183712568 0.52985962498043 0.6275316677095916 -0.0855850614974275 -1.7208513293372 -0.45132109308734014 -0.5700259488188575 1.1690246913863223 1.6748526131334232 0.48979063548827095 -0.45861726218752535 0.44861649178968505 0.265748947602582 -0.916447283604855 -0.7213504500548961 0.49238420613692335 -1.1310628059242338 -2.349004756467868 0.5056810512740025 -0.2007683835296144 0.33446385785292204 0.7449371463894294 0.7596070049235527 -0.6836464024550282 1.81046433094864 0.32919670252563926 0.03638628843760999 0.041537749485207415 0.05986798166297843 -0.010283436740459933 -0.13110114534535985 0.14253752249128004 0.9034232812065386 -0.6854302218381855 1.398784045738675 -0.7984782168980122 -1.002486224527957 -0.9307140533478502 -2.0454463225039636 0.2940997282103551 0.5206620549573407 -0.21504526659244372 0.3144807391472596 0.9596711012817019 -0.3486992500346774 0.20124813513810985 0.8581706204079018 0.5055241836013575 -0.11028223288861795 2.0453677042048937 0.37629585236281365 0.18296727458908266 1.2425525145345757 1.1455981844028462 1.4904462118226345 -0.7583855019233754 0.6504105982678737 0.029782167908216563 1.4627815220296254 -1.368199534066413 0.9889167673211242 0.048944121760439364 0.5359958878135371 -0.31860671710411087 -0.605028717280792 0.31029078214130473 -0.42197753978377095 -0.2340704828433695 0.5823783273858563 0.7347655263051177 -0.9591003324655852 -0.28657887928530823 -0.060187736370015656 -0.73158222670385 1.0665900006462508 0.6368264445884033 0.6326880544496208 1.598151098992206 0.490119127628694 0.5704062859187173 1.980718798578423 -1.156009518544221 1.2336436524097427 -0.5526637131878663 0.6080457241367603 0.029702563273484247 -0.6527127943723238 -0.8319621326853204 -1.8251853216162466 1.5042213241217186 -0.6518716821956244 -1.1411133225593175 0.6430777926056683 0.3312057412066219 -2.036374757200969 0.7330645728796253 -0.48204753398485045 2.351722399994426 -1.1989063964709938 0.10921850863775812 -0.5202899024870735 -0.25793780376090475 -1.2118696369909603 0.2540762864761388 0.012978958235558514 0.2190178020666811 -0.7399997583202882 0.7853835339072924 -0.10336906152158068 1.9366441150282263 1.1125952947436828 -0.9969981333666971 0.8686487695335243 0.19968435707239104 1.3840476644981268 1.8922266471102613 0.03121074193937028 -0.9565234885007579 0.15769979251888 -1.0331394405852212 0.26700181339980095 0.7004672262124456 
-0.45133378835546323 -0.9053170825494687 1.161283766081783 -1.6392538331498825 -2.0786990902682927 1.250667761696809 -0.6047552609856666 1.5504785607972928 -0.5883082139177793 0.7407804610593679 -0.36844905226117225 0.44064753518615063 -0.47687300246608383 -0.027984871759088252 -0.13521597923034606 -1.347513442115719 1.3596258546251556 -0.4550546328965451 -1.2124926635535525 -0.3706671549818646 3.4541304714236194 0.5141086751853966 0.6902218562454552 0.19916544455260965 -1.3141906527690046 0.5761511781960601 1.439703600005852 -0.8931362222004129 1.6267870906500694 -0.5078757391839944 0.9647114433941676 -0.3939901169529507 0.961574448162353 -0.7744666617675071 -1.9111461567340278 -0.7246476085687291 0.5648205284946679 -2.3702891016117102 -1.502789966404434 -0.061417914552243866 -1.5661804794316154 -0.4701712829042723 -0.05726276883664647 -0.5594876170936139 -0.6106580689417453 0.9556241636696831 1.0841108254169038 0.14260017440128073 -1.2835577231909656 -0.5547424762432719 0.6812514848352531 0.47257000021089973 -0.06591438646130707 -0.8592413909437904 0.8513914571041089 -0.02737515212802763 -0.15703303469180727 0.21642626892488623 -0.9912227140813504 -0.46704835610417017 -1.9240836832470583 0.807096918856042 -1.2321622440183526 -0.012050978727979809 -0.2846651284988364 -0.18863057883779547 0.0076862131534363946 -1.3535464493909304 0.2611771517550204 -0.4577617928979351 -0.922019482898411 0.2679881393756506 0.8437119446331031 0.021913773137705705 0.17139089914413078 1.276540842591883 -0.5214110124737423 0.8777257782275044 0.6310622244552556 -1.464369359804874 0.6762334681085049 -0.22003881688705604 1.3807638204381045 -0.10945634177314853 -1.967598613339991 0.37725450374089986 1.106949854423984 -0.05515198046145929 -0.9946331566582698 -1.353487121885047 -0.2549419485140607 -0.11148998747796211 -0.45473287555662933 1.1508874899262846 1.5114342704714137 0.37576919887217225 0.5781276660219146 -1.7515684314378466 0.4133352519079627 -0.021758516863438625 -0.9826012166864097 -0.45679128265984764 0.5354246191303527 0.8662081720383261 2.234072786921332 0.6860652936201784 1.309538964321826 0.7702084158860835 -0.94775711536655 1.242380644556307 0.17312735973341667 -1.8561726395343996 0.7796406209856647 0.9348848821866036 -0.24955024453546457 -0.5472391919210715 -0.5026613085115582 0.31796796143294453 -0.9006254167721576 -1.110839189316709 0.8648514697019988 1.6588280019038224 1.1623418156918641 0.24316620723124344 -1.2374288049168072 0.053433115237592595 0.696284649161266 -0.34934129203736963 -0.6764712921962053 -0.30486911365786806 0.0982221405254775 -0.5338058739821481 1.4192348941797304 0.21275240315273242 1.0901687333419299 0.1396876841823556 -0.8628265644359561 -0.9533082103406469 1.1605745255279718 0.37780306597363233 -0.7893095868202288 -0.9531964399157384 -0.8604996574896775 0.27613158074996996 -0.9308762172510349 -0.9049979530949154 0.13008623213023204 -0.7465590432632504 -1.2076010441076095 0.007632341634696703 0.025094108688385925 -1.7474274596594426 -1.4112156332427488 -0.02423391892992624 1.6931401386884473 0.6024859676428523 -0.9256865933239278 -0.09176410969991408 -0.8014811805609783 1.361755306767538 0.06447361394280968 1.543678281912707 -0.8133960822170607 -0.9311312385211995 -2.352946630791871 0.4750562048537619 0.8952794954270531 -0.28903135045576805 -1.170882667028336 -2.067441483306778 -0.8238744676111717 -1.8604663524760896 -0.849179128199412 -0.6020958203498278 0.7872131363787388 -0.8053889099278275 -0.952665353597972 -0.9171058011050127 -0.4142315015322215 -0.10034431804739535 -1.3123743460952286 -1.6959069497914383 -0.28544481041166575 0.6022127953851442 1.504659670879196 -0.7086224079021278 -0.8054967636657459 -0.9363520131192484 1.1514678759089785 1.0459277188322764 1.2167719101522954 -2.35827318424886 0.385601354018095 -0.3327261783092475 0.11229880347338675 -0.3083250297007313 -0.49453857125025935 0.4623359847901571 -0.8181148622439223 0.8976371864411699 -0.8157245350092092 0.6123218572186995 0.5586041694847178 -0.49379075559005714 -0.31769291312145187 0.7833424241278446 0.25793214281477206 -1.6203587424468175 -0.3584119514046289 -0.698730737253932 2.731331535694451 0.039675704221786234 1.5841995820569421 -1.8578775288732263 -0.4805842978988557 -0.6957589137006365 0.8223713330989233 0.5758790909483021 -0.8878368229967627 1.3213398476381295 0.29615898271388436 -1.509317280800637 0.37954189109743913 0.2879656903741787 -1.0758601401184495 -0.7712632610414073 -0.15142325650025648 -0.1958701206810547 0.36085248820109106 -0.7722882050193177 -1.4361223193642618 0.08961298700036004 -1.0640768722685108 1.4416610499076148 -0.49380758463637364 -0.5490589719705243 -1.2417373375314573 0.18924941816233237 0.48196870688733695 0.7459192354774623 0.7796269891050547 -2.2989298019664197 0.43557493770543004 -1.9211413108395665 -0.6253008359263733 -0.23486077162694394 -0.30866064539213733 0.07598385522978933 -0.22900081165162978 -1.8620455520059733 -0.29161213294738697 -0.7303255626907106 0.3516722291744698 -1.0360608064683638 -1.697275643816754 0.33120349857434095 -0.5582745512966799 -0.46257365401847667 -0.3720382537113321 -0.3636916598665186 0.696224834995706 -2.1998000935284088 -0.33388974330712373 -3.3782391710606943 -0.6378665449220919 -1.1224976330598322 -0.6812390708676702 0.9842897083354485 -0.44927168584962873 -0.39233724305395756 -0.601651411726915 -1.2719314826270978 -0.9843444454727781 -0.290976795382576 -0.8542936460141817 -0.26247674016323513 -0.34752257602440784 -0.41165706746031994 -0.9089679661357325 -0.443754671214677 0.928646483657231 0.3609284350345182 1.413540325918458 0.7077321267206268 0.03715871624276992 -1.5836628885577022 1.341496504175944 -0.058486899447357334 -1.2119368675115691 0.8542321321159502 0.8631588905990525 0.4170679070995047 0.07015381150228088 0.02588780571400253 0.030260333887008824 -1.263257927981583 -0.9098777567668431 -1.522362688804622 -0.6098615096975956 -1.6952083102073583 0.8351585396377185 -1.1677069329828962 0.4117940896493776 -0.05165285839539296 -2.0934591028610297 -0.4577968109699628 -0.6769832507042921 -1.695363228738456 -0.23651056354586558 0.21198242902621878 -1.8105581700794828 1.2815904480525482 0.5728741734843155 0.7688722109595424 1.3909152145681183 0.3167756688497464 1.234075325020257 0.3735719890091192 -1.5161935579030985 -1.1031420547044466 1.430361219668595 -1.2063888978794615 -0.3593924431233219 -1.07488675334755 -0.6268146363094397 -1.7892881072309426 -0.040733185006702026 -0.09648207554583647 -0.2299746100712581 0.39547024696017175 1.5903180166359479 -2.30862497578315 1.2579517063389523 -0.9134908429645798 0.8963933957567507 0.64581193836892 0.9328923094938352 -0.790346494341593 -0.011523232956081967 1.1546074187411826 1.0298040315107972 0.9078697895763445 1.579319415962546 0.21908906230260305 -0.07314758412990552 -0.07850717959140958 -0.4687474111835582 -0.20792360029385087 -2.3257862943463445 -0.46380578146947166 0.6243989618995701 -0.2987639825259359 0.06773274704432077 1.0579532748620744 0.5284174379235143 -1.1614694473611 -0.3167234855323843 1.4349878384486159 0.2564635093121416 0.6130758124723259 1.4621120490039354 1.3079010486826732 -0.4960808484627664 0.0487908905815108 -0.5131576368051253 -0.14506360656084066 0.1272241047325335 -0.3455198694399459 -0.5924411407319674 0.9016924098164967 -1.120984750430775 -0.14359439479952976 0.9751071693004402 -0.13839351378964895 0.11524134058980505 0.7773198652234418 -0.18376760422893165 -0.4872051998191105 0.5252576977189984 0.5396884060221175 -0.3067106162218062 -2.168017775813095 -1.3173096165404874 1.5129991126116427 0.15304303447132506 -1.4146610542572429 0.15998549980160806 1.2393562768311217 0.8144636873229006 -0.32905821737384355 -0.15181966234584726 0.5517591548707447 -0.6518258670554595 1.6244493597882974 0.13483573877873067 -0.39697336230051194 -0.8296769212314485 1.4179503262809918 2.1681652018777453 -1.3447704944108632 -1.0562854927428202 0.48914278931618804 -0.7730609698501932 -0.8134322996655786 0.19984654566623472 -2.9531674193233504 0.8340186627354829 -0.6603849106033917 -0.3534203437266582 -0.5345080718991798 0.7405209336488586 -1.4186362481542587 -2.018278854868677 0.4289310871854973 0.16400781791975802 -0.6650592110323615 0.14763560474781479 2.465405292818406 0.8503429602545485 1.594799920188904 -0.17969515929029195 0.7369427698031871 -0.41396366118532 0.4944666596334096 1.4636178722988287 -2.097744723744482 0.8085384717354439 -2.383219713079601 0.5898688736875058 0.5247631024243977 -0.9139273647517286 0.6782577265882718 -0.11913074138531177 1.3327189860104365 -1.3834686938278915 0.012228354696362465 -1.0347732193419685 0.2551580938493472 0.18915867942731693 -0.32858931606425285 0.40293196051526853 -0.013408623242612843 -0.5010915873891653 -1.0889563145554582 0.9173359950883438 -0.13967513025270684 0.5861085255152471 1.1441593701131942 -0.6939594560984612 0.6162555976081074 -0.9926470565062889 -0.11702550333828185 -0.8163610768424308 0.6268984848185141 1.8572083826154757 -1.021272655448795 -0.021376007451808114 0.04112843224746079 -1.0375500998772107 0.6119538425918575 0.5407870307704481 -0.14472812822908085 -0.27300277497365105 -1.9780661824202834 -0.3311741177910774 0.47607200495950236 0.6418995537203372 -1.0262699511467555 0.552145585323213 2.3034473881374384 -0.11750684698387293 -0.5885831543599365 -0.980618441821839 0.5937129338042173 1.0394765974371816 -2.6064422334057658 -1.918483620475809 -0.1658381804648892 0.219136507203668 -0.022072002885017174 0.676312284917792 0.344574675048174 -1.3534549570955858 0.8172480981690539 2.2768028193493226 0.10518005574891401 2.95598428966143 1.154761611246023 -1.3830801287311705 -1.4762396295052183 1.1152493957530731 -1.671958277408044 -0.863887792463414 -2.5474491951210783 -0.4687934416359825 -0.1295998556446734 -0.6462998086464479 0.6253898094065475 -0.9246212558838619 0.21979625604251787 -0.18719687803046686 1.3148874852154742 0.030906020088273083 -0.15047004968374433 0.335922572413051 0.39320227968161914 -0.4813353037794651 0.7371606817364856 -1.1587595049174804 0.1616134855022064 -0.16247522917756954 -1.0187547201898712 -1.3862541891980638 -1.193680769085432 0.8885474193336805 -0.07410327488856511 0.5678419643498661 -1.081784211444706 -0.22585737062680225 -2.237981924831017 -0.9494674666186887 0.5141796293574519 -0.04780482785416551 1.865204513198572 1.4486379312181918 0.5179490413798077 -1.5783965108480904 -1.558355208382942 -0.7186684575673126 -0.6451526665698152 -0.11879234776567689 0.11953265180589186 -0.7039230170865619 0.4934444373853565 -0.6036015139430478 -0.2807145014300749 -0.16138530858824793 0.7067711035347292 -1.354691363677873 -0.2032729668665832 -1.2371852709974147 0.5808618367097618 0.11728548390422493 0.7624515459016592 0.2856437755584828 -0.10465550637892067 2.844151677875536 -0.24456748666239042 -0.72153811356548 -1.0610558658581883 0.5017783994401317 -1.1850133619930008 -1.18890447305601 -2.1264674697315242 -0.8370683387579921 0.5350333734803283 -2.021811029461913 -0.06342808065490665 0.4547326567611781 0.9632652294522822 1.3599740550226567 0.3407287064235878 -0.7306298572952836 -1.431634304196335 -0.052792482065368296 0.8437233016554497 0.6175990539595545 -0.2435646739477724 1.5641455103970683 0.2579298317765073 0.527725926483494 -0.10033308973535209 -0.6225465944552355 0.22917890402483546 0.7134801895370959 2.3076374458986897 0.1653579599878419 -1.4538355491923411 -1.4996051193433855 1.965975457557801 -0.8176219240954159 -0.3770812335550463 -0.5677822062168327 1.3791008677593768 0.8799901446539502 1.5592739909039397 -0.10512084587559259 0.13691597628633861 0.4328159022389115 0.6566785359606127 0.4575054019780136 -1.1311693072760929 0.030910049089365812 -1.5528411692322153 0.4192344008651945 -1.5223673865692504 0.8965066967753653 0.14913650979722057 -1.4317856016125154 0.062472221299192235 0.6372508253373349 0.6303700338755762 -0.15381324446990743 -0.12059570084020009 0.7519144303927233 -1.2800562393375627 1.10149843391185 -1.488141913839254 1.4629411975924087 0.02321513081442751 0.8537844361737003 -1.202632386044197 -0.662939195734241 1.2722173515809545 -0.5338918083566542 -0.9379910083432387 -1.0716057267447006 0.12310972357924443 -0.8410950180272044 0.9339684142751238 0.10653627982851863 -0.3612512588047769 1.4694399662731794 -0.8633660819091697 -0.9019193899599041 -0.5381015086662297 0.5355924245503485 -0.108531736482987 -1.6877855553261372 -0.2962422559380253 0.45874492809657297 -1.7226576554237203 -0.22262876999376655 1.097868775404627 -0.26886307552955596 -0.12896790983050777 1.0339212180234023 -0.6838300373796314 0.030361384619420784 -0.10627895134535557 -1.0002753902257155 0.19352858609290163 1.1711755411091964 1.7451556405603312 -1.0454612333869124 -0.05672752001159934 -0.6403883551156656 2.378379572278859 1.074569731648797 0.4425071556762615 1.161078048604612 -0.14842529367476412 0.008497228681456418 0.304282059864226 1.1718448759932396 -1.9138236249761842 0.3535661727958332 0.0630840898605068 -0.7498712221428722 -0.8906575618445355 -1.2829078098907085 1.4737711770180908 -1.500015705684001 -0.8877842372856307 -1.0154289922786373 0.24395040120465636 0.2670412697081645 -0.579219719068047 0.08356236939842462 -0.1345388708276251 0.9477223088878504 -1.2372916281127497 0.5474469927719392 -0.8119277611370395 0.35534587964205727 1.1202572944785985 -1.067647332644299 -0.5535897541164162 0.6651120658288107 -0.6794633264717324 2.1115227313689537 0.4532104459206794 -0.6469061698649083 -0.6068313581007693 -1.2524096937539788 -1.2709839367144817 -0.7681566498488492 -0.03159456728277674 -0.5739254471769727 1.4956104104366674 -0.4120161465255212 0.9293083597645825 0.6140320127550909 2.2689969344487526 1.081586714104426 2.8145493231655037 1.6433477201445152 -0.265030447126708 0.7358887748019527 0.8866434869361582 0.21182270819020382 0.9385931617655653 1.6152665609243189 0.5544598410760495 -0.6421851687545548 -1.6636581965008839 -1.1273726139265632 1.5163425675279298 0.8867036771553147 0.27301889773145893 -1.3485431406737534 0.13799389624857428 -1.1247768216795606 -0.9191143468000356 2.212922771008687 -0.9122745960864387 0.5259769617104779 -0.849335058050403 2.009000396199524 -0.623780215764676 1.1503940414253941 0.954281120369673 -0.09686356093546213 -1.2067665612430614 1.307249102110152 1.100265559028775 0.3003352462673626 -1.1028032394301743 -1.1366550207883381 -0.11823950675797656 0.38135078268310674 1.3071456929798748 0.36499506943219673 1.8832547389740235 1.5988215786300652 0.9919897957402182 -0.615272016347774 0.5776809434890345 0.7175134572761614 -1.5493894439284972 0.04013855589501158 1.080532768706915 -0.1954525280674804 0.7643416848675548 0.1385456051656317 0.9565773956278796 -1.9455796589547119 1.1233942599741227 0.32941525489575 -0.597957111778154 1.572205675459151 -0.5522861879807414 -0.1733860802922939 -1.7207535814074277 1.6767479115825565 1.8778899497227008 0.14294395007022342 -0.4313006995400123 -0.8116768722132386 0.37281292294902374 0.5398796327640045 2.0832026154935974 -0.9799113156803633 -1.414945717777875 0.42265340987846417 -0.0629778741919726 -0.9499831886591007 1.384160882037649 2.0963572427668975 0.7692593077060325 0.11538354894003083 -0.6384997025704537 0.3851822577422677 1.2666500508614813 0.15002660170076215 -1.1351914586430172 1.1121696044361495 -1.3196886652008792 -1.8262516652990657 0.6279731034740652 -2.7449090685968445 -1.0457529300010364 1.1410952119752975 0.5885346011653041 
-0.131340145549015 0.8492925489551334 1.6143605003411021 -1.0662046968202492 -0.12427201536121868 0.630121166195 -0.498939704171448 -0.03958093351294802 -0.9371287183048955 -0.6472041207385926 -0.08507605827966773 1.0590799065706153 -0.0015395730509024036 0.25540412402972934 -2.299316910035576 -0.16564588840933656 -1.097445998452046 -1.2613375934787927 -0.5206656505004119 -0.7425452990970913 -0.9681042753216134 -0.8444236678672362 0.7151857476696436 1.2952985047328662 -0.7019589077512167 -1.6876720883643987 1.046949189281387 0.3536421566075101 0.2599917526840572 0.5937781049922152 0.19747171050314932 0.24385944975179402 0.19540799713218768 -1.6269486629430527 0.720067205240994 0.6238633237313594 -1.7977706078559492 -0.35245321623329384 0.817251296101751 -0.9101837680650431 -0.4896589150357696 0.20816729574441808 -0.8692569540247133 -0.1224308014800486 -0.4349064829927587 -1.4712909847092677 0.12842691653910862 1.9566791439612043 -1.9265474526311688 0.670545848904778 -0.9892637660351815 1.134407625871438 -0.4093400585381177 1.0941182213206564 0.12033056520378406 -0.10923941099649931 -0.1621782092273352 -1.279571567500708 -0.22788442559116695 1.2961036312986267 -0.08724602468775808 -0.2092787959933112 1.0164594653718795 1.3587084362542017 -0.08010654090241495 0.7253120371701115 -1.3104812290088967 0.6159708875955023 -1.608705821321378 0.5795756760439994 -0.4240122530508143 -0.6139346141061611 -2.1190492154446883 -1.2652782868029446 -2.970313930637333 1.1270521158247782 0.926764181772123 -0.24384988441393488 -0.6772816881169311 -1.4191982741780378 -1.5717707303807587 0.9509567031005073 1.0504747867613917 0.08032990743607701 -0.997236828687655 -0.8922704920324239 -0.3639150791415512 1.2241542322872645 3.0083590854535625 1.0020245532899825 2.031581500515729 -2.4932398319086646 1.3671887505137683 0.3864874071459219 -0.5888362212637398 -0.36068804049927916 0.82866852210919 0.4540702680588919 -0.6992324136172575 0.6739624044915197 -0.4770124473070559 0.684334686175996 -0.4186977199497324 1.0170517367564487 -1.1902921101868376 -0.09867187749368124 0.8597766592431964 -0.9341490264841992 0.953457459661096 -0.6198282392767285 0.13137366795226063 -0.11880104928483123 0.4300550947650748 -2.020310437547099 -0.4100116184904305 1.351132777889639 -0.722872701215565 -1.391814958093655 0.10481660181083485 -0.708819046855879 -0.6882002252173458 1.4882624561034645 0.16197354778976233 0.6484236490248737 0.7655950731024314 0.6467339222406027 -0.7649917708458703 -0.19044045347134997 0.11370573038805863 -0.5777798254040226 -0.08001893873997323 1.354207223090643 0.17358438460527864 1.2861128013331724 -0.0668317129580255 1.2424643714402468 -0.4615553039972834 -0.6762844144931295 -0.6897478125019596 -0.07155199992058991 0.9025701557521931 1.100688727893451 0.5576875700114043 -0.36838601825266687 -1.242974179234779 -0.010780810067788289 1.8056737233313698 0.5331513416869096 0.6481604930607975 -0.5750340614488808 -0.6212811208432588 -1.5914862663667475 0.7256909097203409 0.4813953937979792 -1.1892247773395155 0.3581151134634254 0.7485147763508084 -0.06308457406140656 1.5798438818687701 0.8624386127924499 -0.7507524761042177 -0.1420700969418718 -0.8038099469375072 -1.7202057837437577 -0.4173743526539577 -0.6067119999729488 -1.1471416747670313 -2.246356188444121 0.2387835732970236 1.2141364960057215 -1.1087736299786484 0.4213003588632043 -0.7644467330385959 0.7869137116865125 -0.5660202843506266 -1.4481353215107668 -0.015686898995761443 -0.6129097165692993 -0.5133540523076758 0.6476656058904112 0.4012952916386505 0.5394219352900401 0.4393933643495612 0.3918497288978325 0.8378918813114928 1.5608748925769673 -0.7647074532643181 0.15955978786342934 -0.558538613074509 3.6185780889555827 -0.2877048457029789 -0.8062702836100826 -0.0637015727876427 0.17685181044728687 -0.7328662950682258 -0.006621589392661731 -2.3220449294830696 -0.33619646229066147 -0.6298177809319154 -0.055008889965111635 -0.42565628645236414 -0.723423390231972 0.6635928698653124 0.19572324862668566 -0.20983932617960452 0.045676555414468044 0.5184724734461249 0.4770089769233662 0.28850840253435506 1.8215026508959091 0.6758720321465299 0.36443532462235906 0.11470930811187711 -0.5138492196342104 1.0948488801039016 0.637283065511345 0.6737011301193141 1.002844674360567 -0.3500082904309277 -1.5448635806235798 -0.859943652681694 -0.1447560887787039 -0.1759300935951522 0.6924516083659757 -0.5550235873181021 -0.14378546446846496 0.8792859579563552 0.4492310392812956 0.7623629638506225 -0.13396748409933865 1.7573817718403766 -0.41913719489361406 -1.0393201324115868 0.32854747038804005 -0.9458242790178392 1.3556212423302791 -0.6171313885283842 -1.1843542547317847 0.09862434985353608 0.1317466688646592 0.9070841297842039 -1.2180067932662875 0.7273268987082507 -0.35079552791725177 -1.6025084590080831 1.0976318605875497 1.894292532557214 0.17139173647924777 -0.06849872024037833 -1.3310547783675155 -1.2184640797716095 1.1692216299563307 0.00759314753746893 -1.1088470154584582 0.14865924427657737 -0.21619812265429775 -2.3862032807508755 -0.6475609200436759 -0.8844109634146614 -1.2131779299655854 -1.6330685715573408 -1.209862989162662 1.3466506464166574 -1.9273750176516882 -0.8489427861613139 0.27108483505219666 0.057012129986342606 -1.073899678968291 -0.4322062517637626 -1.6574080622135228 -0.5242365229606544 0.5298878331841366 -0.6870559641633031 -0.0604695641711078 -1.5969189711442622 0.198965019002663 -0.8470424840257541 1.318270718378223 -1.9572097646303688 0.018679365831816223 0.15896331007145795 0.9588277789036418 0.6378447875501293 -1.6204653788219017 -0.056983028118352784 -0.36694290396659857 -0.05505050468848873 -2.690953632923727 -1.869217545109834 0.728057347964977 -1.8883959600821782 -1.846948259537782 -0.3248529917489792 -2.684380780207653 -0.550678261755753 -0.8618201595711242 0.6973343546313954 -0.9704595318910066 0.8651618715962521 0.4726185460851245 -1.5219245180248604 0.6984370128617745 -0.3593340757072525 0.013680040081074972 0.3943045504518924 -1.0308119523696788 -0.9431622216422425 -0.31169628475972 -0.4571228442451206 -1.11344815352042 0.2323891715555216 0.07157001047069202 0.48557120226906086 -0.07586490074662228 -1.2385792534679092 -0.07974067621782929 -0.41834393374841905 -0.19683152944675794 0.6959846150612387 -0.3283050812980294 0.006579166774227857 -1.095586880384759 0.10419090444690088 -1.0443865058637885 0.2955918516033205 0.484176473081356 2.4064175382313335 1.5662662197415664 0.2510685587622616 0.5640500109738819 1.2877438311771299 1.1621248252890863 -1.5062911640323453 -0.02306258212508019 1.3630232434923846 0.9519029096502747 0.4142936458255433 0.0870369920340278 0.5458192615208091 -0.7008585692608826 -0.6853738212535345 -1.1236179367564934 0.6936579666439469 -1.581884171331449 -0.6908923709713528 0.06532831383556532 0.27748865473763656 -1.9751362096352836 -1.1465124547025334 -2.4137093087095263 0.2504766271733044 -0.007393061900323219 0.11044893035514756 0.27471826949276645 1.5524697988953073 -0.6721274947419786 -0.2943383902827496 -0.16964684465611252 -0.6924308910942241 -0.542691495962098 -0.47142261762151955 -0.3562091964058928 0.15091872855798058 2.1372268070010745 0.8598217696420329 -1.1188720040721218 -0.8156560317711063 -1.4832376486842334 0.9089703468469553 -0.1343139237336034 -2.4207780251521047 -0.8416026349371442 -2.425166716691095 0.8688005562651793 -0.761350687025107 -1.57119754344318 1.58606575109886 0.7933684487493468 -0.6108057834382908 0.3192355395244363 0.999235659947108 1.15803650754139 -0.1090417294228318 -1.5338850859557165 0.273044271852803 -0.2931925813426191 1.1559937605144992 0.18828283823596575 0.38786867127842095 -0.9108510225402601 0.15512579503621185 -0.09699122110596037 -0.04653735896067513 -0.11992913567321055 0.0066649834330271595 1.284978884921308 -1.160827345605023 -0.42260902701478076 1.1059079200420738 -0.35105161732404166 -0.7183972065631343 -0.17292462379370288 -2.1543463690092906 -1.4624215035911734 -0.10029807231082627 -0.007543935523567236 2.567877586054383 0.04310226248182493 -0.3980054598849344 -1.32006762140588 -1.7471616457511567 -0.11079782520240729 0.04460638810744615 -0.18975059080023218 -0.3006821380066387 -0.26408561870970654 -1.831042752402894 -1.9408628492272142 0.4555744540125869 0.10728678730295169 0.28334903155324304 -0.6288428436531797 -0.5884529531249476 0.7829557682154921 0.923055730721465 -1.3319832277608321 -0.7558347040596124 0.5632361326679888 -0.503969789684308 0.577869934548093 0.39112486367359073 0.658180064316101 -0.16021116114254033 0.37811847359602896 0.24535667635932423 -1.3733826654822958 0.20899999476487852 -2.4341204455893655 -0.707078650771377 0.7833439641583689 -0.5674150130887502 -1.498768100946787 -1.1927400049008121 -0.14712556008273947 0.2456712396672546 -1.1247928478934037 -0.9772177170118588 -0.4578036409143213 -0.053178145490295356 0.05943519807479871 -1.8010447295171301 0.7042089663680491 -0.4442830034311075 1.1986993440822296 -0.5006265428873911 -0.009165244737196153 0.24007033728211685 -1.4668432129471163 0.34439219365414536 0.30205263241657615 0.6008003268746542 1.4596132619483564 -1.2886010431284594 -0.6307684792453435 0.6758173152118192 -0.060479331687563684 -2.182862615156453 0.7417379760798406 2.2757034967760665 -0.25011890699136796 -0.22462078405632585 -1.3669595745779912 0.055689646383217765 -1.3047964417865476 -0.3436992256077872 -2.0710179541101352 -0.5332729139840895 0.29573299679363374 0.629585119013769 -0.23292283717458392 -0.08884254664033628 0.14484653089818608 -0.03584736348515087 0.7084181035435693 0.9256724455280781 -0.27808364140039277 -1.3756955470937553 -1.1084104729916677 -1.2904821443099677 -0.1662290332735785 -1.4367423899474294 -1.4901113529532644 0.7197429775753819 2.6611595451564085 0.6000956873646338 0.052786755146906554 1.2263263030846274 -2.9544352792154074 0.3928294624409297 -1.0325643904587425 1.196233485246437 -0.13797053247411528 -0.23667305375605724 -1.2738623254421337 -0.8546159622859966 -0.9351800235957385 0.3156234897497642 1.0437558725065703 -1.1944407425928314 -0.746826218288693 -0.4844050817744024 1.357874607535616 -0.7475658274649054 -0.28958986285004923 -0.8306544291183267 0.5987268039764952 -0.15894217421423495 1.1255658214520805 0.5091542571957994 -0.690965422542147 -2.635563538371022 2.213620749247759 -1.4798439229435219 0.9082056597369302 -0.7254154427939683 0.6434139084502275 0.7327416696024772 1.630628516223148 0.6760099325344778 0.44318295051710926 0.6486583816467688 2.300861535576057 0.5957657670322827 0.6518921153103906 0.28799123925469167 -0.28860087786672123 1.7486975971347254 0.5022577710051404 -0.7361199136061767 1.307645022408295 -0.4817164227874627 -0.2160393862567527 0.5515156790231455 0.19062891296351084 0.23122756306739853 -0.6342033700847276 0.6483758642779355 2.412482906295537 -1.0225554521672156 0.05904203797940721 0.9662718659149724 -0.7205734768590244 0.5483265173016121 -0.19508089473870047 0.7279827916608805 -1.1482080610595626 1.669658856088392 -0.5790056002252801 0.1991269177488255 0.41016702370215746 -0.3088459945074833 -1.0393971774216582 0.23052981403944425 -0.059355336935206074 0.32664342667907253 1.5497303940587435 1.165284979757506 1.7367186643175325 1.8831174452766126 0.3383276239581564 0.47908711581928015 0.451686348863434 -0.8934489128938972 2.360664875675555 -0.7082091096799857 -0.1364007737518303 1.4009266339596187 0.8656693369544235 0.48263657475760197 -0.4240024086002821 0.6143495953484386 0.9508319577121747 0.26783430255888646 1.7177884549404583 -0.17334028969827517 -0.8931905612450216 -0.30885919590850014 2.1141801139487835 1.4401864359074072 2.099654425870214 0.9786469220255486 0.24203835001751714 0.8955509948562533 1.9211463955122428 -0.2686027445675403 0.47279873812143614 0.5575168349431382 -0.31109482987883663 0.7111841051384189 0.7230339571712666 -1.4132674845605504 0.12845981389936154 -2.0226390148598785 0.5931588937880928 -0.3447750628991396 0.5416016010535835 -1.3791638195011064 1.6286426791057738 0.3158261762159134 1.761390394164185 1.451352848903414 -0.010045164908238927 -0.9589547413506994 1.0790429286929974 2.0156764947479844 0.12019885271635604 -0.8486836713676051 0.9797776137668065 0.38164279615192054 0.4745774293712917 0.7433096240214235 -0.5470459441523976 -0.2238509084868793 -1.1671667900352596 0.7945744654564857 -0.5585475918615047 1.6779856985528836 -0.6460348623035073 1.286554697252023 0.384849789047928 -0.9720590316146592 -1.2327142396187256 -1.5961454437780156 1.1106151988242403 0.43093174024297054 0.11610916977862341 -0.4263093211740304 -0.8855925708771071 1.1182238103068332 1.0531198383826161 -0.35091491657144 -1.6311887928759001 -1.0782642446482698 -2.7522398618927952 0.3613258460050252 -0.16184713130933925 -0.7426100069018975 -0.3409635458486184 -1.8313668043496243 -0.27189099986005494 -1.1404428204232822 0.025350498525896315 -0.530168321825699 -0.7978219248870028 -1.1083323324780359 0.7692690976847149 -1.2838290988350958 0.9601153289525468 -2.362650876295269 -1.3265211006500626 -0.7991577766716053 -0.30294446739270287 -1.3586841044930578 -0.04895424868257469 1.280830239862508 0.6471128832277333 -0.46786734964205134 -0.4129086544647185 0.6611408476263351 1.7348568908107014 -1.3257174092573611 0.5275579191030122 -0.036289758860743336 0.3016542391662993 2.7178751647489734 0.07872489944056489 -0.7084984744208142 -1.2035105139482107 -1.150791523084306 1.2408910868803795 0.9515986363679556 -0.3098323832562466 1.3359948690864238 -0.5418602381845591 -0.3750664333584583 -1.3816477475278828 0.6998642687299369 -0.09539130172954921 -0.7463462614715581 -0.5123495931108765 0.09168843974141623 -0.43181310967215925 1.9469420888012945 -0.8101910587481554 0.7766121246779618 1.2938391436059586 2.3320098599515777 0.8620315546361148 0.6626843343961364 0.7674597367322463 -0.37183403089133227 0.500672671402467 0.029578918635030326 -0.7688186667755924 -0.023790869182274313 -0.12460341070544523 -0.9434490267006113 0.7817489313244551 -0.2219541939530683 -0.36231721381858806 -0.07175380621036702 1.0467581313147352 0.7106543128238412 -1.2731902606880083 0.2307570691979585 -1.0468096999904164 -0.985231189354187 -0.32572863249044526 0.2842306402565713 -0.555756454415377 0.5502095084732738 0.8396183694194123 0.7279278226770441 -0.0977429491134831 -0.48049777632979007 0.8637387282979595 -2.952514097613257 -1.3262786258464028 0.6936027409679947 0.028925429148507938 -1.4921239602169218 -1.4520287934106264 -0.029011515417437142 -0.1068013879135826 0.9395877934698417 -1.6091647912742322 -0.5163514869401673 -0.358922431487853 1.037465962786149 1.9282080914473636 -0.25080732295725133 0.4420920994504537 2.0612035578890398 1.8444125138538343 -0.11850935265763946 -0.582261136334661 1.564989849638917 -0.7202184254068777 0.8721384817451607 -1.2501402399330444 1.6276671667429816 -0.7898150622405637 1.032022412443185 -1.5781772260065168 0.8166042773188381 -0.39537094718943866 0.0012007898012072055 -0.43376015656999556 0.640172303893038 -0.36224074930396644 -1.4229691460117437 2.009684939287574 -0.9915398136073937 -0.360209467071309 0.4224459172136319 0.8460642306847788 -1.177344182571709 0.5377250100716935 -0.24705820453079774 0.13272234976552938 0.2718087483176054 0.2050807360098486 -0.1837483395186254 -2.792424019513714 1.7939874344457858 -1.456480670346457 -0.6937317921211448 0.038024137412066186 -0.7733392301770828 -1.826869965937089 0.429824148071528 -1.1832492032426039 -0.10773691056824579 -1.9975733179956487 
-0.27575912824621607 -1.4256696424518256 -0.18113814089783353 -1.8533274454636965 1.1736369982867663 0.5189814981233076 0.696756500533129 0.06121320520096882 0.2892663469180742 -1.1226769770063898 0.2122362729990061 -0.48504461629388285 -0.43533900580184964 1.0321418598181062 -0.06822112394512157 -0.20038048069477982 0.48366715009917727 -0.29175870492613376 -0.3028567875670083 2.6259315658074174 -0.4490701366702874 -2.0637320460988917 0.5140787388093759 -0.8077315438770273 -1.0519434534396366 0.3788749249875928 -1.4071759159079995 -1.454780993031872 0.3811752632800251 -0.4117468219827777 -1.0437199863177764 -0.5244736539785404 3.037286611487273 -0.7023942788223237 -1.0469366257354435 -1.2753879710795484 0.20656857796382386 -1.3543091521481017 1.3307348866888293 1.3170267910441182 -0.9776954736092183 -0.0840063739564694 1.5720004027315564 1.7368297297713746 0.26960163066066484 -0.6339271073068546 0.10142802714494972 1.1679859477108672 0.3712588503789435 0.8951632883253074 0.3843650726389787 -0.15953137677429652 0.3362231922116065 -0.516669807297307 1.6898464094266321 -0.6153136301058595 -1.6940070543679255 -1.3301905471392987 0.17303830771225287 0.41630489962890843 -0.6141846368703685 0.8481137731664831 -1.952236004331653 2.069465163220267 0.7950452220905925 -1.001798218434417 -0.7624205814698961 -0.6584341958434063 8.877725149715076E-4 1.5545729010087477 0.1891766155984267 -0.6858617356508742 0.8044358190063243 0.5995388294590346 -0.9607936855743777 0.13060980224021276 -1.4446837998593585 -0.010224743491208773 1.183834635006287 -0.07746986074424633 -1.3612828832949462 1.4213638352948152 -0.05908986135708929 1.5519460847309174 0.7200883228226205 -1.1046542104552057 0.6513213711104783 -0.3253007519930406 -0.45268891930748106 0.41308652204734647 -0.685670245240452 -0.5124156366780555 -0.5209947061497168 -0.7556706549175262 -1.0973272388429016 0.2302759571542293 -1.2044961499004756 -0.7829509779819622 0.10706492736236706 -1.267498593527232 0.5151939261835918 -0.21519301068091864 -0.2032889157330186 0.27925162990276775 0.7750593500891233 -0.34014432814029955 0.30055731894226156 -1.0938916302528332 -0.36588390844560337 0.35076806409944195 1.9682111753787515 1.5556178766262614 -0.8220835649354149 -0.020617194149350624 0.8804063668182359 1.4122338688304872 1.0794991151343512 -0.4664114483119828 -1.4441909217502864 1.151789265411296 -0.9048545852659131 -2.4387937978482706 0.25813099108664445 0.9917203910399588 -0.5095287630118087 0.732878620320199 -0.6654252682546915 2.514788723632921 1.3398621058704112 -0.43607141840399777 1.2284262927782672 0.8824364672574903 0.75419254262731 -0.056691967317513754 -1.0423103517895016 -0.9168219389250506 0.7875829457192491 0.7593406148376649 1.6442864096394303 0.489083665385681 0.9067271901837062 0.4130503176115874 -0.14521649442032614 0.4426085500237472 -1.4352364868527532 -1.378703980788361 -0.3339040977117042 -1.0923408520954228 -0.6327771064526626 0.5668401089185746 -1.5460172382214807 -0.9182866345258595 0.806686521599315 -0.6392410477253002 -0.9353031562235055 0.5729013626586236 0.2768910062439465 -0.4595343997390806 1.4301517822222414 0.6778459972804531 1.5401200084146411 -0.5399729458197988 -0.11232511739492824 -0.5764427171149871 1.2945057109266969 -0.8900066258510884 -0.5369432131427437 0.30060266446850786 0.625079581473932 -0.15043797536017398 -0.8452600218843039 -1.0378594865729824 -3.5503790786483442 0.26714658261255086 -0.3425069495454409 0.3936304945094514 -0.5155209851584092 1.5858224679483686 1.5809646279830387 -0.3536649460570159 0.4490689779591556 -0.8072728830371225 -0.3258416672634267 2.83217109122973 1.221359508555014 1.5946441533804983 0.3240552541104186 0.10828659048074092 2.2788137333007423 -0.07108510456131027 0.25295670698037465 0.07242955500143931 0.911829678784801 -1.0535852794338498 -0.32277232883248114 2.849160903200987 -0.2437051676027794 -1.3104600755175597 -0.2993556749441524 -0.7765582773930845 -1.4371860698402512 -1.3746923067460428 -0.9506503388644884 -1.1340741697084045 -0.8231165832385688 -0.8282886798970933 0.6261373775630161 0.8128054762744337 -0.8837853326696143 -0.8910749044141458 -0.24201598760252135 -0.4152155943578845 0.060879806449777925 0.5085312332492437 2.7630710107829204 0.2697349709541579 -0.6348386857482646 -0.05665481591869159 1.4162670971794857 -1.1532117739509362 0.06740406559774023 -1.471482065325129 -0.32897523144094654 -0.27461018827954153 -0.1698688702450583 0.33249253211725405 0.11005271732586393 -0.4137511186773383 0.8711919671702385 -0.31596231556413257 0.8271331423057974 -0.5935869408274002 -1.2343374203824136 -1.2645337701137565 -0.25964439669316197 2.101022490145191 0.6859957887772767 0.21826555442879442 0.6495751413814116 0.9748149060505298 0.19183577273471047 -0.00878968164640448 1.916143185549873 1.8570312621148217 1.1869659442127782 0.9114395838048165 0.27492539770907465 -0.9370198272243697 -0.49933774298472167 1.8835278382999652 -1.725636035734911 0.2591975350284563 -0.8773297928844167 0.7543795835832838 0.42395726785424453 1.6020134402880917 0.5063652515693929 -1.9310759634262522 -2.328666139595151 0.7781506704623822 0.5931467417795931 -0.7363350822611704 0.5198283392563214 0.8983594657739687 0.8864920954412799 1.1854602100599854 0.7176823682099586 -1.747258014822761 -0.714703314851563 2.240371246265657 1.1892809872136012 0.24692574380488758 0.24081999693707706 1.4678414010411063 0.9694800946928152 1.1080320556536534 -2.2045456590982826 -0.06030273541002025 -1.4262518595594853 -0.7520859333834731 1.393861987262009 1.1004654540669572 -0.19475801827028225 0.6720105058835357 -0.25773691112275204 0.5156799886306134 0.9286606505818691 0.4232284075694354 1.5336267138863804 0.261291401620538 0.07799829027419515 1.0179241360302884 -0.23719997258057865 0.8878623543684143 0.3248792044322053 0.49439277206605353 -0.8033942832066425 -1.0481143461083349 -0.01161020161700185 0.04801454076139465 1.032486316903008 -0.07945599670331084 0.13251545140587637 -0.60763883501739 -0.7706396399758488 -0.14849005636035986 0.39404507132669747 -0.8032469763804151 1.884952004401933 -1.2618179635962818 -0.653500693140719 -1.1127539960037562 -0.376763530480706 -0.9765655330251531 -0.171374215010199 0.2715393594658409 0.8083896417492041 -0.43693474731602217 -0.03636289253912969 -1.725680461947727 0.1993388668468163 0.6646188757013449 0.005343477198142752 0.16590512997097934 -0.14691438117442393 -0.23866352054744425 0.2094770998926688 1.9632493706990801 -0.07349678674971592 -0.2224233069477882 0.8749804986355237 -0.9224861739987893 -0.6352552247399101 0.11736760882968038 1.8326803053834926 0.047200766205239685 -1.6641211338805648 0.05767201881288722 -0.7530558969306896 -1.091661484713437 1.2618436166496694 0.6977399307393636 -0.7089275821046314 0.9333909310259358 -0.8262206211041958 -0.4470120770201438 -1.6082106076557399 0.9638927807761237 0.33409474516548604 0.5583854363076898 0.1464869749267245 0.23265282999512643 -1.5687322772396484 -0.07207992000142219 -0.3758060339498036 -2.0613724385799683 0.8258172058981296 1.2542668324447221 0.492160014778758 1.0729428186522272 0.25452641174805213 0.4439128499849464 1.1403078749079985 -0.4629907221667008 0.5795684401316901 -1.1776099993275242 0.38300132314893515 0.39645148613853987 -0.6510288489403985 0.46040238944372 -0.45828991164099103 -0.042060783668607854 -0.9640077406464114 0.22883037441952478 0.15729815034149028 1.7129687450426625 0.5145017737128057 0.8897951201767734 -0.675517615415886 0.49985878618482926 -2.2020511066769712 -0.13475030299107424 -0.8213599935273924 -1.3009190346922266 1.630242130050143 0.9758105994825546 -0.19742265220551786 1.2216753842875072 0.4844435201648966 0.6898638460292059 1.238687165415053 -0.6182575480224611 0.9039944386740749 0.2677573952152024 -1.470232271543878 0.6890047789344977 -0.5417252856439863 0.549473835722918 -1.0178777591106964 -0.5464432884211894 -4.005164679160317 -0.3476714821423256 0.3597718531730648 1.4507847435116648 -0.1597364355649582 -0.24836340816250427 -0.20343991146191662 -1.8427348248593118 3.178663672781195 2.3404459698620825 1.0706003226590024 1.3580554110194865 1.136324775863575 -1.9410484050357577 -0.34754140507663667 -1.2947442952312318 -1.3867136042151014 2.5721151098126613 -1.1168424920752866 -1.1033102244488506 -0.5433181073146389 -0.8437595892599691 -0.15256546466877202 -0.6770751271909621 1.1168122526873752 -1.4737773076804581 -0.9385153375613552 -0.35680404665191584 -2.2443410818878244 0.28701399667604344 0.7244642065010612 -0.1819316645199483 2.043296603073959 0.3173562419665743 -0.8941184368485198 -0.33065070882944536 0.7700134028578962 -0.11880672569421938 0.11032646461672468 0.6989414529564572 0.20126565927632056 -0.8129516053376299 -0.6202892293738619 0.4095222151222521 -1.5034362653924773 -2.2433698224646608 1.0884873902847558 -1.3677236938782018 -0.9588394487591035 -0.7380491782452506 -1.2992300064508215 0.3687719491109537 0.8805943691387306 0.4957298614170394 0.3784081548359236 -0.3846868628572585 -0.7830848364042766 -1.1008475478980373 0.6827046487965928 1.233657470047317 -0.5989356307067054 -0.41056600775681495 0.22911202701953998 -1.298062512179228 -1.2528883799052641 0.34983714493151097 0.7154409395355729 1.3858680788453315 -0.6255064430856472 0.3062588979377818 -0.6768914870063357 0.4185534620668773 -2.514023581251229 -0.27163937018905643 1.3958051992569476 -2.0138595525926313 0.451173377327494 0.4449033032767509 -0.8697828701126075 0.8069641203141303 0.3737433009346008 0.08870658338022082 -0.13150245944577946 0.0670923248754059 0.9901455509926909 0.9421547876804782 0.45205256364639657 0.5829233435565656 0.666034360664007 -0.5861442598636694 1.3010544029570732 0.19216863213693502 -1.1828333573100387 -1.153204896978219 -1.0843528821333783 -1.8787589541544463 -0.2412732812053656 -0.9374041121142423 1.9197821091225131 -1.2986416379655898 0.07787369912711443 -1.40239626221849 1.2572083936010385 -0.9102990812222774 -0.49937732096107396 -1.3893785771737872 -2.408322050599844 -1.6607562539613487 -0.20745998597892149 -2.28961145592915 -1.4625315886928496 -1.3671695571454816 -1.058879938665196 -0.865931179226821 -0.07651627607007173 -0.9874624090482674 -1.0229098626468753 -1.7569623221920492 2.013636360693765 0.15451415919472558 0.6858400256741285 0.024861451677332173 -0.596297152696093 0.573111169609174 -0.27246941344966724 1.0097366075947602 0.2791519228916264 0.640907510387874 0.059295052207492455 -0.8286923513187764 -1.1873229697539034 -0.3544691478357704 1.2110739744634758 -0.007463889737918683 0.2616377521972265 -1.2102414426115948 0.2449792199064936 0.035371681892431 -1.1083898663668148 0.26835235812906333 -1.671732894191224 -1.9611385885827712 -1.3833352969951427 0.10161449137893754 -1.786443695324474 -1.8459976228843877 0.576460634649668 1.0108476645629978 1.6693049669178068 0.006634336876607802 2.833112192550941 -0.2545764069104892 0.957512737082437 0.32205331468367 -0.02604208052404385 -1.2581308104816127 -1.911642368793635 -0.09982945959054082 0.06074162742002557 -1.2274630175087153 -0.02893019338135026 -0.34561394935354145 0.5145604544103779 -0.38087196498981984 0.9142168864319862 -0.7771562612430658 -0.9665621357943243 -0.7074359524562214 0.852197582822544 -0.8769596948141963 0.9678998709263379 -0.9565562712601985 -0.34545849352619346 0.4848350819607737 -0.4508256225126685 1.240051071521495 -0.30649359970240125 0.5333843526181209 0.2468094121253778 1.5064787642580626 -0.6199479459630698 -1.2544189804326573 1.045097740180366 0.41082569220953163 0.9554964044837541 -0.26885355258033095 -0.5417990823564187 -0.23488762874893954 0.779969688507615 -0.8173682640969469 2.0490832977291276 -1.6903203611690274 0.30667777291572595 0.683150678206241 -0.3487780355740927 -0.3168765922562345 -1.0031564902015002 0.44235757252494623 0.017263521161338904 1.0132078498874393 0.19715018822204158 -0.5556829750167699 0.4629667363302825 -0.3939557273393166 0.927492980989299 -0.24818994308432696 1.3802725025641802 0.3029626505496375 0.4713376519826456 -2.4543779107160235 -0.2727573628265187 -0.10615849402667057 2.0212567132685506 -0.34569236082166166 -1.1136763876467983 1.0866433845589312 0.40090185900475006 0.8223387379812365 -1.024308284672182 1.1245073549856563 0.97829081479542 -1.2558380474236706 -0.3984087656728628 0.41424041184253485 0.9138849405380306 0.35479095100639696 1.7145525040552292 -0.12398609623077128 0.38384175959178163 0.9387610288069479 0.008735103650649237 0.9173122765891886 0.9614933972651161 -0.828551247890321 1.6060230129570916 0.6030903594842999 0.019780527288126012 -1.9287293637364782 0.4096382519098778 1.868325538609691 0.7395985425249393 -0.6179363047933749 -0.3343632866871419 1.7890105393839366 -0.6528471253516951 -1.690138785068472 -0.47316859398895456 0.6792378663936296 0.6752699543936568 1.1506216278101076 0.32956254547547925 -0.017268954225057646 0.6680611080839844 -0.737122720996183 0.5826774210809925 1.2530041727358094 -0.648129002074217 1.638247516449974 0.5667818415789586 -0.27989148677619663 -1.4796069444272109 -0.15704485962463643 0.7517064981382243 -1.0510926099407671 1.0370663052208453 0.39146450630386687 0.1813382130300708 -0.001988638297103291 0.6094294680327256 -0.49220374282293283 -0.5511218790901673 0.056350523217288104 -0.4969814908162526 0.2040883781200969 -1.420955826745738 -0.836163251180762 -0.25271042248872044 -0.5982159559323739 0.2750720725708214 1.0787622489084163 -0.49416522679269737 0.14801722636668208 1.5093289576517155 0.9504682188165006 0.9553982593445972 -0.2616717293985717 0.627932423166899 1.2007166519993324 1.4283767474576785 1.966877234977627 1.143335987641505 1.024702590620097 -0.6627806476027429 -0.5742296698951667 -0.5134757217106187 0.7768872091853142 0.3715863351769052 -1.268897523878674 -1.7280674327008505 -0.20069502691751998 0.14125465252612532 -0.01163892026782763 -0.3712192715890556 -0.9601617336234739 0.8554875136911209 0.01976317920443818 -1.079886960965874 -2.1620408708759924 0.37798953490429327 -0.2856542026097972 0.3846191293824769 0.048633499372816934 0.05642980433793932 0.21457104536132032 -1.1405444617155223 0.16793667793840666 1.2638137349987326 -1.1087886519243262 -0.5468842614691519 1.628836652718311 0.9261384596078712 0.36554693822449646 0.014861101887021265 0.01668535955782023 0.32906319773668 0.9463781684419424 -1.0858771557249465 1.9849864342724195 1.2503311270791861 0.24586355629453083 -0.9931497293753446 0.3247493002701856 -2.520763234366443 -0.06325677313511714 0.3354171932744573 -0.5405371863425096 -0.7169777441453167 0.07446949344517537 0.622074294677024 1.8837969096492204 0.11637968753022596 0.2090563384114751 0.37501488008831263 -0.44387740839918666 0.6705820524340161 0.2662247104672126 0.2716599336378238 1.2957903411804512 1.504802067544517 -0.8190875590653295 -1.0845213963457165 -1.5741433126109632 -0.41883151530263146 -1.3978109977962492 0.9015145759875405 -0.12077060798475504 -0.22933824203730108 0.0794535277430291 -1.3027043555823765 0.06568358132215715 -1.2878567520256075 -0.36193468317875127 -1.121565291201928 -1.0842030797117332 -0.02390986069780187 -1.8949715382309382 0.9193618304352742 -1.0829446724544083 1.251196357885595 -0.04446261154213624 -0.5003205192106955 -0.292188718387548 -0.822861097671502 -1.8005070902500901 -0.21994645804548535 -0.19532247165901007 -0.061096350906216915 -2.1658921531988873 0.3173739664145608 -0.20981725177608862 1.522355355528957 1.8639192953595543 1.529679155054662 1.8227862005658744 
-0.655164506657089 -0.9665833555475954 -0.3104053203051497 0.4815435993490465 -0.3732482311858693 0.3635131732501744 0.45804799729426116 0.37859152279338754 0.6371943331766154 -0.03786274575892775 -0.5148208374427063 0.175772071450709 -0.3588321218332281 -0.14287794593620706 0.6151572886922999 0.7392406347752406 0.008817697455904714 0.23640347006588291 -0.05641902397346875 1.731267977259351 -0.8647121960838724 1.2892415596783076 1.7952794613851424 -0.4552667960832167 0.38114266135938424 -2.5880763894714423 0.27929461608565015 0.3549121625099287 0.33612617586800214 1.802916960434334 0.9841601766903831 -2.063253892486481 -1.234128514193948 -1.014753761832209 -0.4503039317313629 -0.22761485277467916 -0.36088182156680454 -0.34141676970717577 -0.7768231947784461 0.9030314924161185 -0.4588630554474578 -1.272791198929599 0.5345814591980237 -0.3789713662924169 -0.23338680607257525 0.7987228405666031 1.1069626077390098 -0.23117356395122834 1.2604164479860824 -1.242067985503178 3.1609093863203883 -1.015961527494159 -0.08347564984536643 -1.6285539663058457 0.9338096078951751 -0.022814458552503233 -0.7944792141748749 0.6187281719365983 -0.4471039928424281 -1.3640592190577987 1.319222808638913 -1.3187944035519614 0.38834881208874206 0.0675224524916695 0.4744066877588239 0.46382999229440447 1.2949425329668431 0.9656682042634162 0.4611947995674098 1.4835131993574624 -0.07559805689142526 0.13715759808100358 -0.49691132021148204 1.416596070134663 0.16479221430973465 -0.35308014132777343 -0.5994786575197236 1.3101811934770267 -0.03294931614115734 -1.7399425613952082 0.27740106474720866 -0.35045942834273186 2.1001508687289077 0.4832779470865868 -0.21165674017556405 -0.3145446629889273 -0.3489716257742066 -2.1610733491258767 0.9552527083522128 0.08117243670938777 -0.7454347184272964 -1.095748902357027 0.49336772454702904 -0.1369597615333591 1.2634688314950997 0.751887340664572 -0.028437077487519082 0.330673551013288 1.13242586605876 -0.282880306695795 0.967472885604398 -0.040717779179625754 -1.7080081198475077 0.8244494633960201 -0.41751973667144365 -1.3208754673605967 -1.1755257492291822 0.6123235644367766 -1.2753808012061219 1.6403868810732474 0.5137168114704754 -1.0471189185932885 -1.2722419309880886 -0.1183294971864974 -0.175593392434709 -1.0272514670093609 -2.218085738519315 -0.621555109798365 -0.15732345944697068 0.5906122381740253 0.9900618771032095 -0.7237367315752562 2.0875461361919463 0.0645331227052738 -0.2654339072746366 -0.5120173873095819 -0.7167711776509736 0.2909867476515801 -0.37359752052650363 0.3604272775038173 -1.2076848669608593 1.4557530736974464 0.7465075409039826 -0.4442164780239742 0.5591332631821447 -0.7302977504125326 1.7350696006936268 0.9840115116980734 -0.3035878998780223 -0.26155906217222313 1.6211363328844168 0.8114671450755142 -0.3548622710196237 0.006563068835949264 -1.3961734702381783 -0.46506453466175024 1.056078692293455 -0.04218288813346425 -1.8144120753253632 0.8641902376305782 -0.6852305988220752 -1.1614248742088884 -1.4466017476316029 -0.48246975812127896 0.09050861406575508 -1.6494307199900642 -0.5090451892910206 2.4970638555691976E-4 0.17969411040275912 -0.7984972745121337 -0.7465872395428805 -1.3746626546041636 -0.06330659848053018 1.374996845830242 -1.1133789092760213 -0.6183637967474627 0.09288703930189515 0.08701517337540249 1.3930854601312834 2.1081767236796973 0.30746401701731246 2.500713999406512 -2.6997438358578125 -1.3644504190042097 -1.9620068781363122 -0.8045183680824204 -0.5643311095524759 -1.4077903796406088 -0.6388650800734558 -0.8730386763414759 0.08669413139137573 0.6289677617562985 -1.5273235752662362 1.2853399936320111 -1.9452776691457268 0.10273651564249164 -0.2935559299465302 -0.5372062532929232 -0.7528401905163083 0.790148552577513 -0.6982272047510635 -0.22637056496098162 -0.5423739317819879 -0.6408881382372413 -0.9252022075384593 0.6048284192518121 -2.035768973272742 -0.4800942234812893 0.8802425269480897 0.14116707437368262 0.1694015067531073 0.5660828494342157 -0.9711791812460121 -1.8594396682213565 0.1713865042328828 1.9447701152253611 -0.06698343414030333 -2.100834064631247 -2.268938656039108 0.6162365393770525 -2.2170097347948974 0.4901650502193623 -1.7094178643799176 -0.48044945835259384 -1.1565128619960694 -1.719479980371988 0.19575476736604874 -0.26054639778473193 -0.2636515204595325 0.8799690641415914 -1.1934079842257213 0.30271335521376647 -0.2590082394920894 0.6070693558657293 0.8163594002729572 -0.5840003322389502 1.1673304646077682 -0.14132576970113708 -0.1215094942881421 0.6920304922721764 0.07038901018704519 0.1848365477034468 1.068416641024713 -0.11475580340244944 -0.6297517766610339 0.022610195282418734 0.2904082825997341 0.5556184510271304 1.8500733321182072 0.09579233753682607 -1.2219598607645117 -1.6596441626257468 0.9842521043278426 -0.26723370177747746 0.9236332490742798 1.8251669337131415 -0.2968021249687677 1.641003408486184 -0.382771527998631 -0.7181791592012486 -1.663648915751244 -1.4660356944697142 -1.7038477190615355 1.500545130311637 0.4032679452040666 0.8682504770364985 -0.16401200314278383 0.19149834464916754 0.8984737580991016 -0.9747068211056288 -0.09479859400111416 1.5535072628596285 -0.6561835675083469 0.26887605690584265 -1.4409179010245003 1.4205900590272955 1.187073985132079 0.6789895842281223 -0.5312325998861577 -0.6295986546462707 -0.2160197915368047 -0.5936644621146324 0.9773052760905773 1.209568644741732 -0.7543981607148448 -1.3058062858875648 2.206872711629087 -0.42747287689022423 0.10759669579852872 -0.3354795232417403 -0.20706010670162658 1.1637632488198215 0.06951651731083852 1.2891786274951715 1.2076758802522376 -0.013831704791601587 -0.8331739586290957 0.06807973707975237 -0.4406662280799437 1.953979071797939 -0.5845556696289916 0.26432109720948643 -0.6617933400261452 -2.4996213803022025 -0.29894482880995055 0.7315149279411585 0.9841498225966988 0.7044973121441508 -1.0708541543940666 0.4238463185111316 -0.36055979429568946 0.22477248836409272 0.6335532541867837 -0.25818162342453793 0.579139936612481 0.327336967519246 -0.4849830479551242 -0.1787156250331552 1.0025789420196922 -0.12074787547095951 -0.016884722168520716 0.1474716880973313 -0.7578531817191342 -0.6899982029813387 0.386874408400755 0.29284899290209976 0.9191987010198513 2.2732481035940375 -0.14168683953931252 0.44679774473288364 0.986134971013319 -0.798906197421382 1.1970406760201577 -0.25303842719756353 -1.2592582751090697 0.43436031470832026 0.33400388651553653 1.4697704858337302 1.0141637603926952 1.5340332041201503 0.13548872366569623 0.5688314866871252 0.0742057107621703 1.1805136087572643 0.3812332776557746 -0.6772402601145887 -0.6776968750371546 0.3536561975954581 -0.4332809628048273 -1.444359074404545 -1.6529712400107373 -0.2666325781927845 -0.5569587038765159 -0.9449682019561737 -0.9044267743087306 -0.9238513136345206 -0.0539092296930083 -1.2730626970445207 0.2659959709897647 -1.4287811413368787 -0.6620425457770123 0.9256890997576596 -1.2006481328805532 -2.063432081095026 0.10713328885152514 0.2074526247399929 -0.1014194744132814 1.4654174885349305 -1.6800977905359105 0.5577156297043304 -0.1346681994576892 -1.0578537671434896 1.5783424903329448 0.5174115006817684 -1.155790361183583 -0.017354573605169468 0.491519898481363 1.3962379453096256 -1.2035390675071773 0.7492895608262663 -0.21613360724470979 -1.7317026359466785 -0.32983936631039856 -0.357445880442079 -0.8684163058307024 -0.34561670553123564 -0.42703900910032677 -0.5209894555105571 0.32208557394521553 -0.5098100446385059 -1.0494344764370176 -0.515945599381705 -1.190472772153448 -3.398933902440844 0.608099976881162 0.009726728468595179 0.561966873702303 1.4669217601707831 1.542637397483721 -0.19957750570814076 0.839742038395727 1.0533651072002743 0.2265601060325162 -0.1585883324218246 0.8536021205987276 0.23032530865232842 0.21603732773491552 -0.3714598445615283 0.3205667745274872 -1.5887403937777156 -0.27198011292889285 -0.006059854665055811 -1.0870323305382277 -1.182797789029222 -0.15853720122443551 0.1980462728441917 1.2954424063310062 -1.9564161172797667 -0.5822858157414381 -0.8329162782492897 1.4443635510660875 -1.6073666679449667 -0.88691422080343 -0.27686062612210943 0.09870582811591058 0.9054146589391443 1.7319370780258088 0.5150787792428131 0.7784136135643077 0.6305623815052913 0.2053416639283729 -0.7642249582520132 1.108930941806889 0.18174610963618681 0.712525372191301 0.6001532506232035 -0.3779479953942752 -2.283809516744649 -1.0516598439642757 0.2830537088760714 -1.3674232979047598 -0.25095302273513337 -0.40716513941294685 1.417144191111899 -1.9228265685632524 0.16141461444012645 -0.2313385660883023 0.45898473349488256 -1.130386385196688 -1.6022086049301167 -0.43004303312149955 0.3607438950722504 -0.4776447222569555 1.8988774187965811 -0.5770927453371372 0.26753779864331123 -2.361903995715906 0.11186643541029101 -0.35643941041038457 -1.4938124157350983 -0.33144974038400793 -0.19297374144805443 -2.432542504225068 0.751421389150506 -0.7804987083506983 0.17258500870513405 0.2495732777949384 0.9314241903692733 -1.0981654309676447 -0.6021734363818734 -1.585459782332797 -0.898101703546115 0.2660647590825995 -1.423517757900944 -0.9118704632922581 0.2955943794296802 -1.3153409598040224 -0.9597215448448999 -0.5175461852893071 -1.2162227075316463 -0.6296957023521201 -0.4658863437954058 1.7061584908005238 -0.3442133863204767 -0.5276089051662917 -1.3692440005796438 -0.8001853754848468 0.77172367655527 -1.2392469380053863 -0.4225247566950505 -0.5735541610037442 0.2744927867008927 0.5007305939386032 -0.39609352783248236 -0.9532845130739908 0.1339381814159007 -0.7338388182130781 -1.507222485867434 -0.7668101055197002 0.2914364634505599 -1.0989653345772452 -1.8354092433566338 -1.1601458164111926 -0.3098875669214318 2.188863661921335 -0.3637545201446758 0.9438734989356113 -1.3224114828735023 1.172231117871394 0.7257121917833083 0.10987823056849585 -0.24180947088799348 0.35868182061435944 -0.5635743543923651 0.10592099757412564 1.3153315404782306 0.7748959999899452 1.1628019772363032 -0.10186515507705546 0.48697127414915625 -1.3828234442111285 0.686495437922307 -0.7913394553201482 -0.2715284167154922 -0.13113608791285788 -0.9469828324755827 -0.3629372035598144 -0.7036525966184609 0.11229039313071293 -0.544010619423057 -0.6415728308507012 1.2540610012115054 0.23442310633519742 -1.3518143837469843 1.1064049053638065 -0.7586887829289009 -0.8668851955866724 1.1389181536269428 2.659292017942161 -0.1043132484886728 -1.2241297617246878 -0.7071122882763581 -0.150949787476009 -0.29757131386739166 0.635278836863961 0.605226810148955 -1.4401450651905667 -0.45130273255916975 -0.7133043874351702 -0.07895945727417118 -0.3602187599240106 1.0271809466988033 -0.8560320193823803 -1.3576199888988107 -0.31356684574025173 -1.2185954905435572 0.9329257905498898 -0.062427094531768056 0.5708561205252017 1.1911159060278422 0.21543078115654896 0.7235846374059219 -2.198249872111018 0.010367449817753489 1.7595753164881331 0.10789733862678307 -0.698289693738294 -0.16860831657980122 1.3045916665891684 0.3074686997906179 1.4222380111282964 -0.031461611462296 0.05895231757988654 -1.1809436055468154 -1.1065297795031905 -0.050321519072955324 0.14474986802520173 1.1862476448138997 -1.8194214517616931 -0.596989155687773 -0.9306783319486204 -0.795735755659984 0.7714524709607334 -0.8836146774433775 -1.4795479949089432 0.025915141225508552 0.4514958398355045 -0.2260493632650246 -0.2794727984542239 -1.9357089559937835 0.6276047233610912 0.9882779497634027 1.049848167038671 3.3974642104407864 -0.771628224981966 -0.483361873015239 -1.2110052453039348 0.26141705485205563 0.8248277678285683 -1.1804004353137616 0.5097367393295306 0.3220383860062325 0.470954592402905 1.6384195523575318 0.535314750342351 0.09915394237687279 0.2199679277683458 -0.8213938418442087 0.9505223748717506 0.5249052613458007 -0.37191726062449154 -0.44100548592239686 -2.0247504747867873 0.7970257678673615 0.3588653679422061 -0.821815874176473 -1.1543368709768662 0.08808887636047136 -0.663854759979103 -2.0394581765149473 0.8407102115386912 -0.2103930286344657 -1.0233507362610688 -1.340757204820116 -0.4029588028744173 0.7268092369336073 -0.5095479892014281 0.5260823822587615 4.035995549766359 1.077227688450479 0.2828649675996497 0.12054080591042689 0.6104265116494056 -0.8577668897609063 0.0011383310448812478 0.6316242756227013 -0.5805735959055313 -1.3535110731966038 1.3508436513824027 0.8805865310528368 0.028027081884306203 -1.781688816655832 0.739858346700597 -1.0866385570330066 -0.8526646887600969 -0.39842537745405054 1.2897978921960556 -0.18315659988225724 -1.052621435593977 -1.5639727811172661 0.6726648252299559 0.10003832510752274 -1.4549531890366747 -0.4144215911122846 0.7676396757790734 1.1454113416584522 -0.02397656330198481 0.016544789674726626 0.7902258248334855 1.1668994644424362 2.6394483579416588 -0.14122073287238074 -1.9019332933235509 1.168439768504554 0.1445207681692325 -0.421818399504017 0.7334495047950399 -0.5145982890382352 -1.6292909113859577 -1.5963039452758143 -1.5224124400842487 1.6702397417198578 -0.023962030900092364 0.5603238322417863 0.07022866869432288 -0.549192293110419 0.6011751866223484 1.1099224389128626 -1.0356139772515807 1.6477723830271513 0.3607373074115342 0.7024695656118286 0.25373368772755883 0.18421187056340876 1.001471637863166 -0.09001375583945055 -0.7802265921545071 -0.03023144172064048 -0.4126205381078617 -1.2465426700760556 0.5065765233300833 -0.21823470994763813 0.41688219888746314 1.1723335825125016 0.5975419595064035 1.1958813770585968 -0.731838203737125 2.3408938545216795 1.5062893183482653 -0.4705193397280255 -1.47460377540782 -0.7565075224902541 1.7808422885509403 -0.48468111454923735 0.9000406620435016 0.2876968789331902 0.9997312632833151 -0.04966209183470482 -1.27525974479819 -0.08753847393284411 -0.4650642269287669 0.3552411777658774 -1.469415608025491 -1.6927370933416823 1.0769952788626798 -0.3396353160630048 -0.15948734362445696 0.5557663685218592 1.2276780629077242 0.12854156417774634 -0.030637898778703175 0.33991131458394663 -0.7699815769984096 -0.4127811542056851 -0.8354944137068421 -0.561976992897932 2.1580111346269173 0.48333009098135354 -0.06799486089409795 2.092685571186495 0.14159342179633652 -0.3832330322442152 0.4788025319966571 -1.0171957514460945 -0.42464409201458303 0.23131166719232393 -0.8362307267313398 -1.2375766815815565 -0.43887865721917524 1.2390433586937333 1.0644015444547137 -0.658556630356355 0.9838789207923304 0.6112722639880018 2.0357189252191334 0.724353250234588 -0.262347367660926 -0.08502982708269752 0.6884433935230163 0.6164752719277057 -1.4614872396441636 0.2602223566401218 -0.17170212634964532 1.4691984396683495 -1.2944968765727747 0.6021957925806971 0.4877164437661946 0.31264758233896933 1.52586256259317 0.021866012714796164 -0.15619580867278873 1.4052758405656103 -0.15328680449898693 1.5350388539304058 -1.7427517094417058 -1.3543590415140458 -0.28234373928154427 -0.32159568473704897 0.6462644276113986 0.8851902177181608 -0.893763383729281 0.04843913729445032 -1.6273268055660286 -0.5241432779478256 -0.6015828155074582 -0.7291330732808813 1.0409174857532075 -0.6879353154120077 -1.8040953188484878 -0.10892860926395986 1.1326020069078377 1.6232420895670974 -0.24554786530151462 0.12394209386367877 1.5468531252275801 2.366343556291362 -0.04453651673775381 1.2148444382884578 0.09891144678955358 0.25569421281806604 0.6728061883559264 -1.7806816607064913 0.7779035063271096 -0.36091373046738845 
