-0.8605492405830507 0.11909328485810726 -1.9851770187932365 -0.9822416905548632 0.6754592141957059 -0.10293029801476657 0.12197942079225492 -0.8901596002135356 3.009289216028156 -0.31186711202556733 0.23504854198894548 -0.14751560096925764 0.8079761293214649 -2.137805255198755 0.7164493110040766 -1.6191156733597851 -0.685423011000543 -0.01297699499178463 0.2646335706946464 1.2168942443682125 -0.9136762215127601 -0.42148084134050456 0.13017295147489785 0.6879807182125194 -0.29218607347330317 -1.045597348558188 0.44937615505986933 0.6501872159871851 -0.5631847593706522 0.05443166758636692 0.7654801880096647 -0.4680386237103117 -0.7283257865322267 -0.29148264222109294 -0.13297059513626516 0.30865750297129274 0.37632168707280284 1.2503239589137438 -1.7016829909533293 -0.36771648800968193 -0.14063241554797812 -0.04600607060163618 -0.0059970073544283594 -0.4882774914034588 0.7600920455335737 -0.17613426233859172 -0.2923757924825489 -2.1645339682357645 -0.1096044701769357 1.3689865555489467 1.8644471649241223 0.5342263462221546 0.45166483649344497 0.9114499626908166 -0.4702522838707878 -0.2749526898000468 -1.3620881357541594 1.8283307106492392 -0.8841590487175712 0.3108479739334705 0.8225522699621769 0.16467383111697578 -0.30054186973447206 -0.3932017128834054 -1.9958881486949116 -0.3968563933548518 1.682314373057917 -0.9053426017818316 -1.3275782234090199 1.4734153195379724 -1.414676162054171 1.0754557245072751 -0.9353447101230205 -0.18095049978952815 1.4118265708236424 -0.9795991391574932 -2.1980772228229046 1.845110999571216 0.6885960453862837 0.8246782430311734 -1.914554435701542 0.633397966416334 1.2763140398771058 -0.9405050502856273 -0.6741042648260887 -1.27289070515328 0.26778456972299547 -0.30265767017275924 0.884298231874807 0.9797412367486255 -1.3433905644552233 -0.42553500854753457 -1.429161816059325 0.13408566314525097 0.2160410062876425 -1.9117855670225776 0.5118447532822298 0.1598261604570078 1.1690127263220518 0.17129776884036685 0.34561088229078907 -0.11084871710092713 0.8579091246723356 0.26171822307788883 -0.8959051266979815 2.376018352528039 -1.3912571141038708 0.9742715713525276 -0.3703501106502036 -1.9296353316177426 1.2299184396848908 1.4738695490673117 1.231448463974167 0.40165148065657236 -1.7254667290895327 -0.7145489865935184 -0.7392570009599774 -1.6998708416022832 -1.3615323983496654 0.29758077169201735 -1.5954823464404526 -0.6572635556852298 0.9770955311292676 0.8767120317233753 -1.2907557740450313 -1.4250017106608914 -1.6390852449224362 -1.09848711368777 -1.825518567320953 -0.23828404965952066 -0.5219110254807174 -0.7724596434690809 0.602358014262337 -0.5974623620513917 0.8559810228184916 1.1866996945131305 0.6027689641117117 1.5708824855211432 0.4483798639862566 -1.6321150243585714 0.5815665416334621 2.0938049205547693 -1.6772287746010635 -1.5617297689473395 0.3717444197268713 -0.5431028623522087 -0.6038275755460645 0.8851129071593152 -0.45265374024992644 1.7490879159717239 1.361575729683861 -0.025367860133149983 0.5335649204816546 1.248677399682016 0.7371640040199018 0.1959016875668252 -1.3327530527682694 0.5582843050403912 -1.3206450803062921 0.3819220415221125 0.4427729363320349 -0.9156205939440752 0.11101805374489965 0.6360162955087723 -0.3251393582913418 1.4604725915372379 1.1549787330307713 -0.4629021092017812 0.2224568997647528 0.8359656804941327 0.6202581258698837 0.4601902101420482 1.1768228862038692 -0.8443937263916131 0.14214481146290894 -0.9893464083568061 -0.4301502823382803 -0.28758761924878146 4.3198891522618 1.6038453094999259 2.0644275359494273 -0.4816610442535986 1.306952513825686 1.647457807829397 0.683494059186614 -0.6620518279128134 -1.154845728609425 0.7701231981618071 0.6150437786589121 0.7819630607465949 1.1627145913179453 1.9408300286809337 -0.1806432756956911 0.9713500144054203 1.884345479260611 2.1566050018415277 1.445657763389791 0.6803203431497997 1.597762944281763 0.837631848852393 -0.659398252074725 0.9624144132820971 0.588522936965956 -2.153762509580378 -0.21962179937782556 1.456706906016311 -0.5172611077932177 0.017376401301196255 -1.186195801901984 1.1780243874646728 0.7885909454760742 -0.0501712154911659 1.0041419660678508 0.2628868182822204 -1.581299228265611 -0.49976771756994537 -0.22942802423014488 -1.7004775829560024 0.9053731763614059 0.43465826236079097 -1.548210865483263 -0.007215313140456268 -0.6972242111976523 -0.891794927044328 0.8421592082274671 0.39195386287609846 -0.9122568338253878 -0.6681120653382246 -0.9966031174000062 -0.3485676282239468 0.3337370108819736 1.0969732712917266 -1.1705810972210822 0.741991349572014 0.17082744623779744 -0.19984198180731624 1.2216340733073552 -0.6643283285865216 -1.7784507211694396 -0.8760949395205463 -1.0352138657332757 0.7261869211868515 0.2579844953996171 -2.1557843854789582 0.2625182703768617 -1.0472986546131497 -0.5726388870335174 -0.032168871948539846 -0.7048144302470591 1.1439310942899972 0.7693446711207255 -0.06668354202512014 -0.5024299040169959 -0.5856165727661277 -0.4578421039779133 -1.0644674991783272 -0.9524801844355197 -0.8724784672655114 -0.2374110776105017 -0.4664191930176679 0.188122129186027 -0.36533696974457286 0.8781602593837752 1.4790697211858808 -1.5304737476183945 -0.8772140177281369 0.20721775430956013 1.3630074610981202 0.6307250937151898 1.5416591245062232 -0.7422135906835828 0.19722135696367385 0.8873074194923681 -0.31299263193462934 -1.4283113971810588 0.6843135830899837 -0.23993290990370056 0.3923659063513652 0.19151215843060929 -1.3562814033655148 0.5283723120224624 -0.312401183259308 0.2167439108701809 0.5316093127856016 -0.4711000300866163 1.3324695397374955 0.7896501840428389 0.698429162106827 0.018338857355584465 -0.5370378658030849 -0.03126399700638855 -0.8855910374950853 -0.06902097655960693 0.9877174786636416 -0.012049331454023149 0.23624582825278653 1.6868494633733022 0.03684118797515831 -0.7335781798486452 0.6135218277943684 0.2307181231117899 -1.2897620713080684 -1.3588901805858928 -0.1807001187507502 1.4465870138953374 0.3107448664474019 0.48325157386280165 0.4212501504016868 -1.896888659941658 1.0153043892439202 -0.9475949952392185 -0.4859715877672916 2.156381033910237 -0.28679353815482705 0.6994464558498065 -0.0726507749703317 -1.61474847343186 1.8374130823977952 -0.43244426566363886 1.0079905062019594 -0.948230294945403 1.0979346140258226 -0.021878702716280552 1.073890753424691 -0.744700479433352 -0.7432201249465763 1.0734227631559075 -0.46038170435575887 1.2845644499411049 0.5842996963266668 -0.451213187278253 -0.19519579698237569 0.17472116968072007 0.023687211318094037 3.736209532064974 0.12467250004583362 -1.395855397808362 -0.9246597318840216 -1.7236923236704405 0.4092060373837394 1.1554647417876942 1.2770700016442031 -0.2050132742195357 -2.2015076735335133 0.44624757398060183 -2.3272846540390772 0.14391794851808196 1.316665242981683 0.2695093008111629 -0.6325214066545132 0.5100027872096579 0.18977154765938525 0.43576157777967545 0.37715474325093384 -0.21981461335408614 0.4924965553045543 -0.9074255421351437 0.49089503566292736 0.2932130435611675 -0.01934985905617796 0.7828130167111341 0.04796430124710788 0.002749020951648124 -1.2078610947667554 -0.09348747331172674 2.0034120515486737 0.05048513091956583 -0.2600169546877013 -1.629096182515437 0.5410975954622848 -0.047220110974199044 -0.7669672753936038 1.707699302205895 0.05067318548016089 0.34627250949418587 -0.23109085031151233 1.1532660600330302 -1.129964015256703 -0.5209775021171635 -1.1703233291686803 0.6532469970404751 1.0803710183678301 -0.8621897827889721 -0.551569911922837 0.8032129543036931 -0.4185409899767481 -0.06875238789067512 0.6198341508153091 -1.1170473717808493 1.2901096957725915 -0.7534071328920712 0.32473218368242723 0.013365368650884016 -0.4619182309599724 -0.6084489411319828 -0.5335107720539655 -0.8099388547449754 0.27045822739140546 0.3246322252390455 0.8649252163376385 2.1458471678325326 -0.932011460973443 1.0385862698942374 0.8694337573569478 1.3209248730557217 1.3538631038457545 -0.14858451670074663 -1.0672933732367336 -0.6124505158393204 -0.979933684376967 0.6528161795246934 -0.35416731191674133 0.6794968588446717 -1.2755972245879392 -0.4741603726998318 -0.08498567494157448 -0.3427825828106995 -0.0966469671980223 0.8171528122731667 0.36052983508948233 -0.5752526778752174 -1.1237669048634586 -0.8467159123558831 1.7763030740190537 0.017984910666200584 -0.5068397676246346 -0.20925419426169975 -0.7471139550181932 0.13387449724942313 0.28032030475795783 1.5374802305416764 0.4649366042072888 -1.7165753918871023 0.7753858314574158 -0.379542797736687 -0.16562755279207492 -0.4736743897989426 0.8571758676927622 0.1168502413010819 0.36225249085296785 0.7381843990352885 1.9755732302694295 -1.4027840565998708 0.19550685705634813 0.808229504222687 -1.4107999543080836 -0.4225286553962722 -0.11834890117310855 -1.8681484046000958 0.264282710969684 -0.02932502885351709 0.4876500185444904 -1.445053514129227 0.3929744943152041 -0.178264756747898 -0.5191722633028627 -0.8243905943199621 0.25990038949220773 0.9303999307879494 -0.05326914979852572 -1.0539443390214513 0.2494497306294008 -0.10231626086649542 0.6458124297770268 -0.24665209303221258 -0.6639749969723654 -0.06474933401192272 0.8762864176392305 -0.5922414193461977 -0.46805794765281294 0.18377636672046035 0.15680854061947874 0.454685416831853 -2.1147733117316094 -0.25654565375175903 -0.5796214980749168 0.003858969499080989 -1.444811370747342 0.32896522089241026 1.466282815714682 1.1904985936013772 0.21428541688178357 1.9936150840150657 -0.5472655427769171 -0.14890156335053314 -0.13255514818803688 1.083766276675588 -0.5357994404641923 -0.6239059012116298 0.21501019200884902 -0.20002365979877307 -0.10485181091784115 -0.21251818766845462 1.6792185061392697 0.025438807859587326 -0.5521321768162649 0.07053383887828311 -0.2905071983580544 1.4942148051681226 -1.188247349505623 0.8407523216390941 -1.311008275989287 0.17393281909197214 0.47074945321468903 0.8457429506557288 1.515053724331282 0.14552202776812567 -0.8406232595145241 -2.5038603690181973 -0.21403009899949205 0.026505741298088824 3.5267924701014968 -0.2436055188993839 -0.1252176408782459 0.652865435811972 0.7259571984075712 0.04281481999487745 1.3594626736462494 0.17856234800243959 -1.3157734085767918 0.6382701688268996 0.22862163984514644 -1.511182820396958 -0.5767785124793623 0.9735928342297302 0.7220021716836285 0.5676887813689276 0.16679460228024381 -2.726217250012787 -0.593101443421406 -0.2362921115762195 -0.053506659291471574 1.5597862429838467 -0.8116037874282408 0.6153850477532518 0.10434602998621191 2.542771060546619 1.32576108032493 -1.3719166234714009 0.6666750200161717 -0.7057402704994035 0.9941555217741107 2.193997163515216 1.8841488183983102 1.7598287037829867 0.3764892729573753 0.6460265889213602 0.5988336453136168 1.6828529823984657 1.8085390714231975 -0.5756466797236715 1.8098887343440726 -0.6961839100722285 -0.2515130605510738 0.6051904653703907 0.7178241083048257 0.18584335166445892 -2.1621038718977337 -0.5858317959478907 0.8516817287109366 -1.2136678061524404 2.6417819531500673 0.9383634261872792 0.7563593478904506 -0.6575174968192921 -0.02130404647421399 -0.019345602476913058 -2.7708160423738426 -0.8366434544881983 0.7170739958803991 0.59279533534146 -1.0491919972164705 -0.685233781178899 0.3474457604327548 0.008348318722547076 1.1878121484468676 0.30023713850964684 -0.47004007253390706 -0.9648758928196642 0.2405174404684373 1.899609643375868 -0.9410633409639646 0.3418492486510116 0.9719914625397391 -0.2430342057256978 -0.6915222067564495 -0.39776069556806765 -0.7696007424469654 -0.560065174335034 -0.16990478828092753 -0.008116171200466281 1.0251667523737586 -0.0538770644025408 -2.060162050936185 1.4130987551578686 0.6783937202456103 1.3049379923335538 -0.16733449100322098 1.1409484323183585 1.6758633216468315 1.5601255641763527 -1.3794722973209028 0.908980037087081 0.16104808130267412 0.003317022535487188 0.44438784088812755 -0.9840582924966238 -0.4148633651202653 0.9339248254271679 1.1948637698887732 -0.89326986260106 0.942086250058974 1.187239689862019 0.5323461597309014 -0.013079139700976359 0.13881319996898853 2.6790418122522768 -0.927589489492895 0.41912048732916046 -0.26995712242916187 -1.1412571087150292 -1.5372476531193395 -0.3554596580970439 0.836082504163223 -1.2758412680382623 -0.4068924911508939 0.28233067638590253 -0.7137459289751185 -0.3361119478454519 0.8015755938973663 0.3544452889917492 0.3523730233210804 -0.3400183651122961 0.4468964217907537 -0.0762099030285243 0.43256531564316164 1.6357638394379452 0.801479375983146 -1.0097775622355083 0.832081324823152 -0.15752162220949995 -1.1879285503450807 0.5815445422164076 0.25112834225313607 -1.4538228369030848 -0.7102446982588789 1.0871369467163179 -0.1550803208626632 1.0861962549754687 -0.7362508965304237 2.197933689143644 0.8641233340595162 -1.8301630761934389 0.4758718857952444 1.3002582800527087 1.5681136944116683 -0.03378546389006361 0.20828455998075526 -0.46288683218710525 -0.90134232934639 -1.0489256676043557 0.19948814468273943 1.5139709849179481 -1.5951591150621742 0.539903463521967 -0.2973531278934766 0.7154435947530768 1.3786088902887879 -1.0783876444408926 -0.5656337987488878 -0.1606073265682845 1.88669404540913 -1.61022365061606 0.3558371264093188 -2.1145923254772403 -0.37097034455815886 1.5404768058665532 0.8249720959155464 -1.044908872826885 0.1633912906243996 -0.09729134747320518 -0.00595404662397944 0.11840373154464649 -1.5106751998534094 0.7492506725830395 1.5866306571309565 0.8749944609884233 0.014166119385430671 -0.11770825300302956 0.04180515395948442 0.8765697565842849 -0.815164357003345 0.36748469636339004 0.7801932379749033 1.3654264805301701 1.530355889985397 0.9823943492772317 0.08798690917163417 1.4640143016927198 0.024800871134019097 -1.605581139367375 1.3584115783175505 -0.251945567993326 -1.2880688448544235 -0.8335986122476269 -0.544038869808389 0.7670658032622283 0.6194049219501475 -1.31795703014647 2.4345260530489266 0.5891666464323 -0.3565223417586705 1.0431745048958738 -0.7767577591854022 -0.4144263593281141 -0.024448269386496056 -0.31098690136112017 0.24108004445117526 1.3015802063459838 0.01386704342755609 -1.0942218215006163 -0.3527114417880106 0.7426905627384437 -0.5053335628048482 0.7037007981431239 -0.10780373452366815 -1.2430209880546286 -0.8784594156218554 -2.360705219400735 -0.5047747754651714 -0.24781878451241118 0.9756834571259105 1.247784605507344 -0.4490918593278892 0.2849983008221638 -0.863533743929711 0.8717313720166824 0.514701173269668 1.026245608384276 1.5989670506649616 1.5073206042406428 0.2411176382311134 -1.231390246461897 0.9037669079575616 0.8303213849697545 -1.0171677148797373 -0.445559189329067 -1.0381764807898732 -1.5707499477151508 -0.08259545099812148 0.9322675924012815 0.8114541204591428 -1.5857875399528063 0.021480394169693925 1.880467469539644 -0.9533065642178126 -1.3060415808257446 0.6637631992140905 -0.539379588661083 1.164605360446858 -0.3686481970090513 0.7365265780039094 -0.8270843469264478 -0.45018273705173917 -1.2040542226728788 -0.8548611558913726 -0.9273766733090252 0.3381762317499809 2.9997591559453076E-4 -1.1485818084329618 0.39578191742262686 -0.2096785781090012 1.4128336089696887 -0.12273783245605992 -1.57071984809676 -0.4047668203733073 1.0968982615387894 0.15428890720593652 -0.6305059136977552 0.028960043907598175 0.41380737389231026 -0.5327317569841372 -1.3647983290520638 -0.27420784481677146 
-0.895689430062126 -0.7952237011006456 1.5474015175526876 -0.743351050908235 1.5833931690386482 0.7937586643799079 -1.6805524922009685 -1.0734834200669123 -0.9414608949349833 -0.45157452590679015 -0.362027001355685 0.3482057214701113 -1.776781710368906 0.3365683850962275 -0.3305818717114798 1.6290079977269725 1.1090601362097825 -0.014976904804168797 -1.1498198678264036 0.2927208871967834 0.3256767037558341 -0.5009026230150847 -0.7866051466755292 3.023854305608259 0.9254549351509144 0.08638493398931255 -1.7786090813090316 0.22288127248809492 0.7141322323438625 -0.08872478268801932 -0.5715252136216364 1.498215776729983 -0.4933438205951032 -1.9413777596992459 1.0787140134554638 -0.2020753573996163 0.4561613379719754 -0.4978706941612393 -0.26816803252798654 -0.09332119888244082 -0.27105836184749293 0.722711628418904 0.9097480472746293 -1.1697956291883702 -1.3220718689166195 -0.9125919219394442 0.18446794603911615 1.5861048519333376 0.5078291121658524 -1.650211668796707 -2.1436093166507857 -0.6017622017577359 -0.5310412364619376 0.8449417031945523 1.3315763246009944 1.734528850886912 -0.0793729173582459 0.4912196133152923 -1.4386528214876315 -0.4813324820025919 0.26632888881325434 -0.8198450251984953 -0.18467713728047835 0.12823541841431882 1.3550423763566948 -0.6649630148031772 -1.675081551745879 -2.3496446041700785 0.9456118616219632 -0.17403130171435208 -1.2088667504500668 -1.0418834534756423 0.1504685041627066 0.42335693732213536 -0.2897168078705023 0.2663457163737548 -1.3883507937692927 -1.7558410209136073 0.27046240284537554 -0.39244013140559797 -1.0409237767993764 0.2221853881309623 -1.6606290037844984 -1.106230562033614 1.1119463193623584 0.3049065001865009 -1.5926449552361681 -0.4424151465314572 -0.3103533248851777 -0.7942257863109148 -0.36447683378268764 0.8756647828322273 -2.4212170455891253 0.7217161049377494 -1.8902273336036064 1.3456349260064127 -2.9073779815364067 1.2492983546804832 1.0304932534664433 -1.4056571903464983 -0.5363691856015941 -0.7250780641029699 1.9373738208959836 0.6885474531880599 -0.11430309561998943 -1.1943815251656582 -0.1223576959337742 -0.11624833243460712 -0.12500303120702375 -0.6969295418599567 1.195361400916532 -0.06027987132654913 0.23155738713860025 -0.04738024169381595 -2.5119882460102922 -0.32757741012107466 0.7436174909913653 -0.6011025076205838 0.3591529402587701 -0.764717159785993 0.4062657879359276 0.15216081419654676 0.718355518901178 -0.1441081624012122 -0.6524142368211436 0.44851635608034884 -1.333215915320759 -0.5475168451062502 0.35134778122304794 -0.5482526255230109 -0.10279841273797057 -0.6095925716836067 -0.5463026614081281 0.8366886645763486 -1.8079485705488603 0.28293199232633326 0.953175060999175 -0.3188151394870221 -0.3449845856897451 -1.737485267790111 -0.881991752479799 -0.2208601639580954 -1.317538117893363 -0.24169135863804844 0.7962691465212993 -0.2544303405309317 0.06304598472183122 -0.778635065309426 -2.290899815428342 0.7278589029700716 -1.1451740053694137 -0.03501241654289237 1.6913540100961524 0.29672286275350007 0.017883640318431288 0.49936697673365976 0.5501720789828046 -3.345325139300966E-4 -0.7528315173002541 -0.05992394761927078 0.10898356439115939 1.613515748728295 0.17665771910734468 0.3551999601048862 -0.22422961104814892 0.05230993649142017 -0.7710800419919525 -0.7071036137799618 0.14275824677560323 0.20827330906801017 -0.2168159582364632 -0.8510087821125597 -0.8338396264456552 -1.0445770088418311 -0.6091127727066535 0.1820262084673605 -0.7494360571881034 -0.1875588483578867 0.6786242138364622 0.34524710280894544 -0.04810565887350934 -0.40588181267476664 -0.06175140640345082 2.832212833861377 -0.7548003163726489 -3.162935445491441 -1.5270512676719588 -0.4831130050772598 0.4294006403645133 -0.5555746535836383 -0.67467408120645 0.33964182402715254 -0.8554108355368295 -0.07852297007489593 -1.6594032224506041 -0.7284464608789321 0.15260655013702012 -0.2922677636562333 -1.3307430793189594 -0.8483670109824761 -0.5867692872609952 -0.8960239234460037 -1.8260043649827717 0.4129429106993059 1.5878641087642729 0.8189756748384028 -0.1924535022217681 0.1923083718204519 0.15412077910639654 -0.639219258575335 0.5473379384675682 -1.564724075039863 2.302966335110788 0.658333639188832 -1.1694721856145958 -1.3999709958179585 -0.8649028227302331 -1.261716217211485 0.17331537919337095 -1.2515050441345597 -2.134313172850718 0.5159839105087046 0.46182405860581466 1.037827727311669 -0.6564838528826171 -0.26500415053520715 0.26488480013551624 -0.4869484745823647 -0.808237816676977 -0.5205845020259748 -0.10751070479361624 -2.119594828849783 -0.4949840014268123 -0.48002002176193703 -0.34289498980422084 0.18003071468155069 0.8019941177900906 -0.0745388045729539 -0.9781744853454691 -1.1959563586400597 0.12607415422726656 0.3534836595742654 0.6124970017765985 -0.23284702567095072 -0.4187062050369486 -0.16415823354449036 -1.2062580171885877 0.34797965127888913 1.3540195348747577 1.2241056579598563E-4 -0.5027521484939228 -0.6359633835380794 -1.2853573201294284 0.679209405967183 0.47288497853333256 0.23859033209518915 -0.7926099642385432 0.48575655496250486 0.8399468988199845 -1.2030838214993462 -0.10617392691243746 0.44603495623694117 0.024169243741526753 -0.9736890218079362 1.0927094632916388 -1.4343206955963652 1.093489483127002 1.7135064252809649 -0.7777439015755875 -1.2199442666565479 -0.5079158459720006 0.4533477425958926 0.5197003995736688 -0.31002124729673497 -0.1717027847123816 -0.2696700146926567 -1.0463977106110887 0.130461187804184 -1.593589486893849 -0.11358890245748542 0.18145866242662057 1.2834761079736787 -0.42395344560999926 -0.12315225452254852 0.9192369521370259 0.13031021211210986 1.553563297658489 -0.022758465763249993 0.24982148511170563 -1.4662314732188617 -0.3738565313157486 -0.6108429441926618 -0.2383733048955877 0.4395878175188134 -1.5384245016793114 -0.6464387442479541 0.0554239674389968 -1.4181253960222517 -0.08644951066185724 0.45950081875049437 0.6153243775117838 0.5178567182654727 1.5426954794379715 0.5905524058748434 0.5909232556553936 1.4973165588280948 0.030246602857331984 0.3075933259601554 -1.2891153463691145 -0.8920041289699706 -1.4496884190860233 -1.5333514374902726 1.06105976546025 0.051664382877232184 0.8681518325143186 -0.30595641256761985 0.1961183171640524 -0.7334721706877896 -0.6324255824890613 -1.6513936814795658 -0.5499538992246791 2.1593582148935924 -2.4608368749448806 -0.9041692925976621 1.1993535427900068 -0.6523348892048176 0.3606957154519426 -0.1468456113325581 0.7210950394511086 -1.2369709275286223 -0.07254480426553887 -0.0433750088088793 0.3800095221118331 -2.039497797937967 -0.45038104265993545 0.9253974434221459 -1.182303930133214 -0.48260546828574563 0.06802828293597143 -2.8690012767139397 3.145881326608265 0.4215817775228006 -0.5614453419739227 -0.5431921902678611 -1.6120276057959402 1.1005803881467715 -1.2921882657107764 1.2076409941118846 -0.6416860605089764 -1.1520105731114871 -1.5436126707033502 -0.8688287158969139 -1.543542568357394 -1.097352326785644 0.19913137166989478 0.6071589701036051 -0.2787931694556504 1.2658408075499037 0.7737660358428154 -0.3687795566381342 0.35299649727223026 0.4614983425912192 -0.7487039145734289 -0.010069624855539382 -0.30684091676422537 -0.7278802560656168 0.9891961703458779 -0.5414245699350978 0.5983817036836185 -0.7924594932865483 -1.6532102750166238 -2.286560593342815 -0.4734142979209131 0.29872152996187723 -0.8331828112138734 0.8023265083579305 1.3573335800929167 -1.7024108939818317 1.4170418760010088 -1.4314637411834057 0.05474796062213808 -0.8541036558202443 -1.0086092289656114 0.2596403314384693 -0.40351286977175016 1.3556796985811108 0.6404704003372192 -1.3611646856361423 0.8602134234302665 -0.4797559701461392 0.24941510481537016 0.44079835453454885 0.1132919718828425 0.7030517586066989 0.42048456219363606 -1.1779641648864785 1.444710111447112 0.007148729337540476 -1.2083710531603433 -0.5657755995461221 1.8887158352103532 -0.5253300631311917 -1.1785791052009584 -0.37573676285468105 0.5975575232855195 -1.5567035403951854 1.3819738223502587 0.011208810359269161 -1.9943570788849923 -2.922512225944373 -0.2834862840630595 0.2885281958974688 -0.8621909971374375 1.1263229264153742 -0.9200181137446617 -0.5380328125533645 2.181176880860723 0.5327112720007726 1.1903235049015555 0.14495528218932124 0.2913861137620546 -0.3716923792482646 1.096415023134181 1.2519703653222385 -0.200507257228592 -0.4775121207093668 -0.7757116603857342 -1.1175330560161152 0.8412584567227327 2.3865534565566278 -2.1534034807318165 1.690141719329832 -0.4614711390608015 0.1712538753755454 0.22477848217627458 0.49523355137489694 -0.8693332581960438 0.6130975452543562 0.9225683560749995 -1.3009276645537993 0.23752234280368498 -1.1662473253668628 -1.476694943321146 -0.2401970010527748 0.40342894681920055 -1.3638638706863546 0.18237313383548626 -0.29141135949049435 -0.44768337695533134 -0.024711325349803064 -1.0213144848742013 2.0179740191627937 0.025487641507210303 -0.06231006728915484 0.22671576767681015 2.16849674034923 -1.092294278593731 -2.5609591774644294 1.760988056716425 -0.06469648224819077 0.7996839890421111 -0.4350144110876586 0.23241585790565722 -0.1819576746365547 0.7924310917097049 -0.08505857781433218 -0.6178353936776989 -1.0268626138163937 0.6861402880840167 0.9041086517046731 1.0799294234232295 1.2046302866389842 -0.0666683362625287 -1.533196282646933 1.5328635026249777 -0.3100341983281765 0.5407896596002761 0.5017230826289512 0.1761263216070519 0.5514924672408095 0.8013254926297575 -0.5694210490719863 -0.07403878090453644 0.27457582693912735 -0.011726435659032414 1.2788461888744114 -0.2602392145403586 -1.634365709836191 1.6704443554912234 -0.7700295466738554 -0.5053191823017167 0.06106737551334289 -0.5782740034310226 1.0705628544127423 0.1289749029072615 0.16093157280802237 -0.8560206582079652 0.6937936045305924 0.5002458969618764 -1.2013864366255322 -1.3655540627736529 -0.6688423360118594 -0.37381082153747686 -0.4718151713838181 1.029696451824634 0.7719612476659555 0.8152493470845839 0.777547900349993 0.10660460672439336 -0.7046890367397411 -0.3182301237529269 0.2577594065035886 1.0282709590182921 0.4460876900984395 -2.0271341006645773 -0.6444100627641723 -0.16668484127726038 0.7353366761227104 0.6182447448485744 -1.499446374927054 2.16509815603315 -1.019903136057468 0.23825520338214515 -1.372439969658353 0.29970996444829834 0.2881008894221276 -0.2249209329050231 -0.7081889330272823 0.711321430747892 0.23966182274569944 0.9322527595924816 2.0719336620311726 -0.20459521951455228 -1.4613012802710557 -0.3752461081479202 1.3874504200997633 -0.1379035279619204 -0.6086622000713768 0.1162722346439882 -0.05198086338618927 -2.323543743530725 2.6123977552708166 0.5089447070161692 -0.001382460864600449 -1.6542380170970756 -1.1554410531376555 -0.7104040551876634 0.5784634344550205 1.5345936987505657 0.39503572786030294 -1.9309349244964957 1.8670500608472664 0.01887205024143392 0.786721234548459 0.3556742058675997 0.9463209101355534 0.10148919051258692 1.229036736915675 0.12487811845540099 2.434654134802894 0.4020746304249297 -1.0056691803137912 0.30177684888734646 1.365125780118144 0.16752082792383585 -0.23550995069452807 -1.2969148520266176 0.7119678864432106 -1.4699490296850637 -0.45314297661753034 -1.5698516586689764 0.40389563057503935 0.1130337171318917 -0.893939387456931 -0.14689937977120993 -0.27891242419710743 0.7114681886008619 0.23190116601340885 -0.20402308858584703 0.45947151403907216 -1.3994549633626265 0.8547772161245732 -0.774251585123616 -0.3116067419743447 -0.2985730135933473 -1.2682346608144377 -0.3769038240293274 2.1713377042791855 -1.5028857781037195 -0.25851841013820676 -1.0845890905685815 1.1593282736104644 0.021099866225229413 1.024317049053924 -1.482730851945663 -0.18736030117045202 -0.6257160093158763 0.987052635469942 0.8382927486065709 1.4549167143504533 -0.7889236597919862 -1.2443651768658965 -0.9178290439925157 -1.6644008113430941 0.6779191391359187 0.9585869078724037 0.16440726462341773 -0.3956138321909694 -0.5482637683183301 0.30055229779594966 0.8464468534937731 0.48105269145567114 0.1741971725604414 2.10786900910591 1.0708801839494149 -0.09094130798491729 0.8393398409427162 1.4198114870089713 -0.0432701472276542 0.581730746584909 -0.7635381571290079 1.2511510519338653 -0.9111705361831739 0.008086396182156124 0.803433636166772 0.07698419938535457 -0.5256708854368592 0.29037641421703764 -0.020979441597593258 -1.3926333323321405 -1.4344283082367377 -1.022598955480226 1.6699967733474657 0.01973288530386576 -0.9177741528880424 0.1326921110068467 0.05962975776780628 -1.8548228071411927 0.31706266390014604 0.31902051384849744 0.7754139574211499 0.056253775739522935 1.030408062638099 -0.030587074305699024 -0.8081630111137712 -1.3673597041092318 -0.6218839627836971 -1.6404015173706454 0.9961962748819527 -0.4550658787835061 1.461666719954433 -0.691610449706135 1.2338029538110946 -1.4456101635101162 -0.6412628310622661 1.4014041909509918 -1.1603090216395957 0.5548061825501008 1.0246525171382428 -0.13393441686750532 0.5052437967573156 0.8533730537794776 -0.522611791229173 -0.8391713661566368 0.7335159780034903 -0.45711147451163403 1.0354369209161471 -2.5894652132481295 -0.16560663377912835 1.0869897928732999 -0.670342642963923 -0.3134090187081494 -1.0371661768537712 0.1911759644385069 0.931675613664014 -0.8347874847754579 -0.4718216877849883 -1.6150652577334739 -0.5989085941824002 0.6758828584040378 0.6479101167766367 0.43296125625553544 -0.8177237507985871 0.09249591743654795 -0.7577402148102332 1.6546592913321034 -0.9511651046946997 -1.0395881826204596 0.19078466325450893 -2.8432745204255263 1.0159244231063025 2.432270619061895 0.08974855353885551 -1.3393325720432065 -0.1005002085891646 0.5148833049133489 1.4281881803236116 -1.737234487831664 0.3197947686616653 0.5221320986433192 0.6465470013679431 1.37434684165797 -0.6945167671824397 -1.3865821909108083 0.32863539779621403 0.9407063980993499 0.582479562013516 1.1828225909182004 -0.28437116492296366 0.2445302477038317 -2.3814972697236074 -1.3465066900031841 0.4348629564132051 -1.4400121992114825 0.4396455154971243 0.26423749240349687 1.01403339222018 1.4783521077650446 1.5251243842090785 0.683376439892784 -0.8792475312384886 1.2195990290818342 0.15578933925150248 0.743992778100884 0.48529749048001375 -0.8063464588441664 1.4955568600698164 0.13622494407663477 0.1610100558533033 -0.03719792631393151 -1.1213992793284573 -0.4361533534190888 -0.8248621243455618 -0.39942593992853703 -1.6180262762826767 -1.1221377347332127 0.18669718444258557 0.810571116676597 2.2867627485216806 0.05702637668951994 -0.6566753735088791 0.6148884921249147 -0.4663793136988694 1.7239918464858754 0.15270023790767925 1.3781058300255449 -0.17781037524872487 -0.8460246862442914 1.5660003272582503 0.04571474326773855 1.7901943855047415 -0.7089349019259665 0.2279711608454857 -0.6468486502488224 -0.3012344425527097 -1.0957673097823164 -0.39499735706413347 0.3544078218014394 0.28478431233485396 -0.3584960048212287 -1.1480645800120024 0.24253046910825019 -1.5391341042801525 -0.9117386534473799 0.8833128892937249 -0.5173734723528397 -0.9593813326029316 -0.7019627680529238 -0.7282314681785992 -0.9738695360789026 0.9904132056944692 0.19848709603653814 0.1589413361192999 0.26977363195738985 -0.9544245245250381 2.3221299946662435 -0.2863764325819944 0.6785494324606068 -0.10837317787583536 -0.706535280197265 1.9747193108335548 -0.69490969245687 -0.45597196021176406 2.515965492362257 
-0.583653315608648 -0.8098255368291558 -0.4759205585588019 -0.14685694512175312 -0.39836772655201325 0.8078884278015401 -0.10160825318355052 -0.8104124326219047 -1.0947394169948153 0.24688344273799198 0.074447762118837 0.9899551329172456 0.066643263496442 0.6475480697180879 0.2593681778199234 -0.29218233552473327 3.0690040039507225 -0.16201700226292415 -0.5137041079894338 2.504224962053935 -0.7350082230047139 -2.041677681029968 1.382082367725827 1.2527421233479163 -0.9720633177352331 -0.07417819178862695 0.5292291801851581 -2.3002640379371013 1.6752450566699846 -0.34297320829369615 0.20566005039428328 -0.4431910933342984 -0.1212641879891706 -0.7598066992979435 -0.13514512936448728 0.4002076651083399 -0.6223413057614442 0.019670779636713532 -0.28734267250173046 1.2955053882093672 1.9447597646948005 0.6948661068429606 0.7077960704768084 0.11996018942505982 0.22259194434020102 -0.3358288944331711 -1.0893984379328063 1.5730009623105432 0.9686667012620858 0.4830951174833195 0.09547825450591609 -0.1979952477887936 -0.5196586479273634 -1.3555811223579604 1.577801873464323 -0.7042215096326158 0.842543945979747 -0.0721963181837738 0.25592884691741524 0.9196600999685189 1.0946932787538475 0.11329375202387852 -1.5188981704951952 -2.2602199272147647 -0.0207449899058336 -0.9202779739477336 -1.1295547257575904 1.0256858227232841 0.5941909098346939 0.23974043845136653 0.6906020822070237 0.080350220810856 1.2285173579643645 0.8837092424386173 1.4351284439189838 -0.6608418754170794 -0.8712869207787561 0.004646297116157378 -0.9118650829949786 0.13367523113008326 0.2202088897361893 -0.31707583962108293 0.34558409592826017 -0.48865582537592894 0.4335135066969424 2.769608717907348 1.1157375652507995 0.17913693826910707 0.6300030047520623 0.01018557356404904 0.06940316158060537 0.9780842574419233 2.398813634444983 -0.212814156249693 -0.1280048660934539 -1.1773643491023906 -1.173946489754093 0.1048837136756598 -0.6584938465168314 0.7278556963049393 0.1377064466144778 -0.9694534814715449 -1.3266970013734114 -0.5441223532995207 -1.4406082128152573 -0.145056074691007 -0.09920907097796397 1.5283807762245678 2.0897170318220235 -0.3233613312667974 0.0833263491988933 -0.9887621585944475 0.4490939271492464 2.0519497621011014 -1.791222131861605 -1.0647999873933973 1.2228040372787177 0.2127685887508629 -0.6577033119489492 0.1582040112202594 0.677725176455239 0.7470259458486546 -0.5335531094028024 0.5511410597223256 2.20224120417844 -0.06946357775617369 0.8052286504127025 -0.7101989040790226 -0.5016324655419009 -1.641583090070861 -1.697462127494422 0.6536093787140728 1.1814416731676352 0.1555808588507928 0.28676809816157833 -0.8168825009349946 -0.028808752573513167 -0.6901817783646469 0.05167234926955553 -1.8415764031742285 0.6117698760312547 -0.2657335050116909 0.20377695691108932 1.4263201527020424 0.023028393982505543 0.9487777744748108 1.3904751208109194 0.5466481309431677 -2.363357565594977 -0.6283426380661203 -0.8786880357388148 -1.2008607568725198 -0.1116725731294731 -0.026005053108373477 0.21199995196918067 0.24829672992512455 1.17031041882222 -0.9796827730299454 1.7469057245968662 0.47723865264529497 -0.42884406578645706 -0.48992914678568034 -0.4188327056109984 0.057666832058037895 -1.3359033004142022 0.11384230390426528 -0.12179039316579855 -0.5796133391405606 0.9637464371165794 0.39439172773625947 -0.40723316644111635 -1.5637616158332186 0.048189836805452246 -0.05855118149262185 -0.4750191920785801 -0.07826222403978297 0.41847609336118274 -0.433380400038923 -1.3060351512674282 -0.2325241970458435 0.8858677449363127 -0.3212147511840428 -0.9461997397722263 -0.854759634703411 -1.3217180295135869 -0.21686059721010428 1.3505717760499347 -0.05464555199642393 0.5017021915444638 1.6813718918462395 -2.0723391598642245 -0.1705451207538913 1.2058937065398618 1.6619841668325157 1.9991890668797978 -0.3925611919770169 0.528125519003108 -0.828430453691436 -0.06683355977613785 -0.3436239465877068 -0.08622974352722793 1.2211533916347734 -0.6164125725103884 0.4659687647674219 -1.0588240930669122 0.5908947748959612 0.9242610531948482 -0.7302499497527943 -0.8662060182807881 0.21190149531296232 -0.056866555884015006 -0.21182568481423378 0.04050830208523521 -0.7043891511157931 0.5398445021373274 -1.3801285235880443 -1.4633043390289115 -0.13446518040239924 0.14657211078251603 -0.1333564129303326 -1.1322883857796455 0.6008091242801005 -0.31547240402860205 -0.08734568851329647 1.07134070477837 -0.9807195125987219 -0.20009678517000712 -1.0879503260535897 0.3186338992849625 -2.1391978043256223 -0.7655546905737417 -0.2795458446373827 1.8114095235650505 -1.2633924303436015 -0.2697947999795614 -1.3348925796835647 -0.017422143458534968 0.4868271972078207 0.11631060097487267 0.32172627529176606 -0.18821439589968972 1.3867103706119825 0.35363287024012413 -0.42999265764522776 -0.6564187027778268 -1.3030676535637757 1.0019153535213934 0.8542905883701495 0.16764829479676657 -0.03268198295495318 0.6745878431907463 -0.9991454166512304 -0.11972890183717307 -0.8243258039678025 -0.5825574319632587 0.9535228725276019 -1.5329992319294177 -0.23308580901516635 1.1411772625356325 -1.2015511664403107 -1.1202944603876837 1.7003967103031892 0.2081926322904284 0.4558300615796308 1.0073855408054146 -2.062271543326483 -1.0626818897524695 -1.5069876867793142 0.10524254605191541 -1.922989238213732 1.402403198047164 -0.002969568105705094 0.3479424822640756 -0.602788053098248 -1.7839896864272213 0.6962355129492778 0.2896832006078489 1.1038393687779309 -0.16155559371355568 -1.1209647589476932 1.05918838362117 -0.055629254539080256 0.1401617593505731 -1.6584256633805343 0.16718467303615434 1.0772636132909228 -0.2728508181458026 0.4253605748523105 0.7344949980458446 -0.18142693324595643 -0.3985217268743977 -0.8005771220243925 0.20232165000096672 -1.2422501415746052 -2.4820065908861757 -0.48178166551202606 -1.5087597227888785 1.5384613019062114 -0.8743612498311902 -0.8773692582325562 -1.4054660894441744 0.9696443131858031 -1.5086855387461358 0.05516722197754109 -1.8087572572819242 0.758072376818923 0.4969881128457997 -0.17943828264927322 -0.9772657560843242 -0.8897540847987849 -0.018568665989897478 -2.319698710629959 0.002225569817124319 0.31440299041811637 -0.9071535146966978 -1.6357454490534327 0.27022923316747144 -1.1389521966683462 1.7789514546700604 0.47880855646961773 -0.590462797794639 -1.4321719204543912 -0.509627139365787 -0.9467393426103704 0.19226564125956577 -0.6788022931807426 0.5719610421351142 -1.1366995167521303 -0.04904972654338429 -0.44304520407396775 -0.5360177763017617 1.5633493929276954 -0.007890782528441938 -0.10409416598007865 -0.9842527431169487 -0.55239833442466 0.08169067779541672 -0.420389938343216 0.9182372586673921 0.023410871418400814 -0.0012644689618345041 0.6894324488719303 -1.3283370491249913 -1.1197160659676049 1.605791638667763 -0.06217216410804871 0.14027102096915833 -1.2202227917965183 -0.4675392396865805 -0.09608858192902692 -1.9618261749785766 1.6622506540328972 -0.6624600841715221 -1.3738027692128971 0.011692630115607745 0.6059668327233185 0.690319829404748 0.8537333843165495 1.733908800413725 -1.8962515238059783 -0.11208768191398866 0.9812408821811305 1.071739201940248 1.497708264203536 0.14116875029463175 -1.180463200923423 0.7247087843087456 0.2012638923003328 -0.8571512984642331 -0.9174437455183663 0.34829944907475663 0.7851807650712127 0.5243460917570293 -0.3134787665262558 1.1781958619323674 1.4157476346614026 -2.413905127357745 -0.4601030009114988 0.753396910825378 -2.1679968439451476 -0.4106336057245993 -0.2031064534925466 0.7138509951410346 -0.6325435054942754 -0.659123460173165 1.4899403930399273 -1.6994704992172143 -0.6287055311667484 0.8777088859401098 1.6706593057395622 -0.10362015985067895 1.2676071168957037 -0.7139370217619859 0.15688092412307886 0.9912427584836936 1.2902591752377472 -1.2273359465063884 -0.18388389469731406 -0.661822966106859 -0.4886510978897963 0.30528950128652077 -1.4533083520338315 0.23085141801880305 -2.202720001328322 0.46817974408307966 0.7690325261123524 -0.5580328241340532 0.5116226319591737 -1.3322068245257546 -1.104425025974191 1.707815474994043 -1.776630831067044 1.1827525216647663 0.5665048169189683 -0.24275505290299637 0.037933061000778076 -1.6010528258061794 -1.9841133967095297 0.685100197002292 1.7412848541266686 -0.15960232532611696 0.5831135733808512 -0.5066909132250107 -0.536358678512956 -0.4629418870555735 -0.5516133562532208 0.9572513141156049 0.18759001061330988 0.675631300794794 -1.1835654795439836 -1.4535949904047731 -0.6613616623543785 -0.1570956573635 -0.31838916135479844 -0.7526784955455537 0.13386864507909765 0.13802228475219094 0.10511270145298289 0.5627347628238382 0.4715457919688157 0.3118514624455687 0.5278114974588006 0.34629067282688186 -1.4533969437038041 -1.5724894619664063 1.3250920833410291 0.0650695138282066 -0.6480923804254726 0.7418099235794473 0.39551891941429934 1.1898868125335937 1.0811311547268188 1.7635845803021877 1.6198646186810062 -0.21861819736871296 -0.4848953745620336 0.3766607705805252 -0.8277901957214814 -1.3290070231173567 0.686167331554087 0.01911207403014852 0.5115104341136837 -1.4211023428156073 0.8616902872875754 0.05888506196425043 -0.23081399427236493 -0.42553934327635995 0.07009638239103698 0.5027141364130459 -0.8917550252473045 1.234161440995037 0.8728977432232018 0.06908510332899288 -0.3625160769230879 2.257057245908994 1.726830431642305 1.0836565759773693 -0.7545567752487692 -1.3248288576142282 0.3356159582699996 0.8122276773729488 1.4823843717553613 -1.100509574342306 -0.6742654198726811 0.6226590225020564 -1.1607016324043715 1.3667462849743193 0.2948645923554221 -2.6122722592546657 0.8884337774544757 0.7701643087248785 -0.08556264369431142 1.0554933652194407 -2.091233041296195 1.0269499722186755 -0.5909956322902807 0.9770856641086538 0.6814724096978737 0.6597703776194769 -0.8436492122486532 -1.1302733323940182 0.28781394914925734 -0.2221286090054331 -0.3559323713141982 -0.6217532993072508 -0.37572912801363934 -0.6167325633407115 0.3010503012814369 0.7007519953027379 -1.407538235310119 0.2683311713225733 1.1381324264909614 -0.2103024673677388 0.4733036686054693 1.5202927712727836 -0.33642171286197314 2.153437658621901 0.3711833350115493 0.1719601990036011 -0.010783636778001775 -0.6785968670714403 -1.6057242234913929 0.1702449443334756 -0.48078963690629384 0.48814811189606966 0.4664993345314259 0.23328285125710016 1.4607515518292653 1.783976918869287 -2.1402121589184513 0.4013022229276749 -1.1959279536933909 -1.325863887601245 0.8410336415081452 0.6520916909147257 1.6107721826242938 -0.27236191253671216 -0.15865424073168408 0.7787263415004998 0.6984773953964535 -0.5881682533756322 1.1021398412861754 0.15596025359273405 -0.22542882337610848 -0.8782169185968683 1.3526440070658372 0.801859438769816 -0.3899754884394084 0.43482463445289987 -0.9726256588315909 1.5214808307957273 -0.025157132118883412 -2.2717006173266214 1.2925366413580084 -0.6966879296704632 0.9817641689357989 -0.35747636078556144 -0.8192468157982232 -0.9221383138610116 -0.7498955634006187 -0.9065690262890237 -0.03183902563973816 0.34917943867356954 -1.0263776573569172 -0.9989212652165204 -0.9532870424028609 -0.9767384074485219 0.7284404249669516 1.7870079740066283 -0.4803924285442829 0.014351381472563495 -1.3933088364158697 0.9018242861962119 0.38379553354889995 0.7982631797249214 2.033388967785055 0.15408792624754858 0.38953935662279215 0.07326936655217203 -0.028307162780819344 0.02449615869397411 1.0495840032322878 0.5100821292841623 -0.951803683171583 -0.9655468799523674 -0.4490365314479868 -2.0612813471697438 -0.8455609978472686 -2.063093335179248 0.5462339475647812 1.0609186577556784 -0.24267717124102264 0.10193761481882824 0.5399266563230736 -0.7527724225429704 0.3319963176448228 -0.6062676634663775 -1.4444071787489896 -1.908789959059625 0.02784577682836729 -0.10874950127326427 -0.4399482704324447 -0.39993671764866756 0.086417689066503 -0.327207090348078 0.2867914357523005 0.4357750451167722 0.7750908302785713 -0.4704070552891908 0.5093689677472522 -0.6581538361949897 0.8335732657900663 -1.423826500825331 -1.212204783997996 0.06836599604455498 -2.010414740126564 -0.9672256812245938 -0.569649613308643 0.529002622831985 -0.21623575034519904 0.4518422136782554 0.5068288523909397 0.9486203572987245 1.719359310567833 0.45854734823745963 0.9677126278923257 0.10093445795310449 -1.9824518543034177 -0.5929733668750861 1.3010970181894925 -1.5205793951638973 0.5981528408431552 -1.4697322804160118 -0.9955911784237268 -0.6058105931774957 1.4996230596581028 0.04121793221652497 -0.44380430475187416 -0.4001065980778153 -1.2787961153480805 2.5052561022505397 0.30761398371496873 -0.4500249693799728 0.061295278498182865 -0.9758821965038222 -1.5046173708077406 1.1490924988770437 -1.5287270805452038 2.022130768596286 -0.17930671588144925 0.5874140824744954 0.765272764002841 2.133922238662457 -1.719523319477569 0.24404455566455566 0.6041894330766644 0.5613707741178093 2.4999725201006E-4 0.09273276228788337 -0.07167550449351001 -0.6002557886531779 1.9396515412983573 -1.2889564808537046 -1.7207249734908951 -0.4326847222304437 0.3964621962304768 0.1340062711239855 0.550383951543264 -0.13203747122962003 0.18988643794223675 0.49645703778379097 -3.0029695245826407 1.117282416054091 0.5643005086548856 0.7840781579091519 1.3951322887252116 -0.325223248969864 0.6748173888760512 0.8019457448382171 -0.7274971626272637 1.1237621574430063 -0.07080614497162349 -0.7439310654830811 2.229968650538802 0.09914917309153125 0.37433456151429023 -1.1590544357086523 -1.7932325672524418 -0.3513979740366138 -1.1347484973959006 -0.5169755054145958 -0.9515518833742456 -0.007557214426741188 1.7077563497748083 1.5456688033769044 -1.6030470458982835 0.04588897452928021 -0.023653427954850068 0.6479313869958483 0.8022997594917073 -1.2843626225635816 -0.7688477054027285 -0.2927030512136812 0.19304947196508027 0.23307944546155873 -1.0893742923054148 2.2396326300297926 -0.4137215623988391 -0.3919829432438908 -1.400884370217791 0.035038036173342606 -1.8763452275648869 0.7009457689507006 -2.773644745489788 0.9836574573700202 -1.3629620037261023 -1.0526718997552589 -0.015325550137237758 0.5442607406618363 -0.1008304182612609 1.6297660849059665 1.2958587109969948 0.7177637561196067 -1.530686560060802 -2.3781031151860152 0.3807941667598823 -1.4077091065573026 -0.8201973722987129 -0.48809324938909804 0.425047826048146 -1.6455042528289754 0.7578748881980852 1.3953466462628967 1.4496806706111556 1.4186566615700422 0.29911994886216936 0.44551302496899287 -2.1214170368632828 1.102949127418174 2.742987793727434 -1.9103378074215311 -1.7511701302234564 0.36021739381210677 0.041304416620539644 -0.6619338402879477 -1.2872761925332725 1.1795986347716247 0.7725817724987019 -0.7883144261439202 1.0165150060927026 -0.48415533063641575 0.412867475956342 0.5033133007017969 0.08566556362457149 1.6485519264451034 0.09547747751590603 0.3918905276335427 -0.3491046701086452 0.8849605264608605 -1.1787034501239972 -3.3662394334033103 0.9135837121594959 -0.6820900108354262 -1.684764816306426 -1.7633202997873838 -0.2534804190116147 1.0815123329805292 0.6031741031472322 1.5545447904419292 3.035852014066936 -1.3829955048774079 1.734491845896467 0.7065017856238213 1.0663906139970905 0.3022957973795369 0.006158519408257264 -0.661349119870848 -0.24006184530165578 -1.6123287478036772 0.0961474087086559 1.0407963635809128 0.21849503227203448 -0.3978162902020226 -0.6502275086178951 
0.029839703748592492 0.44008803422522624 0.50313554662762 -0.6268645646997043 1.7428717376525042 1.6863245026522815 -2.1411853045356835 0.27105299946695455 -0.31679420142968817 0.6456778493590254 -0.46845747704815316 0.3127004606813487 -0.22694005239099746 1.576625071320436 -1.2593094943122398 0.26294038273134424 -1.0377385872674427 -0.9671477166853593 -0.648174970100189 -1.1811900502200652 -0.8497777889088625 -1.1787638497150934 0.30212525666206647 1.0393969022004286 -1.364329512332026 1.4061122893798021 -0.08639129657203934 -0.8633164055169886 0.7011785066880802 -0.5234994123546962 -0.28819870000974274 -0.6517809788284193 -0.1672771489324891 0.7566367098779 -0.9614651995167333 -1.8601592330157521 3.0165209734819944 -0.47388149280864755 0.2050301197587347 -0.14907952038785965 1.4598266700188995 -0.7048852285817757 -0.9499074632122925 0.25532819857299416 0.7250676343675304 1.4258807087629854 -0.1765963069750897 -1.7924766988351784 0.18302388879745757 0.11026187563422847 -1.5086108185852567 -0.6850179517216781 0.10374343504435998 -0.7911184853356673 0.5261782987807918 -0.37072173484909743 -1.8405816478290487 -0.7764338499375002 1.2119291446463587 -0.4146656026627314 0.38021759763929097 -0.03149890712675889 -0.81313215057775 -0.2254602216115918 0.13311339579198894 -0.15028795727857663 1.5195779821148567 -0.6288749130099285 1.7050937706195481 -1.0300882451696458 1.3783730808521768 0.512884901565274 -0.6184065616520069 0.7645981217880738 -0.40243171586452237 0.19291630116705225 -0.5269052296086802 0.4203754226873177 1.3189795848577137 1.2142662679037841 -1.406035407347906 -1.704043174770508 -2.389274558235186 -0.460227376825429 0.09516572442536564 -1.2556903395415806 -0.9625388598966742 -1.1618650268990514 0.5792728473737284 1.0137659666977163 -0.5503257502522093 -0.019739485529673088 -0.5929621864191312 0.27380611216622985 -0.8702668173551457 -0.9513780290886255 0.9716626537316098 0.8123357638384783 0.6781392500890621 0.7172154508611911 -0.36241115989450434 -0.2393016529026529 0.6015768905739953 0.06608223257953307 0.32320018404312967 -1.5538017332468985 0.4261876711126433 -0.579102680185841 0.5173196295611776 -1.2206026843736173 -0.20928868577927184 1.1354860863214455 0.6218351481351759 0.19292161380285808 0.32938874964946163 -0.31029028439153217 -0.3447418578533929 -0.23194237745439591 1.210804577174364 -1.9082556549968352 0.978220852635151 0.37495404040558045 -0.9125676003734384 -0.21184245052865466 0.5896503827368761 -2.880435972049664 1.8325723257218478 0.32403188484835577 0.6495527285851563 -2.4769781787803984 -0.32451685857004453 1.2323245283304716 -0.2410775175037792 -0.41115927228891214 -1.4011599474633913 -0.5177996326520766 1.362790176583833 -0.5177009107167772 0.1956645289525384 0.48563289353900374 -0.03556165484140692 -1.0948735468675024 0.19057146587814433 -0.40651377877072276 0.24890199201262853 -0.46537066234948904 1.120636635913401 -2.517196459102072 0.5846605181465268 1.75405503559507 -0.26359586045879846 1.262709910917411 -2.3720663997455054 1.7122102337728349 -2.4427072644186523 0.19284383554662587 -0.6681287308141176 0.09290599514958713 0.6311925137296512 0.3787438135627787 0.1947211486714938 0.24777700023046567 0.14593227531145053 -0.5599476922030996 -1.5648898737850845 1.2323548905209212 -2.573905325812969 0.8841020665333713 -0.7406767930842303 -2.154833841982082 0.4957076462392037 0.5574949039824209 0.03463234495055645 1.0365746464171628 0.0718200650223124 -0.3258072396158321 0.26079635045818705 0.7916466995869935 -0.14005156499280447 0.6046972773813027 0.6536378980004744 1.5717208022204054 -0.2976928940946146 1.2153842546238942 -0.5856835355711952 -0.0014116805899946027 -0.7670694675422911 1.0406688871354883 0.18306777043595118 -0.4053968627206612 -0.8510088890188625 0.08534413506634093 1.11697265718975 0.7601617306558869 1.2180053591991886 -1.9147437908095415 1.6697515407776904 -0.8033098655260429 -1.6892588890460594 -0.45690022603827896 -0.4934119249531731 -0.46515337634127524 -0.8187763827782891 -0.6166847873683134 -0.33437904961347215 -0.5390338782182251 -0.32918089137523016 -1.2356810761421855 -0.8824675130739696 -0.7486947719400129 -1.045751726433724 0.16821053083121612 0.055923259103399306 -2.341571670527005 -0.14140771951540848 0.8020212766114991 -1.63372437219982 0.734065581624734 2.033046175230338 0.5731003272471189 0.34237371796188576 -2.2313339795643143 1.4419364531039198 0.33203231569141733 0.2670833285174081 -0.31018311115022784 -1.8818410606856733 0.8162393530308971 -1.7664954689321466 0.5086178954886805 1.0644406556348187 -1.389489273264621 1.764917973922931 -0.7312289736099895 -1.8209408062659473 -1.0937871218335344 -0.4903206635733286 -0.1947106612625925 0.5509476479299951 -1.1547224466512085 -0.35224073399891964 0.3893301479158402 -0.7783155126875458 -0.48506962470179504 1.4102782014781217 -0.8022787408048817 0.05344619709859516 0.7400069413553723 -0.5105124490341673 -0.285725736615007 0.5786071966980554 1.648988829567281 -0.28242687445381476 0.9300508837037674 -0.05127444560894513 -0.27959092615089126 -1.2537780151780398 0.5526190168617933 -1.9795986952980489 -0.3201339075408183 0.5535451027338214 -0.6081158979558208 0.7035102523906978 -1.5438007868935903 -1.067311753970924 -0.34545662177025965 0.012346738412227503 1.1837762455415388 -1.0588773035967467 0.6647750300856684 -0.291960711122171 -1.491692923766627 0.06691108942095018 -1.1833624626150907 -0.002704044340401214 0.9440536792852603 -1.004005428752482 0.9086493333835104 -1.1313382587545164 -0.12130514756115685 -1.356689160568782 -1.3602116875192232 0.37889698845960595 -0.2710510214444576 -0.2471256667841305 -0.08761746755112564 1.578599558380106 -0.3925765593579847 -1.3588530202320965 0.7275329746408755 -1.8375152194275053 1.8583384006319879 0.707120365693451 -0.8872667814783166 -0.2308247599787325 2.2183568811117538 0.4303011307041029 1.1839812939548817 0.9518308069849265 1.1274131997682064 -0.9964280920021243 -0.4572257599228288 0.7046973103116115 -0.9666246144598785 0.47119881694910776 0.07795192734948232 -1.0498978054988062 -0.8559377415353633 -0.7055322918072413 0.4069555237203257 -1.3036327553379996 -0.4708303619387124 -0.307177634415753 -0.37500238100184546 -0.5891775566908195 -1.0514325631373258 -1.641069424106801 0.9202801506561826 0.6435845769185136 0.05762803308851416 1.4444946631845696 0.8425771653201627 0.02221844478993574 -1.0953100240732585 -1.4477570609608468 -1.31609914392042 0.5969743061419577 -0.1479321315305312 -0.39985596722350586 -0.8179167862520639 0.8516280354907484 -0.39714172260518793 1.545116933137871 -0.771944687264513 -0.7064467496559925 1.1332990807136014 0.14180270441419912 -0.20031788594974775 0.12837945971029222 1.4528071929552473 0.028890575503465448 0.6913355843412526 0.5516197255844462 1.408711072315121 0.11597355192972011 -0.49991236633865244 -1.2593017272506597 -0.6691574901619484 0.33988873383412105 -1.987012644445447 -0.035897480045840584 0.13885085642490486 0.43886454634193756 -1.5129729012684232 1.422449813435829 -0.40200580215340553 0.4208593643456736 -0.7137269338916985 0.6135798256817641 -0.8038985508691249 -1.3784773618633674 -0.03780414635682212 1.2948854736974544 0.5349452562558215 3.0923033256661276 -1.471303679355289 -0.8344854431187388 1.5523502687106867 1.214864753299855 -0.8375340253640304 -0.841086584450492 -1.911718596922781 0.1925371053329253 -0.8482028360243924 0.9703091193078257 -0.4790747037220458 -0.7100657922364515 0.11154861620492472 -0.10914057709533101 -0.6361264064829314 -1.088180869334672 -0.6260346670392477 1.7076600422754018 0.653726555689313 -0.047887995906881885 -0.3128498098074535 -0.770764075230751 -2.201034388417394 1.0476493872705392 1.2665544791413865 -1.268481033598135 0.20186562249296827 1.191016147614729 1.0331782878914744 -1.6885084567134536 0.5398628276749414 0.13997213655610155 -1.0122939066311414 0.15758937207725818 -0.0641853921518928 -0.5153948755875187 -0.2919288744771913 0.6698648168862104 -0.5367961784207688 -1.936248755778789 0.09888460111084965 -0.1142054457370927 -1.2086790810188166 -0.5999720405255592 1.6789955802868506 -0.35869656344144546 -2.4288658064340614 0.7789878637813132 -0.8775960933816469 -1.100205058337893 1.219927909529109 -2.274480302344958 0.45401928449163353 0.3320114160996507 -0.7727056495563851 0.017277375593173994 -0.3154061728376801 -0.31300812658000055 -0.4978708344684312 1.0703034865687742 -1.4376794027559676 0.217217257638997 -0.603810859175248 0.34034529891998805 -0.5498521612822297 0.8073961815856014 -0.9169415896151537 0.471597328537538 0.6392189853133036 -0.6450564283547644 0.059494315305555816 -0.3958065849980638 -0.014425455968045488 0.8540654675504418 -0.7088539299623957 -1.182474738889725 0.13039850215354812 -0.2522662625253214 -1.0352807299933988 -1.2606065460857123 0.7568506550371794 -0.33256384385399257 0.6271084853730907 -1.7555452107534437 0.2164521972931711 -0.7907802975565295 -0.525165082883373 -1.1394358658151524 0.9472509282873123 -0.3752628302389409 0.9574743948186569 -0.7552806354083255 -1.8924477095682735 -0.5117818129550987 0.18450707121496795 -0.1946588119657157 -0.23470519236372617 0.8385591834490081 0.9425645903108524 -1.2703889647181845 -1.0160361690732753 -1.1968772650601482 0.8454916950653211 1.629175582991002 0.7235959885346892 -0.1118523438131552 -1.2991610148561774 -0.34273882846232506 1.1211612951058498 -0.5644680875651547 -0.4219874054640125 -0.6706520215597734 0.13733666227408553 -0.21776216091948036 -1.7494421854181206 -1.8942628758640823 0.2140071384923749 2.9664351785582306 -1.8712960371076395 0.0207179998387864 1.296931417519021 -0.3000856334024473 -0.06673254541571919 0.17773127528509752 0.10727649485537862 -0.7105048137416681 -0.035237394361937326 -0.6683924713832663 1.0176244812150466 -0.4142660322851472 -0.6868712324348643 1.3440675118806227 -0.793897124957718 -1.298179900096208 0.7064911249894156 -2.402073523556342 0.32154597823336667 0.23644733779320146 -0.32152836195828605 0.598613714321564 0.3956853887576358 1.1409663137854684 1.7310177150645971 0.6528415352005077 0.7003668886048203 -0.2624466629742902 1.6071579963572755 -1.8568574015231827 -0.40882318133741324 -0.8101715719151076 1.3755549421463609 -0.3272152652035336 -1.085785567245236 0.28068893818361035 0.5075203462075293 -0.5154608771152852 1.530332096405634 -0.4456277490504474 0.3612743327887966 -0.90436272853511 -0.465609686246894 0.010189787469422534 0.10512202179966146 -0.12127778320111325 -1.435996536364088 -1.2611509308997655 -2.337290104218919 0.5625645965016196 -0.032466485151921645 -0.8770117752376841 -1.4880907362058324 -0.3118541931253657 2.2624668592858437 -0.611122883934636 -0.9527099425130064 -0.21301660481421242 0.06981948559332897 1.0671270057584623 -0.30929974590462816 0.6536182084029748 -0.23431181938599055 -0.8281257395305114 -0.06254679214933247 0.5305219828612662 0.01256826284143602 0.5971790224292196 0.8022325841000748 -1.000452677119141 0.8445182152975668 -0.8193577719902552 -0.9557839052841038 -0.9338650169633622 -2.8614245588612466 2.0520438374700785 -0.023589221877377595 -0.7490107760438869 0.2632994133163875 -0.15482365311752821 -1.1970433861474727 0.8052129771335552 0.9045090843153272 -0.9031013410587828 0.6002687889729816 -1.179608776743153 1.3663502509883856 -0.24862957489496348 -0.21540199403123328 0.027207560725567032 0.5491175701491018 0.9745363512050557 0.35893603654971035 1.3431859824061563 1.8512582255524173 0.21930133239932761 -2.8128955761321897 0.5331902733492787 0.405669407078286 -0.06378610374878217 0.9909791023652413 -1.7606100846251176 0.5086270116775413 0.06563239912488081 0.17020270606102902 -1.8028315177844207 0.3226576573572321 0.5780849497634976 0.8941121779738336 1.0976056714338516 1.2423965803669563 1.5501641674612145 -0.4242409615216155 0.07753964862887172 0.051725704401467905 -1.0925900184032145 -2.248202060765381 0.7763013337972626 -0.12595529123309618 1.4690690792059773 -0.20753059325018136 -0.9419433793170459 -0.37357041446868333 0.4863924931858762 -2.0193463065889414 0.4304472492010647 0.009532332723862447 1.0805464871624928 -0.36779063678073115 -0.2142470610633068 -0.4101784681929589 -0.3437084405989477 0.11861459482046315 0.17911192208699003 -0.49724892002388693 -0.8863596991841827 -0.7336599732239356 0.4637201746212046 1.1275111180905983 -0.6068480484038857 -0.7416764776762514 1.4516958069638128 -0.4884778419221397 1.21433602751295 -0.7559197167133065 -0.5299421134540658 -1.9672842492322826 -0.4031787519037362 -0.6039179871693939 -0.6277395715582271 -0.5315112843755421 1.5778776162127697 -1.3270914015589437 1.0985961311660601 -0.4335532571780057 -0.20446033919909654 0.9157401532047227 -1.0270782176979898 -0.28857364452022466 1.2418572749650143 -0.8318720290671164 -1.3443770061688602 1.2705105853849041 -0.04469322049107221 -0.5731875166517462 0.27150451456192076 1.5375934897046155 0.35447690217132355 0.7396819915631344 0.561325900738047 -2.0717837515202007 0.30419053527366857 1.6611915799395867 -2.4806253889952914 -0.40995599281441025 -0.45258645665343183 -0.7666969031567595 -1.1036733419407059 1.1950546174793426 0.5886236307043289 1.527464464438694 -0.7131153546096702 0.43968476025734393 -0.4795460824894315 -0.1312401623829948 0.7630266097026238 -0.7396101898508741 -0.25067797760892485 -0.9829270205440473 0.04021384867071825 1.559864584916837 -0.6452087999192113 0.3966252033907385 0.19012356990231985 -0.10234078982873657 -0.08775063577027896 -1.127174373734824 1.1141691446932327 -0.41961517016111055 -0.37171695771213603 -1.052456219087942 -0.4846064866539812 -0.9741830977761675 -1.204098261462811 0.12010599291189654 1.2011901932054925 -0.7500474572258897 -0.5103852950670913 0.3633197097393894 2.298748369600702 -0.41027904058288756 0.4756003092575629 0.14844891607131674 -0.5011077060674228 0.5254775878456456 -0.5191387082397964 0.9197957267772556 -0.05635666642531564 0.05910289265956614 -0.18685181474720056 1.0424743753147683 0.7447455908309452 1.2768186040266833 0.8507605642367623 1.1317649705806483 1.5230676085469614 -0.5376981035509965 -0.33718322119876754 0.5490394177970424 1.8210719468389973 0.06270880883652946 0.23374879412300587 -0.6199666166051379 -1.7495074290651536 -0.7497244061135363 2.1988479030733856 -1.0830843637328726 0.21866369898381785 -0.016634030721154224 -1.600301745645115 1.231972728737081 -0.4401337208379292 -0.4876177743037205 -1.7906600602756435 0.5196150621547673 -0.816862389367312 0.9578755837905493 -2.2849734136729745 -0.3468961249928535 -0.32303550214287274 0.408188539305946 -1.0133763751769753 -1.158258679087868 0.6874627287769964 0.4922089866386559 0.30456283130825673 -0.9979685809462424 1.8090296515212123 0.6111075100817517 -0.22927891518002494 -0.6931809555406322 0.9172696835182355 -0.45450522804423704 -0.26704321445757967 1.5339505919280128 0.6747477721851821 1.0998454368525563 -0.31694638822604576 -2.1263419383711613 0.052510449377760886 -0.9704181052408829 -0.6053858992464332 -0.027047286866653794 0.25343896113456194 -2.245359535606499 0.16927350000774238 0.18662116327063322 0.8242638388000016 -0.7443664970517099 -0.6838150333881144 1.123033189441715 -0.2305618773319264 2.55361800417879 0.6046528718564675 -1.1843309696178042 1.0878961148743833 0.24604059195163408 0.189752606087036 0.47692976530466274 0.13691505051874892 0.6997832512621616 -0.9558243651519264 -0.5020148283632865 -0.019343672262405662 0.8092802794946874 -1.437832659097052 -2.1671724647808226 -0.9072167101269842 0.3976104009364937 0.6866715931847869 -0.15467705944759486 
0.5640166077945216 -1.1805827047952482 1.7320622960229242 0.13804692082089112 -0.7168539138920632 -0.47771611675946857 1.8280945475188177 -1.1801409548884432 -2.0087411424107344 -1.2711730139727446 -0.9979758835964186 -0.5946391297426672 1.1170503469027993 0.4974518018863107 1.1045895888124835 0.7161327990814169 1.7689583645625448 -0.6865773788936035 -0.2508307491719893 -1.926487815535055 1.1669316179568279 -0.3062512408465176 -0.8037489841424263 -1.2693519671310984 -0.9766642660635104 0.6703046280930192 -1.1011475733340985 0.641198834273673 -0.29029373992266605 0.45320575412794567 -0.19820803944337076 0.8519503285286584 0.3995817342663558 -0.2063781591256925 -1.4667714642630867 1.7194985858861378 -1.3708491126672864 -0.4502975805294089 -0.46952671447162253 0.7899635683459376 -0.2438550178330003 -1.8279109574824939 -0.8655285320929417 0.5235715014962568 1.8113042098903789 0.853456180508645 0.5872362562226741 -0.7616113489974762 1.2351103275210742 -0.3897160203014005 1.3218748784033643 2.445347473944366 0.34871508206955126 -0.875525797303049 0.7843516328785105 -0.21672784006209195 -0.6546389712835454 0.5866527154154886 -1.0952970018240396 1.597486562728463 0.6642668094744387 1.1046362146923416 0.6545119060307536 -0.4430186667498925 -0.32050992648968546 -0.5246281008401977 -1.132391701128065 -0.7145661343679452 -0.2220212184496502 -0.9092994517476782 0.5621089250990207 0.9310040098201249 -0.5931899955521416 0.8814360604678638 -0.3550568527151891 -1.19769475432818 1.0484425716052461 1.6518413248807167 0.049974538358706945 -1.6094200014608318 -0.2780755648741869 0.8705531608493319 2.0181875369789566 -0.5184579023163621 0.5145251009970913 -0.13378801190126605 -1.36506923097176 -0.3833464922792929 0.33490865652068313 -2.1812324117430335 -0.05174648225944416 -0.06654542166937841 0.4237627004091173 -1.6186723594595032 0.8302664196855708 -1.6394601106159372 -0.353475460971143 0.9116013899407723 -0.15867934737004394 0.5017366248512335 -0.3392458329242734 0.5877949245041523 0.25617065673549066 0.49700429273136765 0.4788689404599081 0.8149265995055297 -1.9980370610662257 0.8983040089382162 0.9651143741880369 -0.8016903444564258 -0.07047976486919007 -0.44983746755857784 -1.8786435686735825 -0.02370135073712345 0.17768555139688247 -2.0414801792715225 -0.17711280207788369 1.088533601890614 0.3574850395702753 0.043588815508036914 -1.7346256856353393 1.1560540293461175 2.212788835645266 -0.5487091960767098 1.2379478532546078 0.5285658349917721 -0.38274317107114897 -1.4314027678633388 0.285303553048442 0.14982262446570008 0.9427760523355059 -0.5867254021209053 0.5388111389962982 -0.6205289224806755 0.023394932377658974 -1.1877530347411756 -0.31147841705302176 -0.0759157204706902 0.5129826185249661 -0.44841011988559254 1.2023071403623162 -0.3042991128081429 0.030701884499067578 0.04311321051887343 0.04972607173268997 -1.9597219546311442 0.676996359270935 -0.5550176894187999 -0.5660464446406284 -0.02972910597955377 0.09138361237284236 -0.6236119116158781 -0.5212070812380141 0.584434648980742 0.35877538607835774 -0.31336291997425764 -1.2874113896068506 0.3362469672271242 -0.6522423594436837 1.138594162335394 -1.210844852653952 1.7784736334251703 -0.3875381755059748 -0.44724130565899717 -0.5781506812176028 0.05547980986617004 -1.2023390819200015 0.7314532726269741 -0.807441640622655 -1.288805574073573 0.44429722204198674 -1.2132248400247738 1.6787485109324427 -0.9216596305317378 -0.4807421444567992 -0.39440661369659935 -0.6999470733518135 -0.5782037795022295 -0.15061209712883 0.08513917502825062 -1.8699551305038422 -1.0886640870192912 0.723012494185306 -2.9593574981622828 -0.7114670701501112 0.3676883807616937 -1.1515632645173701 0.20144591109012763 -0.279211462664182 0.5151950549650054 -0.8237854367738721 -0.34179364092893366 -0.7538643772867285 0.36244174169589605 -0.8841361926875881 -1.2774570071010427 1.258990949976555 -1.7733144542861332 1.6786316525977962 -1.726731855796993 -1.114033086533925 -0.11100543407884242 -0.5940889594289266 0.0536243963230847 -0.5427934966361949 0.03905476305096874 -0.6820117751527088 0.008727147635487582 -2.225569774717086 -0.32752302342280876 -1.2311267647554545 -1.5690109569432071 0.8628205027775163 -0.8805465999771052 0.8880363137972697 0.4583021987129045 -1.5270477996724479 0.4292397158451039 -0.07026141193037824 0.38441771520349316 -0.5155643600032879 -0.7381200107650907 -0.8611669710415741 1.4227560405460487 -1.6445295203127825 -1.5912408369631943 -1.3219089474214587 -1.514970565824281 0.16161966037105516 -0.7598281336387327 -0.752160245377848 -0.4002047903831787 -0.047710588971499136 -1.4046227317903934 -0.5684923216470655 -0.9020876419837718 0.6349390608563421 -0.4611544955258744 1.721188162284304 -0.2000155278992671 -1.30077735340394 -0.7426043791872954 2.6999958793314427 0.6131214914975818 0.3215951352929224 -0.583704110045645 -0.11183685566260274 -1.0298402878289175 -0.6285696171766543 0.040307160460118965 0.7174446238648626 0.1843973752171567 0.7516482056778785 -1.0801235030300962 1.663998065938566 0.06916887930011963 -1.1472594252813704 0.5599534588442213 -1.4735688798323388 0.5167541515937955 -1.7730329716480817 -0.1855944744529431 -0.7026455557364916 -0.6171307779806438 -0.839402479989075 1.160591138012211 -1.9876329852337202 -1.0596734980061735 -0.35975374950494193 1.872131065154277 -0.5879398485676752 0.29186347171578886 1.7594015652937076 0.4291047685019832 -0.10325473400781436 0.09769174849763443 -0.9101053668969163 0.2832991555126384 -0.17681566016127356 0.386948355213254 1.0767126271868008 -0.12103712754617196 0.6652290048780011 -2.298580985187204 -0.40617211930830854 -0.023484483524361326 1.6784607059889955 0.6290027552480045 0.9872607187951293 -2.311217691745664 0.17236450020588953 -0.7139342038200641 1.1774312883689433 0.9992740715270448 0.10548819848408499 -0.45875393290593186 -0.8781239604998706 -0.7167631854378395 0.5278631468430308 0.7205874118692113 0.7694361726335723 -0.5012767009662141 -1.203572828158692 -0.6269883032878291 -0.06955195320950003 -0.09508832268048448 1.0573054610944603 0.6337210027944932 -1.0292994200837138 -0.14705900025956 0.13667301161670067 0.09740317605504976 -1.2625988943068478 0.735014872339065 0.7655471983504035 0.4594010554192899 -0.1775686213865049 -2.009281815946833 -0.81432562687797 0.463640918963053 -0.3418611394800569 -0.5734344830171337 -0.8054845911390099 0.09069427206315976 -1.4752999940784937 0.8579557664813883 -1.541163285700565 -1.4029541598327744 -1.2532199869541647 0.36480460357564737 0.9934105544119948 1.0690109106702252 -0.8997623922726596 -0.16001823891236466 -0.13777734207827716 0.1498950250199897 -0.9023106791885873 0.8392385981725852 0.37236264840338773 -0.6320161766365353 0.25886237642215054 0.6269685755870579 0.698570505300545 0.3208384329318735 -0.07981108057428934 -0.22086767678681374 -0.1594530898348397 0.13884535432525097 0.5573125229555486 -0.9570173851306633 0.6740337931816606 0.16586809273638312 -0.42072188949748146 1.0656240201983707 -0.084685885167258 -0.11059496265360848 0.20495013055695208 -1.6540374262067992 -0.02809986230782584 -1.1507939929466136 1.2885994591026837 -0.3100342650673668 -0.27076366163909144 0.2405917381364002 0.21553306767505168 0.9437261938347294 -0.1372553161947569 -0.7794465295892136 0.23161967231599903 1.3283228410692727 -0.5613170038364683 -2.6825005142544374 1.3098652689836654 -2.409506837804017 -2.970590900164154 1.530617448219024 -0.6224614088311933 -0.28285271602917295 0.9473242754257908 -0.7488634237065038 -1.35182878309981 0.7262207237784514 -0.3144730424911221 -1.1798605056044913 -0.7708813316793749 0.54940847978652 1.0930657851078374 -0.87649603450242 -0.41467228493506286 0.6356678935419819 -0.27597590195604466 1.4967007850461964 -0.16950404018724471 -0.371976977065612 0.07783975301872238 -1.068397371199056 1.5023783716844665 -0.011795755205825233 0.7817527598814118 0.20113995238749952 -0.10389730498645386 2.1724494742590372 1.052894052513054 0.27027093009090647 1.3304344286508292 -1.7516912830023261 1.1924861638266446 -0.26695201376225086 0.9203747901243312 0.3451068637055498 -0.9917522598298156 -0.24333229434668008 0.7576500765303978 -0.4327775161223919 -0.8190709059216221 -0.25658844230763517 1.354863574630818 -0.7715521469853988 0.5381809968884673 0.30392244071510294 0.13272378305235896 -1.4187628929637346 1.113158292722073 -0.7659408830272921 -0.3602442362810456 0.7150876566241119 0.45750866043873967 1.668085266101623 1.262467638366136 1.9201863636582959 0.6935387017020289 0.37518508076354234 0.780676896189698 0.20335558363758152 0.24996177452155982 -0.8204609283968912 0.18736479946686602 0.12047919038224698 0.11805306967346668 0.5468338218741892 -0.9775617567562122 -0.11090977369446606 -0.5364343401422575 0.29594668441735633 -0.14469158773342353 0.7513442648255548 -0.7362748790572949 1.1415835895792465 -1.0890269149976162 1.0556654394509668 2.3424274923947555 -0.9035777376638473 0.1003749306164827 -0.24375975707450093 1.1538767289112992 -2.228362961515153 -0.8218896111201814 -0.16722342978907026 -1.1121117825738884 -1.3620700388001523 -1.5256923211525464 0.17417929390520104 0.019635119311550018 -1.4740510458030531 1.7284476455730193 -0.5371804142616191 -0.6010124628078504 -1.13397849460295 0.11440734495917301 1.589985595662057 -0.8820979153500544 -1.4112932156784488 -0.3045470065135066 -1.837010740322117 1.3060348854961503 -0.78934232679 0.8272485277806811 0.4446898418894807 -0.42505307735596637 0.6384663301653541 -0.2111302519398364 0.5995355055236323 0.6795967449079533 0.20156115009116166 -0.11540479181667067 -2.2431494104381375 -0.02313419710256687 -0.04274510302064531 -0.11429764539726384 -0.28236112089582543 -0.2442271291887988 -1.5442335010367134 -0.8139205618778951 -1.8778187829293307 1.8708402286951915 -0.7716836908600179 -0.09870618791363907 0.03550792869831402 0.9854811746221483 -0.4461665706749136 -0.3672518035862342 0.4406979563244197 0.38752587087282486 0.21976325152847984 -0.5574358034105857 -1.2112099007343433 -1.084302999280679 -2.1528608070907467 -0.8454682333025191 -1.043308134033205 -0.7148392260170864 0.936606919385627 -0.6587239183576332 -1.3334115704707883 -1.2467059119537054 -0.7889866329496663 0.2823949614858659 1.007026330442193 -1.43923920453398 -0.8365973938057033 0.7377897840993164 0.29218876780709474 -0.49141322478974675 -0.6703985627444443 -0.3048818593924646 -1.720869531216297 1.3179660469529202 -1.6331771912500774 -0.647483893518985 -0.6360099976310886 0.26355432715943805 0.19910465829881724 0.40185678367083755 0.3805331239949789 1.2948561900052056 -1.0251742483565878 0.5116197460140367 -1.1716421897265417 0.21188551648650789 0.3816615880892781 1.375912709062996 -0.5258718992861788 -0.9437843972663185 0.8445075379434226 -1.0140899086030715 -1.3590226256120157 0.632827674038943 1.0203223673670914 -0.6230901919746409 -0.5163742360179947 -1.0284870516085358 -1.265825315942547 0.9700448336745333 0.26004854519682913 1.3271089467231856 -0.3290898693042355 -0.09570991298401482 0.7253406319001139 -0.627660243428119 2.1542014774332237 -0.4890043201566735 -0.7427138397999087 0.1549275855845936 -0.7643371037711418 0.2264609250600977 1.2154095300556236 0.1773978206836599 -2.1334469567883643 0.32729227417168527 -1.1712261410663882 -0.18762750832367306 1.270475084236248 -1.065128093574759 -0.8509415581044749 -0.03321882436911311 0.2956407320795785 -1.0724762749436674 0.24432545560568766 0.30683169722267795 -0.6664949217401989 -0.27403173457781244 -1.0129458192284053 -0.10873547871489192 1.4377409088944448 0.3239779699394052 0.28021178569159133 1.042584123237461 -0.11133235154517875 1.8068513548550376 -0.3699311009115123 -0.40053288738229714 0.18755805425383099 -1.0551973392034433 0.696039052281112 1.5103472521000094 -2.131782097075088 -1.4400575886732265 -0.757878500791494 -0.8223981975095928 1.7165711263409695 0.04659377617145863 -1.1384300080505012 1.2878751323478044 -1.7628440730340509 -0.7074430136073833 -0.9999734665726644 -0.28430721416532234 0.8693914441916086 -0.2706483888706476 0.6666748962538115 0.9732407324330064 -0.20197410539005275 -0.5497969920553146 -0.11722244609418907 -0.49329606437319573 -1.7256549503294913 -0.3217829695960889 0.0876042682693626 0.8075288585291668 -0.4069538466996773 0.15718241492739224 0.019673767363122558 -1.229975338378298 -0.37473616237561796 -0.8703061662392004 -1.5673440352865498 0.4892957792225397 -0.23696408268776897 -1.1724619593316186 0.35243773810964835 -0.5152762424392077 -0.49293049855249715 -0.8114985824880714 0.6465554879291779 -0.5423777488725408 1.456673639603071 0.7028507327332963 0.7279125239414612 -0.17168731594726436 -1.638174140340763 -0.3321750616965456 -0.9834976740370136 0.23175130784419543 0.039697116051680574 -0.041944946781941876 0.2924730221844618 -0.3233670531395557 -0.2001070837327332 0.5311224940174499 -0.7637936102482683 -0.3202533065111664 -0.2001521816833649 -1.0371626845824162 0.09179314696837178 -0.5694978030186798 -0.3642724473919609 0.8072160887800448 0.6313220202025301 0.15614980277273738 -0.955758900737874 0.9059819501956642 -1.1599015332053317 -1.5788459291538393 0.42710216652273425 0.8011876000871081 1.254969987216336 0.048346005059886614 0.8293985596825698 -1.4633752893624994 -0.7741905561314312 0.18759403800123242 -0.5573135411598001 -2.1412953977828364 -0.11228464570400458 0.17654509890773837 -1.9158516236239422 -0.4063333336343889 -0.11621727735853248 0.46773349672013237 0.6961921808270827 -0.952166069268078 -0.11756149628005694 1.3322292874377821 -0.8379444222854256 1.3648607126513517 0.3893319874859826 -0.9984640738937541 1.3334899160191176 0.6184317080518931 0.47371153735917526 0.028795379264458007 -1.4128428382593556 0.576022664348325 -0.9159681668981292 -2.8159409449691246 0.10240776496507543 1.5888545074003726 -0.8193267910005709 -0.36282161369326726 0.8790235509712919 -1.9259430670465627 0.10113543904072564 0.41351787791559663 1.8310757610660373 -0.1680390576942372 -0.37092765431326685 -0.7419380414871305 0.40793945599971027 -2.0055748117256798 -0.5268152982700732 -1.6135890104063744 0.5835018495585418 0.36050131466699364 0.8596024474213303 0.11958875418129064 -1.1101323951586748 -0.2364968236986529 -0.4948122102666668 0.595614278053066 -1.6367569258377437 -0.7667248183928057 1.0585953526534044 -1.927991978189334 -1.3219447794598276 0.26003310014175396 1.6393571739465544 1.4654658712796365 -0.7349161780074082 1.2857770812953453 0.14302181175514753 -1.2073032101024315 0.8330276774706405 1.0509480664326007 -0.46032807107677925 -0.21470338614469442 -0.22036497608381278 1.0463772177376942 2.0909032611421337 -1.982202866008624 0.7714238726264452 0.9383202342565667 -0.7841267661449817 -2.0691851130336505 -0.5755004586104483 1.0599475579585071 0.8361487356083294 -1.7195558880249182 -1.0828574342453336 1.5717429965081529 -0.17091449807724074 1.0441338432838059 -0.45920910435302437 -0.8986378277883107 -2.004549794601771 0.6029673731234659 -0.4217035089698366 -0.16088485712777365 0.7042266325905897 -0.8312795747186489 -0.08622127435398368 -0.18224421274080632 -0.3193459139825457 -0.00703744398264593 0.19044407622177945 -0.1513397280979795 1.2018833963323616 -1.7131403575227657 -1.0195834225135163 0.7157109546145856 0.19530064854788168 0.8876966103213522 -0.342661385379297 1.2089806302499362 0.22258448890730442 -1.3669899748435368 0.8597026563554676 0.7357805378662644 -0.36776512615174684 0.5652032054994631 -0.6881741204777571 1.2305289894358098 -0.6708904567769789 -1.0678808367929389 -0.5264382363588447 
-0.21339684965122688 -0.11515713245165113 2.0853773461316436 0.26141353955416624 -0.15482983245078377 -0.11812937387487826 0.14621617579706675 -0.6617056898880925 1.003085457053824 0.27304368007437374 -0.6268476885219476 -0.6143167159941174 0.35049149235599464 0.6560417234823263 -0.26684772353672537 -1.4305127763734715 0.45955810819215853 0.12637736428234855 -0.4189055553693931 -0.8070679802988999 -0.20889921233667608 -0.016597231627156837 0.3649766668803519 1.748175996219202 0.8820280069086186 0.9471666399082764 -0.01991828883138651 -1.3282857645087776 -0.3649175246097765 0.897004791647648 0.955925998798822 0.18298974165817286 -1.7322527074468927 1.1863113215010797 0.9914369319107117 1.703326192680131 -0.6862227020318498 -1.7447284422777116 -1.355977196707848 -1.727441637085726 -2.4455848553669037 2.091450152692788 0.8614000641186127 1.227887956500677 0.03823759496587501 -0.897656004019563 -1.4364586401550885 0.4499149404136847 -0.2605733109017892 -0.8301363542620269 0.6834605653994303 0.212618382803637 -1.000113770072327 1.3502791599640709 -0.49446595789240094 1.8721543999536652 0.34834339648815554 0.05363742319863817 0.3926493748749615 -1.487305204125725 -0.8057295549686035 0.5733849270729426 0.0870630349161762 -1.8072347450066186 0.08276844069174408 1.493403876234984 -1.142030806872627 4.6295630243594255E-4 0.31280523043830155 1.6354495473212 0.1410491395459426 1.332105188167887 0.8372138021313421 -0.4733659446707016 0.1399118709561531 -0.2899804853835829 -0.15962406323508976 -0.507898901715165 1.3615058418677095 0.1519070623884163 0.26688521500135204 -1.1788660886878675 -0.09354964030984822 -0.20165138223676465 1.4007109793329855 1.3965285668303802 -0.5282364737839856 -0.15981340489827928 1.8290609312973942 0.3862279308075275 1.4319179230570829 0.03506970382851526 -1.734435758107106 0.05727146271872269 -0.7562346475250967 1.3978897681478335 0.39137997285550685 -0.13582080396336976 -0.7801762412225973 0.31805237164800215 0.9304447562711302 1.0223926132818169 0.9423483260856751 0.7661544399049932 1.0896611864535273 0.38278137966051234 -0.5130777558931292 -1.4451612248276413 -0.8410151744671591 -0.8632480248599742 -1.4720096819431499 -1.0152370686574341 0.6941523658631648 -1.812285277257986 0.4386764152995896 1.2128036762385068 -0.10062120072377075 -0.9182147281736015 1.6950655718540826 0.19973859546192363 0.37601605869715066 0.45864731206514736 -1.7824282960326714 -0.35684263780330444 1.21312000833685 -0.7295300558731861 -0.4682570728361803 0.8223536275937177 0.5205795737587766 -0.3430523434973734 -1.3892625354675758 -1.8502582834993944 -1.8253727987894108 -0.14056550235388338 0.05768608192130225 1.269774440288448 1.6190937320580288 -0.4682336083535114 0.20674388352727066 0.5724416233276377 2.3960725918933563 0.49759830093306173 0.03900106813520104 -0.3131895214513214 -0.7256547254610274 -0.6810286099656986 0.49697343961784707 0.21681048657165036 -0.024582324791925316 -0.20615712141243103 -0.8046961140859686 2.414876741283493 -2.0877656832203844 0.6310016400495801 0.7401572026391467 -0.41590883212592455 -1.7273898775555203 -0.836828536645589 -0.559811138723205 1.7790330241521972 -1.2314813141105094 -1.2920690324710298 -0.0382374418205528 1.9045538435557636 -2.075771163304546 -0.5063744914047223 0.30399354249770716 1.9840250386674352 -0.179149146025384 -0.32450215991079423 0.8474136103527059 -0.2856086080937127 0.7931257496500734 -1.1291345556660979 0.7307332418161749 1.1159503967473927 -0.4223850603089085 -0.7770933266766362 0.5034799879798847 -1.3859143266154186 -0.009732436075925704 -0.7418709267403205 -1.3335017679490908 1.1904821951101816 -1.200764928900568 0.6344005042861525 1.3900631267759698 0.9655032825103242 -0.310760819321498 -1.315081635802705 0.9596653226913995 -0.08938845255973242 -0.3061372032194172 0.07293183641215487 -0.5449773189184259 -1.8601321403333126 0.6207127575291858 -0.2939793880183859 -0.46518231710787944 -2.2123302376904608 0.5958319982625653 1.1832154841259939 -1.392207361754461 0.06650144092198104 0.009547586113553446 -0.8615497191791505 -0.8106252755667535 -0.7043669207896537 -1.2717171805754504 -0.6921186051487598 -2.4898984489462026 -1.2617653445208186 1.4364569425434563 -0.043431801957255815 0.11010432378434255 1.1472874335496448 -1.0955817043553946 -2.1641850933135447 0.19934695266491836 -0.27624836359292065 0.12492709608049359 -0.5031745677149074 1.1876657322932498 -0.48230979628813186 -1.4237524186802337 -1.2915769280407794 -0.7616366125560335 -0.16911586668514478 -1.4169202234774703 0.23112693259652053 0.04829455493370904 0.3331300875660082 0.8315443338910876 -0.7546016058907922 -1.1040885162763336 0.2849051367562044 -0.9183902928348814 -0.5715900071072333 -0.7256455085042528 -0.42815630836028545 -0.5847503284670319 0.34670114370079685 -0.20101352503354744 -1.457940525854628 0.680444114546088 0.26424152856966826 0.7398193181197952 0.2014542645730228 0.7805245388028985 -1.5324328154511286 -0.6629468368704117 -0.05896893723389395 0.5429942951338032 -0.46482960854082167 -0.025275448847144943 -0.7478780995529248 0.07066367698954513 1.114905955048064 -0.046899339269291386 0.7345330385055997 0.9416890866414596 -0.28536341373718366 1.8631824230769556 2.334191727176247 1.969952517064929 1.9166927698411929 1.0919643329453952 1.3436000547393108 -0.9406644233726678 1.3605604215420097 0.5266738821231559 0.41161530072500513 0.7678218099626289 2.1494029666885583 0.20467692136033572 -0.9244539951158514 -2.5922312584259957 0.5772062102713708 -0.7647920588329308 -1.298609852277631 -1.040275129447132 -0.330387233210462 -0.09410350652713514 0.7658344890184231 0.42828666850506464 0.1351594705333301 1.0247212807811255 -0.24559264419643023 -0.47758899952027134 1.5921834463575233 0.11008220504844955 0.7611570281296187 1.1761922625423664 -0.010510641349639178 0.04129102109163911 0.2732918167013458 -1.0071502517503452 -2.03762202286061 0.15212929591097327 0.1838228174081072 1.1252283974205466 -2.5807920174175503 -0.8524239257160509 -0.24689445791823228 0.5439140794797859 0.3560743120116556 -0.5327914920701367 -1.1222483217310912 0.5661016429320549 -0.23054953936689887 -0.1733151908438467 -1.8657982111850278 -1.5017621616798287 0.7536227403120087 0.41141083770887593 -0.6271350021363934 -0.17983385978941283 0.12463864787880687 -0.3535855529845697 0.0950082063433746 0.9428687562918142 -0.10157035366991554 -1.0698670846920746 0.030411165063366937 -1.8225714590135589 0.8335105100316844 0.015024686691830711 -1.263034930929056 -0.5989945919943405 0.28154225344729367 0.4083882246234014 -0.12262607853751335 0.5935011175058867 -1.115584011404964 -2.558099160434112 2.261005405614381 -0.9201921287109218 1.8544835006327487 -0.6640049894483926 0.5357553566188794 0.3155755278902831 0.5248751759212327 0.9901361011106037 3.4122029826538958 0.545686856572917 1.2247982262435568 -0.6899986179464965 -1.6979841875270612 0.25700893358286014 0.6584140563629302 1.8201489635655694 0.5861443080142028 0.6240000828288716 0.4180797261089949 -1.153946536513305 -0.8437078412767582 -2.2794125103429566 -0.26827999629330823 -0.5823735840261907 -0.26870068081406046 -0.6694670476279009 -1.2459924503441822 0.42573883110337696 -0.19764242013246416 -1.487682943914805 -0.7259361003850074 0.5708094477911035 2.397341535683899 1.2349381516056714 -0.4492515640457902 -0.26253031667605753 2.3312872768719153 -0.40477319316055155 1.495528290380313 0.6284729994680646 0.8362559309275591 1.4562122905163637 0.4521621437712257 0.6728767555304821 0.28660380310086997 1.1758251313604045 2.2289528366593214 1.390355085255961 1.1039597123526832 -1.0481109449676158 -0.8012840450984772 1.1686561445069148 0.12492996270481184 -0.17607308310592729 -0.9050293581167761 1.7617383808749472 0.39371208398815627 0.8922545944723911 -0.25070848622755665 0.34687087955011286 0.04241161764609803 0.5625473252673269 -1.0547489545548427 0.6972849051059798 2.4240276801061373 -2.0685268869248046 -1.1894224284395567 0.7475129051401628 0.417564175088687 -0.38096858561690156 1.2539771980158834 1.7072475765037392 0.05925111201163626 -0.010635576668665013 0.3710008107021491 0.1063892044484185 -0.2795310000932347 0.4720387187775836 -0.19793584436572192 -0.42951560228274 -0.5539712469191553 0.28855322929711213 -2.0973000597150615 0.7118662984215371 0.6562102623175139 1.4815945483148032 0.1973211624665664 0.9701263031937524 0.7524725499953393 -0.8789346880478331 -2.1713686911940697 -0.7497944888654543 0.14388116893527061 1.2057527359756575 1.2242873087422332 -0.9399767034228989 -0.14883414115361684 -2.000029189912743 -0.7077607548425261 0.6257978831199744 0.41108677238151287 -1.093202500004055 -0.5154232110106164 1.518480870508882 1.0489000800033519 0.8492037979008967 0.9832796565255932 -0.017142501424380244 -1.115368529339942 -1.177156646784722 -0.9166252246075844 0.47355218046491776 -2.141374365942128 1.2711979678185452 -0.7728022278469624 1.2042686963883755 -0.4016996903143683 -0.1619167572046176 -0.1349022796117436 -0.7436952018699415 -1.0541099684176634 1.0321560241998888 -0.19744116634020104 -0.5123095160112731 -0.3664455946702621 0.931512335622656 0.04375297900316121 1.9593891426463883 1.2438039289346292 0.8799621062093383 0.3577663355997072 2.604337019219226 -0.3593147509707851 0.04330807606037027 -1.9222867123255798 0.03894525218732522 -1.4215045887212505 -0.22551025148350412 0.766993137441051 0.2906548786285637 -0.8039761393316521 -0.7149891037270619 -1.3465854137666873 -0.7122953181195428 -0.940672180255643 -0.3785534738240037 -0.4595889730883808 0.3293742014287636 1.5168977473100733 2.1729749086139507 -0.7571695499662011 -0.3372520780041799 0.278020564662181 -0.7460460826521872 -0.6287801858885937 -0.5280844905700783 0.9937233434431411 1.1463245734026852 -0.33033513583990165 0.009352668467774643 -0.569712927369978 -0.05289673488843744 0.6476882558145775 1.335957170656051 -1.1525834802578114 0.8559093454709846 0.830550309970637 -0.23657059011042403 -0.24248061376085422 1.1029227785429074 -1.4411712938432928 0.5794333145008258 -0.9652599462451628 -0.026832175159576855 -0.28095234269507896 0.3998227607056828 0.6647644325529297 -1.5360606266683396 -0.7132096962936678 -0.9072073575238004 -0.5005826954048953 -0.4607192515131414 0.3499977131424351 -0.9424663852722033 -0.301202647446903 -0.2555078131931119 0.1869894890855794 1.1521948797009633 -1.244974359684916 -0.4843237342131407 -2.174991104604871 0.07896387328507697 1.9365136430245387 -2.8135339665809975 0.1343561036137469 -0.4782977470358609 0.2214789330318497 -1.3115505313318199 0.6929803788248072 0.07858961115579711 -0.17149858436375884 0.23462532999920585 0.628085624436299 2.9259994316629103 0.08853995016875983 -1.1153549957905786 0.4173796915357049 -1.469815441030478 0.5134077825394155 0.34713717913933545 0.1497328002099632 -0.9942654804625622 0.9760434091300082 -0.5954513060788602 0.1946405128197725 0.10020948136509185 -3.3876155386541416 -0.5042801011208826 1.001277723131696 -1.5275710809836882 1.8597620080077863 1.8584910558042864 -0.36721203591382157 0.1558953289158609 -0.5169230646507083 0.7315494244331099 1.9652555830542477 0.291452708229006 -0.47669815601664506 -1.389623446365567 1.5479180003621353 -0.044583583882210884 -1.6352651736241495 0.07825164434422702 -0.4999696563699959 -0.23763552508711364 -0.602943808507882 0.6327929182278735 0.17840909942215602 0.6241580367965439 1.3905452432371572 -1.5672916765067728 0.9510454059289356 -0.4819275995199915 -0.2177967401393983 -0.6669369696524707 0.9405180642255886 0.21818419866097438 0.11140033922967871 0.24986785591987057 0.3081532505469557 -0.36685544190351227 -0.24788357138206024 0.8314942225360618 0.45730124019461427 -0.8426334528505224 0.6261906309974794 -0.5631633628163899 -0.4635243839238366 0.7377267368797393 -0.25196550364466375 0.655787955223232 1.8734176985046083 0.15188391405688564 -1.9227394075238065 0.9416412908831937 -1.5237682172678102 -0.5059049088653431 -0.15140067445555644 -0.7020288610813857 1.688020374500198 -1.231447510832636 0.47227883082433114 -0.4737770471656442 -1.4907140184097927 0.12333862050526292 0.6286316818014761 -0.3035545235564353 0.07659071396684626 -0.2586280474951994 -0.8126149408161332 -0.28765915745358195 0.496620333938318 -0.12372465022222993 -0.9379139499628726 -0.259037722389345 1.5926853177161955 -0.705650834779881 -0.5321129921626344 0.06354282800174868 0.4832976249842367 0.8125259704727829 -0.40150094597616004 -1.1788017137431266 0.655697959369864 0.0836735303123446 -1.0025561692309046 -1.9867879096614647 1.1022278111243415 -0.027926188746122533 -1.192076009905266 -0.2041180803174227 0.14047949526049466 -2.420246030299244 0.8860787084792915 -1.2049191725456563 -0.5766232231411756 -0.02704646696808005 1.2394814554407798 -2.255312941782116 -0.2233466062955941 1.1885072208148082 -3.64613777781841 0.26415970704011577 1.6251430814032142 0.3268342416121501 1.560812828789156 1.6411341563262065 -0.20306282516248428 0.004397856192936221 -0.6642423759326601 0.20304282282302932 0.9448114705334524 -1.9224255439479168 1.2902330290895963 -0.20489606845750286 -0.9687615022883339 -0.6764350957174446 -1.1166252777839594 -0.6689352371259853 0.5794292368889709 -1.70180775533077 0.2183239224115556 -0.3429986543406517 1.0937532135241137 0.07830221322308077 -0.6196154849085675 -1.1312063350058594 -0.8631767513065193 -1.112072211541228 -0.09087226606660972 0.36240512868409186 0.4126129477338359 0.8566926122398079 0.11758300572402516 0.8353352373026892 1.1426928172841397 0.4314557531987698 -2.2594491116140203 0.4137859280679614 -1.1034376549806242 -0.1941628881878051 1.3252230345976292 -0.023441374611705666 -0.34739027261114525 0.5789597280808781 1.1356515250293693 -0.5082134241329135 -0.1368265909865985 -1.2788636802358715 2.3667325845262734 -0.16047469697158306 0.36800860703482924 0.8924151938491647 -0.060971840230304684 0.07168224820127155 2.2416490828648215 1.6075952814494163 -0.07080972629396265 0.36884118029494584 -1.6854215158359083 2.405488178651462 -0.6592372335092153 -1.095108268041803 -0.19049135017257243 -0.2981250292225339 -0.8144377790631147 -1.4742505296488664 -0.21623903023479632 1.0487120411904902 -0.8121223948511955 0.168211959704809 1.269881266222151 0.22773207596429143 1.703701616818245 1.1175559194608096 0.1156867192108049 -1.2384991937975889 -0.5228730454653683 -0.12672750524134108 0.3433764268703849 -0.40022930624670144 -1.5700194179340803 0.1486085414376474 -1.0778468399602608 0.7604939724583092 0.265472513777796 1.0937354721756785 0.5000928809963052 -0.5880503798220564 1.2074387193717038 -0.7140376245852441 1.154372793082802 0.3210557910189874 -0.6648881442234336 0.22455601206536105 -0.34721995508201026 0.6454097449158553 1.1118198567950799 -2.221538881014979 0.4577216180453876 -0.034904222570244184 0.11205461453549757 -0.5028606851456893 0.6254353928218576 1.458456074846919 -0.10438092084672042 1.274944758972546 0.03301714874862848 -0.014450726368344753 0.11180936452858481 1.4380249296091072 -0.7904904790458536 0.8498908409510801 -0.9597987013719607 0.2770498972288119 0.1550084912223882 0.6374320971726218 0.3259609986809079 2.5700049911240694 -0.24283240333444694 -0.8652342645006526 0.4570715661795352 -1.0931597227524956 2.212583111939314 0.06587757374946726 0.26198889033975026 -1.3745274423353573 0.4070397780801953 0.5906929419878193 -0.37439799063547424 -0.7983726318854468 -0.7551685287414872 0.34578299252191147 -0.2935564818829498 0.1560836793855912 -0.8658979347123017 0.06258138067192888 -0.7071957259002567 
