3 

5 3 10 

-0.5393125588962331 
-2.052377127162918 
-0.6616240485705773 
0.367431090357338 
0.43094721260648033 
0.7447658840176012 
0.21212773046791408 
-0.29734549763711265 
-1.6275706800083576 
0.5035914853168371 
0.831754749692275 
0.4091472770287661 
1.278805919936309 

1.5556934122776604 1.1125059045697405 -0.6604572484456888 -0.42150705796578763 1.1127063621216593 
0.3391936106827064 0.6645300207062509 0.26146481599636806 -1.2190943428232233 0.09200068199645954 
-0.36511466555455685 -1.677715211694426 -0.693254258698209 -1.1700335377722062 -0.24450495262916244 
1.353746785712651 0.6434444353371442 0.32084868536519234 
-0.22411913670481373 -0.1557253897455649 -1.0097782206902612 
-0.2898509616955796 -0.8902283851348644 -0.35249438546335826 
0.5040164116769636 -2.79278324847992 -2.125268527296613 
-1.0541013237061037 -0.3873170729763527 0.8234069711996151 
0.06419541634822726 -0.8736321555766445 0.5921684760750331 
-0.6566144195802682 0.14012975857348545 -0.06867730811226759 
0.09944481888760627 -0.5505250045113116 0.6236611956370673 
-0.4881340698444273 0.3171420566174036 0.04238116969077422 
3.1282777158493675 0.19370956381698562 -2.919867810551971 
