0.18218908528144592 -0.8341275917520978 1.3103944982372073 0.08696328890566982 0.617790773496934 -0.5022730446589124 0.9527050234707728 -1.0174525449953922 1.8659168140362536 1.1558691438455604 -1.6340859763242002 -0.9899407511824162 -0.21399667333766637 0.2897628352955367 -1.2114059546730755 2.1915493598336706 -0.7236802005779036 -0.4200621828403536 -0.2383993883074366 -0.42336608471449516 -0.11743132690541809 -0.12622447995182223 -2.123948564061013 0.805135829512756 0.3255755983053229 1.013716037408659 -0.07906194985921386 0.8008125267608772 1.1857124514274546 -0.19061359850691637 -0.5607395573993019 -0.32242546250896376 0.5006126760885445 0.5323715501467031 0.5261949788004868 -0.9458587055333637 -0.09852503417020782 -0.9300476440190071 -1.426534306322439 0.6538131170780553 0.7172942299633858 -1.3497352286097972 0.02508369535728402 0.8830418655372687 1.2333439821551833 -0.6782280237267571 0.03023115955830754 0.8244263598645833 -0.31385725157268973 -0.894632559611965 1.4790177861940164 0.6453501121949435 1.7331480144448383 -1.9361655807204774 -0.47364238030108136 0.14743033130889097 -1.3461263351165778 0.2623872452654724 1.1771561725123567 -0.4417763401510877 -2.401647980094362 -0.15015803861150956 -0.4279182638034005 -0.016255992417921142 -1.9962592264628007 0.715036165019645 1.1377051319025033 0.4466673788936468 0.26010718295450275 -0.20202104333712106 0.12194290645420588 2.1800893384549522 1.7468730447008638 -1.1050565228939342 0.4588652844017981 -0.7556077598413581 -0.0049478435349856065 -1.3931890932930884 -1.2547830897966543 0.1043761904807848 -1.1674872011748887 0.21925457861411027 -1.4511881591727238 0.6308145509276973 2.15896498613796 0.8596047476184201 -0.6705899660753804 -1.2924400232329623 1.0452857216464881 -0.9833926352737213 0.6122036429264417 -2.1552172476472164 0.348777050044918 1.2793851069565128 -1.5869278955340058 -0.04174396872386574 0.9059685659416794 0.020554457089012455 0.08821611518816466 0.2345827951158372 -0.567705844793021 -0.36438483207179106 -0.7680589870175517 -0.674074388750793 0.10799447796101458 -0.10245094952903007 -0.3599202017964901 1.025999054492682 -0.1506236256698384 2.6756795870903414 1.3859541553656018 -0.18175239306364296 1.305062907760062 -0.27108916722934806 -0.16059890684614037 -1.1595759585663508 0.5926005946043895 -2.512718502722847 -0.43183421160182944 0.506703227154992 0.356490461325847 -1.8278164634455447 -1.1782794692498049 -1.5072149493285014 1.2329889357881514 -0.9049593516274159 1.1057939005302013 -1.1192130217416856 0.15028695510700762 0.4043076028510903 -0.548439657244561 1.6146653123908303 -1.065072105640887 -2.7113867630285684 -0.40418287631919625 0.45497960999850817 -0.8133131686533779 0.3110885584543939 0.5299085000939446 -1.0969449859514702 -0.2821879121651832 1.5851145673577527 2.6816195866161343 0.5936376820093703 0.5744293999757952 0.8995854706392076 -0.6716360259363484 -0.4349054299402282 -0.03691616243708832 0.5797772271763281 0.14297982911747792 0.7892947755405706 0.6085330627757277 -1.3546887647960724 0.3778987749461534 -0.6826696013605139 0.5850273527811781 0.3627603497441775 0.1471621626714195 0.10271380559707598 -1.1867073310219127 -1.2580751531755483 1.6730282158733698 0.3131891831585045 1.5903243161968446 2.5972429045049346 0.045445026409259015 -1.5940175089416913 -0.4025580400971695 0.8890482203515866 -1.7768362111615434 -0.38226483817107576 -1.6737432240317558 -0.7076749448361868 0.5216312581127972 0.31605552050027447 -1.4509115187913675 -0.32529351960404074 0.8589118858004259 0.4089878320945787 0.03693174670980641 1.4988347632182994 0.5440616757614224 0.3037841448330683 -1.1926461561022341 0.1890463354470734 -0.6176345126042737 -0.6787211135840931 -0.9093057671723384 -2.5949767132680996 0.36448083408768855 1.0795818223754656 0.6495155933322869 -0.8744152847159734 -0.46321847299544183 -2.2105153219781912 0.3704462543895255 0.2529037590529348 0.10482158187810262 -0.6997723627547817 0.037694991824410336 1.7737666122999123 1.3112395515808601 0.4332106896327531 0.6801196475471913 0.7593304301630383 -0.2627283779861237 -0.12787745089959793 0.7483187971096519 0.47436512221760346 -0.9655639313743365 -1.4371035503568346 0.9844791665213685 1.2193906188128576 -2.4129484610697043 1.1617463766456428 -0.5258373632539739 -1.684428870770372 -0.8449513833917515 0.5489057252404836 0.4707565525564894 -0.46353674435733666 -0.12710762702253178 -0.03343383671309176 1.4416578253064607 0.1662524102309648 0.382091581713946 -0.4279526896136462 0.9940037560846456 -0.8235302210322888 -0.4144417550136416 -0.9450488388682873 -1.073103644864967 0.07707585455921251 -0.9765212781933496 -0.4562965768265735 0.39790702308373965 2.2252737133160987 -0.31205104800887795 -0.20814252679361125 -1.2795741631735114 0.7906309400602496 -1.5641768253481962 -0.09492624366918241 -0.06303209633045785 -0.8692089837829668 -1.2584191551297186 0.5421912477148739 0.38008728364848754 0.7128043279364358 0.288118767263711 0.9507551503665006 0.6420036975182619 -0.6010637013429184 1.4044747804837239 -0.10201560368342058 0.7234007911246686 -0.10363208624473307 1.2270516903403752 -0.8642238723213639 0.08671377374038683 1.584839513664877 0.1986031338891771 0.8193988008257514 -1.3864401324503333 0.17550051040437653 -1.209823477762432 -1.149914954021774 -1.1242620686581248 0.6733236175851955 -0.20305208716721218 0.9586787038708623 1.9246498807551151 -1.1055837320885846 0.897511408905572 -0.039682655569970755 0.019523000383291127 -1.383380314221829 0.47386026516439594 -0.019202840467821086 0.35738928274277537 -0.4455891655653262 -1.6192594552632935 1.4318333346237329 0.6514618137783437 0.32817229223223665 0.7517195287982374 -0.19309380127782477 -0.8631243827353622 -0.36224960801693246 -0.9422369645391567 -2.2899267367724305 0.018336747360873793 1.2592906527334895 -1.6304293789992226 -0.6033374352468969 -0.5102248147047549 1.006768671897484 -1.601009875306862 1.7101497996839854 -1.3385618809306985 0.6146513545498933 -0.23826516132982703 1.9999192311626257 -1.5408610947039567 -0.9171644393923607 -1.0349389291393327 0.8705612094968557 0.1421948544418681 -0.3707675551558153 -0.5766356504223697 -0.221464810702237 1.2393746812976079 0.03372690191173677 -1.2542757790603547 -0.5540376540706289 -0.6454723996201727 -0.05213049016120446 -1.7675374027230462 0.3435992405893542 0.3091438195156393 -0.27011392154835856 -0.40475674124828626 0.45931179600494765 0.37077695935118676 -1.6706486548953223 1.2293282643958732 -0.33336555161335374 -1.8368241411974022 0.42463046181660546 1.518074175143999 -1.0849765255883903 -1.034643238118927 0.3687963514742009 -1.9443793969013363 -0.45598642217141927 -1.5660945255185477 -0.23160561520606762 -1.2962698879184738 0.39908727389073945 -0.24172386334275012 -0.047612903215314896 -1.1545469967274335 0.5698220790215326 -0.76173629338202 -1.102170636723809 -0.9729650545710431 -1.16807996099015 -0.831867832129721 -1.6919275939524743 -0.08266864500381971 -0.1528462750029491 -0.9574586029917759 0.05250965689169755 -1.4078898204823829 -0.28207469637478566 -0.9503651945674386 0.1980922695232514 0.10053988603221209 0.08786051782060725 1.6594363121041837 0.011739352513093874 -2.240040610495159 -0.8320540822326441 -0.9725882096653753 0.5551094988581483 0.04679391664433361 1.2754650994462498 -0.3137018635547104 1.771756641723594 0.09321395757167349 -1.4419989322707143 1.7376553633744964 0.12507378717411644 1.2165684806322719 -1.4070075636527941 -0.2670273637551313 -2.057230353452132 -1.7446663866313452 1.0957950707853916 0.7939898039610507 -1.0587764009413987 -1.7233407572096378 0.5160102081432164 0.041981693955031645 0.2962576923484775 -0.5332972070952714 0.09548087733834928 -0.19167917461038814 0.611144034043274 -0.05961929452675231 0.3064303398921056 -0.8485896435037549 -2.0557159539122223 -0.9479416253798446 0.2329511706516177 1.1520912229801423 1.5782601243478518 0.45231903682741753 0.8603964249832399 0.6068213512228564 -0.12672787296574556 -0.6875459030927504 -0.28439672115510184 0.04823204112234666 0.31472527228635494 1.5526146894169581 -0.17078343702817078 1.4637225893446506 -1.3141243040949133 1.0779796441528082 -0.4542587734271872 -0.3447818878116774 -0.06914998923590246 -0.7989839842075059 -0.6806360412836024 0.3496415579377556 -0.08287819687522929 -0.4030565877245221 1.148438936508457 -0.36606218238054 0.10108073900957656 -0.22819072030287166 1.4134515940693761 2.2004694618399756 0.7803360420345227 -0.14541671237935327 0.9159072218928948 -1.1993825711786235 0.9148504192964994 0.232975856711334 -0.715679104327716 1.8935710718556742 0.6175573282668624 0.3618868848804978 -0.5178122741355924 -0.2238399650296447 -0.005127444803257919 -0.9083043786747977 -0.1466482977291592 -1.738981178306256 0.029708116687656307 1.9565391937258254 -0.27937146307254956 -2.03829636875135 -0.10669092277788947 -0.45870895503127335 0.24122619135482462 -2.108043394716909 -1.1131886570577811 0.24459717906474399 0.6013908756949544 1.4296598348450675 0.5618361610691522 0.6172175460630592 0.3004498760114368 -1.185945878183746 -0.6012016259783491 -1.0506182762314857 0.4034148789783329 -0.8966008667110751 -1.6077208422242855 -0.6307011528980172 -0.5914323644257549 -0.06866785069609652 1.1339246866193708 -1.79394662196715 -0.38696991542110126 -1.160523143978252 -0.42374921313276004 -0.3806322601381813 -0.8021060205282048 0.754588367128524 0.1216269563640107 0.0712527182297916 0.1751877195861405 -1.2339478706219178 -0.47641842170329735 -1.0673744078585214 -0.5080459632741706 0.6602194007702678 1.1405083933533642 1.4217701759018277 -0.17447659748557826 -1.0483575413539832 0.1271455755083453 0.9417320976777889 -0.023523696123232806 -0.4643603318892701 0.30533009024550045 -2.441785352563882 -0.9719552718853351 -0.15618344254668445 -1.5084075213218782 0.7128008004546833 -1.1867044675007814 -1.5113570020268237 1.0655582478772867 2.4346191548021623 -0.7409303622536109 -1.6739781779968705 0.05035472582560752 -1.1546695590513931 3.268810743250781 1.1933459361231393 -0.847118494521478 0.01864613908484636 0.7820213077649557 -1.55642962843057 -0.3129969798571825 -1.9722556370146407 0.6617360845176676 0.3996087178458683 -1.4567771303010522 -0.34434371998129265 1.4079491657151202 0.9938412087981369 0.2722665765544662 1.0432477522977452 -1.803555033879789 -0.4357346347255837 0.6997247680313736 -1.9578057111980238 0.8259255094691047 -2.2582962757610896 -0.0022825044335338706 -0.44065195580104527 -0.11035262869951011 0.4862412835452328 0.9666721917183028 0.39553217462002027 0.4823057492241748 0.9688626491001873 1.8302102337515544 -1.4284040766158628 1.1836637561824526 0.24731042238631007 0.46315119306006197 -1.1735768593139362 -1.738431083560983 0.6145754420608164 0.2342996434618575 -1.4703547118906466 0.23125978996467814 -2.4564462055392253 -1.1244151734298566 -0.7003996926838839 -1.6705704307262952 1.6093581362280887 -1.6627737206894484 -0.35773604986690793 1.7482907155098082 -0.4871668673313678 -1.7178560320418634 -0.3426552978399283 0.9256588287510408 0.2440002060626705 -0.03774549943845406 -1.9285165211747606 1.0799867610310718 1.1018607476648408 0.10427502780824349 -1.6754281207107666 -1.4524508760601649 -0.4972872363569879 -0.19169794278350868 0.04875774731169196 -0.5229720463203107 -0.9498491765659937 -0.9508354490992742 0.04459550557191077 -0.07229116729065839 -1.0123913517305418 -0.5916164819266813 1.009824433536847 -0.643631612087733 0.11611859526885332 0.14035413487452633 -1.004744772195593 -1.9235304240142816 2.054053913714174 -0.49942239121744647 0.5634625530974668 0.6551406784517915 -0.39725066435504836 -0.3571148059868415 0.05884609249902181 1.1971539318780329 1.884329421151651 0.3212966740294091 1.474085031027123 -1.0388362655216283 0.32457403815667707 -1.1539743809421796 0.8653826842797623 -1.9858347574307962 -1.842476652259451 -2.5922506894207853 -0.7995591788601956 1.5550867462558036 0.08512176486770794 -1.027266666828888 0.2738942748614842 0.4730225253013042 0.41341895349771834 0.3452061843145221 -0.4719843368853137 -2.2732630461238994 -0.9305941373616895 0.44803216871053275 -0.5919861119644743 0.8377705779803837 0.786743823427396 1.3941515836438072 2.274634251551938 0.12376504546969125 -0.22185291551294062 -0.32391915480015154 -0.8537554648350796 0.7457183295868708 -0.23111263794564949 -0.7223894666417617 -0.9719962535739726 1.3592339132640945 0.3552185806305316 -0.5992067638692761 1.9069210534111216 0.07224549360835265 0.8251884659389116 -1.9443348219275722 -0.3203681522113313 -0.287122543951659 1.9598411832639029 -1.2835674826831716 -1.035003798862483 -1.0312112055647493 -1.3976936597479617 -0.40148221648892535 -0.37399360882148863 -0.44911405493575085 -0.26843288027968015 -0.2807162808239493 1.2948917533473372 -0.8344536585829 -0.5150514201496298 -0.1978156165251551 -0.997613407155521 0.032716096237060274 -0.13555060017258036 1.8193598420727037 0.9970271900162739 1.3719668457091616 0.32786027303288995 -0.8254843365214755 0.9375760459364711 -0.11114600873829378 0.25895687345202295 -2.01841577381403 0.017885351782733663 -1.3605528357847154 -0.8932315063977877 0.0850299797473918 0.457550955930585 -0.46682115197625906 0.781864698455824 2.9445612015192224 1.9393102850222022 -0.5449687399770525 -0.36394451849746706 0.892507374505954 -0.13548150179789448 -0.9476694881185678 0.5440823742093562 -0.4972609478433995 -1.0184692329467242 1.4972618797782058 -0.1712243681324283 -1.3313545782274232 0.03295001391510959 1.9038213370102939 0.2253179274879021 -1.381039886002651 1.3031910270919094 -1.1523909238175316 0.32730793627672095 -0.46520935813923375 -0.04438928609594279 -0.47571257751555596 -0.37403376692756946 1.977243992554443 -0.8950918818354557 0.1938646409332873 -0.7051752045565448 1.3856200583039675 -0.042438839672274555 0.4997154351613672 0.5242719656450122 -0.6687784249598274 -0.45273810206721327 -0.9586654555588539 -0.4476751463056495 -0.6024705418068249 0.8828110160408025 -0.28037576891124993 0.520930506288634 -0.20071286598775098 -2.1183232899216207 0.7234002778879588 0.14613745621844884 -0.4140385040787314 -0.7576940426250174 -1.5081827359615712 0.4696908608934859 0.2082861598025668 -0.07493660687453878 -0.6134096093794095 -0.17900343498239343 0.34329990790310094 -1.3492778413355468 -0.17623537986662224 -0.9398560492883778 -0.5578121746095795 -0.8949863920270297 -2.0096673700551677 0.7541816559825343 0.9875335122728764 0.07335273310787163 0.2298515128885095 1.312729751883571 0.8968960429344411 -0.2619343764680351 -0.11454805462445043 0.2398227902053647 -0.2513514665596812 -0.3967861166950937 -0.32606041131710495 -0.25472085676525563 0.07827306321204207 1.2250490961776117 -0.497906395490513 0.14321960078532486 0.055559501342005824 1.0180636823257745 -2.285907709850401 -1.8873742293554454 -0.7733562978125148 0.6027082212739163 0.24518673565988064 0.0038613399630864752 -0.254533610417068 0.5162588231644167 0.5944133261413648 0.8103441871759893 0.4171099519545451 -0.33022963792291854 0.04910796730358812 -2.1339416766393797 -1.216822997440798 -0.842870603868651 -0.23189785935657664 0.4516810791430313 0.884757940783462 -0.2692707446781832 0.6293379073552804 -1.1123483677015125 -0.2524979229779685 -0.17344488016631174 -2.15318916423911 -0.3717139823160528 -0.44530518711135647 -0.18295469159396746 0.450532856850995 1.1220796810236853 2.16804648058033 0.3005070550247152 1.0115551140566466 0.2743402526713345 -0.6560685867478381 1.1856649726380042 -0.7154119996280863 -1.5989879474823523 0.9559627047026812 -0.5794544641199285 0.4379210395289447 
0.2515079827509533 -0.47306345233850866 -0.3966427829166041 -0.832889132736616 -1.1373629892519854 -0.4618544722292558 0.14116269461896255 0.22087330982092915 0.3445133770663933 -0.46983958653349256 0.08030517863308947 -0.6713501603401513 0.21343630905267855 -0.030879451558448765 1.1409468982680988 0.7069817557516819 1.5201906901927071 1.6985902180624595 0.12552293526690328 0.34542540468422955 -0.26485093380721897 -0.19242544119510474 -0.6884021829190891 -0.6409948793314979 0.42953902002586974 1.2815850064180376 -0.9788993675186969 0.37597436565940745 -0.019366813160069402 -1.31383317054099 0.0522290747505398 1.3591762813226531 0.32317219093487465 -1.1269381923666095 -0.32666500920007074 0.2921793374223335 0.7324903817321932 -0.22224555257372772 0.714878118021776 2.0638303705439944 0.8502264759701269 -1.9330530061288003 -0.987244301272201 -1.7623644340112985 -0.13811962345851142 1.2837715187144265 0.9593771950394809 -0.6476374136357054 -2.0238823646792303 -1.3351008792598933 1.4867737604754743 0.3255647951453366 -0.9845032710801008 0.5950893585739321 -0.48644368982248126 -0.3898377526819614 1.5891860152251973 0.5224056622008302 -0.1263425895237553 0.44873240069912745 1.3208415008762975 1.0390375893368893 0.6129709155593286 -1.0819131083701934 1.0841227271097433 -0.9596928890963985 0.6439158126638639 1.160186867150336 0.401074897977054 -0.8129877642135882 -1.736356399166354 1.377731113704961 0.28384320422378084 0.06818859096009418 0.7285426113175224 2.644848743160372 1.2595458164362172 -1.4364800286599069 -0.9610837392272862 -0.0021095783983779773 0.558081685136714 -0.10229604496390186 -0.4005446600543005 1.3045567853185285 -0.006533207135922603 1.5094818924961755 -0.5812303802279077 0.6433401485103103 2.1834774613253907 0.11119793442062105 0.506491213494583 -0.8413762197181992 -0.5809905605729412 1.0526197965236124 -1.0096108753460413 1.0759013107691258 -0.046609522263471106 0.6970956596590369 -0.6774972729414853 -0.7682905777252805 -0.4063487981296488 -2.1134495073318127 0.7960625876884053 0.505984536090119 0.08127473938431744 -1.1158167476781824 1.3803031448606837 -0.45204503537676916 -0.3155217369816723 0.6611530705942976 -0.01428910191571037 -0.759037821693501 -1.051809677131213 -0.0036669551908922594 0.922742878897598 0.22956293756030702 -1.0434425356068824 -0.08680772185663989 -0.717107259633748 -1.6197105718057585 -0.1935327102600924 0.4609210216871546 -1.342585627671306 -1.4089035223155593 -0.6325242783357432 -0.21610926237709854 0.05563058813880696 1.0654791597670152 -0.7771970677452004 0.20682476037087755 0.837091043935478 -1.7635411575066071 -0.7863868951433906 0.18354437876277438 1.0823369032242451 -0.6550037493632427 0.4274454668811533 -1.1296835094592323 -0.10422935007031366 1.6830593564484069 0.5406472156519853 -1.281015737027657 -0.3800124887595865 -1.1038971108564348 -0.8725631539060296 -1.0652898811485214 0.5433954377847031 1.3858362352707236 1.1422357550132802 -3.050209822461102 -0.15957245842255716 0.3081676314808477 0.9829645255672445 -0.8676980974373907 -0.7194416387399283 1.0725259273730579 -1.9637868545205412 0.9926693471449287 0.5350048125065757 0.8110622652562326 -0.16526992147729075 0.9153766307136035 0.5909897726426157 0.8685456120576847 -2.2344866798960252 -1.2907913258918577 0.9354836760449937 0.07915429208263836 -3.2650797424358777 -2.7247436919308092 -0.789990776426247 1.3935631156665764 0.6204736485469463 0.7840951408462323 0.007648042543021786 -0.19161306828970445 0.38491136113224317 0.3872727889173454 -1.2950136772983576 -1.416614952230774 1.3110507096968373 -1.5217830852718863 -0.4923022913098839 1.3449540541492067 0.5482268214701321 0.49706411429411324 1.42317065309229 -0.18678600561982128 0.6916815992218764 -0.10394392815768759 0.8105109414125966 1.2717954427328397 0.249605797813836 2.602033866940751 0.5442605736188952 -1.1589325611577248 -0.6322531658965319 0.750182624407577 0.30886028984156066 1.1230904739765524 1.001562418079238 0.01706007688925285 -0.3697290877710302 0.33248518308177283 0.5937461875898036 -1.684304183369606 -0.4859042868089727 -2.0695728776641125 0.6411012073810141 -0.09153210656056819 1.0447787466803522 1.1480968261724884 -0.4947045781048798 1.1477384528395438 0.05093101759404279 0.8830520256118373 1.6657422907056472 0.2059094865826584 1.4373984708930378 -0.4941323452628656 -1.0096771993215057 -1.1493844820840133 0.23605701171582424 -0.7496430870795163 1.2849642922236593 -0.75917991410812 -0.7799612841228689 -0.21395252017068755 -0.05865139696350565 -0.5692635780497356 0.6402215715351091 0.3196261943079919 0.6341260940886184 0.829232845686041 -0.74837001135084 0.3229219999557255 1.1636107981154966 -0.4041466367956101 -3.1125135973758122 -0.8054903048585651 -0.7185165427734124 0.8424243813034461 0.17988422353455039 1.0675504122885768 -0.7931232917500789 -2.135045074651052 0.8541850666898695 -0.7829022245370942 -0.5916971011353164 0.3709577692828599 -0.05570586350097181 -0.5755262401463958 1.7363639246579006 0.8451976364800983 -1.3141731426800787 0.617819798874787 0.5127240909705694 0.7065596854857752 -0.6582583752381805 0.6127661292004425 -0.8977585653597308 0.741763557361224 -1.2407387931829013 0.5322090283108103 0.3258987870091254 0.653835768115859 -0.9938024592469163 -1.5955281105717456 -0.39800637698675567 -1.9243196051069587 -0.2444214967042825 -0.24731303557393178 -1.8372043079111142 0.7856759766424116 0.6836190062904501 1.7559983919233535 0.0809013708562082 -0.8082854970065523 0.18250840159722012 0.4477379679640766 -0.8743735730547467 0.03336115731463435 0.29813157126639817 1.011345659994151 -0.1423286679343734 -1.5907601241057447 0.35130116280689017 -0.17413653834358714 1.4481936748361461 0.020202181154795527 -0.8805238594511154 0.1460901104759216 -1.1633150576909346 -0.13322698336872552 -1.7462407051245015 -2.398046714154025 0.7110170377862638 -1.8191283781502698 -1.289386174440436 -0.4308652319506558 -0.20704740774694314 1.814362452048974 0.7432064325043841 -0.4905011405528329 -0.5866203120749338 0.5109200435292506 1.290168040260991 1.5111187527026644 1.529517259547055 -0.782372652078995 1.6365753367280085 -0.04567163580365532 0.08749119108097686 -1.9002050139861462 0.986099570533651 -1.0471353615712247 -0.357605761610265 -1.52520335356878 -0.6537521433177411 0.9467723407984364 -0.06253254134263474 0.4917302951029535 -1.6987862486315923 -1.0767005612504184 -0.06323349882783251 0.6534851159245226 0.9292334971025572 1.8810980957337684 -0.4321462485993422 -1.092142069615681 1.2272912586880258 -0.5551511729395252 -0.3755456590583491 0.4339381593849306 -2.752142676764243 -0.5228270522386255 -0.1775209624180977 0.6040565284045823 0.08015195928179197 0.9974552935902822 -0.2581631094560974 0.38361191543919865 -0.22049547566943012 0.21373833369142742 0.34646434254314074 1.4170215216567612 1.189291768869119 1.0139035813016972 0.07849773187663271 0.441590291982419 1.0700315989755353 -1.2087386878753081 -0.274660950386967 0.7108595163567082 2.581045442398423 0.719142128126821 -0.1317123965673676 -0.9940902302253927 -1.6230541694210583 0.9217277674365191 -0.8640210360210697 0.7587857969809352 0.0034147458710344944 0.7579192347070396 -1.1030110868316931 -0.04735476432936565 0.8661534528397993 0.3728092068701036 0.27234169390949203 0.6629389824280172 -0.9737563313721447 0.2602872810374441 0.4759302708612704 1.3737773511669233 1.7874236048967516 -1.0800699338771695 1.6806084329620588 -0.638720551810909 -0.2538129193950246 -0.3459131121469327 1.2675934775300275 1.145820074256077 -1.1700525805822037 1.1837057124992563 1.1673699577217362 0.34513300254113366 -0.8707516813218719 1.5625440462401963 -0.364451014915459 -1.062985525661737 -1.0796591687297814 0.47472286281119724 -1.7775339611433834 -0.25702588617358996 1.8871686976165423 1.778719670083089 -1.1645455458848715 0.16896770220931492 1.0217063781920002 -0.34896867251204405 1.4271083889692733 -0.5967529421207882 2.1150821835797338 0.3604210174140122 1.9496798577494958 -0.27021255574236236 0.8016711697703607 -1.153525622414922 2.486408525682879 1.2567182971370157 0.5061164600870929 -0.899558838522507 -0.22647629835285163 -0.29433787830762836 -0.6925158976933175 0.6102795650400736 0.12737611629965437 1.225005559722442 0.1252522645481479 1.2829753295614597 1.1576633142063235 0.3870014208650137 0.5298034288843885 0.5070862384302385 2.530322903717805 0.4396139863422469 -0.17726981516654614 -0.025002289730002947 0.634784634893538 -1.5491661012582292 1.2116476215986487 -1.924262150909728 -0.4198764219321471 -0.5119667804269471 -2.26229780898539 0.10475617193094099 1.810894626567308 -0.4610676244738672 3.248814311475459 0.9888758003289911 0.7481943086796107 -0.6837236111490941 -1.2970545746658848 0.2584025632839998 -1.4156183603967538 1.2752302488907794 -2.3611610546249904 0.20599308461350196 0.6707850149195169 0.9115560030761309 0.07095058873160437 0.09833946064028902 -1.1137871563536297 0.1347216767376399 -0.5325501302417706 0.7095780048066921 -1.8448211767836644 0.37827130599207676 0.01139896349927064 -0.565208080323231 -1.1713791334474832 -0.39857710939113516 -0.16293433785742112 0.7329775606138542 0.035431657330800885 0.16560548570557654 0.6752115494147166 0.45272234561450375 0.17470974945641232 1.3451998761326223 -0.33238021650891486 -0.0022601385215972707 -1.0535118350045543 0.5170156665364288 1.2070568187591209 0.22898053332116894 -1.0230285202904115 0.17311085842767324 -0.009598191909058165 -1.5544350379715994 2.1571557662225094 -0.5160917717666568 -1.04892521948086 -0.5391131610875662 0.5391591013438606 -1.211811020517582 1.4145640532921555 -1.2823662704728076 -1.789635751143079 0.8875854723810476 -0.2636250831204384 1.3129286475826316 0.27038520022413476 0.6061795510927948 -0.17276024090516098 0.48019508973650143 -1.323712443768804 2.3619356954109936 -1.4699179983820898 -0.4113305027874265 -1.3417589141027693 -0.646008154270404 0.30086208048509 0.06050101246621046 -2.305039248136339 -0.5744269950544145 0.32467570589000977 -0.375198483192582 -0.36116335880091244 -0.14595755521638765 -0.0871620782093718 -1.075670778787208 -0.12525717146374346 -0.3303470324593394 -0.397077569718728 -0.1568558708788083 -1.6007714253494094 -0.6851104733866115 -0.879095300779398 -0.18388348866818036 0.38638408099042243 0.9316325279385941 0.5959840040284714 0.3449617465136308 1.3975207897012003 1.841285256425856 0.38295728626857206 1.6498482265223569 1.02061331934708 -0.47214981075865115 0.11895856068715062 0.10243840375076296 -0.8877700255231057 -0.9658122236380702 -0.07637838536736216 -1.734282872751129 0.7145231918643815 -0.7307914110376346 -0.4890437240390113 0.5034924896622059 -0.08539125371412236 -0.484227095810339 1.4223510643867214 -0.19769486729902053 0.401985801035208 -1.23341883372747 -1.21440154504212 -0.756947709925536 0.4203793334485887 -0.39134902764140417 3.0867972642286485 1.9422303995666619 1.767079168499181 -1.152640743720591 -2.6967240516721187 0.8875647732329593 -1.6532781898151447 -0.5398965795728123 -1.3542439411627927 0.29131144931860997 0.0011599524119535046 -0.2818305779145846 0.8356748203519233 -0.6601642714458505 -0.48104850113005404 0.5414026563424468 1.2566961160863126 1.0191252726610343 -0.30266078414284875 -0.09510004479308087 0.07190535389945005 -0.22425384310934757 -0.7949549818988775 -0.8873081997695471 0.3378751440748482 2.711722166186119 -1.472170202979964 -0.5604848533086638 -3.39184124897094 0.23285618625917123 -0.8889652494457029 -0.2597636568896104 0.1742268684498286 -0.6250696666423924 1.4099760976167828 -1.5938690768501271 1.293215781359174 -1.3277170875381366 -0.20152349632172756 -0.25589194092470635 0.6151509643698126 0.0736153708456254 -1.0231554097202482 -0.3538304097767279 0.9212760882294844 0.604292696817782 0.13855677051149234 -0.1369713960467623 0.5661786056778075 0.3259393477242257 0.771474377936438 0.0995675234184884 0.16045146052763953 -0.21980987770206648 0.34472674778636125 -0.9870987296612749 -0.509807324093406 -0.6203373601431847 -0.1761295566176876 -0.8636170651329292 -0.4737197338404343 -0.7125056600108918 -0.9639706040265503 1.510478794099631 -0.5761661509179845 -0.26779439408103695 1.6703992702389587 1.6224173223647624 -0.14675316499083887 1.0854803181325612 0.4574049715427543 -0.7533908510207614 -0.1590657020400798 1.9291144746458124 0.5881292024301922 0.38622095221535024 -0.965183890562351 0.08909913651119665 -0.02729252055725696 1.3559367500742725 -0.6583362849738837 -0.2021825510609558 -0.13104721848446588 1.3131490032971156 -1.1389906266397256 0.8523827981794609 0.6982041436989044 -0.1270219042997072 -0.5312880377827552 -0.40314782702741664 -0.49565008746114164 -1.2721852060816075 -0.3531957529982978 -0.9718788478154832 0.33880838462112406 -0.8746642911698334 -1.074853301446341 1.7343538459437895 -2.1498184412492862 0.039251600198530356 2.151450621109973 -1.0814866626816537 1.9977367590529618 1.318988825644298 -1.7164593458832942 -0.2320036182428665 0.12651854400622686 1.4623197464563495 0.8515107368934778 1.843127171968085 -0.69659029203035 -0.06363972214657825 0.6942292860059025 0.41934626931661845 -0.16894064376692955 1.0551773957960529 -0.3100233071523516 1.8886787957157236 0.37781262065882315 0.4147857605856404 -0.4241498841088323 0.2857649241630189 -0.8002705379226566 -0.8772438764801858 0.9990274081156026 0.2004736539394112 0.00747494914459663 1.8488331041331634 -1.6641024636788837 -0.12580496052107518 1.9010516556900852 0.06137157691214126 0.6289512911386712 -1.4513410812442273 0.4657473570758569 1.084635392596785 1.8216549636475734 -1.1522203969743443 -0.9991688353592731 1.1680539234861451 -1.3422443421243153 0.31528856161948154 0.28641754862677 -0.9853819747059046 0.5284840539814465 -1.2297322248557323 -1.855000177048303 0.5379318987845303 0.2246322576929599 0.05119541817812981 -0.3376241231013045 -2.5128594070546413 -0.6954625418549667 -1.8347948310332431 0.6508454899699714 0.04589291328774834 0.12985658418957086 0.2978273068880343 -0.24381158155071936 1.644106762539168 1.181350086992466 -0.44068658263413485 0.5428260427575541 2.6882716484516407 0.241977443729327 -0.8967318443696004 0.8283315256862811 0.41883678783680056 0.3247901292953538 -0.14357069852561688 0.018917181297443488 0.6636073848194044 -1.9212003158744908 1.4495309429374605 1.2985271856310079 -0.22510201756857798 1.9482153859211677 -1.166855346180117 -0.446541395081077 -0.9620737879563183 -0.02525298042787511 0.8189055190178367 0.2084538075659721 -1.0727507298821974 -0.06923363083125404 -0.7098019450090868 -0.5466690798058467 0.8178489665578373 -0.5106330252248942 -1.1383289486379427 1.6624044575556527 1.1097209375046193 0.573581254295841 -0.028093589181609556 -1.8784137733368986 -0.882836664166327 -2.1395106918596825 -1.0551794045747847 0.11899877642101482 0.9204685591770202 -0.6146935456422048 1.6530641185986579 1.2367501498277802 -0.3073886306719291 0.42346745745792436 -1.8022377992923138 -1.8009565182079907 0.4113057895418204 -0.1316490114446899 0.3265329947538656 1.6528897913594431 -0.4790533677049842 0.5345408605766966 0.662106936812758 -0.780232506160724 0.14391197499091812 0.46132340349791184 -0.8001522869597574 -1.1191923974447449 -0.8353294981073809 -0.2443473765927455 -0.20388405985735353 -0.4263128504842909 -0.3700122128876569 0.737015766227591 -1.3536145696998492 0.5009794225275724 0.04641142596622952 2.327348187086186 -1.0244142488490215 0.3940003897266912 0.2421816994829106 -1.7154156666510325 -0.11772968330840565 
0.8040232226955136 -1.5184711580541934 0.3029196880324516 -1.1200892512380285 2.238054229457517 0.8194585579527066 -1.9931742659762224 -0.6256033822639098 -0.3056060427255698 1.0528377478302207 -0.44664085393960345 -0.7687630728767619 -1.7300920541150213 -0.6758289999574146 -0.1366205280397352 -0.8719523545821202 0.19273955973039222 1.3400057599135102 0.02996047801402176 -0.24744171714626995 -0.8966069603581437 -1.107022041895021 0.6285072171912532 -0.7779479542866855 -1.0786537345680225 -0.669009695391905 -0.485243764654866 0.544965688731434 -1.8530810444175396 -0.385882855858146 -0.9835744545571884 -1.7155267597912716 -0.16104182229598182 0.2023847762829875 -0.7639777969364744 -0.1315571150697034 0.2828093444496548 0.9883518511522397 0.8409994738638222 -0.46449537622415693 1.2683049278948317 -0.6715458032460788 0.3156639912320467 0.22920855558696357 2.3109164302979073 -0.7681795308093153 -0.9932898382087862 0.07867131583153998 0.48566533650712684 1.6160949576521866 0.116886780501414 -0.5634518749874076 -0.7761253087084151 0.4788946131559063 -0.9119138566778259 -0.4108465451074377 0.5443806469235799 -0.26816075246591825 0.5244027668567538 0.6896346118778215 -0.9943768354933893 0.4112364495017678 -1.487490118610045 -0.23654560849026354 -0.04872135618540313 -1.2861839995558961 -0.5166592231478916 -0.8084868684145696 -0.7427181864126682 0.2239259989022558 -1.2012916123977915 -0.6227510471567179 0.6567478021522662 1.5352521778072759 0.6519906261248515 2.0968053232035895 -1.4433348749252446 -0.6446190301064997 -0.020803975490712837 0.8343452768472829 -0.8229918489412652 -0.21849089751808348 -1.6258383473123816 2.176078039265753 -0.016492469750540834 0.3731427198535111 0.3072810854618985 -0.7620883770575864 1.5074762796873182 -2.2532319278265955 -0.5280207671799729 0.09889600554029486 -0.06687147093963054 -2.3769410058253486 1.010766481716802 -0.14969530314346127 -1.281408897930803 -1.1049271068319018 1.172220492580509 -0.4781960614343446 0.7463647690019545 -0.2389334999235315 -0.7405448814155624 0.451719419630847 -0.3643866009291545 -0.4768880880045117 0.2584775171742499 0.6638009953435744 -0.5348978174717803 0.005042433256018405 0.7504312715330195 -0.6469734604753434 0.14705574013359513 -0.670693320254049 0.31638085528646415 -0.9103997161570958 1.1646780252121904 -0.9193481828412471 0.991396618355912 -0.8504452267039723 0.905882970115929 1.143890425738117 0.07970529798274816 -0.794103857319057 -0.3032060016921988 -0.6273744974242662 -0.3568361392046152 -0.301335093348517 0.18741800546959583 -0.39011756929213354 -0.82634935246058 -3.434286615531513 0.41450507705434075 -1.2710509567645225 2.0505197412425082 0.5798743904883157 0.7801496576169044 0.718811642299635 1.4946585493967195 -1.077104564767426 0.2307405738111755 -0.28481129310230197 0.6356433986759772 1.1401337686703634 -0.6446774342750466 0.02175196527212418 0.7754255331684472 0.35118406609913866 0.08083970833147934 0.2677204120792301 -0.6585310411552389 -0.18184039138045824 0.4545606403030638 0.6562170952397797 -1.511024878142428 0.421450695959158 -0.21301593559953236 -3.0884786736571117 0.2942885332671895 -0.7719959984177457 -3.744820174812538 0.37128283957902364 -0.21780767747630342 0.7944206545157187 0.34568497712763685 -1.5016715693373965 1.2224010462148018 0.03256839641578746 1.305183089254439 -0.7020054142266321 1.0936565803526224 -2.2680825274834944 -0.5486706551093853 -0.5060853418143464 -0.4929893593135778 -0.3019691198844174 -0.5277914897884933 -2.81603982094532 -0.695533367011829 -1.7017300336635157 0.3071307408995994 -0.6067230361553091 -0.5435518451097335 -0.49335636352963175 -1.066981139208076 -0.10052739634940612 -1.1537908651559832 0.6602600359764015 0.8774057901850256 -0.5567283973544452 0.27539149207534197 -0.6408981858661473 0.9613313337877573 0.47783916443446717 0.19708958722914408 -0.31652342064153965 0.6490101918946243 0.5381645107949504 -1.3701055391446715 -0.07458120526204827 -1.0582892130730117 -0.7592320395440256 0.35137108845499104 0.9839217214880699 -1.7061944699452796 -1.3728314481468693 -1.026681708706236 0.1188554070399905 -2.141861721618921 -0.6622462509981674 -1.2170271327952964 -0.08258794059538616 0.06771387319585297 1.1914637557369157 2.0905207188835857 2.901883320257005 -0.7154709504194606 -0.176619720108567 -0.3918496364018734 2.2124741082983217 -1.240946707217707 -0.43165636535156765 -1.0408492032353316 -0.12106006292759702 -1.0554833996790576 1.7519052132762705 0.13648554990527406 -0.5376474993500824 -0.47759541649954956 -0.19114757126282597 1.4453444486898033 -1.3727466074797436 0.08484939600194655 -1.2547671307026584 -1.5835509578408447 -3.198793599208882 0.8824017945471484 0.8443302488780198 -1.4263003609135794 -0.1679133897435515 -0.4367393599035579 0.8734277517661794 0.512934668954224 0.05669008902562941 1.8828632677315165 -0.7330387411573981 0.4854053346773612 1.9722529727764206 1.0078035939251946 1.618318951450832 -0.7733489929521474 0.5260578458040911 0.20115760118816417 1.792350153989879 0.47070002582535697 -2.6256114575323415 -0.0996746835265164 -0.6940852922663973 0.5232882555880115 -1.967606239686342 0.11116849880178857 0.22415814821732105 -0.4721018995905158 0.042173354114236034 0.32661830294039906 1.8243253251058371 1.5817132400788163 -0.3401651074717831 0.811617216670324 -0.4845864716526707 -0.1722700953081682 0.7637315089201934 1.0373473218843523 0.8258748212284375 0.12263910511737264 0.9764028774750981 1.1682191267466824 0.746006335473776 -0.8817042038334085 -1.27770119732601 1.2582628508766396 0.5143665266455244 0.31917830096377037 0.9111088502745168 -0.7384365537120221 0.5222310515934973 -0.8588124928973547 -1.2236070286607517 -1.0741806739300381 -0.7100966872996799 -1.4307333679322678 0.008243257001547488 -0.2334350926552586 1.3392744848745963 0.054102415127502634 1.00989876270439 0.501188881243806 -1.5607006270830495 -2.3608401366219662 -0.006520242625153054 -0.33174235142537944 0.4744769208118313 1.3519170357988384 1.1651387524924404 0.7819288393910241 -0.8358431532658005 0.41286824438355413 2.1845395078328305 1.4203348939059333 0.09613929319789594 -0.2904967448664872 -1.530878295138084 -1.484334879044747 -0.9620432413108777 -0.34349578041867185 -0.9801838802601456 1.1564566985079567 -0.5846071210175084 -0.16221813032587762 0.006915372628156206 -0.832410566389189 -0.9478082971995025 0.33769064007935445 -0.9066138570953903 -0.7037503318446338 -0.22590185209491212 -1.7274055286626193 -0.819254737241169 0.6859047747179194 0.5134877539943522 0.23021781025017626 -2.146892143219852 -1.014928068920322 0.7283070548128445 0.9106631266386441 0.09586336700216179 0.5654622937339808 1.2914485135039997 -2.017537003495335 -0.3792400349411788 -0.1638793541748747 0.2004913088185454 0.9179387183646229 -1.5295602609260037 -0.7484178689250596 0.6905092709070092 -0.8796136273796737 2.3210227319593155 -1.6637936696780118 -0.6615222273965968 0.13327391513940984 0.5435431116574516 -0.55379554475483 -0.645617038320782 0.8769504112090584 -0.40916012723192213 -1.5450869449301228 0.5265497421911243 -1.0817629646740412 0.3200140596828401 -0.6907672809107437 0.48886834942629226 1.8769276245238822 -1.9685701359933683 -0.44942218225007463 0.7727687244230529 -0.9036722341356093 2.109186085774045 0.8176097162229946 0.12010884755064985 -0.22096799163097952 -0.21554938747877994 1.3718294846636623 -0.2625249831479914 0.2175586927235893 0.5377094364481205 0.851607012436898 -0.39732483276009406 -0.05681470225877373 1.359668128479302 -0.2626643746750206 -3.682134097503531 0.028553912458921294 -0.7094926758390012 0.24143360654051887 -1.6086032699606672 -1.1424343440250573 -0.5466755432143978 -0.3638413126473439 0.20957052016246455 -1.4401078059641492 0.18361753180013396 0.07207652490213447 -0.10923548483308183 0.5199400213021241 -2.5698252271134376 1.642781361165904 -1.1450645131510164 -1.2776410804316798 1.0392540799032166 1.0999959022575452 0.09519045235988406 -0.6502506203478724 0.9696436005572244 0.3092394455389984 0.16040426985387082 -1.4094091997294877 -0.14331691211077305 -0.20084000155909282 0.030729889701817573 -1.6679855073244205 -1.5198351322635266 0.3402221364055376 0.7162157500751984 0.38544439585563245 -0.4540881590720761 0.5179873511879555 1.5334773056810822 0.22162931642044037 1.3235312676928723 -0.15370373200270948 1.656213017394872 1.5772202990222102 0.9088593453149492 0.4306166634817081 -0.22674106494206722 -0.439525905923609 -0.6408402048229859 -0.5772304389912806 -0.2160292435651758 -0.3502005849300299 -0.48940928412631124 0.4438878538410061 0.9319771693016332 0.06637812629832032 -1.1292082144794513 -0.44733820818815384 -1.4360584964161467 -0.3044026857957679 -0.3516547238715921 -0.9375769788077668 0.21484399048495825 0.06328041119019026 -1.618563270574101 0.35594272989926357 1.9886206982648063 -0.10450049778698116 -0.2352919331607814 -0.8923440643537692 -0.7606556684754542 0.5239138537979899 -1.1970019450027487 -0.9336811968560177 -0.24685673837492228 0.38672393628848506 0.9204723860688481 -0.5911292110228781 -0.32297253956727323 -0.29084404862143975 -0.14969094926724633 0.3696597179963966 -1.2378326284231522 -1.029869405989147 0.5779264316009668 0.6641643661383998 0.6209373948033478 -1.0950593994643802 1.9698976296930927E-4 0.17006005397808385 -2.2013248677721564 2.788173639068658 0.15185873622562704 -1.9604691428736258 -0.5959485283831676 -0.04208998863346801 1.239151068395921 0.36973067709961727 -1.7689153466744432 1.4798692693514464 -1.9572860390417606 0.3417965998534417 -0.30261575576936733 -0.4640688721151147 0.22863168134449655 -0.27361261081460153 0.8574001933476584 -0.04723889228568129 -1.0791796545313062 0.36826948975217444 0.5851695870966243 1.2037215330473383 1.2234797143267784 0.03688250624675743 -0.558744612297134 -0.1298354167474108 0.9528066819440546 -2.0780387957454116 -0.7013023308043159 -0.11216450627080932 0.4353003062643086 -0.9325289718232251 -2.1128622498768737 0.15069844004289526 0.45001443146852016 -0.36089571094071166 1.1873987186718056 0.8526170861450345 0.5678987278958574 -0.6809079211498099 1.2070634071049202 1.0375058842618987 -0.20789885835817634 -1.301979789777255 -0.42960871753967617 -0.3267606706380439 -0.621404862477313 0.5828829552097593 0.04574724370688561 0.25395515434127763 -0.06776746095127 0.762490465952971 -1.6585733577633581 0.364012882687892 -1.1322838138799995 -0.7914582839881652 -0.13807643652492685 -0.5761932840961753 -1.270539083666688 -0.5223934716471254 0.1698396779879669 -0.28772451404483584 0.02015476128177907 1.770734880043919 -0.17261226849772793 -1.8625119164347437 -2.9774370827295265 -0.9053634755212612 0.4970348434838944 -1.226773045942084 0.2655323298296049 0.7862562376091446 -0.9755343867043805 0.09387075304122722 0.003126233126148536 -0.7707057814501441 1.3092817417820646 -0.605410630800157 -0.2910104326996948 -0.32575985372090077 -0.3987195260406394 0.9722169560142618 -0.6926819488544772 -0.5226779709976406 -0.18493461214878437 0.3719436981976994 0.19438515778652374 -0.7242662678342857 0.8687825425532945 0.24696707710249272 -0.8730790335635028 0.08825556112774127 0.20733692505101944 1.2194193799494868 1.2697457839094612 0.8339451837624474 -0.244119474478971 0.5559298549894435 0.7481484185930258 -1.1960245227003385 0.05458174607272588 0.1738797847196759 0.010296177919934462 1.6077418278424203 0.06513066703832324 0.3488931637112979 0.5784464148288615 0.08486448891787438 -1.4685218904835913 1.1021669389818454 -1.917431504399054 -2.449640999011192 0.32071800220508623 0.2013148963170693 -0.2635993170623146 -0.6650162637286272 -1.0015259687907638 -1.029705293996546 -1.0343991120969762 0.6486211534986651 -0.6637665339079523 3.3763767703757868 -0.8423657508563352 0.26519630587585014 0.14861370276041672 -0.21131018015012956 -0.09323385688787562 1.0509413937745222 0.10681063160207299 -1.2834124266041378 0.5975024449848063 0.9029879593951785 -0.15190569208383234 -1.8409808189395498 0.6179646968353688 -0.6465602621986003 1.5470476720452901 -0.10305913027426865 -0.14469001374576754 -0.8298160355381002 -1.3370336280373112 0.8971195231204007 -1.6971158380946154 -0.128176011634536 -1.614959528352514 -0.7075883826600943 -1.1229189076949486 -1.0300740121794358 1.858433220524482 -0.1567457132367292 -0.14808402251441852 0.8924338905927799 0.7536706326820273 -0.2883690027289933 0.22930011781900209 -0.12123765642581406 0.6567579200853627 -1.307133213525069 -0.9681735668081639 -1.2517196507010238 0.08336163958606468 0.8109827253586903 -0.3725866135841594 0.09258124076701892 -1.5970245022901193 -0.17036277358703997 0.622543947405671 -1.929467800679558 1.577263702726195 0.7353186143787241 -0.5175152529054429 -1.3261873463488227 -0.7351987769437986 2.4422829852133967 0.15035643227773535 -0.7842515001131444 1.458788674818019 0.4581527774672622 -1.024479225779448 -2.3668967104964564 -0.5521226396448028 -0.6668770976229681 -0.657728170458596 -1.1721992508495942 -0.24300095886460443 -0.9510176239975298 0.3517920041400088 2.1124067011954826 1.92901070348227 -0.11595109334360305 0.8436946601869647 -0.07659355180590978 0.8861544020712165 -1.0320874132058226 -0.2986441647302879 -0.816208326356148 -0.8714475747516346 -1.1189562294206978 -0.07421684457259298 1.0306563875024455 0.9919989192542698 -2.056176183599082 0.280356462715881 -1.113898891586841 0.5878254169798149 0.5790592232821211 -1.613823868617227 -1.8098020502176757 2.6963115759716993 0.9742506985967242 -0.15880288189177846 0.9158729006058243 -0.29144727319553315 0.04270225189977646 -0.2217992427312476 0.4784880301990754 -0.5096348160882502 -0.6777165145628825 -0.5329069966988974 0.17436061799159716 0.591314934098233 -0.37604115692340906 0.31761988963984467 0.341330769163611 0.9055737871007425 0.5491932999570193 -0.9801799444477772 -0.6630188284515727 -0.44708469409674745 0.44096522398435645 1.6196950932634375 -1.506931536853452 1.5475684902089961 -0.7824563845397083 -0.8193273607282553 0.8295868622256757 -1.3001894277009902 -0.9441171048764787 0.568536521404678 0.6115239828296702 0.7229507305356934 1.2591596633308832 -0.23794131300345253 0.18973002049908536 -0.2294891712072937 0.43220943310009635 -0.24347962009778779 0.7146086514264078 -0.31066761895884903 1.3869429254046968 0.11709798768140667 0.46300141358566616 0.8955382820809659 1.5649542360602218 0.12144836115154362 1.007844005012658 -0.8972629106922352 -1.2574608685828976 1.5673290973088259 0.09982765511327128 -1.2859980947104126 -0.13772597110209556 0.8720532830378966 1.7245296218968447 0.5143094922204143 1.7425926310802742 1.1061633304602763 0.2959711279475634 -0.40949891528221244 1.0085344917012087 -0.11818652703327237 0.7352319312728064 1.0200601276700152 -0.9562964806951213 0.31520777304583897 -0.6264697782004206 1.7676603120703769 0.008804478204094381 -0.7195768454965543 -1.8595561417877542 0.04565419914444657 -0.48024472356226056 1.163397354322629 0.5499061334672426 -1.4906207032568946 2.6011121728708986 0.3450356876974981 0.276300382547538 2.166456315036724 0.8111802389290068 0.8453007259960821 -0.9903149332542991 0.6549810486728501 0.4662018475164479 2.8900394113933993E-4 0.8873223956676104 0.22878154859175673 0.7289457947219116 0.8029228771971857 -1.7623279762437025 0.19057173302444133 -0.4102035444553929 -0.5591956708061373 -1.1337888679651182 -0.740908398418016 1.0709336859625669 -0.054236507761183286 -0.2287338776716157 0.7380694748712632 -0.8612580455518192 -0.7350176976781458 -1.6648826545629374 -1.6803048277359263 -0.2412436060675226 0.03261171749945935 
0.3625142328440002 0.014067021087960145 -0.7170175236049785 -0.3285637358215196 0.18678194388268246 0.4737005878906386 1.3300528414055217 -0.09983898855500925 -0.7089001783339168 -1.5269077332268273 -0.038900968822759244 0.8749894366942689 0.3232371933993824 -1.2230948163597357 0.20991311087062606 0.5209419974918034 0.6397276395075188 0.2922395512452505 2.189469165320173 1.2375008629843898 0.2714107142291315 0.13195065973703682 -0.23950872919535826 -1.0409653081297179 1.306425326875316 -0.9258568535818738 0.1512749831603343 0.41409745870243764 -1.440594125260513 -1.2158613605927804 1.421529407859625 -2.093682866369938 -2.0448316239798547 0.26640073518726404 -0.2629099881103651 1.6252616473074395 1.1558059443295856 -0.9238159938436847 -0.30181096571173505 -1.0129285898796505 -1.4994362290298635 1.4399116366752942 0.21463473046792067 -0.14341565812991053 0.2066789348485454 -0.8271520113183366 -1.1550492191460577 1.2173478664954431 -1.127120327870629 0.5884880858792985 0.6233297106612511 -1.4833537866872368 0.808890718098818 2.264766354371195 0.994742622010345 -0.30154147995067665 -0.7047366952863411 1.6314529373882092 -0.919947507926054 1.7749832336634892 -0.9151637843032498 -1.8381083945752603 -0.9561371646142879 -1.3314308364537693 -0.017420462523558486 0.315508035124291 -0.09679410900220199 0.15325618282415945 -1.24056897419087 0.36965187163473273 -0.4457874914845023 -0.27272538504148475 -0.8084746660315933 -0.3164060539145312 0.5178320901769026 -0.2508490630524787 -0.2339112658381808 0.9762831921605811 -0.7992009327288142 0.7276989258547667 0.966800406065507 -1.3397094256133262 -0.5263067188866494 -0.5391414957243537 -0.04152419951895069 -1.0088740091458124 -1.636479931133616 1.3822758812718188 1.656853678409397 -0.5600275479984895 2.0579806427913843 0.35650913412974206 0.04246394211214009 0.04519258582848113 0.2898895064906538 0.8215223283975968 -0.7434085102788 0.48877706935711274 0.2164794518763866 0.18565514597534846 -0.42132587658644266 0.8891116113870062 2.0278249955199734 0.8840303745507505 0.3743211881337872 -1.7203635023419435 0.8391070946952253 -1.417021778759877 -0.1915103967184287 -1.413219057330197 -0.06330858780097141 -0.6788571800669067 0.8338388275291083 1.2072000703722472 -0.48951769101239423 -0.6514405479279811 -0.4447984250208179 0.4453173851663764 1.108734089141416 -0.44651802210141744 -0.49371349594832903 0.7442100475924541 1.1125312364487778 0.34451671281727775 -0.46760896473716557 2.1073862440606677 1.711678948326522 0.9137003174145555 -0.6016600439402988 0.9103460758365589 -1.5501360296804674 0.25150918646736764 0.2840321517912689 0.420920051157462 0.43276646034129335 0.8263125131974866 -1.023067966667459 1.6523606512502123 -0.08075786999308102 -1.3679770152563138 -0.007943816336694309 -0.11008187623817026 1.1828131245797524 0.2775137410057212 -0.9235856479931389 -0.0038752752512617433 0.3804594786837463 -0.48320602207492247 0.41027722729357136 -0.4843215061847745 -1.7034888808924855 -1.2310558242099736 1.4099719091324405 -2.600739379747706 1.8300386169638185 -2.8426226324920885 0.596313255286927 0.7624415980845394 0.7782483492630787 -0.0200549621121623 0.6137015048772407 -0.7349842880484315 0.6250125125409255 -0.28948896167720967 1.2832199382709724 0.7129301710606027 -0.5228384538711244 0.1716423461974783 -0.6741875225313778 0.7972518182093501 0.37564114412031446 1.3668877684676177 -1.2832870622405965 -0.34614066777091534 -0.7375795645405812 -0.05777874420427494 -0.6969828149188315 1.3236441596505444 1.3314185414455146 -0.10210060658702667 -0.1761624583305889 -2.961909942138892 0.6674285076880173 -0.2993228175016316 -0.2955397620110455 -1.7720437604686248 -0.4905691215867889 1.3829722289487225 0.9112404261087189 1.265650085975675 -1.3307107978145365 0.4114191330851715 0.16472014046204347 3.181327696828708 1.9825143188901608 2.5044224986014574 0.8827320397850792 -1.5480811443201343 0.06404719715599978 1.006369391916277 -2.13768994950249 -0.33882028567932726 0.09442333482185652 -1.4967358460030824 -0.9125957331040059 0.3654132457829922 -1.0019927925543284 0.5535515235338688 -0.8481891646864399 -1.2674515079000643 -0.12040549992436901 -0.18705805488746463 0.9675790253155686 1.288142229744413 -0.1315274761536501 -1.936137783706348 -0.41861214785442147 0.36742113334320364 0.7852757160318515 -0.20675627192549084 -0.5215686688557679 -0.13121925950110946 0.646400523587237 -1.7995438081600368 0.10086295472354671 0.013566257628221225 -0.47691139832721846 -0.8925575575120043 -1.185111217714325 -0.38832552051967556 -0.6812020245457883 0.40303696784688803 1.1247629735824138 0.2717942082265324 -0.9784121632312861 -0.8110518596107823 -0.17450666083158106 -0.003887954883339555 -0.7546342423655574 0.9532518303256057 -0.20589930186881503 -1.180923338539896 0.8078694247952629 -0.5649167028102643 1.3301650803631362 -0.27170870429231087 1.163484474157676 0.36016173726671213 0.5781058737225537 0.7474827887687191 -0.06905235596348312 1.7167163153944234 -0.38350572473578576 -0.7732541498968527 1.4095472414867525 -0.15208000339708744 -0.7405325289814673 -0.12989657648824593 -0.189593442769838 -0.24995774932883993 0.25313887647822253 -0.60212901775047 1.207591571501343 -1.32836439599199 -0.6429989316747622 0.22273040712544534 2.1892630975626037 0.9774788695692184 0.5329642645498963 2.002227624417914 -0.027027139268599707 0.062082453761847525 1.6449089836353081 1.16807634237675 0.476648570096765 -0.011872273099979853 0.06521100327979132 1.7254629930486332 0.014542448752922685 -0.10152594136819869 -0.03776589706263851 0.7615983294716866 0.09980390054421909 1.4578161901096052 0.656308155874788 -0.634842132839041 0.3483117179893359 0.5369565758431712 1.0275011300102166 1.8606651065681823 0.7659771394418722 0.34073732076917157 -0.31815164130662027 0.357762787753808 0.6267787048452664 -0.49308212368778825 -0.46892460125599145 0.24343304734435714 0.9624197862649052 1.11191256768381 -1.127060928491972 1.5175840988462208 0.8261348958568205 0.7229641541555162 -0.7706870787892862 1.5462635187930043 -0.6871049429900619 1.850138806066461 1.0565594145220125 0.6501309653297547 0.9781382107201975 -0.3548038906150046 -0.46204086611702166 -0.5782812294986891 0.10287555267141597 0.42448109846961196 -0.33047129468394293 -0.34661291013531015 0.5443490271769235 0.7197313022673685 1.980260726242071 1.4655309158065857 -0.28215223011734564 -0.892331714933682 0.41691149810458406 0.8196978181021786 -0.75748452474996 1.2383500090758008 -0.35603490426379847 0.10406549945197745 0.6003023760197365 -0.7178407370348022 -0.5439720347276669 -0.6461230120402193 0.718084876776205 1.5918360765034507 1.2827261950502815 0.42905807647464067 0.6935151039977637 -0.5524548677100518 0.8125277232763016 1.0965066805012078 0.857058947724856 -0.9392025575866694 0.7791190618122498 1.3419466616659677 1.2207878747466325 0.7827717718363404 0.969710160199979 -1.3693407957735377 0.3476094967486892 -1.6660704878490082 0.27291430950903106 -1.815626828880398 -0.2689248424144406 -1.6030352309471052 -0.34623507979063817 1.0597692521348132 -1.0152673726369608 -0.3673149092008003 -1.4276011970796696 -0.8375828231852224 -0.2747482549304208 -0.6708077485347048 0.7284473151849434 -1.3017668264252968 0.2871980361461624 0.9432113098730867 -0.5008435441803576 -1.554317503257514 -1.013456259781229 -0.3032257292823379 -0.5952482455755562 -0.015071913786149214 -0.016959112550035016 -0.4585926469264351 -1.0348366936121214 -1.0189376043566107 -1.6973915030419298 0.2652429219777658 -2.0802932256351743 -0.3055722774390632 -1.2587597367751455 -0.19933683143708797 -0.6305606863502896 -0.7377634201414209 0.42875120099850794 -0.9366116723165279 -1.2875195720353612 -0.37122334908055105 0.9419273384549843 -0.5479026530680003 1.944028569836896 0.21266543102512955 0.09056606112178421 -0.8969165188563756 0.13101684294171426 0.26920449007899455 -1.1424381120992837 0.0382939367454711 0.747345878642966 0.3061712715821383 0.48720688397608436 0.3589870493534157 -1.5156913558015457 -2.737825821787891 0.679423384156958 -0.5598275233989705 1.1403733666881208 -1.3775246733217457 -1.1025674129922411 -0.059331767176582145 -0.5190638285098438 0.7836562314809095 0.8883068778568526 -1.1445668523618768 -0.5061851248004965 1.017457705072651 -0.08005618247983055 -0.41855991126446424 -0.9001004011308985 -1.2029231335237878 -1.3585047107370627 2.420860034973121 0.8538609242215784 0.7763916226617059 -0.33319314889361973 -0.02832095426723395 -1.741509599105909 1.519737321128838 -1.2379574055301756 -1.36622243489321 -1.0744347091450566 -2.172140107217684 -0.22078730686299516 -0.05990492790185273 -1.1124505514468914 1.2505181332632913 -0.21821532651393516 -0.36142286959294373 0.0012891058796933082 -0.12197864049393 -1.210941311448025 -1.0671850611067726 0.22297567398912022 0.0332094632695806 -1.1716658685093921 0.40158941104093293 0.21044873492400726 0.03004996853796974 0.2351915267364942 0.36072425555055804 -0.013316495258095336 -0.34262642568041096 -0.8940176276920835 0.9895314698691408 -0.8793935754752997 0.43797135384265073 -2.124021409386429 -0.9761586731131534 -2.0400571972690447 -0.008058926081663509 0.11326219198152737 -2.5078659855323373 1.1897795225847663 -0.3360747337745834 -0.7559511155793793 0.342434965249815 -1.7171551068990014 1.830781064920058 0.7268659959330181 -1.0644646701742082 -0.8057280071450821 0.39883962377131643 2.549779677806966 0.7608273381919739 1.0713184293239015 -0.06963223412854141 0.5034662988957965 1.5902091808882575 0.6253001714088614 0.6644316512966312 -1.5713643800012378 0.8696302995465605 -2.123226415983035 -0.1472852550682629 -0.8014282272295039 -0.5968629880251288 -2.934839468425968 -1.2452350272957846 0.2599366878526308 0.6148512529552099 0.6305133851797897 0.6640920790191699 0.37239291672731867 1.1025753399977043 0.2007712538664836 -0.12207224098315331 -2.2324506668056876 0.24783424385131786 -0.14735554878445395 1.072870176478912 1.2965134994525207 2.1586672266075175 0.3290420207403574 1.0877623056016397 -1.383990103426644 -1.0208090441378765 -2.124917598021551 -1.5342897605206351 -0.28571537485046283 -1.6829751594495916 -0.3096752742546201 -0.7977690191697591 0.9033466217126594 -1.68260941065224 -2.287260838544688 -0.41408333693661686 0.5093082975728975 0.6181958410168267 2.069738922383203 0.2537701275049989 0.9604313654105545 0.7234669099809435 -2.3713166788531006 -0.751401937066231 -0.38864166211634465 -1.1921174984215506 -0.1708795322224808 -0.9644443543656199 0.1922773918311686 1.3061422220358743 0.9248677518044546 -0.5188740126566148 0.021661287550169644 -0.5585397954948818 -1.6069495631731454 -0.3218136130128058 0.18096008909820985 1.541465232991513 1.1446776709331052 -0.49043519001974306 0.685348912125476 0.295766237680903 0.019380605767076425 -0.652126561837411 0.204785950001666 -1.9450793292446693 1.1301701408812224 -0.018764285133511745 0.24233054560608178 1.0860033980052597 1.0677334153941311 -1.8148632841096022 -0.8176805943955885 -0.4981270431457006 -2.0577685323438986 -0.252488795296954 0.47724125316624877 -0.6903015479279211 0.49490261660284185 0.6969073591252889 -0.9561670772210278 1.7673466068976746 0.44263801417370163 -1.3489369965361913 -1.5881713528130739 0.1388629564091307 0.5575830378480621 0.38109159364622713 0.13814145029299998 0.6003759349945836 1.1080272649699034 -1.0052694110242457 -0.20821033907878303 -1.4056229275365555 -0.643061395333171 0.2637131387113904 -0.5907795520188842 -0.5119354088832565 -1.2183854729957555 -0.9652428096215954 -1.2597983907151544 0.21325795107096318 -1.0979745281216897 -0.0907900847805335 0.23651855304072258 0.36178313557665615 0.06851134166374584 -0.6691187871312695 -0.800191996268892 -0.5275313527314834 0.7166805092917272 0.31617036724700864 0.9004772059191837 -0.8153936380356845 1.6532663325041537 -0.8358488532579115 -1.1972662350881953 -1.0779228224734887 0.05855952993530087 1.2854829947896944 -0.9788807886011807 1.61634057935046 -0.9637573727844799 0.16419617482350918 0.40899234107776966 -1.5772175450166555 0.9932333875301137 -0.02335121421435168 0.9812687866726791 1.234893243407595 1.056863413547233 -1.1124937656992269 0.22347254499373534 -0.3349513402148208 1.5929055600708646 1.5942890474477096 0.5708013874842031 -1.2926198342246926 -0.21596554072631058 0.5212188984004402 0.6979200374041354 1.6499934080801169 1.0473560503411583 -0.13970792325116074 0.45198901212361264 -1.1863354242777582 -0.8826855220982583 2.067153142187448 0.3168879172604044 -0.36024620302959304 0.29924166739011354 0.8335672472956983 -1.6263076601161996 1.2605847689346987 -1.31414683429911 -0.7427718460220941 -1.706381690970648 0.1187083806785265 -0.01064464603524659 -0.423705538083705 -0.3666668817380802 -1.9480060008767994 1.4466207298515426 -0.5249525856845652 0.3502324316607098 0.5715433897756597 0.2258889830004882 0.05729927005817318 1.0243757345933096 0.02438769662459261 1.2860788817883666 -0.4618552694667874 -0.4192160631234194 2.8233927875753126 -0.05547443008071979 -1.3033648636460164 1.0199546647001652 0.6085430287805266 -0.07260013183157046 0.30078892432889015 0.35540488107936175 0.34875327878139784 0.6491864794361089 0.13447176407374675 -0.5316579100469108 -0.2818116731657391 -0.3786764825125171 -0.7748342438176719 -0.5373669947301281 -1.560875784774747 0.24793563500537635 -0.4481876985442456 -1.1405525144807898 1.4161113148757114 -1.5228170830574723 1.1088937697020325 -0.384531760328304 -1.845176782200349 1.8659383756310777 -0.007433142063345739 0.36114112760565076 -0.8713318738626373 -0.12234757031815541 -1.23386892597523 -1.4584578492125062 0.34962797005775453 -0.7096476263644331 0.31012133771732076 0.07617777022752668 1.1940225102690414 0.058315124576228776 -1.9697202054895993 -0.2057832296186014 0.5256085408268739 1.4299640491157486 -1.2581726979860597 1.279259235969316 -0.1825864736112886 -0.45529688029739257 0.690153011939319 -0.13302117376545308 -1.21908865910344 -0.6434804828163703 -0.8091937952050053 1.347405138806867 0.7371773757602437 0.8658559416372571 -0.046884323523631935 0.07690259850841653 -0.6141167939068666 1.802407032202917 0.01427108093495543 3.279088306392057 -0.7372773988880131 0.9676526913222288 -0.19298899758330793 -0.518551116381189 -0.328030241243603 1.447277925845822 -0.07541346153669061 0.22739510365136514 0.44175829843000025 -0.4121004132085547 1.2643024571137722 1.1630055202305705 0.04867046801996795 0.6696023569484257 0.9552211222698371 1.0164569755799382 -2.2202959199032493 1.8852166547654334 -1.5544464708004984 -1.4206666497635057 0.009762444742944248 0.6516697106903405 -0.19723982898935177 0.20839262549742055 0.5425536342468109 0.5728048784334907 0.24080318748174942 -1.2044320331299083 0.3503792258076769 -1.601711991171623 -0.21062588549340613 1.6610703211848883 0.44104351935844494 -0.17609503000740886 0.0502176687084001 1.3164526121268683 -1.2666969021798913 -1.6724294031443534 0.31149857492788763 0.27762653653317293 -0.19837959542636407 -0.1793774780684178 -1.4378105021322107 0.5111891530384539 -1.2501944881176175 0.5207440585582741 -0.21818333835368148 0.7002149070952283 -0.04039439785022391 -1.1633371587020633 -0.5222630454838372 -1.2350935501132883 0.8617020145324483 0.7865460322792567 -1.112652930344416 -1.4504481854423512 0.9012184165448989 -0.6983152941035584 1.1095605606422398 -0.15396166577238196 1.3790866439475633 0.9626083303369133 0.07017943550991228 1.5679797475643447 -1.4130023953782673 0.2517992724441061 0.07791824912763562 0.6404363965351356 0.04659300311836553 
-1.0491013960586333 -0.4464898723005258 -1.43452866272272 0.573698089251089 0.4946123596647757 0.01688736184110211 -2.133196230233333 1.0389875628095808 -1.3970751892572986 -0.2472166783945373 0.6630453370760846 0.9990855176460622 -1.0187120772843823 -0.10440594234739187 -0.8020313421315074 -0.17284775659670462 0.18213394474089345 1.4353427826102998 -1.5252234017299764 0.08256444335253259 0.8009039033791492 0.6131113400484353 0.47594918854926943 -0.3767836292048634 -0.4210414014256311 -0.032306506593353344 0.11816541732672738 -0.44435478824638 -0.5466659562317885 1.2025551634976515 2.6326056213856743 0.011422784327309149 1.0442270750967357 -2.2094377524307136 1.2634880705362839 1.290652201053581 -0.5593520929827519 -0.0212292335153761 -0.17681366421298755 -0.7459090932219911 1.3339336287494927 -0.9529768255971326 -0.6675678207678353 -0.4997901987646199 1.0192607251735653 -1.715160236887264 -0.36385679587472813 1.2628217967068347 -0.07502047006837535 1.211758175950547 -0.9873497271605371 -0.3450414540357212 -1.5614877276553922 1.1804603538897602 1.4888482260104612 -0.39122890537634436 1.0054833591517212 -0.41843570867432023 1.1173440300171413 0.9403331827527733 -0.15929205316714865 0.5301806596132009 -0.3266400845601847 1.7029637083219427 -0.33968659916948324 0.7453178812981315 -2.3374798986020866 0.0779874742524368 0.6447151194880526 0.2812825433772735 0.1392786920960097 0.18771529295849354 -0.7265266374534894 -1.3902993592047417 -0.8111058451597762 -0.288692776756355 0.9602377412585104 0.826051363322426 -0.013116532611210726 -1.0118975241631225 -1.895206340620456 2.1267119060940733 2.259841592440515 -0.22292308644659384 -0.4083364721717809 -0.3873127959932634 -0.7834995653081793 1.359663775179122 0.23971841703195435 1.4972843128448177 0.6212979649551974 -0.9172720080003625 -0.11315590321907094 0.9294732685081222 -0.3851785499400084 1.2156537511932772 -1.7107624431296882 0.853422002993344 -0.10425337290911187 -1.057203152705345 1.7016052775218644 0.3640772473778325 0.8020018066291684 0.17240075037284905 0.3171069782029412 -0.4646420517007628 -1.2520529950701969 -0.9610000759628546 0.5861727664241454 -1.433522715886441 0.3492764730735393 0.3292103705731156 -0.7613711966894565 -0.19761487967907554 -1.4410931463331542 -0.8047975489510545 0.4001065717235864 -0.9288180140877969 -1.0043308781132672 0.8541990374092785 1.2072029260419859 -0.08021588414910762 0.6310886526271834 0.5407433965198383 0.550471906317676 -2.750210507676725 0.8125566798901648 -2.760781644541395 1.6656056834336501 -2.1260082974926107 0.2903509281382067 0.69543377319719 1.4869122894200137 1.44770181001621 -0.1252666860024562 1.3787601702912355 -0.7366213229354962 -0.026635795236069876 1.8883487863740502 0.09363435960618191 0.12033513579405092 -0.3777007524914971 -0.1114937135055557 1.0319810623981227 -0.14564504752186186 -0.3914058750581627 1.136659327171179 1.1762241717586366 -0.25799905132381507 0.6675789751109058 0.7787364053729767 -0.9800799512073816 2.72784445348376 -0.37800928925043425 1.2943357950090069 1.1941523958626747 -1.0547016374766003 -0.34000511098258035 0.6093446546977636 -0.1977439397430101 -1.8502076651171442 0.6903320996493472 -1.0263753062872507 0.13259873463726557 0.9244298873551001 0.1093193890266593 -0.34757583169628503 0.08176514972771465 0.438215710776693 1.023726131863937 -1.3149249584230227 0.29522946381258425 1.0798254296438956 2.2072168295300565 -0.4139009392547986 0.5073246757862279 -1.8804200175068033 2.249456731138418 1.3508369566807035 -1.144384221691252 0.6332954334898643 0.20617112346703853 -0.08822968171967202 -2.4087873532621678 -0.09971076226661613 -1.0430252324337754 -0.9418442810044033 -0.6664102902088617 -0.7419248220718042 -0.747174000458997 0.489220799367825 0.9774519929664294 1.8705015258041768 -1.3379101576391303 1.0331056123067972 -0.5805891094975953 0.9916650939660773 0.31921816071533604 -1.2729688190018682 0.07131929195096989 1.0566909951206265 0.042392793829563194 0.19203878547047748 -1.2045111181593402 -0.11259149373174522 -0.6450261540936046 -0.6184237407049284 -0.5625875779845211 0.2412011002977505 0.1471010200789715 1.0322041907354496 -1.5706751483621995 0.46012841526460924 -0.8149299618767197 0.7416792935144384 1.3788332751039136 0.41792303186896856 -1.979734922360179 1.729753447163608 1.7591378329740257 0.426598518589887 0.11142182320787818 0.7860942209219675 -0.672554223287918 1.2335081319797203 0.7331909504945942 0.7257563445882735 0.35513118038338576 2.1846102075942238 -0.16015071996946628 0.6294187209896097 -0.9010582000847777 0.9888783227949475 -0.6354140136657462 -0.5809769536324061 0.5138398636344288 -0.8849876288587634 1.4034140190556268 2.3053149160750905 1.3120472802419774 -0.6992015058980969 0.34208088374023715 0.5201889083497545 1.0492760183744445 2.3363821025319913 0.6732718639968148 -0.11872549949302537 0.13304527956999126 1.1498627434590911 -0.7277723207176526 0.8737102669178897 -0.5802706136040526 -0.8364737558454809 -1.0165637905139873 -1.9028787740600779 0.27012756158938656 0.3121898780149001 0.9854139604749501 0.5243459135916163 0.5235821384144274 -1.3846020498406495 0.0695033347712755 -1.1057394637540325 1.0812192249853734 0.6244044671635259 2.2678605253627993 0.8724381373889597 -0.32767217525055736 0.10681093833489648 -0.6488240497885255 3.281974831569429 0.8762046028800125 1.1311450593629464 -0.2777129332770929 2.008395046718846 -0.15599990457159185 -0.0067203584026581525 -0.379905628811506 -0.1448880753101104 0.2911349044528686 0.3796805827189256 0.9625676508375152 0.8796131577779579 -1.7137014511748176 0.8007857678383592 1.3045588467722593 -0.7970183391775262 1.8630653785973041 -0.8313084828271189 -1.2015047674592612 -0.30879606854469366 0.5847557911771593 -0.7315312055156256 0.6873006254209019 -0.9615944800633758 1.370481566371319 -0.8488061577573469 0.8674644124174546 1.242908293968615 -1.142534217708758 0.23701108946461616 0.552757206535754 -0.5205682306994255 0.4462021721569562 -1.453021530706103 -0.6279846420999806 0.3729572794258985 -0.7695614124187349 0.7722726435530162 1.1079064727087569 -1.2124506221240612 -0.21282942586870293 0.18540887455344687 1.360083202288995 0.08203020307652684 0.023100559549919054 -0.08060778887344625 -1.6522715503150718 -0.9935352906952161 -0.07907500861623719 1.1574093718421161 -2.2650476099105523 -1.8582890107285785 -0.40836950870575134 -0.09522115168294037 0.17330513099577974 -1.894483029512517 -2.0134778303278473 -1.124519582372278 -3.106994436823555 -1.288021566424186 0.9699327838487433 1.3932847882493744 0.07116306204852207 0.6996028902550003 0.016438608612589483 1.545808688100222 -0.8352984805064642 -2.1775664693178425 1.125652643713474 -1.9051865915983153 0.17286310931553184 -1.790156174515258 -1.1094142982920976 0.01001311290858045 0.33244224938409367 0.2445774284757115 0.5178662456744382 -2.0385860734120773 -0.4209081346949819 -0.905152921443231 -1.2799650134869809 -1.1491185986706152 -0.667926417795745 -0.6848958907591323 1.468146712328286 -0.857502247080694 0.21428137049911042 -0.0019043335220148923 -2.2629266999556825 1.9848263277694163 0.5175793231389118 -1.2320641217117947 2.2216647988572036 -0.7988596652207057 -1.4196030908306285 1.169440815257114 1.4488493634038848 -0.9811999764561518 -0.7704648311765693 -1.040114851001994 -0.4046749422647705 -1.0042181771628178 -2.183564552042322 -1.3869515479988601 -1.0908907314910679 -1.949542462987416 -1.080497061344028 -1.89918869734476 0.2521884988649946 -0.6782263919241219 -0.3101902008223374 -0.45169272072950556 -0.8163095461271861 -0.7185229168331242 -0.6375575542858914 0.5151341375789386 -0.42422951763607464 -0.44383918396108085 -0.4200057408246322 1.1604395929987177 -1.3995037275246536 1.0078355547674587 -1.6584090154160098 0.5462536652927981 -0.36821395286694963 0.8062739535027412 0.18214435991628875 -0.07955407565165394 2.162174240990026 1.5362499527580864 0.005809240165200689 -0.30740991928818534 -1.0743324839638857 1.7632722293321406 -0.7804953081136882 -2.314822214028556 -0.8062290755912588 -0.1893661165203681 0.3511486451452829 -1.2208019710727571 1.3182511471894236 -2.5763559282911745 -0.39028202624254055 0.8384727093979697 -0.2190205825085745 0.05434255911190679 0.523433988787004 0.20724020478660296 0.4482991380099783 0.28738727594793506 1.5552236939199742 0.14462426736756293 -0.42043324656088965 -1.238676714928736 0.21442988687087577 -0.795651575865809 0.4313248458972868 0.5580360384383772 -0.21107835701977506 2.113267587072651 -0.14709629258817358 -1.4196214193961278 0.021842926929544815 0.19006027306251772 -1.0788634171182925 0.6480343788876526 -0.8021564552030284 -1.8605233179904281 -0.7114266580267344 0.9471982505384539 -0.5500098559871729 -0.2508622183058306 0.5507825869376524 -1.9233157938684544 0.6386361456897143 -2.9332013212308836 0.5187309382087961 -0.33686759026832236 0.7890525292916692 -0.37627839985371136 0.2475861463876099 0.1554439862216638 1.57230363514358 1.079094417445683 0.37769156093827455 0.46633119912750054 0.6455774135468663 -1.9197370762653312 -1.1010769778820118 -0.23217972626450062 -0.5812632772979203 0.801166382828126 -1.175408962800976 -2.784185503626182 2.1683929042309122 -0.9481351639607393 -1.9033212841899563 -0.32931579361459556 0.8365438861036829 0.37230915045964125 0.2343857678291338 -0.7340941086462964 -0.9215303622995863 -0.023535296072123176 -0.25150779125077954 2.709527023426509 -0.012975266039063692 1.9484965420900056 -0.1600088605612985 -1.5624421294220516 -0.42720146775130274 0.09537284050928169 -0.8507868903278666 1.6766521034708588 0.8059591871324431 1.2156417758248999 1.202439135523871 1.386233589674625 0.978183122377373 -0.37020215749255897 0.4465904594016167 -0.8221494160812779 0.6359607178329431 -0.21904370076032678 0.17324575144219825 1.6433671380598665 0.7644035714194092 -0.5943892215883397 -0.6178921868444582 -0.5163042320381555 2.5679607657659953 0.5811188613932111 -0.05597562842769846 -0.18609004216030006 -0.6927263251721195 0.9651359665395837 0.36198286605465513 1.7561314835544986 0.9003300604251998 2.1424817650750625 -0.8514347828282425 -0.7494171454283007 -0.12678993319171525 1.2229427659115544 -0.7423579313902054 0.6031957978486241 1.0107968994390086 0.2334978364975654 0.22692602401750966 1.4878900085023097 -0.5201972674243716 1.382920032532807 -1.2291414498822733 -1.2098729557913643 -1.0741808744969454 0.4379861920156753 0.7520691992404227 -0.8802112116996408 0.19619797698744307 0.5998305311032589 0.27886940488882433 1.2115409224443925 -0.30535813086927793 0.7557654188600956 -0.9848626144332234 1.195631496794894 -1.885505746929487 0.7646851919828843 1.2117022272084932 1.6119397758642156 1.8900154053785294 0.414760268003753 0.032803083220038436 -0.3211901754342562 -1.3393144550641223 -0.7937951291314965 -0.935553827843469 0.5865947773378615 2.2091854015425993 -0.37443967211636003 -0.6058569205521405 0.2326888614618784 0.836128439895979 -2.072139272350579 0.2166670675681161 0.22393342887642947 -0.5167133647328827 -0.14293089066333808 0.25934203494969277 -0.7973417351208694 1.183614619584441 1.097765505605051 0.1865642326754808 0.33068017278581713 -2.006036944132239 0.7523688279564476 -0.14001195853068174 -1.3211279716906426 1.7274431019801648 0.2731174951415037 -2.228897528051986 0.27608153276379316 -0.8923005021911017 -0.7862515247464227 1.2571996191216326 -0.028406779390237964 0.09670035274127911 -0.25073346363125226 0.7207477252115227 1.5937138111092481 0.22037488331852392 -0.052250273094626244 -0.4255989177691018 1.9517940967099858 -0.8180962040165458 -0.44987703154533376 -1.1126753785940366 -0.5778864720234262 -0.43165332584452903 -1.6034942724971861 0.29643625845041793 0.8564780420747472 -0.8730188993174355 0.06723958034429758 0.7139309495181195 0.9631892388694692 -0.8913303762390354 -0.9449997655600654 -0.9449583984827912 -1.9943291682675015 -0.9501831272615635 0.18453255145582084 -0.30163832732458057 1.7327419667278132 2.1774342988416557 1.9919558430551103 0.16907166789280675 -1.6762802394573073 -1.0949357441005156 0.8821306422194675 1.694603955229943 0.1547168553291334 1.6443901447308984 -1.068490305874135 0.29210472830948137 1.196659679224505 -0.11877682769131315 -0.38759718597954573 0.12765088591785395 -2.3670334390362395 0.3610086325142746 1.935441272339674 0.6027537982306143 -0.6624443425511951 0.7536805188025826 -0.5781845059694104 -0.5278801904653103 -1.9822788270263836 -0.7210365267274272 -1.0202685752121865 -0.4294075139808396 -1.8732480078755904 -0.17215425261176992 0.22888162276056306 -1.5226152460236286 -0.3720816777628724 -0.762852122952696 0.2297402469699373 -0.024751399096277316 0.08792912543618521 0.88172105846266 0.07855822354635965 1.155054889172859 -0.6978819942611009 -0.40424580292385015 -0.3246150142134719 0.7829871268710709 -1.4447244043815493 0.08562729232155572 -0.4593206540627154 2.1462151945565373 -0.0629155042771868 -0.0837911607599983 -1.4348892235448036 -1.1129791159532145 -1.649846179240726 -1.0883061864221475 -1.9172341264449884 0.2085984808810691 -0.19062355222481356 0.09125100750091245 -1.56724791752966 2.559587527473792 -0.13570363037938613 -1.2842989938068132 0.060953017146944614 -0.8358083156694243 -0.4270452040196792 1.8104953045714023 -0.9613372083108314 -0.4146713144735835 -0.71545553351865 1.2249389343765877 -1.0223483366317179 -1.607418615609242 0.7830468269510797 -0.886330256022984 -0.7058941448390271 0.14767053266319033 0.4387977527010285 -0.7772492819591209 -0.06564239867369331 -1.8731176889262449 0.7259341284429942 0.6981014069250587 0.43246495477077046 0.4660609949672893 1.0374480836523219 0.9719001064505791 -0.6737672028628133 0.8048822724875035 -0.7013856712557754 0.05924165336641838 1.592070392833376 0.016350720693775498 -1.6032833844616212 -0.7036133598816287 -1.1334325641937315 -0.813289112044784 1.7026519340526407 1.4691386326778264 -0.15331090009714063 0.949707925679014 1.0655731509957518 1.0615948187249569 0.24639671648857003 0.14753499478694332 -1.3043165432507429 -1.1832305995869628 -1.7732203850871475 -0.3355595161756657 -0.5592973354825399 -0.2903273276112149 -0.04732086134462775 0.03690154438678391 1.1602815872972776 -0.6557111787468777 0.29420560294836334 0.6657192215549634 0.9596388417608082 1.4866165632074444 -0.09357188069295322 1.125180180314148 -0.8766105259059588 0.08297593623276775 0.9988729498794591 -0.7462189467386212 0.5010896299822122 -0.8438982446147877 0.37636337353045557 -0.0736622944935923 0.07545907732108682 0.6173490584643032 -1.9023781722191015 0.8510100927830373 0.5394537682351679 -0.28183965123871596 -0.5179000088669562 0.3181413196744937 0.6434688110949566 -2.905898471306626 -1.8473326034095747 1.093796772913165 -0.5174097335936046 0.8219264661485409 0.36414580312388406 0.5973486156824628 0.16342132243505275 0.25372679974694307 0.8951597526229523 -1.097201378768365 -0.35369605215103567 0.10627078293851962 0.7577518995982224 -0.11356423592169877 -0.636003013294984 -1.0797372922393313 -0.35955735358694035 -0.8709362192179205 -1.0829679943192612 -0.8379086912549545 -0.08115266391025783 0.9265269995972474 0.10241578347804207 1.2428306160604683 -1.0986621164920896 0.9443683993402551 -0.6018147276817877 -0.8201352693043816 -1.64020050547534 0.48737137172593875 -1.7622133504073934 -0.4564905599827455 0.6363934029921836 -0.80571828308853 -1.7953068531427914 -1.2216755530441719 0.3126012638925974 0.2468816097497501 -0.11541310394880791 0.12518519416213167 0.1926475098768145 -0.2802703643780714 
-0.06002439124257261 -0.4210838917334864 0.057300390963680406 0.35331866263643436 0.5956822744266371 1.8003062098404725 0.14285464038497736 0.6783840314868341 0.2904922828128082 0.2394738405705457 1.465793377355361 -0.4310010780688969 -0.8393229531565752 -0.49249238276047136 -1.3986008119426745 0.9210494490149694 -0.39740215916673066 0.3591570795237171 0.42400152694104404 -0.15005612224861103 0.7904384033285445 -2.045815192516659 -0.5433617126695147 -0.37362353228325557 -0.5155790412997853 0.43624405495103247 0.9234823506737388 -1.2879205583260371 -1.1910780297554138 0.9843888728652287 0.01681942387269339 -0.19531533249685437 0.5734276345661966 0.20704804806335184 0.6875869119613347 -0.6031902708453096 -0.8075729348917654 -0.23253820843944734 -0.9389230541014 1.4818913004455347 0.07325375824343577 -0.5845008642566777 0.3599166101507392 -0.2212856682736592 0.60861634044117 0.1264948008330928 0.716694628230307 -0.7718594038565545 1.2597454266942065 0.3226638529374237 -1.8719415785728426 1.1726412669632322 0.42702019600172847 -0.6311288181306234 -0.9364428791293654 0.6798076949047508 0.43975872621115664 2.0484416361285906 0.9800565846195459 0.7736596021633493 -0.35336675151431707 -1.9653435863431874 1.041130919353837 -1.0663964341812349 -1.4961784931358506 0.4208865753129903 -0.21302566638696788 -0.9729848300990727 -1.7601160170047805 0.18373138735002373 -0.6731407462463054 -0.10590653072149478 -0.5104939131642674 1.3493325532495255 -1.3971998116056872 0.3617991758083265 1.5082398184739525 0.6264438566064916 -0.5096245782992389 -1.3170762987379896 -0.10926642395947443 -0.8356942642272697 -1.2236789719234349 -1.4112532624260057 -0.16605874622412525 -2.6161330088855377 0.7389893291191229 1.3077136045300781 0.4423137169597445 -1.1404860634207419 2.5756131575028607 0.6980901799589947 -0.9582097479769021 0.29469069272726134 0.29130739555711227 -1.625910986526403 2.260476441579144 -0.6420853371452376 -0.7821477310427871 -1.8221597928543651 -1.3432521935407162 -0.5782923808902378 1.482590464303884 0.3680438746699758 0.28061843055316527 -0.05360993423115441 -0.6395005298584768 0.07149188759200527 1.0036518961123364 -1.3555714356647743 0.1307500993268742 -0.5105999116712204 -0.5967185193479393 1.4174741758483538 -0.11377621177511445 0.3490098432642138 0.06364658752161918 0.6615610147865706 1.3228341666733126 0.34726508469631523 0.34843946689250954 -0.2980795780911785 1.5093974929392455 -1.5021500492436088 0.9327802445431588 0.2210044462326012 -0.32647846222257615 0.4823858235463854 0.5082103354517895 0.25689879497505685 0.8183581921675496 0.6547283682130466 -1.4617679193066282 -0.5054101164577189 -0.13543716679803397 0.5172766666793858 -1.0156633294407902 0.44850123925752206 -0.04239590131272185 -0.20739651140545237 -2.314832039437003 -0.7652728204503829 0.8768690974614453 2.359399189580951 -0.31938138385569637 0.4035422019260638 0.48686154596007886 0.3022451241810788 0.5183561390932432 0.43751348556740915 1.1879510577636918 0.7787158508857258 0.9154579724168792 -0.45613938541931215 -0.3412550944506666 0.270420775851838 -0.29927080597687716 0.16958864911373275 0.11390212592203801 -0.27214884789414684 -0.493885806189953 -0.6245842357705985 -0.33805112445571645 0.07630525800732979 0.6736047618203596 -0.44221337333849636 0.8918617526605934 -1.4989427408119023 -1.1829303501545156 1.5731604404464492 -0.268275532194573 1.759910797551894 0.20378883847304358 0.8410281320463161 1.095646729569266 0.6996177332584795 0.4540998553533127 0.6432668476122764 -1.8178353088480936 1.2874284297906509 -1.3037807240533374 -0.7188812411435336 -1.0483717854967818 0.9248719141114037 -0.6032199748825298 -1.5995367185913891 -1.9643990543596719 2.1646820905966715 -0.7370944472019667 -1.3516853489003804 -2.216435382793718 -0.6784678976346702 -0.1620815899247496 -1.590000584136573 1.0920037126718096 -0.5290688285718314 0.35394844262422903 -0.7242617336482674 0.38395477004436795 0.41325002598819266 0.25171049146876506 0.4888820188589848 -1.0377895452098167 -0.6754221696290863 -0.6951948439194401 -2.055481755190404 -0.699037599196895 -1.6468036538721016 1.9392251011570283 1.5940674553383611 -0.3096458376414365 -0.9554750660240309 0.6060803675403075 -0.9817030484890734 0.16767234495428054 0.22079446276646603 -1.1243952616465744 -0.6368287060682849 -0.6324675376653182 -1.2028029737299615 0.30795484255683214 0.41998311138868855 2.0274634443387654 0.7330028979577847 1.5120642760925644 -0.060666097189719694 -0.22232887967526985 1.031818304259303 1.7912363433440672 0.5524906506721675 0.02992489238611069 0.6335382653113992 -1.9002927695471157 -0.9800043530502803 0.015322840819813095 -1.215242831194161 0.5029453333920479 0.43153647673596773 -0.05690863818762313 1.0827239751543036 0.17637384162073458 1.3311965839202455 -0.9847121978410941 0.6881804839124822 -0.042152115820600425 2.577794826915555 -1.1429935061412149 0.31008973901243886 -0.7233482306977639 0.06358263013106004 -1.744874677437526 1.424164606443323 -0.7052121942927129 -0.24766365459184783 -0.4995612207252547 -0.5255018504741426 -0.8647005044933995 0.41041742907490175 -0.3878635782055687 -2.0934792755106995 -1.0529694871941873 0.35470469417200073 -0.5455687287670218 -0.2212113612957277 -2.0609170204228957 -0.5452841766512275 -0.343083626590462 1.2398317804712404 1.4907704100494374 -2.5609915438170736 -0.3537069238188652 -0.807012876062448 0.8716490534498506 -0.06761448834522198 0.31066944921747214 0.07636337603544495 -1.616977464308481 -0.22140425214427784 0.7575349339913194 1.0465389208641598 -0.5896329563297708 0.5299543502469717 -0.1953787612256959 -1.2389153402247786 1.1834767404804738 -0.5400170807013858 -1.158681788250851 -0.14147500280752476 -0.830274957007103 -1.531833131020522 -1.7551487817310247 -1.728422229231886 0.17532296204889006 -0.05161971926442506 1.694653088112845 1.3483450785103264 -1.392127270988181 1.015042982617767 -0.3629523552930831 0.43747336355576866 0.7181141505542132 -3.093274969030532 0.4383731969793437 0.04001800515838769 -0.5524702355399576 -0.8512137444611839 -0.3293004829730381 -1.5192739051059307 0.6435923312288888 -0.06156808818101259 -1.6056264059808745 0.5114862719445149 -0.24357246094854337 0.4656278834044816 0.11967888286049369 -1.8752538339652791 -1.162509731443927 -1.8807025820156418 0.2666270508908812 -1.1125829787712313E-4 2.0113517360259476 -1.2656035767222353 -1.3237744271256056 0.6851358746991506 -1.2612451935114293 -1.3525464495111188 -1.0169198432401023 -0.5356469295945844 1.185682999469566 -0.7483664680863837 2.075367481825681 0.12553426595617737 0.5935023454055648 0.21804188079754494 1.5992320482906703 -0.46402256656843666 0.003774851716325147 -0.3383639938253606 1.2881549911364643 1.202160050457735 1.063914124592537 0.9863418146855378 0.8649244970763627 0.6046325099597857 0.1612664547930632 -0.06441421023001134 0.2758640434361648 0.0944333112700826 -0.6144908796753172 0.581560206454692 -0.6423168162860199 1.1036630144762452 -0.6367311220091795 0.41835983128291915 -0.7143195081345889 -0.37185387709475204 1.855705298908425 -0.13954581967667637 -0.6651885405240628 -0.1425797265733551 1.7546550116237267 -1.2457610907368135 0.9753730424308009 1.1502257556074977 0.13864509514451923 1.9429348837396634 0.009087991944998153 -1.1358792876551285 0.6172229945200263 -1.1392992300138884 -0.6915980395345159 0.35288693138725596 0.34270750105641795 1.3538445358082771 0.5329771113776977 0.3130822825221628 -0.42300341564432475 0.9640115272659578 -0.9074959965429239 1.1157609864955507 0.189035612740906 -1.124754776480875 -0.944259049541735 -0.5889040086961962 0.2665915933168606 -2.0241706907665455 -1.2200229874939026 0.24781919902550945 0.20412274204796116 -0.8340977821471435 0.8120576999864206 0.03652388350179972 1.2079007783907292 0.3778875384251627 -0.5793614648267552 -0.4320108226253033 -0.6994833215707275 0.4195680303474234 -2.89904331118258 1.145999218622939 0.19340929733227474 -1.3830298806062191 -0.11948617327643989 -2.3292067658070748 -1.7754879601446132 0.4248417158582613 -0.7244132967635367 -0.9181428086828831 -0.8891031268103522 -0.5990854532591199 0.4673891221722479 1.2402048067977514 1.4335859161769886 -2.264397290284321 0.9309463210888196 1.0460690972143734 -0.1568835281361875 0.47701302880475305 -1.055094814179929 -0.14663031597520448 0.45562432445191475 0.053745343652425996 -1.4239058876479045 0.08535503172586842 0.489467563802054 -0.6313093442348328 -0.5915644066629638 -1.7043884957869486 1.540533179576476 -0.5065035059454424 -0.35576039818814775 -1.9338693727760177 -0.3890501153859646 -0.80605850553019 -1.9478621337845496 -0.7341487896417846 -1.3734893188750115 0.469806194438657 -0.8815467150387399 0.3593288906193964 0.9571860997466722 -0.5529848851530621 -0.6994715313282802 -1.110259337031328 0.7618588704768814 1.8111823272998009 0.6012821073296812 0.45619949372582047 0.8746613114168229 -1.044007717476214 -0.4658377011777885 -1.2991306011436332 0.3801035404604622 2.2262103131264595 0.19941877741811037 -2.6215099977221477 0.4111087472793823 0.8561462467931193 -0.7546513919891759 -0.5096478434657541 1.3446312296790948 -1.371423417012455 0.05308828817507622 -0.21822411426363472 0.7707142595037303 -1.026095496398715 -0.5013976477711732 0.9218346009818966 -0.5366905116221892 0.7142156437834902 0.6742892074654729 1.4860177114316124 0.5071906024292636 -0.35501763687203475 1.1813748005614824 -0.12340974525887238 0.3884874789453795 0.6844651488129918 -0.25545980978976296 -0.5072205901810919 0.6448510962164664 -0.40165670044546553 0.331345060796456 -0.4592713412287909 -0.56509265710722 0.8681651544900363 1.1009241006292636 -1.18373665752254 -0.2371649412697936 -1.1209463060146398 -1.6610371827379313 -1.5951688091363556 -0.6857441394606203 0.07192680379914573 -0.2103321384192461 -0.0035061731897686613 -0.5181146529852715 -0.08103690955148143 0.01866106307330577 0.6895770538544348 1.1258267017742105 -1.778891113726058 -1.9458077219089345 1.619381130710361 0.8582175105692564 -0.9347408761766822 -1.483926815347291 -1.8217941861261717 0.0664061629418656 -1.981078119289551 0.2894879099503428 -1.013000076386999 1.0273463970859078 0.1612001985345333 -2.3385269252851253 1.0733368497247127 -0.4122558871143492 0.262275819122512 -0.2552653894345761 -0.23751499944072024 -0.6559564265336865 -0.12883098919245484 2.769528988680296 0.43044087762400324 0.6001931651276917 2.2435874382570424 2.3237834276643587 1.4332052028880056 0.8200034667557615 -2.259256302744334 0.49493018421692697 -0.2469789236349835 1.450689113552076 0.4928447597841281 -0.240260040037799 -1.6904673429553436 -0.21532284606069177 1.1099619831652556 0.1421198614288743 0.19533960307562281 0.2733667477775797 -0.350071069893398 -1.0436727834584432 0.7234842367987365 1.0716289996327248 -0.8804645149232292 -0.3086440702687923 0.2737766926723801 0.9969405260618001 0.2683518103266598 -0.8464024531837248 1.7118103774996656 0.18372013714146712 -2.1043734509186374 0.3266318555204793 -0.05971443727598904 -0.39920124188836226 1.3140605599284785 -0.13561709723113394 1.2824822854621534 0.622413713530893 0.6266140997836048 -0.06146952071276492 0.5397905968505567 1.5686926610799292 0.45978312839449614 -0.8146351690446452 -0.013445985342118409 0.9615745585716595 0.7394525536388536 -0.24800633779630699 -2.0237362965834214 1.0930468057654386 0.24800071282683303 0.17949176012145157 0.1428680378782366 -1.2418318950824496 0.6491702880590713 0.761834249427174 0.464645515322215 1.3640426457563397 -0.4744424557648862 2.410125809713442 -0.45879962270548535 -0.21536562497560063 1.2026445451261332 0.4057329120091134 -0.8722215339070999 -0.7397375266954827 -0.08365803489478195 -0.6033270521392693 0.5774133307100431 1.22412612724007 -0.14474293173769648 -0.3952522838131637 1.2667478414449367 1.5559069497244167 0.3484541599805183 2.5497099565048096 -0.2741513740992235 0.9588143860316769 1.1363608078811862 0.9317455517008668 1.5875361705102529 -3.711066125425817 0.7315134828971428 2.2218473287723266 -0.04105665682568153 -0.12116203090618231 0.25292057206758883 -2.0496767817167187 -0.028637667686382366 0.572430803798158 0.6355400234647035 -2.1929330631662287 1.3848724231428522 0.09265957038496318 1.2375981614657385 0.3332512264601831 -0.627342720376292 -1.2909073396491435 0.07798031537850214 -0.7651232148882284 -0.24790391982865603 -0.029867350246520735 -0.9607329610244594 -0.5085079369159693 -0.13371286993592865 0.4950917325102834 -1.7065443191385212 1.7416092530840166 1.350316134893716 -0.09031369478686553 -0.5228934578039752 0.16132166605036377 -0.7353565854399585 1.1402576382384852 -0.6224093524891954 -1.4023314503019277 -0.9255622445225935 0.030627369359624446 1.002849531931433 0.12773320109029043 -0.9758039501615523 -1.677432636153147 0.8162266346766034 -0.4746863954716944 -0.2967042472273103 -0.37884297518839816 -1.6412675409216095 1.5078870457146434 -0.5483475921986838 -0.16961057004177543 -1.6215543928725382 -0.8882696504771236 0.0667190803374909 -0.22253862358331103 -2.5422897250105745 0.687032487846978 -0.9989052444274193 1.4427642585170193 -2.609543404225945 -1.0427711652726839 -0.8300415224916797 0.03202272620494953 -0.0948297073638007 0.21370305670431164 0.23367409437784703 -2.2336588848258647 1.9551382516915639 0.0965024151016815 -0.7199595772774802 0.8702388257693653 1.3227092952937871 -1.2283574186053474 -0.19719785030460873 -0.13985425306384783 -0.7542450163570831 0.8397891458650099 -0.8567896967029995 1.3675322542518935 -0.2867964402908591 0.6632932708155191 1.3119798595286716 -0.4536626143133883 0.2843975174858277 -1.1621951444611989 -0.34181184032886686 0.39991360016677546 0.11795789788347154 -0.7501314827338956 -0.23782019877161426 -0.9446674753026687 -0.5252827354685989 -0.6235690673063512 -0.14753582279509622 0.5336567727203028 -0.5943106714846004 -0.08097167649384526 -0.6440150046948298 1.3982922242759384 -1.114819771607179 -1.7216604571746816 -0.18545161541300276 1.0329720190003573 -0.4121740437839434 1.6260995173113213 -0.7392938151738095 -2.488438792586463 0.16278351034788563 -1.3610354278454264 -0.2670270235777142 -1.6116512268078353 -0.2553906603904078 -0.6126105667128973 -1.4473161073616154 -0.8391974734653823 -0.5067683799655682 0.0832355817964061 0.7293255180510355 -0.05337665623008116 0.8918628694244628 0.8161373363054176 0.840846128670654 -1.0594541265590722 0.14841455221666394 -0.9060926613773521 1.3449097821419518 0.3792448380971456 -0.6304991813790682 1.018896815130325 0.02068726022781866 1.4438991780560022 0.23179136828070931 0.2467364071150791 0.1709472657265733 0.953222411743253 -0.6327514266849992 0.4766808969300355 -1.1313608271119837 -0.6441865535268013 -2.1478762841827392 -0.4892678405848672 -1.1919793640412406 -0.468469238221507 0.6504960901383982 -1.2582584570861945 -1.4550024788098104 -1.6427663809263724 2.386598982940449 1.498380865859327 1.0293072939893764 -0.41978347751140377 1.2822868179154583 1.3718098558457885 -0.08993546274578257 -1.6785848235235437 1.821782947670052 -1.5115618229792664 0.9885087780522401 -1.2169140166369818 0.9195342190141098 -0.8589032714903705 1.203190238728348 0.2570086172011888 0.2871339768835977 0.9745775401964785 0.5739738290624127 -0.1023896624195807 0.9844032413244637 -0.6889639599131416 0.10676482391124766 0.4465020176179877 -0.4639597844494466 1.57352272329279 1.333121215811994 -1.0437449855219034 -2.2315677701105274 0.40017689349334773 -0.4243599854756502 -0.28161470999961524 2.1086996892083465 -0.6758209939014427 -0.34597187352494513 
